{"learner":{"attributes":{"best_iteration":"55","best_score":"0.33000466069206597","scikit_learn":"{\"_estimator_type\": \"classifier\"}"},"feature_names":["feat_close_to_ema20","feat_close_to_ema50","feat_ema20_to_ema50","feat_rsi_scaled","feat_macd_line","feat_macd_signal","feat_macd_hist","feat_bb_pct_b","feat_bb_width","feat_atr_scaled","feat_volume_change","feat_momentum_5","feat_momentum_15","feat_momentum_30"],"feature_types":["float","float","float","float","float","float","float","float","float","float","float","float","float","float"],"gradient_booster":{"model":{"cats":{"enc":[],"feature_segments":[],"sorted_idx":[]},"gbtree_model_param":{"num_parallel_tree":"1","num_trees":"86"},"iteration_indptr":[0,1,2,3,4,5,6,7,8,9,10,11,12,13,14,15,16,17,18,19,20,21,22,23,24,25,26,27,28,29,30,31,32,33,34,35,36,37,38,39,40,41,42,43,44,45,46,47,48,49,50,51,52,53,54,55,56,57,58,59,60,61,62,63,64,65,66,67,68,69,70,71,72,73,74,75,76,77,78,79,80,81,82,83,84,85,86],"tree_info":[0,0,0,0,0,0,0,0,0,0,0,0,0,0,0,0,0,0,0,0,0,0,0,0,0,0,0,0,0,0,0,0,0,0,0,0,0,0,0,0,0,0,0,0,0,0,0,0,0,0,0,0,0,0,0,0,0,0,0,0,0,0,0,0,0,0,0,0,0,0,0,0,0,0,0,0,0,0,0,0,0,0,0,0,0,0],"trees":[{"base_weights":[8.573483E-2,6.386986E-1,-4.1514844E-1,-1.344509E-1,9.4400644E-1,-1.0002153E0,4.512547E-1,-5.4452E-2,3.7810646E-2,5.2426543E-2,8.508577E-3,2.5055746E-2,-1.6805788E0,4.3465562E-2,-7.939468E-3,-1.3275914E-1,1.8295474E-2],"categories":[],"categories_nodes":[],"categories_segments":[],"categories_sizes":[],"default_left":[0,0,0,0,0,0,0,0,0,0,0,0,0,0,0,0,0],"id":0,"left_children":[1,3,5,7,9,11,13,-1,-1,-1,-1,-1,15,-1,-1,-1,-1],"loss_changes":[6.0801463E0,2.5753746E0,6.342762E0,4.0644045E0,4.3312693E-1,8.246084E0,1.5085607E0,0E0,0E0,0E0,0E0,0E0,1.137833E1,0E0,0E0,0E0,0E0],"parents":[2147483647,0,0,1,1,2,2,3,3,4,4,5,5,6,6,12,12],"right_children":[2,4,6,8,10,12,14,-1,-1,-1,-1,-1,16,-1,-1,-1,-1],"split_conditions":[-1.4619058E-2,-1.53098E-2,-1.1093728E-3,1.4976237E-2,-5.1404643E-3,-2.7504845E-3,4.102897E-3,-5.4452E-2,3.7810646E-2,5.2426543E-2,8.508577E-3,2.5055746E-2,3.3940847E-3,4.3465562E-2,-7.939468E-3,-1.3275914E-1,1.8295474E-2],"split_indices":[2,5,2,9,4,6,2,0,0,0,0,0,6,0,0,0,0],"split_type":[0,0,0,0,0,0,0,0,0,0,0,0,0,0,0,0,0],"sum_hessian":[1.9995003E1,9.372658E0,1.0622345E1,2.8117971E0,6.56086E0,6.2484384E0,4.373907E0,1.2496877E0,1.5621096E0,5.4673834E0,1.0934768E0,2.0307424E0,4.2176957E0,2.3431644E0,2.0307424E0,2.6555862E0,1.5621096E0],"tree_param":{"num_deleted":"0","num_feature":"14","num_nodes":"17","size_leaf_vector":"1"}},{"base_weights":[-4.4178005E-2,6.813257E-1,-4.421865E-1,5.1470578E-2,-1.996333E-2,6.859016E-1,-8.2913214E-1,7.7478136E-3,4.1189548E-2,-1.8035965E0,-1.4492448E-1,-1.1165698E-1,-2.6310105E-2,3.3979183E-1,-5.9346557E-2,3.9992362E-2,-3.6949408E-3],"categories":[],"categories_nodes":[],"categories_segments":[],"categories_sizes":[],"default_left":[0,0,0,0,0,0,0,0,0,0,0,0,0,0,0,0,0],"id":1,"left_children":[1,3,5,-1,-1,7,9,-1,-1,11,13,-1,-1,15,-1,-1,-1],"loss_changes":[6.203805E0,3.2828104E0,6.595252E0,0E0,0E0,1.7057168E-1,6.8945646E0,0E0,0E0,1.2062263E0,4.13728E0,0E0,0E0,1.1673741E0,0E0,0E0,0E0],"parents":[2147483647,0,0,1,1,2,2,5,5,6,6,9,9,10,10,13,13],"right_children":[2,4,6,-1,-1,8,10,-1,-1,12,14,-1,-1,16,-1,-1,-1],"split_conditions":[-1.3190018E-2,-4.9656862E-3,-2.1587428E-2,5.1470578E-2,-1.996333E-2,0E0,-5.085612E-3,7.7478136E-3,4.1189548E-2,1.6768536E-2,2.9016342E-3,-1.1165698E-1,-2.6310105E-2,7.6542003E-4,-5.9346557E-2,3.9992362E-2,-3.6949408E-3],"split_indices":[11,4,2,0,0,11,4,0,0,11,2,0,0,6,0,0,0],"split_type":[0,0,0,0,0,0,0,0,0,0,0,0,0,0,0,0,0],"sum_hessian":[1.9441198E1,6.634948E0,1.280625E1,5.0542207E0,1.5807273E0,3.0734408E0,9.732809E0,1.071476E0,2.0019646E0,3.3399453E0,6.392864E0,1.9395453E0,1.4004E0,4.823155E0,1.5697088E0,1.8416536E0,2.9815016E0],"tree_param":{"num_deleted":"0","num_feature":"14","num_nodes":"17","size_leaf_vector":"1"}},{"base_weights":[8.322782E-2,8.540659E-1,-2.4446847E-1,4.8842408E-2,7.315905E-3,6.8867743E-1,-5.699684E-1,6.9533163E-3,4.149049E-2,-1.02961354E-1,-1.2734298E-1,1.5830782E-1,-6.0496528E-2,4.1899532E-2,-9.971304E-3],"categories":[],"categories_nodes":[],"categories_segments":[],"categories_sizes":[],"default_left":[0,0,0,0,0,0,0,0,0,0,0,0,0,0,0],"id":2,"left_children":[1,3,5,-1,-1,7,9,-1,-1,-1,11,13,-1,-1,-1],"loss_changes":[5.071436E0,3.7541866E-1,4.7315383E0,0E0,0E0,2.0629072E-1,7.0798597E0,0E0,0E0,0E0,3.1763885E0,2.2390418E0,0E0,0E0,0E0],"parents":[2147483647,0,0,1,1,2,2,5,5,6,6,10,10,11,11],"right_children":[2,4,6,-1,-1,8,10,-1,-1,-1,12,14,-1,-1,-1],"split_conditions":[3.3922997E-1,-6.782662E-4,-2.1587428E-2,4.8842408E-2,7.315905E-3,0E0,-9.299511E-3,6.9533163E-3,4.149049E-2,-1.02961354E-1,1.6904574E-2,-8.218237E-3,-6.0496528E-2,4.1899532E-2,-9.971304E-3],"split_indices":[3,6,2,0,0,6,5,0,0,0,9,13,0,0,0],"split_type":[0,0,0,0,0,0,0,0,0,0,0,0,0,0,0],"sum_hessian":[1.825031E1,4.9649696E0,1.3285342E1,3.906958E0,1.0580115E0,3.1471922E0,1.0138149E1,1.0486809E0,2.0985115E0,1.486011E0,8.652139E0,7.5213337E0,1.1308048E0,2.130657E0,5.390677E0],"tree_param":{"num_deleted":"0","num_feature":"14","num_nodes":"15","size_leaf_vector":"1"}},{"base_weights":[8.979606E-2,-5.94864E-1,4.1350535E-1,5.365277E-1,-9.577559E-2,5.479119E-1,-2.515914E-2,4.3873042E-2,-1.4334112E-2,-1.7696856E-2,6.520528E-1,-1.1446271E-3,7.509058E-1,5.163333E-2,1.4442292E-2],"categories":[],"categories_nodes":[],"categories_segments":[],"categories_sizes":[],"default_left":[0,0,0,0,0,0,0,0,0,0,0,0,0,0,0],"id":3,"left_children":[1,3,5,7,-1,9,-1,-1,-1,-1,11,-1,13,-1,-1],"loss_changes":[4.917365E0,1.1750442E1,2.1116307E0,1.5555876E0,0E0,1.4962792E0,0E0,0E0,0E0,0E0,8.466053E-1,0E0,1.11724E0,0E0,0E0],"parents":[2147483647,0,0,1,1,2,2,3,3,5,5,10,10,12,12],"right_children":[2,4,6,8,-1,10,-1,-1,-1,-1,12,-1,14,-1,-1],"split_conditions":[-3.4088593E-2,-6.0666896E-2,2.3120569E-2,-5.4364116E-3,-9.577559E-2,-4.0015627E-2,-2.515914E-2,4.3873042E-2,-1.4334112E-2,-1.7696856E-2,-1.53098E-2,-1.1446271E-3,-8.502645E-3,5.163333E-2,1.4442292E-2],"split_indices":[10,10,11,13,0,0,0,0,0,0,5,0,0,0,0],"split_type":[0,0,0,0,0,0,0,0,0,0,0,0,0,0,0],"sum_hessian":[2.007733E1,6.1763706E0,1.3900958E1,3.646324E0,2.530047E0,1.2474252E1,1.4267067E0,2.531853E0,1.1144707E0,1.0430361E0,1.1431215E1,1.5585077E0,9.872708E0,5.3657784E0,4.50693E0],"tree_param":{"num_deleted":"0","num_feature":"14","num_nodes":"15","size_leaf_vector":"1"}},{"base_weights":[-8.4854744E-2,4.734349E-2,-3.4734526E-1,4.8287216E-1,-6.8172723E-1,3.9231293E-2,1.416099E-1,-1.1509187E0,1.347409E-1,3.6303062E-2,-2.5814895E-2,3.118208E-2,-1.4873574E0,6.309046E-1,-2.7108345E-2,-1.11887276E-1,-1.4864727E-2,3.8816463E-2,6.378031E-3],"categories":[],"categories_nodes":[],"categories_segments":[],"categories_sizes":[],"default_left":[0,0,0,0,0,0,0,0,0,0,0,0,0,0,0,0,0,0,0],"id":4,"left_children":[1,-1,3,5,7,-1,9,11,13,-1,-1,-1,15,17,-1,-1,-1,-1,-1],"loss_changes":[6.089618E0,0E0,5.239808E0,4.721781E-1,5.1445713E0,0E0,1.8661451E0,5.928444E0,2.239129E0,0E0,0E0,0E0,5.886469E0,1.733836E-1,0E0,0E0,0E0,0E0,0E0],"parents":[2147483647,0,0,2,2,3,3,4,4,6,6,7,7,8,8,12,12,13,13],"right_children":[2,-1,4,6,8,-1,10,12,14,-1,-1,-1,16,18,-1,-1,-1,-1,-1],"split_conditions":[3.0732778E-1,4.734349E-2,-3.5108995E-2,-5.3032015E-2,2.456928E-3,3.9231293E-2,5.7939284E-2,-3.1425994E-2,8.8133913E-1,3.6303062E-2,-2.5814895E-2,3.118208E-2,1.0354679E-2,8.502319E-3,-2.7108345E-2,-1.11887276E-1,-1.4864727E-2,3.8816463E-2,6.378031E-3],"split_indices":[3,0,1,12,6,0,8,11,7,0,0,0,11,11,0,0,0,0,0],"split_type":[0,0,0,0,0,0,0,0,0,0,0,0,0,0,0,0,0,0,0],"sum_hessian":[2.027159E1,3.5826511E0,1.6688938E1,4.664256E0,1.2024683E1,1.7859136E0,2.8783426E0,7.3762283E0,4.648454E0,1.4694065E0,1.4089361E0,1.0395293E0,6.336699E0,2.7215545E0,1.9268998E0,3.3463295E0,2.9903698E0,1.6907306E0,1.0308241E0],"tree_param":{"num_deleted":"0","num_feature":"14","num_nodes":"19","size_leaf_vector":"1"}},{"base_weights":[-4.7806606E-2,8.157178E-1,-3.136341E-1,6.565269E-3,4.7135476E-2,2.667176E-1,-8.6536753E-1,4.948224E-1,-3.889713E-2,-1.7090625E0,3.4904677E-1,8.2424927E-1,-1.09157614E-1,-1.05803885E-1,-2.8091514E-2,6.216265E-1,-1.3527696E-2,6.91883E-3,4.758918E-2,-4.128697E-2,3.5195004E-2,8.66533E-3,3.7517175E-2],"categories":[],"categories_nodes":[],"categories_segments":[],"categories_sizes":[],"default_left":[0,0,0,0,0,0,0,0,0,0,0,0,0,0,0,0,0,0,0,0,0,0,0],"id":5,"left_children":[1,3,5,-1,-1,7,9,11,-1,13,15,17,19,-1,-1,21,-1,-1,-1,-1,-1,-1,-1],"loss_changes":[5.431011E0,3.6158085E-1,5.981797E0,0E0,0E0,2.652937E0,1.0271731E1,1.7659073E0,0E0,1.492075E0,9.6220773E-1,3.5528278E-1,2.827736E0,0E0,0E0,7.5873375E-2,0E0,0E0,0E0,0E0,0E0,0E0,0E0],"parents":[2147483647,0,0,1,1,2,2,5,5,6,6,7,7,9,9,10,10,11,11,12,12,15,15],"right_children":[2,4,6,-1,-1,8,10,12,-1,14,16,18,20,-1,-1,22,-1,-1,-1,-1,-1,-1,-1],"split_conditions":[-2.1523407E-2,-1.6281081E-2,2.1269223E-4,6.565269E-3,4.7135476E-2,1.8295145E-2,5.295525E-1,-1.3190018E-2,-3.889713E-2,1.8207802E-2,8.534778E-2,5.3577457E-2,-4.997272E-3,-1.05803885E-1,-2.8091514E-2,8.522089E-3,-1.3527696E-2,6.91883E-3,4.758918E-2,-4.128697E-2,3.5195004E-2,8.66533E-3,3.7517175E-2],"split_indices":[2,5,11,0,0,9,3,11,0,11,8,8,11,0,0,1,0,0,0,0,0,0,0],"split_type":[0,0,0,0,0,0,0,0,0,0,0,0,0,0,0,0,0,0,0,0,0,0,0],"sum_hessian":[2.1545013E1,4.584369E0,1.6960644E1,1.0358264E0,3.5485427E0,8.517708E0,8.442936E0,7.423167E0,1.09454E0,4.7415237E0,3.7014124E0,4.5673285E0,2.855839E0,2.8764944E0,1.8650295E0,2.5682833E0,1.1331292E0,1.0430229E0,3.5243053E0,1.5096893E0,1.3461498E0,1.0962996E0,1.4719836E0],"tree_param":{"num_deleted":"0","num_feature":"14","num_nodes":"23","size_leaf_vector":"1"}},{"base_weights":[2.0788774E-1,8.555246E-1,-2.7489507E-1,-1.632773E-2,5.282816E-2,5.51577E-1,-5.186155E-1,6.1734607E-3,3.441037E-2,-1.4334546E0,1.6832232E-1,-7.818997E-3,-9.402419E-2,6.89282E-1,-4.6351907E-1,7.390307E-3,4.1477423E-2,-4.1817695E-2,1.7879327E-4],"categories":[],"categories_nodes":[],"categories_segments":[],"categories_sizes":[],"default_left":[0,0,0,0,0,0,0,0,0,0,0,0,0,0,0,0,0,0,0],"id":6,"left_children":[1,3,5,-1,-1,7,9,-1,-1,11,13,-1,-1,15,17,-1,-1,-1,-1],"loss_changes":[6.639052E0,2.4815407E0,2.8020866E0,0E0,0E0,1.0976267E-1,6.6272945E0,0E0,0E0,2.2538347E0,2.5244608E0,0E0,0E0,1.8677974E-1,6.343003E-1,0E0,0E0,0E0,0E0],"parents":[2147483647,0,0,1,1,2,2,5,5,6,6,9,9,10,10,13,13,14,14],"right_children":[2,4,6,-1,-1,8,10,-1,-1,12,14,-1,-1,16,18,-1,-1,-1,-1],"split_conditions":[-5.6531075E-3,-3.9684713E-2,-2.1587428E-2,-1.632773E-2,5.282816E-2,7.552456E-2,-5.2282107E-3,6.1734607E-3,3.441037E-2,-3.7957536E-4,9.458043E-3,-7.818997E-3,-9.402419E-2,3.050101E-2,4.2465134E-3,7.390307E-3,4.1477423E-2,-4.1817695E-2,1.7879327E-4],"split_indices":[11,11,2,0,0,8,4,0,0,6,1,0,0,8,4,0,0,0,0],"split_type":[0,0,0,0,0,0,0,0,0,0,0,0,0,0,0,0,0,0,0],"sum_hessian":[1.9481386E1,7.9904275E0,1.1490958E1,1.0706736E0,6.919754E0,2.3292305E0,9.161728E0,1.024091E0,1.3051394E0,3.4630418E0,5.6986856E0,1.2478888E0,2.215153E0,3.0735788E0,2.6251068E0,1.0549332E0,2.0186455E0,1.0202224E0,1.6048844E0],"tree_param":{"num_deleted":"0","num_feature":"14","num_nodes":"19","size_leaf_vector":"1"}},{"base_weights":[4.9667265E-2,8.0339146E-1,-3.7818485E-1,5.0772578E-2,-8.252482E-3,-7.7152446E-2,-9.0062E-2,4.2919762E-2,-3.9569288E-1,-1.0293771E0,1.9605568E-1,5.5025825E-3,-8.798866E-2,4.344548E-2,-2.562864E-2],"categories":[],"categories_nodes":[],"categories_segments":[],"categories_sizes":[],"default_left":[0,0,0,0,0,0,0,0,0,0,0,0,0,0,0],"id":7,"left_children":[1,3,5,-1,-1,7,-1,-1,9,11,13,-1,-1,-1,-1],"loss_changes":[6.825663E0,1.7372613E0,5.678791E0,0E0,0E0,3.991524E0,0E0,0E0,3.8864121E0,4.2756867E0,3.2686162E0,0E0,0E0,0E0,0E0],"parents":[2147483647,0,0,1,1,2,2,5,5,8,8,9,9,10,10],"right_children":[2,4,6,-1,-1,8,-1,-1,10,12,14,-1,-1,-1,-1],"split_conditions":[-1.0642077E-2,1.5232046E-2,1.7095836E-2,5.0772578E-2,-8.252482E-3,-1.4054533E-2,-9.0062E-2,4.2919762E-2,1.1558282E-2,5.6878686E-2,2.5682611E-2,5.5025825E-3,-8.798866E-2,4.344548E-2,-2.562864E-2],"split_indices":[4,11,9,0,0,11,0,0,11,8,11,0,0,0,0],"split_type":[0,0,0,0,0,0,0,0,0,0,0,0,0,0,0],"sum_hessian":[1.9223835E1,6.643176E0,1.258066E1,5.4100027E0,1.2331736E0,1.1254173E1,1.3264865E0,2.4281025E0,8.826071E0,3.9048946E0,4.921176E0,1.8571066E0,2.0477881E0,2.4082856E0,2.5128903E0],"tree_param":{"num_deleted":"0","num_feature":"14","num_nodes":"15","size_leaf_vector":"1"}},{"base_weights":[-3.8482778E-2,4.9348304E-1,-4.9322116E-1,7.4189276E-1,-4.2774525E-2,-8.9627975E-1,4.5138398E-1,9.119151E-1,-6.557837E-3,2.0618938E-2,-1.3146816E0,4.141101E-2,-1.7533898E-2,8.370711E-3,5.0724782E-2,-1.953371E0,1.9853635E-2,-1.7407713E-2,-1.1464479E-1],"categories":[],"categories_nodes":[],"categories_segments":[],"categories_sizes":[],"default_left":[0,0,0,0,0,0,0,0,0,0,0,0,0,0,0,0,0,0,0],"id":8,"left_children":[1,3,5,7,-1,9,11,13,-1,-1,15,-1,-1,-1,-1,17,-1,-1,-1],"loss_changes":[5.1697855E0,3.947255E0,4.775197E0,1.4382753E0,0E0,5.131234E0,1.5291531E0,4.0762854E-1,0E0,0E0,7.979826E0,0E0,0E0,0E0,0E0,1.9092693E0,0E0,0E0,0E0],"parents":[2147483647,0,0,1,1,2,2,3,3,5,5,6,6,7,7,10,10,15,15],"right_children":[2,4,6,8,-1,10,12,14,-1,-1,16,-1,-1,-1,-1,18,-1,-1,-1],"split_conditions":[-4.3721608E-4,1.8499522E-2,-1.1093728E-3,-7.535567E-3,-4.2774525E-2,-2.1587428E-2,6.1601434E-2,-6.0666896E-2,-6.557837E-3,2.0618938E-2,4.789536E-3,4.141101E-2,-1.7533898E-2,8.370711E-3,5.0724782E-2,-2.4030525E-3,1.9853635E-2,-1.7407713E-2,-1.1464479E-1],"split_indices":[6,9,2,0,0,2,13,10,0,0,6,0,0,0,0,11,0,0,0],"split_type":[0,0,0,0,0,0,0,0,0,0,0,0,0,0,0,0,0,0,0],"sum_hessian":[1.936495E1,8.88538E0,1.047957E1,7.8836575E0,1.0017221E0,7.3812046E0,3.0983658E0,6.5613484E0,1.3223093E0,1.791676E0,5.5895286E0,2.0857809E0,1.0125849E0,1.1133059E0,5.4480424E0,3.9678817E0,1.6216468E0,1.0463465E0,2.921535E0],"tree_param":{"num_deleted":"0","num_feature":"14","num_nodes":"19","size_leaf_vector":"1"}},{"base_weights":[6.5860905E-2,4.5539126E-2,-1.4710322E-1,-5.0434744E-1,2.3892173E-1,3.6427666E-2,-8.2927656E-1,-3.9262574E-2,4.7155756E-1,-1.1303526E0,1.640561E-2,-4.3240774E-1,8.6103207E-1,-1.582895E-2,-9.714725E-2,7.625464E-3,-4.022147E-2,4.9253594E-2,6.585795E-3],"categories":[],"categories_nodes":[],"categories_segments":[],"categories_sizes":[],"default_left":[0,0,0,0,0,0,0,0,0,0,0,0,0,0,0,0,0,0,0],"id":9,"left_children":[1,-1,3,5,7,-1,9,-1,11,13,-1,15,17,-1,-1,-1,-1,-1,-1],"loss_changes":[3.959286E0,0E0,2.5807686E0,4.4447746E0,2.5749757E0,0E0,3.1777573E0,0E0,3.247088E0,3.7606182E0,0E0,8.0255586E-1,4.167366E-1,0E0,0E0,0E0,0E0,0E0,0E0],"parents":[2147483647,0,0,2,2,3,3,4,4,6,6,8,8,9,9,11,11,12,12],"right_children":[2,-1,4,6,8,-1,10,-1,12,14,-1,16,18,-1,-1,-1,-1,-1,-1],"split_conditions":[3.2209197E-1,4.5539126E-2,-3.712847E-3,-1.47293415E-2,1.3657463E-2,3.6427666E-2,5.60384E-1,-3.9262574E-2,-4.04141E-2,-3.8417358E-2,1.640561E-2,3.501897E-1,6.9791734E-2,-1.582895E-2,-9.714725E-2,7.625464E-3,-4.022147E-2,4.9253594E-2,6.585795E-3],"split_indices":[3,0,10,11,9,0,3,0,12,10,0,3,10,0,0,0,0,0,0],"split_type":[0,0,0,0,0,0,0,0,0,0,0,0,0,0,0,0,0,0,0],"sum_hessian":[2.0259027E1,3.4187317E0,1.6840296E1,8.586999E0,8.253297E0,1.5319657E0,7.055033E0,1.087991E0,7.1653056E0,5.617175E0,1.4378581E0,2.1243901E0,5.0409155E0,3.5008388E0,2.1163363E0,1.055273E0,1.0691171E0,4.0084863E0,1.0324292E0],"tree_param":{"num_deleted":"0","num_feature":"14","num_nodes":"19","size_leaf_vector":"1"}},{"base_weights":[-1.5653074E-1,5.2194947E-1,-4.883479E-1,8.5216564E-1,-4.121286E-2,-8.771917E-1,8.061966E-2,6.185464E-3,4.830849E-2,-1.4688416E0,2.3609528E-1,4.110039E-2,-3.9429766E-1,-1.327291E-2,-8.442799E-2,3.783306E-2,-1.7366318E-2,-1.0918803E0,2.355086E-2,-6.7086E-2,-1.6079675E-2],"categories":[],"categories_nodes":[],"categories_segments":[],"categories_sizes":[],"default_left":[0,0,0,0,0,0,0,0,0,0,0,0,0,0,0,0,0,0,0,0,0],"id":10,"left_children":[1,3,5,7,-1,9,11,-1,-1,13,15,-1,17,-1,-1,-1,-1,19,-1,-1,-1],"loss_changes":[5.2026577E0,4.126008E0,3.4503224E0,4.349084E-1,0E0,6.3792152E0,2.830121E0,0E0,0E0,1.1695814E0,1.4897001E0,0E0,3.5409734E0,0E0,0E0,0E0,0E0,1.6077256E-1,0E0,0E0,0E0],"parents":[2147483647,0,0,1,1,2,2,3,3,5,5,6,6,9,9,10,10,12,12,17,17],"right_children":[2,4,6,8,-1,10,12,-1,-1,14,16,-1,18,-1,-1,-1,-1,20,-1,-1,-1],"split_conditions":[-1.3190018E-2,1.8499522E-2,-2.13548E-3,5.3577457E-2,-4.121286E-2,1.8207802E-2,1.9334905E-2,6.185464E-3,4.830849E-2,-6.066342E-2,2.9385025E-2,4.110039E-2,1.5347019E-2,-1.327291E-2,-8.442799E-2,3.783306E-2,-1.7366318E-2,5.8671795E-2,2.355086E-2,-6.7086E-2,-1.6079675E-2],"split_indices":[11,9,10,8,0,11,10,0,0,10,11,0,9,0,0,0,0,10,0,0,0],"split_type":[0,0,0,0,0,0,0,0,0,0,0,0,0,0,0,0,0,0,0,0,0],"sum_hessian":[2.0977234E1,6.701466E0,1.4275766E1,5.676133E0,1.0253332E0,8.158416E0,6.1173506E0,1.0502763E0,4.625857E0,5.118726E0,3.0396903E0,2.1032097E0,4.014141E0,1.1312289E0,3.987497E0,1.4494561E0,1.5902342E0,2.077507E0,1.9366341E0,1.0085442E0,1.0689627E0],"tree_param":{"num_deleted":"0","num_feature":"14","num_nodes":"21","size_leaf_vector":"1"}},{"base_weights":[1.5917122E-1,4.1599444E-1,-5.507008E-1,1.4154229E-1,4.757452E-2,-1.117565E0,2.1840094E-2,5.668811E-1,-3.8324434E-1,-9.636412E-2,1.3143772E-2,-1.3514538E-2,4.7281455E-2,3.513713E-2,-9.5836353E-1,-9.6322864E-2,1.8338984E-2],"categories":[],"categories_nodes":[],"categories_segments":[],"categories_sizes":[],"default_left":[0,0,0,0,0,0,0,0,0,0,0,0,0,0,0,0,0],"id":11,"left_children":[1,3,5,7,-1,9,-1,11,13,-1,-1,-1,-1,-1,15,-1,-1],"loss_changes":[3.774376E0,2.0477479E0,3.621048E0,2.6709313E0,0E0,4.795079E0,0E0,2.3086495E0,4.1196475E0,0E0,0E0,0E0,0E0,0E0,5.876964E0,0E0,0E0],"parents":[2147483647,0,0,1,1,2,2,3,3,5,5,7,7,8,8,14,14],"right_children":[2,4,6,8,-1,10,-1,12,14,-1,-1,-1,-1,-1,16,-1,-1],"split_conditions":[1.7693032E-3,8.566683E-2,1.1558282E-2,6.4063884E-2,4.757452E-2,5.9493645E-3,2.1840094E-2,1.3058749E-2,-1.3557117E-2,-9.636412E-2,1.3143772E-2,-1.3514538E-2,4.7281455E-2,3.513713E-2,1.1146667E-2,-9.6322864E-2,1.8338984E-2],"split_indices":[5,8,11,8,0,5,0,9,11,0,0,0,0,0,11,0,0],"split_type":[0,0,0,0,0,0,0,0,0,0,0,0,0,0,0,0,0],"sum_hessian":[1.8446306E1,1.3849654E1,4.5966525E0,9.992581E0,3.857073E0,2.8366175E0,1.7600352E0,5.4749384E0,4.5176425E0,1.5382177E0,1.2983998E0,1.7945912E0,3.6803474E0,1.4872978E0,3.0303447E0,1.4888676E0,1.541477E0],"tree_param":{"num_deleted":"0","num_feature":"14","num_nodes":"17","size_leaf_vector":"1"}},{"base_weights":[-2.1394999E-3,7.367829E-1,-2.185806E-1,6.581057E-3,4.3462556E-2,-4.6597856E-1,6.802643E-1,-5.5734977E-2,-1.4474168E0,6.8225837E-3,4.1131042E-2,6.415928E-1,-4.0103152E-1,-8.830341E-2,-1.4331725E-2,5.3815697E-3,3.9621834E-2,-5.8939695E-2,6.8412917E-3],"categories":[],"categories_nodes":[],"categories_segments":[],"categories_sizes":[],"default_left":[0,0,0,0,0,0,0,0,0,0,0,0,0,0,0,0,0,0,0],"id":12,"left_children":[1,3,5,-1,-1,7,9,11,13,-1,-1,15,17,-1,-1,-1,-1,-1,-1],"loss_changes":[3.465958E0,2.7922654E-1,4.0426064E0,0E0,0E0,5.447967E0,1.9916224E-1,2.8393898E0,9.761791E-1,0E0,0E0,2.3174083E-1,3.4190168E0,0E0,0E0,0E0,0E0,0E0,0E0],"parents":[2147483647,0,0,1,1,2,2,5,5,6,6,7,7,8,8,11,11,12,12],"right_children":[2,4,6,-1,-1,8,10,12,14,-1,-1,16,18,-1,-1,-1,-1,-1,-1],"split_conditions":[-2.1523407E-2,-6.591294E-2,2.456928E-3,6.581057E-3,4.3462556E-2,7.6542003E-4,-3.4635875E-3,6.5467685E-2,1.3904318E-3,6.8225837E-3,4.1131042E-2,-1.8233849E-2,7.663095E-2,-8.830341E-2,-1.4331725E-2,5.3815697E-3,3.9621834E-2,-5.8939695E-2,6.8412917E-3],"split_indices":[2,13,6,0,0,6,1,8,13,0,0,11,8,0,0,0,0,0,0],"split_type":[0,0,0,0,0,0,0,0,0,0,0,0,0,0,0,0,0,0,0],"sum_hessian":[1.9664328E1,3.9103725E0,1.5753956E1,1.0602736E0,2.8500988E0,1.2731359E1,3.022597E0,9.723642E0,3.007717E0,1.0334107E0,1.9891864E0,2.9360948E0,6.787547E0,1.9507592E0,1.0569577E0,1.0241847E0,1.9119099E0,2.2877398E0,4.4998074E0],"tree_param":{"num_deleted":"0","num_feature":"14","num_nodes":"19","size_leaf_vector":"1"}},{"base_weights":[7.9848096E-2,7.20274E-1,-2.4943313E-1,4.818127E-2,-1.5842782E-2,1.8937856E-1,-1.0298532E0,-4.216688E-2,4.7936085E-1,8.704218E-3,-1.3690039E0,7.9555404E-1,-4.7504246E-2,-8.417063E-2,-1.4080537E-2,8.250781E-3,4.583007E-2,-4.061548E-2,2.4249757E-2],"categories":[],"categories_nodes":[],"categories_segments":[],"categories_sizes":[],"default_left":[0,0,0,0,0,0,0,0,0,0,0,0,0,0,0,0,0,0,0],"id":13,"left_children":[1,3,5,-1,-1,7,9,-1,11,-1,13,15,17,-1,-1,-1,-1,-1,-1],"loss_changes":[4.3085237E0,2.048235E0,4.877625E0,0E0,0E0,3.2782614E0,2.311153E0,0E0,1.3922722E0,0E0,9.186373E-1,2.4086642E-1,2.0201733E0,0E0,0E0,0E0,0E0,0E0,0E0],"parents":[2147483647,0,0,1,1,2,2,5,5,6,6,8,8,10,10,11,11,12,12],"right_children":[2,4,6,-1,-1,8,10,-1,12,-1,14,16,18,-1,-1,-1,-1,-1,-1],"split_conditions":[-1.3190018E-2,1.7701136E-2,1.5791042E-2,4.818127E-2,-1.5842782E-2,-1.7868404E-3,-1.4307354E-2,-4.216688E-2,1.6009045E-3,8.704218E-3,5.607267E-3,-1.5567034E-2,-5.1404643E-3,-8.417063E-2,-1.4080537E-2,8.250781E-3,4.583007E-2,-4.061548E-2,2.4249757E-2],"split_indices":[11,9,9,0,0,11,2,0,12,0,0,4,4,0,0,0,0,0,0],"split_type":[0,0,0,0,0,0,0,0,0,0,0,0,0,0,0,0,0,0,0],"sum_hessian":[1.8579187E1,5.905685E0,1.2673502E1,4.8407316E0,1.0649533E0,8.596969E0,4.0765333E0,1.4664062E0,7.1305623E0,1.0029403E0,3.0735931E0,4.137502E0,2.99306E0,1.9590394E0,1.1145537E0,1.0469823E0,3.09052E0,1.0128634E0,1.9801967E0],"tree_param":{"num_deleted":"0","num_feature":"14","num_nodes":"19","size_leaf_vector":"1"}},{"base_weights":[-1.1395564E-1,4.1970417E-1,-6.2135094E-1,6.1055887E-1,-2.0234244E-2,-1.1427621E0,-6.9117546E-2,-5.7181E-2,4.8295505E-2,-1.5719466E0,9.973337E-3,4.0903177E-2,-7.3226285E-1,-4.227537E-2,3.5818294E-2,-1.0194706E-1,-3.516715E-2,8.129135E-3,-5.5279132E-2],"categories":[],"categories_nodes":[],"categories_segments":[],"categories_sizes":[],"default_left":[0,0,0,0,0,0,0,0,0,0,0,0,0,0,0,0,0,0,0],"id":14,"left_children":[1,3,5,7,-1,9,11,13,-1,15,-1,-1,17,-1,-1,-1,-1,-1,-1],"loss_changes":[5.568784E0,1.844229E0,2.9305353E0,2.1056685E0,0E0,3.3733644E0,4.211553E0,3.011697E0,0E0,2.4414158E-1,0E0,0E0,1.5298593E0,0E0,0E0,0E0,0E0,0E0,0E0],"parents":[2147483647,0,0,1,1,2,2,3,3,5,5,6,6,7,7,9,9,12,12],"right_children":[2,4,6,8,-1,10,12,14,-1,16,-1,-1,18,-1,-1,-1,-1,-1,-1],"split_conditions":[-2.0329019E-2,1.6926972E-2,-1.1340581E-3,-1.53098E-2,-2.0234244E-2,4.789536E-3,3.9646686E-3,1.4976237E-2,4.8295505E-2,4.9045414E-2,9.973337E-3,4.0903177E-2,-2.369032E-3,-4.227537E-2,3.5818294E-2,-1.0194706E-1,-3.516715E-2,8.129135E-3,-5.5279132E-2],"split_indices":[1,9,5,5,0,6,5,9,0,8,0,0,11,0,0,0,0,0,0],"split_type":[0,0,0,0,0,0,0,0,0,0,0,0,0,0,0,0,0,0,0],"sum_hessian":[1.8602888E1,9.151013E0,9.451875E0,7.6413426E0,1.5096705E0,4.3115873E0,5.1402874E0,2.9455156E0,4.695827E0,3.1372795E0,1.1743076E0,2.0988092E0,3.0414782E0,1.4127485E0,1.5327672E0,1.164059E0,1.9732205E0,1.0615185E0,1.9799597E0],"tree_param":{"num_deleted":"0","num_feature":"14","num_nodes":"19","size_leaf_vector":"1"}},{"base_weights":[-9.8657E-2,4.2114303E-1,-4.877615E-1,-3.0547215E-2,6.6678345E-1,3.6540028E-2,-7.68987E-1,-8.267154E-3,4.809914E-2,-1.1094881E0,-2.231078E-2,-3.7949637E-2,3.3458993E-2,-1.6623938E0,3.4770902E-2,5.08906E-1,-4.2353373E-2,-9.329119E-2,-2.5926178E-2,6.439199E-3,3.149103E-2],"categories":[],"categories_nodes":[],"categories_segments":[],"categories_sizes":[],"default_left":[0,0,0,0,0,0,0,0,0,0,0,0,0,0,0,0,0,0,0,0,0],"id":15,"left_children":[1,3,5,-1,7,-1,9,11,-1,13,15,-1,-1,17,-1,19,-1,-1,-1,-1,-1],"loss_changes":[4.210131E0,2.6924038E0,4.6012774E0,0E0,1.554033E0,0E0,2.5339851E0,2.212664E0,0E0,8.033409E0,2.2591836E0,0E0,0E0,3.2874775E-1,0E0,6.425035E-2,0E0,0E0,0E0,0E0,0E0],"parents":[2147483647,0,0,1,1,2,2,4,4,6,6,7,7,9,9,10,10,13,13,15,15],"right_children":[2,4,6,-1,8,-1,10,12,-1,14,16,-1,-1,18,-1,20,-1,-1,-1,-1,-1],"split_conditions":[-1.4619058E-2,4.6052583E-2,2.9666185E-1,-3.0547215E-2,-1.53098E-2,3.6540028E-2,8.930748E-2,1.48444045E-2,4.809914E-2,5.403519E-1,1.06001645E-2,-3.7949637E-2,3.3458993E-2,1.0354679E-2,3.4770902E-2,-3.6096733E-2,-4.2353373E-2,-9.329119E-2,-2.5926178E-2,6.439199E-3,3.149103E-2],"split_indices":[2,8,3,0,5,0,8,9,0,3,1,0,0,11,0,11,0,0,0,0,0],"split_type":[0,0,0,0,0,0,0,0,0,0,0,0,0,0,0,0,0,0,0,0,0],"sum_hessian":[1.880017E1,8.013155E0,1.0787017E1,1.2546105E0,6.758544E0,1.722917E0,9.064099E0,2.3520231E0,4.406521E0,5.8915277E0,3.172572E0,1.0585732E0,1.2934499E0,4.5704103E0,1.3211176E0,2.1626163E0,1.0099555E0,3.344468E0,1.225942E0,1.0202656E0,1.1423507E0],"tree_param":{"num_deleted":"0","num_feature":"14","num_nodes":"21","size_leaf_vector":"1"}},{"base_weights":[5.0525717E-3,5.673556E-1,-2.8050378E-1,4.5623843E-2,-9.453733E-3,-7.463859E-1,2.4478124E-1,3.431597E-2,-1.2026595E0,-3.434775E-1,7.0188713E-1,-1.5231582E0,7.0313797E-3,1.823935E-2,-4.9147375E-2,4.238109E-2,6.1285025E-3,-1.2084044E-2,-9.34078E-2],"categories":[],"categories_nodes":[],"categories_segments":[],"categories_sizes":[],"default_left":[0,0,0,0,0,0,0,0,0,0,0,0,0,0,0,0,0,0,0],"id":16,"left_children":[1,3,5,-1,-1,7,9,-1,11,13,15,17,-1,-1,-1,-1,-1,-1,-1],"loss_changes":[3.1953714E0,1.9214668E0,3.4154072E0,0E0,0E0,5.5632653E0,2.1131601E0,0E0,2.737217E0,2.0414724E0,2.5461125E-1,1.6776915E0,0E0,0E0,0E0,0E0,0E0,0E0,0E0],"parents":[2147483647,0,0,1,1,2,2,5,5,6,6,8,8,9,9,10,10,11,11],"right_children":[2,4,6,-1,-1,8,10,-1,12,14,16,18,-1,-1,-1,-1,-1,-1,-1],"split_conditions":[-1.3557117E-2,-9.555541E-4,1.1558282E-2,4.5623843E-2,-9.453733E-3,-3.6719058E-2,-5.2282107E-3,3.431597E-2,3.3940847E-3,-1.7216275E-2,4.7225073E-2,5.4424744E-2,7.0313797E-3,1.823935E-2,-4.9147375E-2,4.238109E-2,6.1285025E-3,-1.2084044E-2,-9.34078E-2],"split_indices":[11,5,11,0,0,1,4,0,6,1,12,8,0,0,0,0,0,0,0],"split_type":[0,0,0,0,0,0,0,0,0,0,0,0,0,0,0,0,0,0,0],"sum_hessian":[1.7909145E1,5.699378E0,1.2209767E1,3.7720752E0,1.9273028E0,6.247692E0,5.962075E0,1.3873165E0,4.860376E0,2.71573E0,3.246345E0,3.8160014E0,1.0443742E0,1.4923644E0,1.2233655E0,2.223784E0,1.0225612E0,1.1701325E0,2.645869E0],"tree_param":{"num_deleted":"0","num_feature":"14","num_nodes":"19","size_leaf_vector":"1"}},{"base_weights":[-8.491183E-2,4.8741165E-1,-4.6358952E-1,7.983259E-1,-1.2665753E-1,5.255515E-1,-7.3862123E-1,4.5335274E-2,7.949588E-3,-3.0541304E-2,1.8112471E-2,3.2830056E-2,6.013959E-3,-1.0580504E0,9.645684E-2,-1.2922269E0,8.013779E-3,3.7946895E-2,-3.911242E-2,-7.607471E-2,-9.3772635E-3],"categories":[],"categories_nodes":[],"categories_segments":[],"categories_sizes":[],"default_left":[0,0,0,0,0,0,0,0,0,0,0,0,0,0,0,0,0,0,0,0,0],"id":17,"left_children":[1,3,5,7,9,11,13,-1,-1,-1,-1,-1,-1,15,17,19,-1,-1,-1,-1,-1],"loss_changes":[4.519925E0,1.700424E0,3.7713747E0,2.506597E-1,1.0920777E0,9.575176E-2,2.808558E0,0E0,0E0,0E0,0E0,0E0,0E0,2.324791E0,2.7613528E0,1.3194065E0,0E0,0E0,0E0,0E0,0E0],"parents":[2147483647,0,0,1,1,2,2,3,3,4,4,5,5,6,6,13,13,14,14,15,15],"right_children":[2,4,6,8,10,12,14,-1,-1,-1,-1,-1,-1,16,18,20,-1,-1,-1,-1,-1],"split_conditions":[-5.0443487E-4,-2.2685791E-4,-2.3200706E-2,-2.0807166E-2,2.884049E-1,5.631988E-2,5.60384E-1,4.5335274E-2,7.949588E-3,-3.0541304E-2,1.8112471E-2,3.2830056E-2,6.013959E-3,-1.1093728E-3,2.9420765E-2,3.3940847E-3,8.013779E-3,3.7946895E-2,-3.911242E-2,-7.607471E-2,-9.3772635E-3],"split_indices":[6,5,2,12,7,8,3,0,0,0,0,0,0,2,0,6,0,0,0,0,0],"split_type":[0,0,0,0,0,0,0,0,0,0,0,0,0,0,0,0,0,0,0,0,0],"sum_hessian":[1.881287E1,7.3767314E0,1.1436138E1,4.6979938E0,2.6787374E0,2.2898624E0,9.146276E0,3.659444E0,1.0385498E0,1.2205982E0,1.4581393E0,1.2617216E0,1.0281408E0,6.422552E0,2.7237241E0,5.336212E0,1.0863402E0,1.6306386E0,1.0930855E0,4.1066065E0,1.2296057E0],"tree_param":{"num_deleted":"0","num_feature":"14","num_nodes":"21","size_leaf_vector":"1"}},{"base_weights":[7.982434E-2,5.7266855E-1,-2.598006E-1,-2.4663648E-2,4.7033235E-2,-6.4669317E-1,3.1443787E-1,4.780226E-1,-3.7596084E-2,-1.0594503E0,2.1508988E-2,4.2930692E-2,-2.396576E-2,2.9466618E-2,6.300614E-3,-1.43645005E-2,-6.599337E-2],"categories":[],"categories_nodes":[],"categories_segments":[],"categories_sizes":[],"default_left":[0,0,0,0,0,0,0,0,0,0,0,0,0,0,0,0,0],"id":18,"left_children":[1,3,5,7,-1,9,11,13,-1,15,-1,-1,-1,-1,-1,-1,-1],"loss_changes":[3.3786168E0,1.822263E0,2.8942013E0,1.8562974E0,0E0,3.8176181E0,2.8080895E0,4.455179E-2,0E0,7.783561E-1,0E0,0E0,0E0,0E0,0E0,0E0,0E0],"parents":[2147483647,0,0,1,1,2,2,3,3,5,5,6,6,7,7,9,9],"right_children":[2,4,6,8,-1,10,12,14,-1,16,-1,-1,-1,-1,-1,-1,-1],"split_conditions":[-1.4619058E-2,1.48444045E-2,-1.1093728E-3,1.46491155E-2,4.7033235E-2,8.566683E-2,6.753014E-3,-1.4172792E-2,-3.7596084E-2,3.4244165E-1,2.1508988E-2,4.2930692E-2,-2.396576E-2,2.9466618E-2,6.300614E-3,-1.43645005E-2,-6.599337E-2],"split_indices":[2,9,2,9,0,8,2,5,0,3,0,0,0,0,0,0,0],"split_type":[0,0,0,0,0,0,0,0,0,0,0,0,0,0,0,0,0],"sum_hessian":[1.829618E1,7.1844053E0,1.1111775E1,3.0944557E0,4.0899496E0,6.5634694E0,4.5483065E0,2.032371E0,1.0620847E0,4.756513E0,1.806956E0,2.6498947E0,1.8984115E0,1.0318863E0,1.0004847E0,1.7300247E0,3.0264885E0],"tree_param":{"num_deleted":"0","num_feature":"14","num_nodes":"17","size_leaf_vector":"1"}},{"base_weights":[2.2698237E-2,4.4737715E-2,-2.3513256E-1,4.5707527E-1,-5.7673246E-1,4.48705E-2,-3.5661448E-2,-6.98585E-2,1.4450439E-2,-6.3085175E-1,6.8689704E-1,9.308576E-3,-4.9944483E-2,8.843466E-3,4.0567186E-2],"categories":[],"categories_nodes":[],"categories_segments":[],"categories_sizes":[],"default_left":[0,0,0,0,0,0,0,0,0,0,0,0,0,0,0],"id":19,"left_children":[1,-1,3,5,7,-1,-1,-1,9,11,13,-1,-1,-1,-1],"loss_changes":[4.442271E0,0E0,3.8857942E0,3.535955E0,5.209489E0,0E0,0E0,0E0,3.5611174E0,1.4487406E0,1.1092305E-1,0E0,0E0,0E0,0E0],"parents":[2147483647,0,0,2,2,3,3,4,4,8,8,9,9,10,10],"right_children":[2,-1,4,6,8,-1,-1,-1,10,12,14,-1,-1,-1,-1],"split_conditions":[-2.1523407E-2,4.4737715E-2,-1.3190018E-2,1.8355992E-2,-7.740414E-3,4.48705E-2,-3.5661448E-2,-6.98585E-2,1.1558282E-2,3.050101E-2,1.3904318E-3,9.308576E-3,-4.9944483E-2,8.843466E-3,4.0567186E-2],"split_indices":[2,0,11,9,4,0,0,0,11,8,13,0,0,0,0],"split_type":[0,0,0,0,0,0,0,0,0,0,0,0,0,0,0],"sum_hessian":[1.782152E1,3.5030172E0,1.4318502E1,4.619547E0,9.698956E0,3.5260353E0,1.0935118E0,3.490931E0,6.2080245E0,3.199517E0,3.0085073E0,1.1471221E0,2.0523949E0,1.0649989E0,1.9435084E0],"tree_param":{"num_deleted":"0","num_feature":"14","num_nodes":"15","size_leaf_vector":"1"}},{"base_weights":[-1.28128E-1,5.9584206E-1,-3.8352534E-1,-1.7399816E-2,4.4408217E-2,3.5311174E-2,-5.578839E-1,3.0648265E-2,-7.156451E-1,1.712066E-2,-9.0463537E-1,-5.4663636E-2,-5.01921E-3],"categories":[],"categories_nodes":[],"categories_segments":[],"categories_sizes":[],"default_left":[0,0,0,0,0,0,0,0,0,0,0,0,0],"id":20,"left_children":[1,3,5,-1,-1,-1,7,-1,9,-1,11,-1,-1],"loss_changes":[3.8136356E0,1.8121952E0,3.2329865E0,0E0,0E0,0E0,2.921103E0,0E0,2.7702742E0,0E0,1.51579E0,0E0,0E0],"parents":[2147483647,0,0,1,1,2,2,6,6,8,8,10,10],"right_children":[2,4,6,-1,-1,-1,8,-1,10,-1,12,-1,-1],"split_conditions":[2.8750676E-1,-4.0015627E-2,-6.9331184E-2,-1.7399816E-2,4.4408217E-2,3.5311174E-2,1.2616694E-2,3.0648265E-2,-2.3200706E-2,1.712066E-2,2.5150238E-2,-5.4663636E-2,-5.01921E-3],"split_indices":[7,0,10,0,0,0,9,0,2,0,13,0,0],"split_type":[0,0,0,0,0,0,0,0,0,0,0,0,0],"sum_hessian":[1.838948E1,4.4479523E0,1.3941527E1,1.006796E0,3.4411561E0,1.502214E0,1.2439314E1,1.1344463E0,1.1304868E1,1.5902244E0,9.7146435E0,7.577882E0,2.1367612E0],"tree_param":{"num_deleted":"0","num_feature":"14","num_nodes":"13","size_leaf_vector":"1"}},{"base_weights":[3.4286887E-3,-1.5425959E-1,4.1052192E-2,4.626151E-1,-4.533327E-1,7.058321E-1,-1.6906876E-2,2.0564207E-1,-8.353466E-1,4.18106E-2,6.0791722E-3,6.564941E-1,-3.8032793E-2,-1.1938607E0,1.7598128E-2,4.001267E-2,6.072155E-3,-7.661583E-2,-1.7911809E-2],"categories":[],"categories_nodes":[],"categories_segments":[],"categories_sizes":[],"default_left":[0,0,0,0,0,0,0,0,0,0,0,0,0,0,0,0,0,0,0],"id":21,"left_children":[1,3,-1,5,7,9,-1,11,13,-1,-1,15,-1,17,-1,-1,-1,-1,-1],"loss_changes":[2.4805937E0,3.188807E0,0E0,1.3619123E0,3.0366101E0,2.599802E-1,0E0,2.668364E0,3.570785E0,0E0,0E0,2.0522094E-1,0E0,1.1232901E0,0E0,0E0,0E0,0E0,0E0],"parents":[2147483647,0,0,1,1,3,3,4,4,5,5,7,7,8,8,11,11,13,13],"right_children":[2,4,-1,6,8,10,-1,12,14,-1,-1,16,-1,18,-1,-1,-1,-1,-1],"split_conditions":[2.5150238E-2,-1.3190018E-2,4.1052192E-2,-2.0616646E-3,5.6878686E-2,8.9667246E-2,-1.6906876E-2,5.857622E-1,8.930748E-2,4.18106E-2,6.0791722E-3,-2.9943488E-3,-3.8032793E-2,1.1146667E-2,1.7598128E-2,4.001267E-2,6.072155E-3,-7.661583E-2,-1.7911809E-2],"split_indices":[13,11,0,4,8,8,0,7,8,0,0,4,0,11,0,0,0,0,0],"split_type":[0,0,0,0,0,0,0,0,0,0,0,0,0,0,0,0,0,0,0],"sum_hessian":[1.725774E1,1.514764E1,2.1100998E0,4.767422E0,1.0380218E1,3.7476628E0,1.0197592E0,3.9786782E0,6.4015393E0,2.711344E0,1.0363189E0,2.931512E0,1.0471661E0,4.912628E0,1.4889115E0,1.9199859E0,1.0115263E0,2.9030552E0,2.009573E0],"tree_param":{"num_deleted":"0","num_feature":"14","num_nodes":"19","size_leaf_vector":"1"}},{"base_weights":[4.216664E-2,6.042148E-1,-1.6605791E-1,4.4527765E-2,-1.21447E-2,3.637961E-1,-3.7626874E-1,-2.249154E-2,4.216787E-2,-6.401895E-1,3.4685E-1,-9.462848E-1,8.388526E-2,3.743014E-2,-1.617156E-2,-1.29187675E-2,-8.228643E-2,2.952238E-2,-1.8680595E-2],"categories":[],"categories_nodes":[],"categories_segments":[],"categories_sizes":[],"default_left":[0,0,0,0,0,0,0,0,0,0,0,0,0,0,0,0,0,0,0],"id":22,"left_children":[1,3,5,-1,-1,7,9,-1,-1,11,13,15,17,-1,-1,-1,-1,-1,-1],"loss_changes":[2.394961E0,1.5542326E0,1.817735E0,0E0,0E0,2.2502718E0,2.377858E0,0E0,0E0,1.9914432E0,1.2301385E0,2.5315328E0,1.0275395E0,0E0,0E0,0E0,0E0,0E0,0E0],"parents":[2147483647,0,0,1,1,2,2,5,5,6,6,9,9,10,10,11,11,12,12],"right_children":[2,4,6,-1,-1,8,10,-1,-1,12,14,16,18,-1,-1,-1,-1,-1,-1],"split_conditions":[3.501897E-1,-2.6154402E-3,6.605491E-2,4.4527765E-2,-1.21447E-2,4.6052583E-2,6.8570834E-1,-2.249154E-2,4.216787E-2,-2.1000186E-3,2.7054239E-2,-8.6265495E-3,-1.47293415E-2,3.743014E-2,-1.617156E-2,-1.29187675E-2,-8.228643E-2,2.952238E-2,-1.8680595E-2],"split_indices":[3,2,8,0,0,8,7,0,0,2,0,4,11,0,0,0,0,0,0],"split_type":[0,0,0,0,0,0,0,0,0,0,0,0,0,0,0,0,0,0,0],"sum_hessian":[1.860679E1,4.515804E0,1.4090986E1,3.336656E0,1.1791477E0,3.794928E0,1.0296059E1,1.4302876E0,2.3646405E0,7.6270523E0,2.669006E0,5.1451178E0,2.4819345E0,1.5957171E0,1.073289E0,3.2843401E0,1.8607777E0,1.0399021E0,1.4420323E0],"tree_param":{"num_deleted":"0","num_feature":"14","num_nodes":"19","size_leaf_vector":"1"}},{"base_weights":[-7.052606E-2,3.9847982E-1,-3.8062605E-1,-2.6832098E-1,6.9047E-1,3.39168E-2,-5.870559E-1,1.0947031E-2,-3.3643495E-2,4.6202086E-2,-3.6522564E-5,-9.0085196E-1,3.1609938E-1,5.5158775E-2,-1.2938584E0,3.6389183E-2,-1.748015E-2,1.8498687E-2,-1.7443854E-2,-2.650242E-2,-9.35095E-2],"categories":[],"categories_nodes":[],"categories_segments":[],"categories_sizes":[],"default_left":[0,0,0,0,0,0,0,0,0,0,0,0,0,0,0,0,0,0,0,0,0],"id":23,"left_children":[1,3,5,7,9,-1,11,-1,-1,-1,-1,13,15,17,19,-1,-1,-1,-1,-1,-1],"loss_changes":[3.0399215E0,1.8193356E0,3.1233273E0,7.931039E-1,9.88184E-1,0E0,3.393306E0,0E0,0E0,0E0,0E0,3.2273946E0,1.2324237E0,5.6233984E-1,1.6471901E0,0E0,0E0,0E0,0E0,0E0,0E0],"parents":[2147483647,0,0,1,1,2,2,3,3,4,4,6,6,11,11,12,12,13,13,14,14],"right_children":[2,4,6,8,10,-1,12,-1,-1,-1,-1,14,16,18,20,-1,-1,-1,-1,-1,-1],"split_conditions":[-1.4307354E-2,-1.53098E-2,3.05772E-1,-2.4352606E-2,-1.9073721E-2,3.39168E-2,2.5150238E-2,1.0947031E-2,-3.3643495E-2,4.6202086E-2,-3.6522564E-5,-3.3355267E-3,9.845431E-3,5.536002E-3,-4.095777E-3,3.6389183E-2,-1.748015E-2,1.8498687E-2,-1.7443854E-2,-2.650242E-2,-9.35095E-2],"split_indices":[2,5,3,2,1,0,13,0,0,0,0,6,4,10,13,0,0,0,0,0,0],"split_type":[0,0,0,0,0,0,0,0,0,0,0,0,0,0,0,0,0,0,0,0,0],"sum_hessian":[1.8858877E1,7.3927794E0,1.1466098E1,2.2760832E0,5.1166964E0,1.4975903E0,9.968508E0,1.240617E0,1.0354662E0,3.572579E0,1.5441173E0,7.399978E0,2.5685291E0,2.4062605E0,4.9937177E0,1.5294367E0,1.0390924E0,1.3998421E0,1.0064183E0,2.9731314E0,2.0205863E0],"tree_param":{"num_deleted":"0","num_feature":"14","num_nodes":"21","size_leaf_vector":"1"}},{"base_weights":[5.6196E-4,4.2481565E-1,-2.572407E-1,3.8754996E-2,1.2290003E-1,-6.624558E-1,9.300454E-2,2.9866165E-2,-1.5249337E-1,-1.0952284E0,9.060157E-3,3.1624537E-2,-2.887808E-1,-2.8936813E-2,1.8066376E-2,-1.6821314E-2,-7.033543E-2,-4.5162946E-2,1.4181992E-1,2.2231624E-2,-1.6904084E-2],"categories":[],"categories_nodes":[],"categories_segments":[],"categories_sizes":[],"default_left":[0,0,0,0,0,0,0,0,0,0,0,0,0,0,0,0,0,0,0,0,0],"id":24,"left_children":[1,3,5,-1,7,9,11,-1,13,15,-1,-1,17,-1,-1,-1,-1,-1,19,-1,-1],"loss_changes":[2.1649177E0,6.959151E-1,1.8092012E0,0E0,7.7132064E-1,2.327749E0,1.7236264E0,0E0,1.1050537E0,4.713378E-1,0E0,0E0,1.4689862E0,0E0,0E0,0E0,0E0,0E0,7.0892817E-1,0E0,0E0],"parents":[2147483647,0,0,1,1,2,2,4,4,5,5,6,6,8,8,9,9,12,12,18,18],"right_children":[2,4,6,-1,8,10,12,-1,14,16,-1,-1,18,-1,-1,-1,-1,-1,20,-1,-1],"split_conditions":[-1.7703138E-2,3.3922997E-1,0E0,3.8754996E-2,-2.355254E-2,8.451425E-4,5.148157E-1,2.9866165E-2,-7.950405E-3,-5.846097E-3,9.060157E-3,3.1624537E-2,8.857766E-3,-2.8936813E-2,1.8066376E-2,-1.6821314E-2,-7.033543E-2,-4.5162946E-2,6.187039E-3,2.2231624E-2,-1.6904084E-2],"split_indices":[12,3,12,0,2,6,3,0,4,2,0,0,0,0,0,0,0,0,6,0,0],"split_type":[0,0,0,0,0,0,0,0,0,0,0,0,0,0,0,0,0,0,0,0,0],"sum_hessian":[1.779462E1,6.4811172E0,1.1313502E1,2.2747114E0,4.206406E0,4.831875E0,6.4816275E0,1.1155882E0,3.090818E0,2.9965453E0,1.8353298E0,2.4139302E0,4.0676975E0,1.6203278E0,1.4704902E0,1.4774336E0,1.5191118E0,1.2237308E0,2.8439665E0,1.7887669E0,1.0551996E0],"tree_param":{"num_deleted":"0","num_feature":"14","num_nodes":"21","size_leaf_vector":"1"}},{"base_weights":[-3.0065255E-2,5.2693945E-1,-2.1290927E-1,-1.718164E-2,4.1815914E-2,-8.555796E-1,1.1164441E-1,9.271308E-3,-6.0670324E-2,3.7218183E-2,-7.332397E-2,-3.500509E-1,3.110202E-1,-3.8490918E-2,2.049859E-2,-2.5242914E-2,4.0234756E-2],"categories":[],"categories_nodes":[],"categories_segments":[],"categories_sizes":[],"default_left":[0,0,0,0,0,0,0,0,0,0,0,0,0,0,0,0,0],"id":25,"left_children":[1,3,5,-1,-1,7,9,-1,-1,-1,11,13,15,-1,-1,-1,-1],"loss_changes":[2.0355322E0,1.6219373E0,3.2096436E0,0E0,0E0,2.1341438E0,1.3190999E0,0E0,0E0,0E0,1.0949206E0,2.185327E0,2.1826699E0,0E0,0E0,0E0,0E0],"parents":[2147483647,0,0,1,1,2,2,5,5,6,6,10,10,11,11,12,12],"right_children":[2,4,6,-1,-1,8,10,-1,-1,-1,12,14,16,-1,-1,-1,-1],"split_conditions":[2.525778E-1,-4.0458914E-2,3.8253734E-1,-1.718164E-2,4.1815914E-2,-2.4352768E-2,-1.9073721E-2,9.271308E-3,-6.0670324E-2,3.7218183E-2,-1.1093728E-3,3.571523E-2,-3.58454E-2,-3.8490918E-2,2.049859E-2,-2.5242914E-2,4.0234756E-2],"split_indices":[7,11,7,0,0,2,1,0,0,0,2,12,10,0,0,0,0],"split_type":[0,0,0,0,0,0,0,0,0,0,0,0,0,0,0,0,0],"sum_hessian":[1.7884996E1,3.9549558E0,1.393004E1,1.0079448E0,2.947011E0,4.1252284E0,9.8048115E0,1.1784956E0,2.9467325E0,1.5338191E0,8.270992E0,4.8605986E0,3.4103942E0,3.1229022E0,1.7376962E0,1.2771093E0,2.133285E0],"tree_param":{"num_deleted":"0","num_feature":"14","num_nodes":"17","size_leaf_vector":"1"}},{"base_weights":[-2.9780278E-2,-4.0893254E-1,4.650721E-1,5.045991E-1,-7.0423007E-1,7.566508E-1,-4.087692E-2,3.0565036E-2,6.7946515E-3,-8.725036E-1,9.628805E-3,1.3237593E-3,4.831841E-2,8.032686E-3,-1.0840416E0,-2.2090277E-2,-7.349691E-2],"categories":[],"categories_nodes":[],"categories_segments":[],"categories_sizes":[],"default_left":[0,0,0,0,0,0,0,0,0,0,0,0,0,0,0,0,0],"id":26,"left_children":[1,3,5,7,9,11,-1,-1,-1,13,-1,-1,-1,-1,15,-1,-1],"loss_changes":[3.5447567E0,3.2297215E0,3.694242E0,4.2248964E-2,1.4461722E0,1.0800338E0,0E0,0E0,0E0,1.772285E0,0E0,0E0,0E0,0E0,8.8683224E-1,0E0,0E0],"parents":[2147483647,0,0,1,1,2,2,3,3,4,4,5,5,9,9,14,14],"right_children":[2,4,6,8,10,12,-1,-1,-1,14,-1,-1,-1,-1,16,-1,-1],"split_conditions":[-2.13548E-3,-1.4054533E-2,2.2817155E-2,-4.482302E-3,5.60384E-1,-4.04141E-2,-4.087692E-2,3.0565036E-2,6.7946515E-3,-2.355254E-2,9.628805E-3,1.3237593E-3,4.831841E-2,8.032686E-3,-3.8417358E-2,-2.2090277E-2,-7.349691E-2],"split_indices":[10,11,11,2,3,12,0,0,0,2,0,0,0,0,10,0,0],"split_type":[0,0,0,0,0,0,0,0,0,0,0,0,0,0,0,0,0],"sum_hessian":[1.6879198E1,9.655133E0,7.224065E0,2.1854496E0,7.469683E0,6.220104E0,1.0039604E0,1.1846548E0,1.0007949E0,6.3123546E0,1.1573286E0,1.6391829E0,4.580921E0,1.1136756E0,5.198679E0,2.7563126E0,2.4423664E0],"tree_param":{"num_deleted":"0","num_feature":"14","num_nodes":"17","size_leaf_vector":"1"}},{"base_weights":[-6.8596723E-3,4.207083E-2,-1.8139592E-1,-7.8218275E-1,7.8940175E-2,-8.955515E-3,-9.1083455E-1,5.7566833E-1,-3.2105696E-1,-5.6114525E-2,-1.8981306E-2,3.910471E-2,-6.822221E-3,5.5444956E-1,-8.2549584E-1,7.36843E-3,3.328429E-2,-5.5247307E-2,6.771733E-3],"categories":[],"categories_nodes":[],"categories_segments":[],"categories_sizes":[],"default_left":[0,0,0,0,0,0,0,0,0,0,0,0,0,0,0,0,0,0,0],"id":27,"left_children":[1,-1,3,5,7,-1,9,11,13,-1,-1,-1,-1,15,17,-1,-1,-1,-1],"loss_changes":[2.9768755E0,0E0,2.664846E0,2.3435569E-1,2.6724017E0,0E0,2.0754337E-2,9.802829E-1,3.8040838E0,0E0,0E0,0E0,0E0,5.441153E-2,1.548471E0,0E0,0E0,0E0,0E0],"parents":[2147483647,0,0,2,2,3,3,4,4,6,6,7,7,8,8,13,13,14,14],"right_children":[2,-1,4,6,8,-1,10,12,14,-1,-1,-1,-1,16,18,-1,-1,-1,-1],"split_conditions":[-6.066342E-2,4.207083E-2,-3.4088593E-2,-1.2116579E-2,1.9334905E-2,-8.955515E-3,-4.528345E-2,2.91045E-2,-8.709799E-3,-5.6114525E-2,-1.8981306E-2,3.910471E-2,-6.822221E-3,-1.4854048E-2,3.551284E-3,7.36843E-3,3.328429E-2,-5.5247307E-2,6.771733E-3],"split_indices":[10,0,10,5,10,0,10,12,4,0,0,0,0,5,4,0,0,0,0],"split_type":[0,0,0,0,0,0,0,0,0,0,0,0,0,0,0,0,0,0,0],"sum_hessian":[1.8075663E1,2.4324868E0,1.5643175E1,4.1232634E0,1.1519912E1,1.1455511E0,2.9777122E0,4.942718E0,6.5771937E0,1.3339862E0,1.6437261E0,3.7557392E0,1.1869792E0,2.3680515E0,4.209142E0,1.0071402E0,1.3609113E0,3.1447423E0,1.0644002E0],"tree_param":{"num_deleted":"0","num_feature":"14","num_nodes":"19","size_leaf_vector":"1"}},{"base_weights":[-2.0894934E-3,3.2904106E-1,-2.687315E-1,4.0452037E-2,1.4607931E-2,-7.165623E-1,1.7024879E-1,-6.369022E-1,5.989482E-1,-6.047936E-2,1.5047455E-2,5.1570743E-1,-3.8123783E-2,-4.7077354E-2,-6.8647636E-4,3.6853928E-2,5.311559E-3,3.39237E-2,-3.589491E-2,4.0768307E-2,2.3004196E-4],"categories":[],"categories_nodes":[],"categories_segments":[],"categories_sizes":[],"default_left":[0,0,0,0,0,0,0,0,0,0,0,0,0,0,0,0,0,0,0,0,0],"id":28,"left_children":[1,3,5,-1,7,9,11,13,15,-1,17,19,-1,-1,-1,-1,-1,-1,-1,-1,-1],"loss_changes":[1.7097975E0,1.2923129E0,2.229964E0,0E0,2.7567472E0,2.0020027E0,2.3983412E0,6.3913405E-1,1.8063009E-1,0E0,2.0440118E0,7.831023E-1,0E0,0E0,0E0,0E0,0E0,0E0,0E0,0E0,0E0],"parents":[2147483647,0,0,1,1,2,2,4,4,5,5,6,6,7,7,8,8,10,10,11,11],"right_children":[2,4,6,-1,8,10,12,14,16,-1,18,20,-1,-1,-1,-1,-1,-1,-1,-1,-1],"split_conditions":[-1.9073721E-2,6.5467685E-2,-3.2013995E-4,4.0452037E-2,8.522899E-2,-5.6070526E-4,1.1314761E-2,-3.3882733E-2,-9.628613E-3,-6.047936E-2,2.4789268E-2,1.6039725E-2,-3.8123783E-2,-4.7077354E-2,-6.8647636E-4,3.6853928E-2,5.311559E-3,3.39237E-2,-3.589491E-2,4.0768307E-2,2.3004196E-4],"split_indices":[1,8,4,0,8,0,4,1,5,0,11,9,0,0,0,0,0,0,0,0,0],"split_type":[0,0,0,0,0,0,0,0,0,0,0,0,0,0,0,0,0,0,0,0,0],"sum_hessian":[1.7363495E1,7.6407623E0,9.722733E0,2.4015892E0,5.239173E0,4.499838E0,5.222895E0,2.4346778E0,2.804495E0,2.2979488E0,2.201889E0,4.137544E0,1.0853508E0,1.2921188E0,1.142559E0,1.8030682E0,1.0014269E0,1.1947651E0,1.0071241E0,2.2330341E0,1.9045099E0],"tree_param":{"num_deleted":"0","num_feature":"14","num_nodes":"21","size_leaf_vector":"1"}},{"base_weights":[-1.175824E-1,3.5728537E-2,-2.4764135E-1,4.8379087E-1,-3.8546595E-1,5.200758E-3,3.0715281E-2,-6.4859784E-1,-2.4636535E-2,1.8908216E-2,-8.9420617E-1,3.5743024E-2,-2.985321E-1,-1.2624479E-2,-5.5474993E-2,6.9887764E-3,-3.4965567E-2],"categories":[],"categories_nodes":[],"categories_segments":[],"categories_sizes":[],"default_left":[0,0,0,0,0,0,0,0,0,0,0,0,0,0,0,0,0],"id":29,"left_children":[1,-1,3,5,7,-1,-1,9,11,-1,13,-1,15,-1,-1,-1,-1],"loss_changes":[2.2667806E0,0E0,1.9447956E0,9.51584E-2,1.4303288E0,0E0,0E0,2.5496812E0,1.7250872E0,0E0,7.3863363E-1,0E0,1.1783739E0,0E0,0E0,0E0,0E0],"parents":[2147483647,0,0,2,2,3,3,4,4,7,7,8,8,10,10,12,12],"right_children":[2,-1,4,6,8,-1,-1,10,12,-1,14,-1,16,-1,-1,-1,-1],"split_conditions":[3.0732778E-1,3.5728537E-2,-2.1587428E-2,-5.468717E-2,4.8068887E-1,5.200758E-3,3.0715281E-2,-6.288949E-2,5.148157E-1,1.8908216E-2,-1.4307354E-2,3.5743024E-2,3.9873184E-3,-1.2624479E-2,-5.5474993E-2,6.9887764E-3,-3.4965567E-2],"split_indices":[3,0,2,13,3,0,0,13,3,0,2,0,5,0,0,0,0],"split_type":[0,0,0,0,0,0,0,0,0,0,0,0,0,0,0,0,0],"sum_hessian":[1.8309278E1,1.8673368E0,1.6441942E1,2.2089417E0,1.4233E1,1.024572E0,1.1843696E0,7.7695794E0,6.4634204E0,1.3955979E0,6.3739815E0,1.3117692E0,5.1516514E0,2.1470702E0,4.2269115E0,2.7716777E0,2.3799734E0],"tree_param":{"num_deleted":"0","num_feature":"14","num_nodes":"17","size_leaf_vector":"1"}},{"base_weights":[-4.7749855E-2,5.6453955E-1,-1.9565548E-1,5.425264E-3,3.5071667E-2,-5.240327E-2,-2.9023228E-2,5.9982014E-1,-3.3286226E-1,4.0754735E-2,6.2925713E-3,-7.233793E-1,1.296463E-1,-4.990182E-2,1.0609512E-2,3.433612E-2,-3.486157E-2],"categories":[],"categories_nodes":[],"categories_segments":[],"categories_sizes":[],"default_left":[0,0,0,0,0,0,0,0,0,0,0,0,0,0,0,0,0],"id":30,"left_children":[1,3,5,-1,-1,-1,7,9,11,-1,-1,13,15,-1,-1,-1,-1],"loss_changes":[1.7216088E0,1.5604925E-1,2.110393E0,0E0,0E0,0E0,2.8050354E0,3.8708293E-1,1.8704956E0,0E0,0E0,1.6213367E0,2.9438221E0,0E0,0E0,0E0,0E0],"parents":[2147483647,0,0,1,1,2,2,6,6,7,7,8,8,11,11,12,12],"right_children":[2,4,6,-1,-1,-1,8,10,12,-1,-1,14,16,-1,-1,-1,-1],"split_conditions":[-2.1523407E-2,-1.6298791E-2,-2.0613234E-2,5.425264E-3,3.5071667E-2,-5.240327E-2,-1.1392221E-2,-4.146045E-3,0E0,4.0754735E-2,6.2925713E-3,1.1146667E-2,4.8704583E-2,-4.990182E-2,1.0609512E-2,3.433612E-2,-3.486157E-2],"split_indices":[2,4,2,0,0,0,2,0,12,0,0,11,12,0,0,0,0],"split_type":[0,0,0,0,0,0,0,0,0,0,0,0,0,0,0,0,0],"sum_hessian":[1.67908E1,2.7188025E0,1.4071999E1,1.0415871E0,1.6772152E0,1.4360698E0,1.2635928E1,3.79905E0,8.836879E0,2.1175466E0,1.6815035E0,4.4855175E0,4.3513613E0,3.4159274E0,1.0695897E0,2.7011006E0,1.6502604E0],"tree_param":{"num_deleted":"0","num_feature":"14","num_nodes":"17","size_leaf_vector":"1"}},{"base_weights":[-9.503772E-2,3.6516553E-1,-2.8469476E-1,4.1721053E-2,-3.5329315E-1,-5.135712E-1,1.7690709E-1,1.0703865E-2,-3.8428746E-2,3.4798542E-1,-8.801612E-1,6.691262E-1,-2.8233303E-2,-1.4514278E-2,3.5604175E-2,-1.1405426E0,1.1148334E-2,4.0194824E-2,7.597477E-3,-2.1769762E-2,-7.169996E-2],"categories":[],"categories_nodes":[],"categories_segments":[],"categories_sizes":[],"default_left":[0,0,0,0,0,0,0,0,0,0,0,0,0,0,0,0,0,0,0,0,0],"id":31,"left_children":[1,3,5,-1,7,9,11,-1,-1,13,15,17,-1,-1,-1,19,-1,-1,-1,-1,-1],"loss_changes":[1.7938051E0,2.3474622E0,1.5987464E0,0E0,8.968463E-1,3.4007907E0,2.3762207E0,0E0,0E0,1.0528972E0,2.3099122E0,1.3910484E-1,0E0,0E0,0E0,6.075907E-1,0E0,0E0,0E0,0E0,0E0],"parents":[2147483647,0,0,1,1,2,2,4,4,5,5,6,6,9,9,10,10,11,11,15,15],"right_children":[2,4,6,-1,8,10,12,-1,-1,14,16,18,-1,-1,-1,20,-1,-1,-1,-1,-1],"split_conditions":[-1.4054533E-2,-1.6244486E-3,1.8207802E-2,4.1721053E-2,5.536002E-3,6.605491E-2,3.2442156E-2,1.0703865E-2,-3.8428746E-2,3.4240443E-2,6.8570834E-1,7.266048E-1,-2.8233303E-2,-1.4514278E-2,3.5604175E-2,-1.3222393E-3,1.1148334E-2,4.0194824E-2,7.597477E-3,-2.1769762E-2,-7.169996E-2],"split_indices":[11,5,11,0,10,8,11,0,0,8,7,7,0,0,0,6,0,0,0,0,0],"split_type":[0,0,0,0,0,0,0,0,0,0,0,0,0,0,0,0,0,0,0,0,0],"sum_hessian":[1.8361012E1,5.0884576E0,1.3272553E1,2.9804175E0,2.10804E0,8.797766E0,4.474788E0,1.0956419E0,1.0123981E0,2.6411977E0,6.156568E0,2.7482986E0,1.7264894E0,1.0330201E0,1.6081774E0,4.9534445E0,1.2031237E0,1.7403809E0,1.0079176E0,2.185524E0,2.7679205E0],"tree_param":{"num_deleted":"0","num_feature":"14","num_nodes":"21","size_leaf_vector":"1"}},{"base_weights":[-1.2007355E-1,5.217731E-1,-3.238519E-1,3.970925E-2,-4.172157E-3,-7.2953606E-1,-4.4415347E-4,-9.9739885E-1,1.2799327E-2,3.7678756E-2,-2.855089E-1,-4.323567E-3,-6.4261965E-2,-6.5860957E-1,5.2590754E-2,-7.6433085E-3,-4.332958E-2,-2.695092E-2,1.8569138E-2],"categories":[],"categories_nodes":[],"categories_segments":[],"categories_sizes":[],"default_left":[0,0,0,0,0,0,0,0,0,0,0,0,0,0,0,0,0,0,0],"id":32,"left_children":[1,3,5,-1,-1,7,9,11,-1,-1,13,-1,-1,15,17,-1,-1,-1,-1],"loss_changes":[2.5486882E0,8.522655E-1,1.8924998E0,0E0,0E0,1.9445071E0,2.1556818E0,1.261631E0,0E0,0E0,9.525335E-1,0E0,0E0,2.3916364E-1,1.0947813E0,0E0,0E0,0E0,0E0],"parents":[2147483647,0,0,1,1,2,2,5,5,6,6,7,7,10,10,13,13,14,14],"right_children":[2,4,6,-1,-1,8,10,12,-1,-1,14,-1,-1,16,18,-1,-1,-1,-1],"split_conditions":[-3.5108995E-2,4.897006E-2,-3.0797091E-3,3.970925E-2,-4.172157E-3,-2.18534E-3,-1.852056E-3,2.8112864E-1,1.2799327E-2,3.7678756E-2,1.5244626E-2,-4.323567E-3,-6.4261965E-2,-3.917877E-2,6.8570834E-1,-7.6433085E-3,-4.332958E-2,-2.695092E-2,1.8569138E-2],"split_indices":[1,10,12,0,0,0,0,7,0,0,9,0,0,10,7,0,0,0,0],"split_type":[0,0,0,0,0,0,0,0,0,0,0,0,0,0,0,0,0,0,0],"sum_hessian":[1.719428E1,3.7674234E0,1.3426857E1,2.382714E0,1.3847095E0,5.3988E0,8.028057E0,4.235539E0,1.1632608E0,1.7515482E0,6.276509E0,1.3292574E0,2.9062817E0,2.5331478E0,3.7433612E0,1.2437521E0,1.2893957E0,1.0688993E0,2.6744618E0],"tree_param":{"num_deleted":"0","num_feature":"14","num_nodes":"19","size_leaf_vector":"1"}},{"base_weights":[-7.724036E-2,3.5687655E-2,-2.1322009E-1,2.3232143E-1,-4.8016015E-1,-2.7590534E-2,5.0862944E-1,-7.9535383E-1,1.19035415E-1,-4.128507E-3,4.256093E-2,-1.2452703E0,2.0033292E-2,3.0505467E-2,-3.8084272E-2,-1.9418923E-2,-6.870202E-2],"categories":[],"categories_nodes":[],"categories_segments":[],"categories_sizes":[],"default_left":[0,0,0,0,0,0,0,0,0,0,0,0,0,0,0,0,0],"id":33,"left_children":[1,-1,3,5,7,-1,9,11,13,-1,-1,15,-1,-1,-1,-1,-1],"loss_changes":[2.101775E0,0E0,2.0426433E0,1.7447071E0,2.0738747E0,0E0,1.1876794E0,4.2642994E0,2.4032457E0,0E0,0E0,5.4265976E-2,0E0,0E0,0E0,0E0,0E0],"parents":[2147483647,0,0,2,2,3,3,4,4,6,6,7,7,8,8,11,11],"right_children":[2,-1,4,6,8,-1,10,12,14,-1,-1,16,-1,-1,-1,-1,-1],"split_conditions":[3.0732778E-1,3.5687655E-2,-1.4619058E-2,4.6052583E-2,-1.1093728E-3,-2.7590534E-2,1.4976237E-2,8.656904E-2,6.1812676E-2,-4.128507E-3,4.256093E-2,-4.388534E-2,2.0033292E-2,3.0505467E-2,-3.8084272E-2,-1.9418923E-2,-6.870202E-2],"split_indices":[3,0,2,8,2,0,9,8,13,0,0,13,0,0,0,0,0],"split_type":[0,0,0,0,0,0,0,0,0,0,0,0,0,0,0,0,0],"sum_hessian":[1.7125746E1,1.8889227E0,1.5236822E1,5.7572536E0,9.479569E0,1.2403082E0,4.5169454E0,5.9973993E0,3.4821696E0,1.9356365E0,2.5813088E0,4.3280888E0,1.6693107E0,2.4328938E0,1.0492759E0,1.0901071E0,3.2379816E0],"tree_param":{"num_deleted":"0","num_feature":"14","num_nodes":"17","size_leaf_vector":"1"}},{"base_weights":[1.8430026E-2,5.552499E-1,-1.7793559E-1,4.1740447E-2,-1.3781463E-2,4.7654152E-1,-3.4138662E-1,4.8814937E-3,3.0420477E-2,-6.240476E-1,2.7612385E-1,-1.5214217E-1,-1.0982383E0,4.1552775E-2,-3.5984796E-2,2.2132164E-2,-2.5953794E-2,-6.702143E-2,-1.05086E-2],"categories":[],"categories_nodes":[],"categories_segments":[],"categories_sizes":[],"default_left":[0,0,0,0,0,0,0,0,0,0,0,0,0,0,0,0,0,0,0],"id":34,"left_children":[1,3,5,-1,-1,7,9,-1,-1,11,13,15,17,-1,-1,-1,-1,-1,-1],"loss_changes":[1.9789624E0,1.3960646E0,1.6407049E0,0E0,0E0,9.941441E-2,2.203699E0,0E0,0E0,1.6880779E0,3.000703E0,1.3899693E0,5.730915E-1,0E0,0E0,0E0,0E0,0E0,0E0],"parents":[2147483647,0,0,1,1,2,2,5,5,6,6,9,9,10,10,11,11,12,12],"right_children":[2,4,6,-1,-1,8,10,-1,-1,12,14,16,18,-1,-1,-1,-1,-1,-1],"split_conditions":[-1.3190018E-2,1.8355992E-2,-2.1587428E-2,4.1740447E-2,-1.3781463E-2,3.847936E-1,8.857766E-3,4.8814937E-3,3.0420477E-2,6.3562626E-4,1.0045989E0,-1.4307354E-2,2.456928E-3,4.1552775E-2,-3.5984796E-2,2.2132164E-2,-2.5953794E-2,-6.702143E-2,-1.05086E-2],"split_indices":[11,9,2,0,0,3,0,0,0,6,7,2,6,0,0,0,0,0,0],"split_type":[0,0,0,0,0,0,0,0,0,0,0,0,0,0,0,0,0,0,0],"sum_hessian":[1.683617E1,4.0196657E0,1.28165045E1,3.0041535E0,1.0155121E0,2.178407E0,1.0638098E1,1.0117084E0,1.1666986E0,7.2903886E0,3.3477092E0,4.316017E0,2.9743712E0,2.2559898E0,1.0917194E0,1.5680075E0,2.74801E0,1.936796E0,1.0375751E0],"tree_param":{"num_deleted":"0","num_feature":"14","num_nodes":"19","size_leaf_vector":"1"}},{"base_weights":[3.335084E-2,5.4818934E-1,-1.5405025E-1,4.106602E-2,-1.1745169E-2,-4.4929197E-1,1.4276817E-1,2.0581962E-1,-7.54641E-1,5.9059846E-1,-3.7811464E-1,2.8915126E-2,-1.3364295E-2,-6.6707455E-2,1.1017171E-2,3.2636751E-3,4.0452223E-2,-3.4327693E-2,1.0507308E-2,1.5379402E-2,-1.5341167E-2],"categories":[],"categories_nodes":[],"categories_segments":[],"categories_sizes":[],"default_left":[0,0,0,0,0,0,0,0,0,0,0,0,0,0,0,0,0,0,0,0,0],"id":35,"left_children":[1,3,5,-1,-1,7,9,11,13,15,17,-1,-1,-1,19,-1,-1,-1,-1,-1,-1],"loss_changes":[1.7717243E0,1.2380431E0,1.2561162E0,0E0,0E0,1.5676187E0,1.9825363E0,6.885775E-1,2.2464876E0,4.5733786E-1,8.8749146E-1,0E0,0E0,0E0,3.9212382E-1,0E0,0E0,0E0,0E0,0E0,0E0],"parents":[2147483647,0,0,1,1,2,2,5,5,6,6,7,7,8,8,9,9,10,10,14,14],"right_children":[2,4,6,-1,-1,8,10,12,14,16,18,-1,-1,-1,20,-1,-1,-1,-1,-1,-1],"split_conditions":[-1.3190018E-2,1.7349035E-2,1.1558282E-2,4.106602E-2,-1.1745169E-2,5.6878686E-2,2.4789268E-2,-2.1288438E-2,7.692565E-2,-3.4683116E-2,1.2553282E-2,2.8915126E-2,-1.3364295E-2,-6.6707455E-2,9.9319585E-2,3.2636751E-3,4.0452223E-2,-3.4327693E-2,1.0507308E-2,1.5379402E-2,-1.5341167E-2],"split_indices":[11,9,11,0,0,8,11,1,8,13,13,0,0,0,8,0,0,0,0,0,0],"split_type":[0,0,0,0,0,0,0,0,0,0,0,0,0,0,0,0,0,0,0,0,0],"sum_hessian":[1.6488111E1,3.8862827E0,1.2601829E1,2.8451283E0,1.0411544E0,6.0601635E0,6.541665E0,2.0302703E0,4.0298934E0,3.445525E0,3.0961401E0,1.0115265E0,1.0187438E0,1.8711665E0,2.158727E0,1.3934135E0,2.0521114E0,1.92154E0,1.1746001E0,1.1334155E0,1.0253114E0],"tree_param":{"num_deleted":"0","num_feature":"14","num_nodes":"21","size_leaf_vector":"1"}},{"base_weights":[-5.6033943E-2,3.896477E-1,-3.625919E-1,6.1303186E-1,-1.6371742E-2,2.9210618E-2,-5.234628E-1,4.343373E-2,-2.187021E-3,1.3451144E-2,-6.877467E-1,-9.849186E-1,-7.1878865E-2,-5.8871415E-2,-1.5143036E-2,3.2393582E-2,-3.3056345E-2],"categories":[],"categories_nodes":[],"categories_segments":[],"categories_sizes":[],"default_left":[0,0,0,0,0,0,0,0,0,0,0,0,0,0,0,0,0],"id":36,"left_children":[1,3,5,7,-1,-1,9,-1,-1,-1,11,13,15,-1,-1,-1,-1],"loss_changes":[2.5192354E0,1.4141107E0,1.9553326E0,1.0661814E0,0E0,0E0,1.4588716E0,0E0,0E0,0E0,1.463907E0,3.7574482E-1,2.0433412E0,0E0,0E0,0E0,0E0],"parents":[2147483647,0,0,1,1,2,2,3,3,6,6,10,10,11,11,12,12],"right_children":[2,4,6,8,-1,-1,10,-1,-1,-1,12,14,16,-1,-1,-1,-1],"split_conditions":[-4.3721608E-4,1.786111E-2,-6.9331184E-2,-8.502645E-3,-1.6371742E-2,2.9210618E-2,-2.3200706E-2,4.343373E-2,-2.187021E-3,1.3451144E-2,-3.2013995E-4,1.41725E-3,3.4652115E-3,-5.8871415E-2,-1.5143036E-2,3.2393582E-2,-3.3056345E-2],"split_indices":[6,9,10,0,0,0,2,0,0,0,4,6,5,0,0,0,0],"split_type":[0,0,0,0,0,0,0,0,0,0,0,0,0,0,0,0,0],"sum_hessian":[1.640467E1,6.5748897E0,9.829782E0,5.123828E0,1.451062E0,1.0454185E0,8.784363E0,3.4559777E0,1.6678504E0,1.3988639E0,7.3854985E0,4.5775013E0,2.8079977E0,3.003485E0,1.5740162E0,1.21924E0,1.5887576E0],"tree_param":{"num_deleted":"0","num_feature":"14","num_nodes":"17","size_leaf_vector":"1"}},{"base_weights":[1.389172E-1,4.344621E-1,-2.2340612E-1,3.8124338E-2,7.7747667E-1,-7.301833E-1,2.4952987E-1,-3.2631305E-1,2.3122199E-2,9.379524E-3,4.4329617E-2,-8.290513E-3,-4.6318673E-2,2.8556509E-2,-1.2760897E-2,1.2531298E-2,-3.8915653E-2],"categories":[],"categories_nodes":[],"categories_segments":[],"categories_sizes":[],"default_left":[0,0,0,0,0,0,0,0,0,0,0,0,0,0,0,0,0],"id":37,"left_children":[1,3,5,7,9,11,13,15,-1,-1,-1,-1,-1,-1,-1,-1,-1],"loss_changes":[1.8578916E0,1.2477385E0,2.1110082E0,9.876053E-1,1.5456367E-1,3.0474496E-1,9.424831E-1,1.1070133E0,0E0,0E0,0E0,0E0,0E0,0E0,0E0,0E0,0E0],"parents":[2147483647,0,0,1,1,2,2,3,3,4,4,5,5,6,6,7,7],"right_children":[2,4,6,8,10,12,14,16,-1,-1,-1,-1,-1,-1,-1,-1,-1],"split_conditions":[-6.8173166E-3,7.552456E-2,-1.6160142E-3,-8.454953E-3,-1.5836265E-2,-2.7063966E-3,9.458043E-3,6.319103E-2,2.3122199E-2,9.379524E-3,4.4329617E-2,-8.290513E-3,-4.6318673E-2,2.8556509E-2,-1.2760897E-2,1.2531298E-2,-3.8915653E-2],"split_indices":[2,8,2,4,5,4,1,8,0,0,0,0,0,0,0,0,0],"split_type":[0,0,0,0,0,0,0,0,0,0,0,0,0,0,0,0,0],"sum_hessian":[1.5443627E1,8.395978E0,7.047649E0,4.4107275E0,3.985251E0,3.1395307E0,3.9081182E0,2.4970489E0,1.9136786E0,1.0465772E0,2.9386737E0,1.2858175E0,1.8537133E0,2.3068144E0,1.6013038E0,1.2926325E0,1.2044164E0],"tree_param":{"num_deleted":"0","num_feature":"14","num_nodes":"17","size_leaf_vector":"1"}},{"base_weights":[-1.350957E-1,-2.6489896E-1,3.5306234E-2,3.0405123E-2,-3.7928608E-1,2.195769E-2,-5.207899E-1,4.5233045E-2,-6.9751424E-1,2.3763385E-2,-2.825782E-2,-4.052321E-2,7.433969E-3],"categories":[],"categories_nodes":[],"categories_segments":[],"categories_sizes":[],"default_left":[0,0,0,0,0,0,0,0,0,0,0,0,0],"id":38,"left_children":[1,3,-1,-1,5,-1,7,9,11,-1,-1,-1,-1],"loss_changes":[2.1534042E0,1.8611573E0,0E0,0E0,1.9719467E0,0E0,1.3610413E0,1.3451849E0,1.0943828E0,0E0,0E0,0E0,0E0],"parents":[2147483647,0,0,1,1,4,4,6,6,7,7,8,8],"right_children":[2,4,-1,-1,6,-1,8,10,12,-1,-1,-1,-1],"split_conditions":[1.0471313E-1,3.05772E-1,3.5306234E-2,3.0405123E-2,-6.101032E-2,2.195769E-2,2.8750676E-1,-2.2685791E-4,2.8965734E-2,2.3763385E-2,-2.825782E-2,-4.052321E-2,7.433969E-3],"split_indices":[8,3,0,0,10,0,7,5,1,0,0,0,0],"split_type":[0,0,0,0,0,0,0,0,0,0,0,0,0],"sum_hessian":[1.7008024E1,1.5327968E1,1.6800575E0,1.2756952E0,1.4052273E1,1.7613539E0,1.2290918E1,3.1014526E0,9.189466E0,1.9494125E0,1.15204E0,8.144555E0,1.0449114E0],"tree_param":{"num_deleted":"0","num_feature":"14","num_nodes":"13","size_leaf_vector":"1"}},{"base_weights":[-4.3398038E-2,3.4280088E-2,-1.7371027E-1,-5.223828E-2,-3.7167627E-2,-5.277185E-1,1.4194371E-1,3.26637E-3,-4.871651E-2,5.352008E-1,-3.0798393E-1,-1.21878525E-2,3.791551E-2,6.191035E-3,-3.5179503E-2],"categories":[],"categories_nodes":[],"categories_segments":[],"categories_sizes":[],"default_left":[0,0,0,0,0,0,0,0,0,0,0,0,0,0,0],"id":39,"left_children":[1,-1,3,5,-1,7,9,-1,-1,11,13,-1,-1,-1,-1],"loss_changes":[1.7041718E0,0E0,9.9584883E-1,1.3121607E0,0E0,1.1489662E0,1.9877675E0,0E0,0E0,1.2037638E0,1.0163827E0,0E0,0E0,0E0,0E0],"parents":[2147483647,0,0,2,2,3,3,5,5,6,6,9,9,10,10],"right_children":[2,-1,4,6,-1,8,10,-1,-1,12,14,-1,-1,-1,-1],"split_conditions":[3.2038474E-1,3.4280088E-2,9.3769443E-1,3.7945804E-1,-3.7167627E-2,-6.237262E-4,1.6039725E-2,3.26637E-3,-4.871651E-2,3.8995504E-2,3.451284E-3,-1.21878525E-2,3.791551E-2,6.191035E-3,-3.5179503E-2],"split_indices":[3,0,7,3,0,6,9,0,0,8,5,0,0,0,0],"split_type":[0,0,0,0,0,0,0,0,0,0,0,0,0,0,0],"sum_hessian":[1.56854315E1,1.7324489E0,1.3952983E1,1.2400394E1,1.5525885E0,3.0976763E0,9.302718E0,1.6974269E0,1.4002494E0,4.8628454E0,4.4398727E0,1.0621033E0,3.8007421E0,2.451293E0,1.9885798E0],"tree_param":{"num_deleted":"0","num_feature":"14","num_nodes":"15","size_leaf_vector":"1"}},{"base_weights":[-1.5611844E-1,3.36192E-2,-2.8755093E-1,2.247856E-1,-4.6941605E-1,-1.2728079E-1,3.3361483E-2,-5.1469732E-2,-2.0834932E-1,1.6728751E-2,-3.0995915E-2,2.9864693E-2,-3.8995862E-1,-5.4414575E-3,-4.0655103E-2],"categories":[],"categories_nodes":[],"categories_segments":[],"categories_sizes":[],"default_left":[0,0,0,0,0,0,0,0,0,0,0,0,0,0,0],"id":40,"left_children":[1,-1,3,5,7,9,-1,-1,11,-1,-1,-1,13,-1,-1],"loss_changes":[2.072915E0,0E0,1.558877E0,8.2678044E-1,1.515773E0,1.0019192E0,0E0,0E0,1.5974159E0,0E0,0E0,0E0,8.8879645E-1,0E0,0E0],"parents":[2147483647,0,0,2,2,3,3,4,4,5,5,8,8,12,12],"right_children":[2,-1,4,6,8,10,-1,-1,12,-1,-1,-1,14,-1,-1],"split_conditions":[3.0732778E-1,3.36192E-2,-1.0642077E-2,-1.3650517E-2,4.1217983E-1,-1.3604447E-2,3.3361483E-2,-5.1469732E-2,-1.47293415E-2,1.6728751E-2,-3.0995915E-2,2.9864693E-2,8.1641346E-2,-5.4414575E-3,-4.0655103E-2],"split_indices":[3,0,4,4,3,0,0,0,11,0,0,0,8,0,0],"split_type":[0,0,0,0,0,0,0,0,0,0,0,0,0,0,0],"sum_hessian":[1.6260849E1,1.6628755E0,1.4597973E1,3.7625117E0,1.0835462E1,2.4919298E0,1.2705821E0,2.5095458E0,8.325915E0,1.4517446E0,1.0401852E0,1.1105359E0,7.2153797E0,5.0905166E0,2.1248631E0],"tree_param":{"num_deleted":"0","num_feature":"14","num_nodes":"15","size_leaf_vector":"1"}},{"base_weights":[3.6697175E-2,4.6619406E-1,-2.7923974E-1,-1.2616208E-1,4.527362E-2,-8.3858824E-1,-2.2934282E-2,-3.901061E-2,2.1293929E-2,-1.2781735E-2,-5.011747E-2,3.018022E-1,-3.264077E-2,-2.9582182E-1,3.5055485E-2,1.1333215E-2,-3.4453835E-2],"categories":[],"categories_nodes":[],"categories_segments":[],"categories_sizes":[],"default_left":[0,0,0,0,0,0,0,0,0,0,0,0,0,0,0,0,0],"id":41,"left_children":[1,3,5,7,-1,9,11,-1,-1,-1,-1,13,-1,15,-1,-1,-1],"loss_changes":[2.4427266E0,2.0912185E0,1.4781638E0,1.8172718E0,0E0,5.440426E-2,1.8724023E0,0E0,0E0,0E0,0E0,1.6602944E0,0E0,8.0174816E-1,0E0,0E0,0E0],"parents":[2147483647,0,0,1,1,2,2,3,3,5,5,6,6,11,11,13,13],"right_children":[2,4,6,8,-1,10,12,-1,-1,-1,-1,14,-1,16,-1,-1,-1],"split_conditions":[-1.1392221E-2,1.4976237E-2,-4.528345E-2,-1.53098E-2,4.527362E-2,-6.0666896E-2,6.076456E-2,-3.901061E-2,2.1293929E-2,-1.2781735E-2,-5.011747E-2,4.4069305E-1,-3.264077E-2,-3.3355267E-3,3.5055485E-2,1.1333215E-2,-3.4453835E-2],"split_indices":[2,9,10,5,0,10,10,0,0,0,0,7,0,6,0,0,0],"split_type":[0,0,0,0,0,0,0,0,0,0,0,0,0,0,0,0,0],"sum_hessian":[1.6042376E1,6.5976634E0,9.444712E0,3.1128533E0,3.48481E0,2.2539563E0,7.1907554E0,1.2356036E0,1.8772497E0,1.0559675E0,1.1979889E0,5.0883203E0,2.102435E0,2.1418622E0,2.9464579E0,1.101718E0,1.0401442E0],"tree_param":{"num_deleted":"0","num_feature":"14","num_nodes":"17","size_leaf_vector":"1"}},{"base_weights":[8.458891E-2,6.925244E-1,-1.3888729E-1,3.9307382E-2,9.1728065E-3,-4.645444E-1,2.6796594E-1,-1.1619528E-1,-4.66987E-2,6.859166E-1,-3.5729328E-1,-4.6886727E-1,3.217721E-2,9.110507E-3,3.963406E-2,6.259671E-3,-3.1953778E-2,1.2115846E-2,-4.12894E-2],"categories":[],"categories_nodes":[],"categories_segments":[],"categories_sizes":[],"default_left":[0,0,0,0,0,0,0,0,0,0,0,0,0,0,0,0,0,0,0],"id":42,"left_children":[1,3,5,-1,-1,7,9,11,-1,13,15,17,-1,-1,-1,-1,-1,-1,-1],"loss_changes":[2.3044505E0,7.1965456E-2,1.8095609E0,0E0,0E0,1.1064278E0,1.888392E0,1.7504771E0,0E0,7.667315E-2,5.119225E-1,1.2843137E0,0E0,0E0,0E0,0E0,0E0,0E0,0E0],"parents":[2147483647,0,0,1,1,2,2,5,5,6,6,7,7,9,9,10,10,11,11],"right_children":[2,4,6,-1,-1,8,10,12,-1,14,16,18,-1,-1,-1,-1,-1,-1,-1],"split_conditions":[-1.3190018E-2,-9.555541E-4,-5.2282107E-3,3.9307382E-2,9.1728065E-3,-1.7216275E-2,4.4718017E-3,-9.116483E-3,-4.66987E-2,7.6093E-5,1.5658312E-2,-3.7957536E-4,3.217721E-2,9.110507E-3,3.963406E-2,6.259671E-3,-3.1953778E-2,1.2115846E-2,-4.12894E-2],"split_indices":[11,5,4,0,0,1,5,12,0,6,9,6,0,0,0,0,0,0,0],"split_type":[0,0,0,0,0,0,0,0,0,0,0,0,0,0,0,0,0,0,0],"sum_hessian":[1.5254101E1,3.5360103E0,1.171809E1,2.5269828E0,1.0090275E0,6.429741E0,5.288349E0,4.4069815E0,2.0227594E0,3.1114848E0,2.1768644E0,3.2712984E0,1.135683E0,1.0175277E0,2.0939572E0,1.0074866E0,1.1693778E0,1.2004421E0,2.0708563E0],"tree_param":{"num_deleted":"0","num_feature":"14","num_nodes":"19","size_leaf_vector":"1"}},{"base_weights":[-6.1741877E-2,3.6590066E-2,-2.2419116E-1,3.016844E-1,-4.1176167E-1,3.8113028E-2,-2.3889938E-2,-6.4421535E-1,8.169055E-2,4.635121E-3,-8.800013E-1,2.9658033E-2,-3.965478E-2,-5.172133E-2,-4.4561913E-3],"categories":[],"categories_nodes":[],"categories_segments":[],"categories_sizes":[],"default_left":[0,0,0,0,0,0,0,0,0,0,0,0,0,0,0],"id":43,"left_children":[1,-1,3,5,7,-1,-1,9,11,-1,13,-1,-1,-1,-1],"loss_changes":[2.254028E0,0E0,1.527167E0,1.9138789E0,1.303661E0,0E0,0E0,1.3893509E0,2.430174E0,0E0,6.158514E-1,0E0,0E0,0E0,0E0],"parents":[2147483647,0,0,2,2,3,3,4,4,7,7,8,8,10,10],"right_children":[2,-1,4,6,8,-1,-1,10,12,-1,14,-1,-1,-1,-1],"split_conditions":[-2.1314513E-2,3.6590066E-2,-1.3190018E-2,-2.7063966E-3,8.857766E-3,3.8113028E-2,-2.3889938E-2,5.6666095E-2,6.326653E-2,4.635121E-3,1.8207802E-2,2.9658033E-2,-3.965478E-2,-5.172133E-2,-4.4561913E-3],"split_indices":[2,0,11,4,0,0,0,8,12,0,11,0,0,0,0],"split_type":[0,0,0,0,0,0,0,0,0,0,0,0,0,0,0],"sum_hessian":[1.52125225E1,1.9894626E0,1.322306E1,3.3164976E0,9.906562E0,2.0985904E0,1.2179071E0,6.5265374E0,3.3800244E0,1.7291489E0,4.7973886E0,2.3360934E0,1.043931E0,3.7560427E0,1.0413461E0],"tree_param":{"num_deleted":"0","num_feature":"14","num_nodes":"15","size_leaf_vector":"1"}},{"base_weights":[-1.7411602E-1,-3.1110606E-1,5.1941365E-1,2.9860854E-2,-4.388878E-1,3.2345828E-2,6.1929543E-3,1.5145853E-2,-5.411271E-1,-9.213495E-1,-2.4157631E-1,-2.4769902E-2,-6.2392373E-2,-2.4591869E-2,3.2494634E-2],"categories":[],"categories_nodes":[],"categories_segments":[],"categories_sizes":[],"default_left":[0,0,0,0,0,0,0,0,0,0,0,0,0,0,0],"id":44,"left_children":[1,3,5,-1,7,-1,-1,-1,9,11,13,-1,-1,-1,-1],"loss_changes":[1.7835249E0,1.9893383E0,8.078402E-2,0E0,1.1970606E0,0E0,0E0,0E0,1.1818969E0,8.809996E-2,2.1608126E0,0E0,0E0,0E0,0E0],"parents":[2147483647,0,0,1,1,2,2,4,4,8,8,9,9,10,10],"right_children":[2,4,6,-1,8,-1,-1,-1,10,12,14,-1,-1,-1,-1],"split_conditions":[5.60384E-1,3.0732778E-1,6.187039E-3,2.9860854E-2,-5.3032015E-2,3.2345828E-2,6.1929543E-3,1.5145853E-2,3.9135802E-1,-2.6138055E-3,3.4173302E-2,-2.4769902E-2,-6.2392373E-2,-2.4591869E-2,3.2494634E-2],"split_indices":[3,3,6,0,12,0,0,0,3,5,10,0,0,0,0],"split_type":[0,0,0,0,0,0,0,0,0,0,0,0,0,0,0],"sum_hessian":[1.6071772E1,1.3881277E1,2.190495E0,1.2588866E0,1.2622391E1,1.1759672E0,1.0145278E0,1.291196E0,1.1331194E1,4.0785213E0,7.252673E0,2.8620193E0,1.216502E0,6.012949E0,1.239724E0],"tree_param":{"num_deleted":"0","num_feature":"14","num_nodes":"15","size_leaf_vector":"1"}},{"base_weights":[-6.722251E-2,-1.9945051E-1,3.60575E-2,4.566049E-1,-3.5270426E-1,4.4825226E-3,2.9394452E-2,-4.7328475E-1,1.5584402E-2,1.3109842E-2,-5.93195E-1,-3.4326408E-2,7.902331E-4],"categories":[],"categories_nodes":[],"categories_segments":[],"categories_sizes":[],"default_left":[0,0,0,0,0,0,0,0,0,0,0,0,0],"id":45,"left_children":[1,3,-1,5,7,-1,-1,9,-1,-1,11,-1,-1],"loss_changes":[1.7742243E0,1.5864377E0,0E0,9.762192E-2,1.113399E0,0E0,0E0,1.090507E0,0E0,0E0,5.463929E-1,0E0,0E0],"parents":[2147483647,0,0,1,1,3,3,4,4,7,7,10,10],"right_children":[2,4,-1,6,8,-1,-1,10,-1,-1,12,-1,-1],"split_conditions":[6.438414E-3,-2.1523407E-2,3.60575E-2,-5.5383206E-3,2.5150238E-2,4.4825226E-3,2.9394452E-2,-5.3032015E-2,1.5584402E-2,1.3109842E-2,-1.1093728E-3,-3.4326408E-2,7.902331E-4],"split_indices":[5,2,0,11,13,0,0,12,0,0,2,0,0],"split_type":[0,0,0,0,0,0,0,0,0,0,0,0,0],"sum_hessian":[1.4640002E1,1.3176939E1,1.4630626E0,2.1204062E0,1.1056533E1,1.0021509E0,1.1182553E0,9.601585E0,1.4549481E0,1.179626E0,8.421959E0,7.192377E0,1.229582E0],"tree_param":{"num_deleted":"0","num_feature":"14","num_nodes":"13","size_leaf_vector":"1"}},{"base_weights":[-1.4725858E-1,4.528903E-1,-2.597517E-1,4.7161547E-3,2.9019399E-2,-4.4630967E-2,-1.3493624E-1,2.1730945E-1,-4.08411E-1,-4.8707884E-2,3.5322316E-2,1.2641492E-2,-5.499375E-1,1.575575E-2,-3.1886827E-2,-3.7101015E-2,1.9221647E-3],"categories":[],"categories_nodes":[],"categories_segments":[],"categories_sizes":[],"default_left":[0,0,0,0,0,0,0,0,0,0,0,0,0,0,0,0,0],"id":46,"left_children":[1,3,5,-1,-1,-1,7,9,11,13,-1,-1,15,-1,-1,-1,-1],"loss_changes":[1.2946391E0,8.773035E-2,1.0894926E0,0E0,0E0,0E0,1.4346908E0,9.1392255E-1,9.07622E-1,1.3396999E0,0E0,0E0,8.286767E-1,0E0,0E0,0E0,0E0],"parents":[2147483647,0,0,1,1,2,2,6,6,7,7,8,8,9,9,12,12],"right_children":[2,4,6,-1,-1,-1,8,10,12,14,-1,-1,16,-1,-1,-1,-1],"split_conditions":[-2.1523407E-2,5.1675586E-4,-2.0613234E-2,4.7161547E-3,2.9019399E-2,-4.4630967E-2,-6.8173166E-3,4.3100836E-3,1.2815717E-2,-4.146045E-3,3.5322316E-2,1.2641492E-2,8.857766E-3,1.575575E-2,-3.1886827E-2,-3.7101015E-2,1.9221647E-3],"split_indices":[2,6,2,0,0,0,2,6,9,0,0,0,0,0,0,0,0],"split_type":[0,0,0,0,0,0,0,0,0,0,0,0,0,0,0,0,0],"sum_hessian":[1.643378E1,2.1164765E0,1.4317305E1,1.0115244E0,1.1049522E0,1.3451759E0,1.2972129E1,5.759305E0,7.2128234E0,4.3137116E0,1.4455936E0,1.1329588E0,6.079865E0,2.9540942E0,1.3596174E0,4.3866696E0,1.6931951E0],"tree_param":{"num_deleted":"0","num_feature":"14","num_nodes":"17","size_leaf_vector":"1"}},{"base_weights":[-1.402107E-1,4.7259036E-1,-2.6058936E-1,4.863575E-3,3.009401E-2,6.52811E-2,-4.8698798E-1,3.1158632E-1,-2.387218E-2,-5.0647285E-2,-1.7102356E-1,5.4079753E-1,-1.2294488E-2,7.7004105E-2,-3.979246E-2,7.177108E-3,3.589335E-2,1.6424133E-2,-2.6477545E-2],"categories":[],"categories_nodes":[],"categories_segments":[],"categories_sizes":[],"default_left":[0,0,0,0,0,0,0,0,0,0,0,0,0,0,0,0,0,0,0],"id":47,"left_children":[1,3,5,-1,-1,7,9,11,-1,-1,13,15,-1,17,-1,-1,-1,-1,-1],"loss_changes":[1.4056972E0,9.721953E-2,1.1514362E0,0E0,0E0,1.0982844E0,1.3345499E0,8.3460444E-1,0E0,0E0,1.1261317E0,1.9264674E-1,0E0,1.0632966E0,0E0,0E0,0E0,0E0,0E0],"parents":[2147483647,0,0,1,1,2,2,5,5,6,6,7,7,10,10,11,11,13,13],"right_children":[2,4,6,-1,-1,8,10,12,-1,-1,14,16,-1,18,-1,-1,-1,-1,-1],"split_conditions":[-2.1587428E-2,5.1675586E-4,-4.3721608E-4,4.863575E-3,3.009401E-2,1.786111E-2,-5.8090813E-3,3.427544E-3,-2.387218E-2,-5.0647285E-2,3.656053E-2,-7.994851E-3,-1.2294488E-2,3.2442156E-2,-3.979246E-2,7.177108E-3,3.589335E-2,1.6424133E-2,-2.6477545E-2],"split_indices":[2,6,6,0,0,9,0,2,0,0,0,2,0,11,0,0,0,0,0],"split_type":[0,0,0,0,0,0,0,0,0,0,0,0,0,0,0,0,0,0,0],"sum_hessian":[1.638616E1,2.2100072E0,1.4176152E1,1.0152278E0,1.1947794E0,6.1031456E0,8.073007E0,4.490915E0,1.6122308E0,2.2018685E0,5.871138E0,3.2036314E0,1.2872834E0,4.830433E0,1.0407054E0,1.5459489E0,1.6576824E0,3.7387764E0,1.0916562E0],"tree_param":{"num_deleted":"0","num_feature":"14","num_nodes":"19","size_leaf_vector":"1"}},{"base_weights":[-2.0015666E-1,2.3268026E-1,-4.678219E-1,3.7243787E-2,-4.806751E-1,-7.56245E-1,-1.0833435E-1,-4.147559E-2,9.647491E-3,-7.967626E-3,-4.3803908E-2,-4.8795044E-1,2.715708E-1,1.3259579E-2,-5.1449426E-2,-1.5263538E-2,3.413743E-2],"categories":[],"categories_nodes":[],"categories_segments":[],"categories_sizes":[],"default_left":[0,0,0,0,0,0,0,0,0,0,0,0,0,0,0,0,0],"id":48,"left_children":[1,3,5,-1,7,9,11,-1,-1,-1,-1,13,15,-1,-1,-1,-1],"loss_changes":[1.9941242E0,2.8739169E0,9.9503756E-1,0E0,9.791015E-1,2.606547E-1,9.676863E-1,0E0,0E0,0E0,0E0,1.598887E0,1.0473125E0,0E0,0E0,0E0,0E0],"parents":[2147483647,0,0,1,1,2,2,4,4,5,5,6,6,11,11,12,12],"right_children":[2,4,6,-1,8,10,12,-1,-1,-1,-1,14,16,-1,-1,-1,-1],"split_conditions":[-4.3721608E-4,-2.2685791E-4,1.5244626E-2,3.7243787E-2,-7.6767704E-3,-2.1168765E-2,-3.5467902E-3,-4.147559E-2,9.647491E-3,-7.967626E-3,-4.3803908E-2,-1.4307354E-2,8.857766E-3,1.3259579E-2,-5.1449426E-2,-1.5263538E-2,3.413743E-2],"split_indices":[6,5,9,0,13,2,5,0,0,0,0,2,0,0,0,0,0],"split_type":[0,0,0,0,0,0,0,0,0,0,0,0,0,0,0,0,0],"sum_hessian":[1.5272624E1,5.8856854E0,9.386938E0,3.400157E0,2.4855287E0,4.5958953E0,4.791043E0,1.48507E0,1.0004586E0,1.1579407E0,3.4379547E0,2.2541785E0,2.5368643E0,1.1555138E0,1.0986649E0,1.162942E0,1.3739221E0],"tree_param":{"num_deleted":"0","num_feature":"14","num_nodes":"17","size_leaf_vector":"1"}},{"base_weights":[-2.2433074E-2,3.662523E-1,-2.7251363E-1,3.773382E-2,5.4995503E-2,-2.839585E-3,-7.0743144E-1,-3.0852398E-2,4.8479724E-1,-3.922654E-1,3.0792812E-2,-2.0789437E-1,-5.6541987E-2,3.4722287E-2,-8.431448E-4,1.3285908E-2,-6.946701E-1,-2.5360046E-2,9.484779E-3,-4.5467746E-2,-1.3139478E-2],"categories":[],"categories_nodes":[],"categories_segments":[],"categories_sizes":[],"default_left":[0,0,0,0,0,0,0,0,0,0,0,0,0,0,0,0,0,0,0,0,0],"id":49,"left_children":[1,3,5,-1,7,9,11,-1,13,15,-1,17,-1,-1,-1,-1,19,-1,-1,-1,-1],"loss_changes":[1.7382013E0,8.078914E-1,1.2681761E0,0E0,1.7372575E0,2.0941026E0,6.40749E-1,0E0,3.89987E-1,1.2450628E0,0E0,4.6808589E-1,0E0,0E0,0E0,0E0,1.2524033E-1,0E0,0E0,0E0,0E0],"parents":[2147483647,0,0,1,1,2,2,4,4,5,5,6,6,8,8,9,9,11,11,16,16],"right_children":[2,4,6,-1,8,10,12,-1,14,16,-1,18,-1,-1,-1,-1,20,-1,-1,-1,-1],"split_conditions":[-4.3721608E-4,-6.752964E-3,1.627516E-2,3.773382E-2,-6.651413E-3,-2.382715E-2,2.0483913E-2,-3.0852398E-2,3.427544E-3,-6.101032E-2,3.0792812E-2,-5.8090813E-3,-5.6541987E-2,3.4722287E-2,-8.431448E-4,1.3285908E-2,4.3726048E-1,-2.5360046E-2,9.484779E-3,-4.5467746E-2,-1.3139478E-2],"split_indices":[6,5,10,0,2,10,11,0,2,10,0,0,0,0,0,0,3,0,0,0,0],"split_type":[0,0,0,0,0,0,0,0,0,0,0,0,0,0,0,0,0,0,0,0,0],"sum_hessian":[1.5855429E1,6.025623E0,9.829805E0,2.0467854E0,3.9788373E0,6.688858E0,3.1409476E0,1.3821043E0,2.596733E0,4.329635E0,2.359223E0,2.1249425E0,1.016005E0,1.560352E0,1.036381E0,1.4015045E0,2.9281306E0,1.0550275E0,1.069915E0,1.2173994E0,1.7107313E0],"tree_param":{"num_deleted":"0","num_feature":"14","num_nodes":"21","size_leaf_vector":"1"}},{"base_weights":[-1.1365379E-1,2.9447043E-2,-2.0733696E-1,1.876749E-2,-3.0859002E-1,-6.884663E-1,-8.957782E-2,-4.6941848E-3,-4.3221533E-2,1.1268964E-1,-3.5907537E-2,-8.365759E-3,3.764704E-2],"categories":[],"categories_nodes":[],"categories_segments":[],"categories_sizes":[],"default_left":[0,0,0,0,0,0,0,0,0,0,0,0,0],"id":50,"left_children":[1,-1,3,-1,5,7,9,-1,-1,11,-1,-1,-1],"loss_changes":[1.2291055E0,0E0,1.0349798E0,0E0,1.0882478E0,4.3202472E-1,1.3417246E0,0E0,0E0,1.625921E0,0E0,0E0,0E0],"parents":[2147483647,0,0,2,2,4,4,5,5,6,6,9,9],"right_children":[2,-1,4,-1,6,8,10,-1,-1,12,-1,-1,-1],"split_conditions":[3.05772E-1,2.9447043E-2,-2.1587428E-2,1.876749E-2,3.9135802E-1,-4.1625854E-2,9.3769443E-1,-4.6941848E-3,-4.3221533E-2,2.8372595E-2,-3.5907537E-2,-8.365759E-3,3.764704E-2],"split_indices":[3,0,2,0,3,12,7,0,0,10,0,0,0],"split_type":[0,0,0,0,0,0,0,0,0,0,0,0,0],"sum_hessian":[1.5818209E1,1.2390679E0,1.4579141E1,1.7575902E0,1.282155E1,3.904937E0,8.916614E0,1.2419461E0,2.6629908E0,7.366788E0,1.5498253E0,5.639225E0,1.7275629E0],"tree_param":{"num_deleted":"0","num_feature":"14","num_nodes":"13","size_leaf_vector":"1"}},{"base_weights":[-8.832276E-2,2.7322316E-1,-2.8724697E-1,-2.8584061E-2,5.4486674E-1,1.4456949E-2,-3.8014796E-1,7.706663E-2,4.040621E-2,1.3907191E-2,-4.8232386E-1,2.8185189E-2,-2.1413207E-2,-8.583516E-1,-1.3332589E-1,-4.9716502E-2,-1.0409535E-2,7.1739666E-3,-3.699607E-2],"categories":[],"categories_nodes":[],"categories_segments":[],"categories_sizes":[],"default_left":[0,0,0,0,0,0,0,0,0,0,0,0,0,0,0,0,0,0,0],"id":51,"left_children":[1,3,5,-1,7,-1,9,11,-1,-1,13,-1,-1,15,17,-1,-1,-1,-1],"loss_changes":[1.3320686E0,1.8489766E0,7.3809004E-1,0E0,6.2504935E-1,0E0,8.4275246E-1,1.0074857E0,0E0,0E0,1.1303346E0,0E0,0E0,1.8038511E-1,1.1309643E0,0E0,0E0,0E0,0E0],"parents":[2147483647,0,0,1,1,2,2,4,4,6,6,7,7,10,10,13,13,14,14],"right_children":[2,4,6,-1,8,-1,10,12,-1,-1,14,-1,-1,16,18,-1,-1,-1,-1],"split_conditions":[-1.4619058E-2,4.6052583E-2,1.2815717E-2,-2.8584061E-2,1.4976237E-2,1.4456949E-2,-1.0642077E-2,6.981336E-2,4.040621E-2,1.3907191E-2,-3.2013995E-4,2.8185189E-2,-2.1413207E-2,7.663095E-2,6.326653E-2,-4.9716502E-2,-1.0409535E-2,7.1739666E-3,-3.699607E-2],"split_indices":[2,8,9,0,9,0,4,8,0,0,4,0,0,8,12,0,0,0,0],"split_type":[0,0,0,0,0,0,0,0,0,0,0,0,0,0,0,0,0,0,0],"sum_hessian":[1.6430225E1,5.698913E0,1.0731313E1,1.1177624E0,4.5811505E0,1.1963652E0,9.534947E0,2.115218E0,2.4659326E0,1.0497146E0,8.485233E0,1.0186939E0,1.096524E0,3.3819153E0,5.1033177E0,2.359149E0,1.0227664E0,4.028484E0,1.0748335E0],"tree_param":{"num_deleted":"0","num_feature":"14","num_nodes":"19","size_leaf_vector":"1"}},{"base_weights":[6.531734E-2,6.005092E-1,-1.3542868E-1,3.7924778E-2,3.9394717E-3,1.0011318E-1,-7.172196E-1,2.8471607E-1,-3.6955547E-2,-1.0328913E-2,-4.517855E-2,-1.6749924E-1,6.6819763E-1,1.7118206E-2,-2.5418743E-2,4.314588E-2,-7.2077796E-4],"categories":[],"categories_nodes":[],"categories_segments":[],"categories_sizes":[],"default_left":[0,0,0,0,0,0,0,0,0,0,0,0,0,0,0,0,0],"id":52,"left_children":[1,3,5,-1,-1,7,9,11,-1,-1,-1,13,15,-1,-1,-1,-1],"loss_changes":[1.7647697E0,3.0770004E-1,1.7451341E0,0E0,0E0,1.6929607E0,1.5985858E-1,1.5973878E0,0E0,0E0,0E0,9.961677E-1,6.55185E-1,0E0,0E0,0E0,0E0],"parents":[2147483647,0,0,1,1,2,2,5,5,6,6,7,7,11,11,12,12],"right_children":[2,4,6,-1,-1,8,10,12,-1,-1,-1,14,16,-1,-1,-1,-1],"split_conditions":[-1.0642077E-2,-3.3840492E-2,1.641044E-2,3.7924778E-2,3.9394717E-3,1.0567058E0,-3.2393806E-2,4.8068887E-1,-3.6955547E-2,-1.0328913E-2,-4.517855E-2,-8.502645E-3,1.5949456E-2,1.7118206E-2,-2.5418743E-2,4.314588E-2,-7.2077796E-4],"split_indices":[4,1,9,0,0,7,13,3,0,0,0,0,9,0,0,0,0],"split_type":[0,0,0,0,0,0,0,0,0,0,0,0,0,0,0,0,0],"sum_hessian":[1.4669028E1,3.458153E0,1.12108755E1,2.3060133E0,1.1521398E0,8.569414E0,2.6414611E0,7.5658946E0,1.0035197E0,1.2699841E0,1.371477E0,3.7302563E0,3.8356383E0,1.4928962E0,2.23736E0,2.7788222E0,1.056816E0],"tree_param":{"num_deleted":"0","num_feature":"14","num_nodes":"17","size_leaf_vector":"1"}},{"base_weights":[-5.0843652E-2,2.7481599E-2,-1.3480677E-1,1.5410475E-1,-3.3764026E-1,-3.385116E-1,5.0224406E-1,-5.563775E-1,2.0988619E-2,-3.1995907E-2,8.440636E-3,-1.0538635E-2,4.0467348E-2,-7.9980636E-1,1.3763185E-2,1.5154214E-3,-5.314933E-2],"categories":[],"categories_nodes":[],"categories_segments":[],"categories_sizes":[],"default_left":[0,0,0,0,0,0,0,0,0,0,0,0,0,0,0,0,0],"id":53,"left_children":[1,-1,3,5,7,9,11,13,-1,-1,-1,-1,-1,15,-1,-1,-1],"loss_changes":[8.472169E-1,0E0,8.874606E-1,1.2962475E0,1.6731373E0,6.15174E-1,1.101288E0,1.6721327E0,0E0,0E0,0E0,0E0,0E0,1.3002641E0,0E0,0E0,0E0],"parents":[2147483647,0,0,2,2,3,3,4,4,5,5,6,6,7,7,13,13],"right_children":[2,-1,4,6,8,10,12,14,-1,-1,-1,-1,-1,16,-1,-1,-1],"split_conditions":[3.1327957E-1,2.7481599E-2,-1.397802E-2,-5.61946E-2,6.438414E-3,-1.53098E-2,1.4132485E-2,2.5150238E-2,2.0988619E-2,-3.1995907E-2,8.440636E-3,-1.0538635E-2,4.0467348E-2,-4.830816E-2,1.3763185E-2,1.5154214E-3,-5.314933E-2],"split_indices":[3,0,2,13,5,5,9,13,0,0,0,0,0,12,0,0,0],"split_type":[0,0,0,0,0,0,0,0,0,0,0,0,0,0,0,0,0],"sum_hessian":[1.4334323E1,1.0780884E0,1.3256234E1,5.566985E0,7.689249E0,2.316623E0,3.250362E0,6.1721773E0,1.5170721E0,1.2892859E0,1.0273371E0,1.0729388E0,2.177423E0,4.8042183E0,1.3679588E0,1.3694812E0,3.4347372E0],"tree_param":{"num_deleted":"0","num_feature":"14","num_nodes":"17","size_leaf_vector":"1"}},{"base_weights":[1.0524818E-1,2.1261248E-1,-3.656019E-2,1.5305993E-2,4.1683596E-2,3.7634152E-1,-2.9360107E-1,-1.3868771E-1,3.399394E-2,-6.7147106E-1,1.7003539E-1,-1.9334985E-2,8.480494E-3,-4.5865956E-3,-4.4992127E-2,2.8619511E-2,-8.503991E-3],"categories":[],"categories_nodes":[],"categories_segments":[],"categories_sizes":[],"default_left":[0,0,0,0,0,0,0,0,0,0,0,0,0,0,0,0,0],"id":54,"left_children":[1,3,-1,5,-1,7,9,11,-1,13,15,-1,-1,-1,-1,-1,-1],"loss_changes":[1.558566E0,1.7789198E0,0E0,1.4616182E0,0E0,1.0360788E0,1.3563887E0,2.999036E-1,0E0,4.6142292E-1,6.422571E-1,0E0,0E0,0E0,0E0,0E0,0E0],"parents":[2147483647,0,0,1,1,3,3,5,5,6,6,7,7,9,9,10,10],"right_children":[2,4,-1,6,-1,8,10,12,-1,14,16,-1,-1,-1,-1,-1,-1],"split_conditions":[1.0491921E0,6.8570834E-1,-3.656019E-2,-1.1392221E-2,4.1683596E-2,1.4976237E-2,-1.6160142E-3,-5.3168558E-2,3.399394E-2,3.538642E-1,3.4569018E-3,-1.9334985E-2,8.480494E-3,-4.5865956E-3,-4.4992127E-2,2.8619511E-2,-8.503991E-3],"split_indices":[7,7,0,2,0,9,2,13,0,3,2,0,0,0,0,0,0],"split_type":[0,0,0,0,0,0,0,0,0,0,0,0,0,0,0,0,0],"sum_hessian":[1.4623868E1,1.3621298E1,1.00257E0,1.1114834E1,2.5064645E0,5.0243354E0,6.0904984E0,2.0644906E0,2.9598446E0,3.1086423E0,2.9818559E0,1.0031741E0,1.0613164E0,1.2746134E0,1.834029E0,1.053106E0,1.92875E0],"tree_param":{"num_deleted":"0","num_feature":"14","num_nodes":"17","size_leaf_vector":"1"}},{"base_weights":[-3.6430259E-3,-1.304232E-1,3.414681E-2,1.5654731E-1,-6.8055665E-1,-2.2303779E-2,3.5281736E-2,-5.6061083E-3,-4.19265E-2,3.7324446E-1,-3.7140065E-1,3.377092E-2,-6.954873E-4,1.5698595E-2,-3.376054E-2],"categories":[],"categories_nodes":[],"categories_segments":[],"categories_sizes":[],"default_left":[0,0,0,0,0,0,0,0,0,0,0,0,0,0,0],"id":55,"left_children":[1,3,-1,5,7,9,-1,-1,-1,11,13,-1,-1,-1,-1],"loss_changes":[1.4353647E0,2.3002543E0,0E0,9.923799E-1,3.505323E-1,1.3083211E0,0E0,0E0,0E0,5.3232986E-1,1.2532971E0,0E0,0E0,0E0,0E0],"parents":[2147483647,0,0,1,1,3,3,4,4,5,5,9,9,10,10],"right_children":[2,4,-1,6,8,10,-1,-1,-1,12,14,-1,-1,-1,-1],"split_conditions":[1.0471313E-1,8.4474504E-2,3.414681E-2,1.3904318E-3,-1.3604447E-2,-1.9073721E-2,3.5281736E-2,-5.6061083E-3,-4.19265E-2,6.5467685E-2,1.3141034E-2,3.377092E-2,-6.954873E-4,1.5698595E-2,-3.376054E-2],"split_indices":[8,8,0,13,0,1,0,0,0,8,9,0,0,0,0],"split_type":[0,0,0,0,0,0,0,0,0,0,0,0,0,0,0],"sum_hessian":[1.4466706E1,1.2895525E1,1.5711818E0,8.9449415E0,3.9505837E0,7.4708757E0,1.4740652E0,1.2309645E0,2.7196193E0,3.469991E0,4.000885E0,1.5307041E0,1.939287E0,1.2185286E0,2.7823563E0],"tree_param":{"num_deleted":"0","num_feature":"14","num_nodes":"15","size_leaf_vector":"1"}},{"base_weights":[9.487981E-2,5.3625935E-1,-1.4116897E-1,3.3053085E-2,1.9920764E-3,-7.2826684E-1,2.2200352E-1,-4.760459E-2,-1.8679214E-3,5.079185E-1,-3.6249876E-2,-1.7215481E-2,4.1763827E-2],"categories":[],"categories_nodes":[],"categories_segments":[],"categories_sizes":[],"default_left":[0,0,0,0,0,0,0,0,0,0,0,0,0],"id":56,"left_children":[1,3,5,-1,-1,7,9,-1,-1,11,-1,-1,-1],"loss_changes":[1.531892E0,2.882986E-1,2.2721362E0,0E0,0E0,5.8554864E-1,2.2315307E0,0E0,0E0,1.9262968E0,0E0,0E0,0E0],"parents":[2147483647,0,0,1,1,2,2,5,5,6,6,9,9],"right_children":[2,4,6,-1,-1,8,10,-1,-1,12,-1,-1,-1],"split_conditions":[-1.7796185E-2,1.7417762E-2,-3.0797091E-3,3.3053085E-2,1.9920764E-3,9.401918E-3,1.1314761E-2,-4.760459E-2,-1.8679214E-3,4.6052583E-2,-3.6249876E-2,-1.7215481E-2,4.1763827E-2],"split_indices":[12,9,12,0,0,11,4,0,0,8,0,0,0],"split_type":[0,0,0,0,0,0,0,0,0,0,0,0,0],"sum_hessian":[1.2976672E1,4.078538E0,8.898134E0,2.9941316E0,1.0844063E0,3.0164711E0,5.881663E0,1.992845E0,1.0236261E0,4.8738303E0,1.0078325E0,1.3382118E0,3.5356185E0],"tree_param":{"num_deleted":"0","num_feature":"14","num_nodes":"13","size_leaf_vector":"1"}},{"base_weights":[-5.119767E-3,3.462496E-2,-1.4395413E-1,-4.7064957E-1,2.2601031E-1,1.2559086E-2,-6.363863E-1,4.900732E-1,-3.4689266E-2,-8.5400796E-1,1.6502336E-3,-1.7662583E-3,6.7200613E-1,-1.8754877E-2,-5.636219E-2,1.7041672E-3,4.203948E-2],"categories":[],"categories_nodes":[],"categories_segments":[],"categories_sizes":[],"default_left":[0,0,0,0,0,0,0,0,0,0,0,0,0,0,0,0,0],"id":57,"left_children":[1,-1,3,5,7,-1,9,11,-1,13,-1,-1,15,-1,-1,-1,-1],"loss_changes":[1.6175267E0,0E0,1.7861919E0,1.0816455E0,2.0870926E0,0E0,9.822562E-1,6.139606E-1,0E0,2.2879839E-1,0E0,0E0,4.705522E-1,0E0,0E0,0E0,0E0],"parents":[2147483647,0,0,2,2,3,3,4,4,6,6,7,7,9,9,12,12],"right_children":[2,-1,4,6,8,-1,10,12,-1,14,-1,-1,16,-1,-1,-1,-1],"split_conditions":[-2.1523407E-2,3.462496E-2,0E0,-5.3032015E-2,1.0567058E0,1.2559086E-2,1.1146667E-2,-4.997385E-2,-3.4689266E-2,-1.6489202E-3,1.6502336E-3,-1.7662583E-3,-8.703423E-3,-1.8754877E-2,-5.636219E-2,1.7041672E-3,4.203948E-2],"split_indices":[2,0,12,12,7,0,11,10,0,5,0,0,1,0,0,0,0],"split_type":[0,0,0,0,0,0,0,0,0,0,0,0,0,0,0,0,0],"sum_hessian":[1.4671491E1,1.7732517E0,1.2898239E1,6.705144E0,6.193095E0,1.1557914E0,5.549352E0,5.174693E0,1.0184023E0,3.9797282E0,1.5696241E0,1.5382534E0,3.6364396E0,2.3077128E0,1.6720154E0,1.012311E0,2.6241286E0],"tree_param":{"num_deleted":"0","num_feature":"14","num_nodes":"17","size_leaf_vector":"1"}},{"base_weights":[6.1569743E-2,1.8496238E-1,-2.9293153E-2,-3.111273E-1,3.5553676E-1,1.2081111E-2,-3.0417854E-2,6.048055E-1,7.694604E-3,3.5301596E-3,7.19662E-1,-3.3419275E-1,2.2784447E-2,4.2856834E-3,4.366939E-2,9.954051E-3,-3.1802308E-2],"categories":[],"categories_nodes":[],"categories_segments":[],"categories_sizes":[],"default_left":[0,0,0,0,0,0,0,0,0,0,0,0,0,0,0,0,0],"id":58,"left_children":[1,3,-1,5,7,-1,-1,9,11,-1,13,15,-1,-1,-1,-1,-1],"loss_changes":[1.2812376E0,1.2184036E0,0E0,7.8492427E-1,8.804778E-1,0E0,0E0,3.1327605E-1,9.6014404E-1,0E0,3.9049196E-1,7.010328E-1,0E0,0E0,0E0,0E0,0E0],"parents":[2147483647,0,0,1,1,3,3,4,4,7,7,8,8,10,10,11,11],"right_children":[2,4,-1,6,8,-1,-1,10,12,-1,14,16,-1,-1,-1,-1,-1],"split_conditions":[1.7349035E-2,4.9045414E-2,-2.9293153E-2,7.6542003E-4,0E0,1.2081111E-2,-3.0417854E-2,1.4725608E-2,2.5150238E-2,3.5301596E-3,7.193867E-2,-1.1538443E-2,2.2784447E-2,4.2856834E-3,4.366939E-2,9.954051E-3,-3.1802308E-2],"split_indices":[9,8,0,6,13,0,0,9,13,0,8,1,0,0,0,0,0],"split_type":[0,0,0,0,0,0,0,0,0,0,0,0,0,0,0,0,0],"sum_hessian":[1.368141E1,1.2091277E1,1.5901328E0,2.8828752E0,9.208402E0,1.0735368E0,1.8093386E0,4.933936E0,4.2744656E0,1.1588387E0,3.7750976E0,2.5684073E0,1.7060583E0,1.0407467E0,2.734351E0,1.0514024E0,1.5170048E0],"tree_param":{"num_deleted":"0","num_feature":"14","num_nodes":"17","size_leaf_vector":"1"}},{"base_weights":[-1.3558334E-2,3.4123704E-2,-1.5239976E-1,-4.5548316E-2,-3.6682438E-2,-2.692016E-1,5.4593146E-1,1.6331233E-2,-4.2473716E-1,3.6585167E-2,4.851737E-3,-2.7599795E-2,1.1111374E-2],"categories":[],"categories_nodes":[],"categories_segments":[],"categories_sizes":[],"default_left":[0,0,0,0,0,0,0,0,0,0,0,0,0],"id":59,"left_children":[1,-1,3,5,-1,7,9,-1,11,-1,-1,-1,-1],"loss_changes":[1.5966142E0,0E0,8.170916E-1,1.8182548E0,0E0,1.0503622E0,2.4561441E-1,0E0,8.0071676E-1,0E0,0E0,0E0,0E0],"parents":[2147483647,0,0,2,2,3,3,5,5,6,6,8,8],"right_children":[2,-1,4,6,-1,8,10,-1,12,-1,-1,-1,-1],"split_conditions":[3.3922997E-1,3.4123704E-2,6.470283E-2,0E0,-3.6682438E-2,-2.1587428E-2,8.534778E-2,1.6331233E-2,7.3762303E-3,3.6585167E-2,4.851737E-3,-2.7599795E-2,1.1111374E-2],"split_indices":[3,0,12,1,0,2,8,0,12,0,0,0,0],"split_type":[0,0,0,0,0,0,0,0,0,0,0,0,0],"sum_hessian":[1.4445303E1,1.7511314E0,1.2694171E1,1.1633871E1,1.0603005E0,8.83718E0,2.796691E0,1.6016337E0,7.235546E0,1.5324829E0,1.2642081E0,6.1689057E0,1.0666401E0],"tree_param":{"num_deleted":"0","num_feature":"14","num_nodes":"13","size_leaf_vector":"1"}},{"base_weights":[1.4311528E-1,2.611453E-1,-3.5432566E-2,6.387647E-1,7.180933E-2,3.956678E-2,2.773473E-3,-2.7622042E-2,2.5886172E-1,-2.3585526E-2,6.2548834E-1,3.1392753E-2,-1.5728531E-2,9.181316E-3,3.6292642E-2],"categories":[],"categories_nodes":[],"categories_segments":[],"categories_sizes":[],"default_left":[0,0,0,0,0,0,0,0,0,0,0,0,0,0,0],"id":60,"left_children":[1,3,-1,5,7,-1,-1,-1,9,11,13,-1,-1,-1,-1],"loss_changes":[1.6788421E0,9.3941706E-1,0E0,3.543954E-1,1.3463348E0,0E0,0E0,0E0,9.063716E-1,1.3020966E0,3.4486294E-2,0E0,0E0,0E0,0E0],"parents":[2147483647,0,0,1,1,3,3,4,4,8,8,9,9,10,10],"right_children":[2,4,-1,6,8,-1,-1,-1,10,12,14,-1,-1,-1,-1],"split_conditions":[6.470283E-2,-2.0139452E-2,-3.5432566E-2,-9.113965E-3,-1.205355E-2,3.956678E-2,2.773473E-3,-2.7622042E-2,-2.13548E-3,-6.101032E-2,-1.7995343E-2,3.1392753E-2,-1.5728531E-2,9.181316E-3,3.6292642E-2],"split_indices":[12,12,0,2,12,0,0,0,10,10,2,0,0,0,0],"split_type":[0,0,0,0,0,0,0,0,0,0,0,0,0,0,0],"sum_hessian":[1.3858463E1,1.2780821E1,1.0776418E0,3.475477E0,9.305344E0,2.4721735E0,1.0033036E0,1.6950499E0,7.610294E0,4.827151E0,2.783143E0,1.1329902E0,3.6941607E0,1.038901E0,1.7442422E0],"tree_param":{"num_deleted":"0","num_feature":"14","num_nodes":"15","size_leaf_vector":"1"}},{"base_weights":[1.9494782E-1,-1.5925219E-3,4.160021E-2,3.4978643E-1,-3.4167004E-1,5.8723813E-1,-2.0907281E-2,2.2458185E-1,-7.5956315E-1,-1.417127E-3,4.236294E-2,-2.3765918E-2,3.4959223E-2,-4.2943873E-2,-1.1827105E-2],"categories":[],"categories_nodes":[],"categories_segments":[],"categories_sizes":[],"default_left":[0,0,0,0,0,0,0,0,0,0,0,0,0,0,0],"id":61,"left_children":[1,3,-1,5,7,9,-1,11,13,-1,-1,-1,-1,-1,-1],"loss_changes":[1.8391519E0,1.5792292E0,0E0,1.4311898E0,1.7592193E0,8.855314E-1,0E0,1.5356456E0,9.338856E-3,0E0,0E0,0E0,0E0,0E0,0E0],"parents":[2147483647,0,0,1,1,3,3,4,4,5,5,7,7,8,8],"right_children":[2,4,-1,6,8,10,-1,12,14,-1,-1,-1,-1,-1,-1],"split_conditions":[8.857766E-3,-4.3721608E-4,4.160021E-2,1.8499522E-2,6.319103E-2,7.106857E-2,-2.0907281E-2,1.3374271E-2,1.527122E-2,-1.417127E-3,4.236294E-2,-2.3765918E-2,3.4959223E-2,-4.2943873E-2,-1.1827105E-2],"split_indices":[0,6,0,9,8,8,0,9,11,0,0,0,0,0,0],"split_type":[0,0,0,0,0,0,0,0,0,0,0,0,0,0,0],"sum_hessian":[1.3678277E1,1.1215611E1,2.4626653E0,5.5021086E0,5.7135034E0,4.3823457E0,1.1197629E0,2.622525E0,3.0909781E0,1.5659845E0,2.8163612E0,1.0591218E0,1.5634032E0,2.058039E0,1.0329392E0],"tree_param":{"num_deleted":"0","num_feature":"14","num_nodes":"15","size_leaf_vector":"1"}},{"base_weights":[-6.914724E-2,5.008826E-1,-2.8442544E-1,3.763599E-2,-6.875782E-3,-5.730298E-1,1.10942736E-1,1.0176304E-2,-9.238061E-1,2.705112E-2,-2.793656E-1,-5.816554E-2,-1.2793397E-2,-2.7336225E-2,8.367165E-3],"categories":[],"categories_nodes":[],"categories_segments":[],"categories_sizes":[],"default_left":[0,0,0,0,0,0,0,0,0,0,0,0,0,0,0],"id":62,"left_children":[1,3,5,-1,-1,7,9,-1,11,-1,13,-1,-1,-1,-1],"loss_changes":[1.8714297E0,7.826947E-1,1.3032982E0,0E0,0E0,1.9429522E0,1.0613369E0,0E0,4.4118E-1,0E0,5.097417E-1,0E0,0E0,0E0,0E0],"parents":[2147483647,0,0,1,1,2,2,5,5,6,6,8,8,10,10],"right_children":[2,4,6,-1,-1,8,10,-1,12,-1,14,-1,-1,-1,-1],"split_conditions":[-1.3190018E-2,1.6968168E-2,1.1558282E-2,3.763599E-2,-6.875782E-3,5.6878686E-2,2.2817155E-2,1.0176304E-2,8.656904E-2,2.705112E-2,3.551284E-3,-5.816554E-2,-1.2793397E-2,-2.7336225E-2,8.367165E-3],"split_indices":[11,9,11,0,0,8,11,0,8,0,4,0,0,0,0],"split_type":[0,0,0,0,0,0,0,0,0,0,0,0,0,0,0],"sum_hessian":[1.3089279E1,3.2245076E0,9.864771E0,2.1839151E0,1.0405923E0,5.44255E0,4.422221E0,1.824101E0,3.6184492E0,1.9202082E0,2.502013E0,2.1175191E0,1.5009302E0,1.4251528E0,1.0768601E0],"tree_param":{"num_deleted":"0","num_feature":"14","num_nodes":"15","size_leaf_vector":"1"}},{"base_weights":[-9.027968E-3,1.7264798E-1,-3.841224E-2,-3.725959E-2,3.4701332E-2,2.2591477E-2,-2.0299333E-1,4.756049E-2,-3.4048297E-2,1.637152E-2,-2.770703E-2],"categories":[],"categories_nodes":[],"categories_segments":[],"categories_sizes":[],"default_left":[0,0,0,0,0,0,0,0,0,0,0],"id":63,"left_children":[1,3,-1,5,-1,-1,7,9,-1,-1,-1],"loss_changes":[2.0279253E0,1.3286616E0,0E0,8.56605E-1,0E0,0E0,9.590667E-1,1.1937567E0,0E0,0E0,0E0],"parents":[2147483647,0,0,1,1,3,3,6,6,7,7],"right_children":[2,4,-1,6,-1,-1,8,10,-1,-1,-1],"split_conditions":[8.8133913E-1,1.6720043E-3,-3.841224E-2,-5.9309885E-2,3.4701332E-2,2.2591477E-2,5.1675586E-4,1.8935595E-3,-3.4048297E-2,1.637152E-2,-2.770703E-2],"split_indices":[7,0,0,13,0,0,6,5,0,0,0],"split_type":[0,0,0,0,0,0,0,0,0,0,0],"sum_hessian":[1.2740808E1,1.0904117E1,1.8366913E0,8.436222E0,2.4678948E0,1.6982774E0,6.7379446E0,5.011438E0,1.7265067E0,3.7315862E0,1.2798516E0],"tree_param":{"num_deleted":"0","num_feature":"14","num_nodes":"11","size_leaf_vector":"1"}},{"base_weights":[5.089902E-2,3.470673E-2,-7.595627E-2,-4.841591E-1,1.15837134E-1,-3.1367462E-2,-2.0329832E-4,3.125332E-1,-2.9872388E-2,5.7819784E-1,-7.524434E-2,3.5445794E-2,4.197438E-3,-1.9585518E-2,1.6188754E-2],"categories":[],"categories_nodes":[],"categories_segments":[],"categories_sizes":[],"default_left":[0,0,0,0,0,0,0,0,0,0,0,0,0,0,0],"id":64,"left_children":[1,-1,3,5,7,-1,-1,9,-1,11,13,-1,-1,-1,-1],"loss_changes":[1.2495198E0,0E0,1.0857861E0,2.9973996E-1,1.5553534E0,0E0,0E0,8.988686E-1,0E0,2.6626658E-1,6.648281E-1,0E0,0E0,0E0,0E0],"parents":[2147483647,0,0,2,2,3,3,4,4,7,7,9,9,10,10],"right_children":[2,-1,4,6,8,-1,-1,10,-1,12,14,-1,-1,-1,-1],"split_conditions":[-6.0666896E-2,3.470673E-2,-3.4088593E-2,1.41725E-3,7.3598474E-2,-3.1367462E-2,-2.0329832E-4,8.8249746E-4,-2.9872388E-2,1.5913344E-3,-1.5817909E-2,3.5445794E-2,4.197438E-3,-1.9585518E-2,1.6188754E-2],"split_indices":[10,0,10,6,10,0,0,6,0,5,13,0,0,0,0],"split_type":[0,0,0,0,0,0,0,0,0,0,0,0,0,0,0],"sum_hessian":[1.3667006E1,1.5146948E0,1.215231E1,3.3973E0,8.755011E0,2.3805618E0,1.0167383E0,7.302975E0,1.4520352E0,4.0424533E0,3.260522E0,2.853449E0,1.1890041E0,1.8285776E0,1.4319443E0],"tree_param":{"num_deleted":"0","num_feature":"14","num_nodes":"15","size_leaf_vector":"1"}},{"base_weights":[1.3875233E-1,-4.2635474E-2,5.868386E-1,4.9006242E-1,-3.1536824E-1,3.8114976E-2,3.1138423E-3,3.6675736E-2,-5.1475232E-3,3.368256E-1,-6.428734E-1,-7.167308E-3,3.1199042E-2,-7.661234E-1,-2.5870346E-3,-1.2056537E-2,-4.3701578E-2],"categories":[],"categories_nodes":[],"categories_segments":[],"categories_sizes":[],"default_left":[0,0,0,0,0,0,0,0,0,0,0,0,0,0,0,0,0],"id":65,"left_children":[1,3,5,7,9,-1,-1,-1,-1,11,13,-1,-1,15,-1,-1,-1],"loss_changes":[1.1679691E0,1.7443113E0,3.3172238E-1,6.669792E-1,1.8923273E0,0E0,0E0,0E0,0E0,5.415535E-1,3.6593223E-1,0E0,0E0,4.609108E-2,0E0,0E0,0E0],"parents":[2147483647,0,0,1,1,2,2,3,3,4,4,9,9,10,10,13,13],"right_children":[2,4,6,8,10,-1,-1,-1,-1,12,14,-1,-1,16,-1,-1,-1],"split_conditions":[1.6768536E-2,-1.3190018E-2,1.5946299E-2,1.7701136E-2,6.605491E-2,3.8114976E-2,3.1138423E-3,3.6675736E-2,-5.1475232E-3,3.4240443E-2,5.9493645E-3,-7.167308E-3,3.1199042E-2,-1.7806122E-2,-2.5870346E-3,-1.2056537E-2,-4.3701578E-2],"split_indices":[11,11,9,9,8,0,0,0,0,8,5,0,0,2,0,0,0],"split_type":[0,0,0,0,0,0,0,0,0,0,0,0,0,0,0,0,0],"sum_hessian":[1.3062326E1,9.942427E0,3.1198995E0,3.0968473E0,6.8455796E0,1.9982816E0,1.121618E0,2.027542E0,1.0693052E0,2.2789063E0,4.5666733E0,1.0402461E0,1.2386601E0,3.5338469E0,1.0328265E0,1.1540034E0,2.3798435E0],"tree_param":{"num_deleted":"0","num_feature":"14","num_nodes":"17","size_leaf_vector":"1"}},{"base_weights":[-4.6116486E-2,4.6377313E-1,-2.1771802E-1,3.6236342E-2,-7.1214335E-3,1.4612227E-2,-3.2429266E-1,-3.982574E-2,-1.0357886E-1,1.816446E-1,-2.9857859E-2,-1.073382E-2,2.5387377E-2],"categories":[],"categories_nodes":[],"categories_segments":[],"categories_sizes":[],"default_left":[0,0,0,0,0,0,0,0,0,0,0,0,0],"id":66,"left_children":[1,3,5,-1,-1,-1,7,-1,9,11,-1,-1,-1],"loss_changes":[1.3419305E0,7.186983E-1,7.084829E-1,0E0,0E0,0E0,9.403795E-1,0E0,1.2118458E0,8.5006624E-1,0E0,0E0,0E0],"parents":[2147483647,0,0,1,1,2,2,6,6,8,8,9,9],"right_children":[2,4,6,-1,-1,-1,8,-1,10,12,-1,-1,-1],"split_conditions":[-1.3557117E-2,-2.7063966E-3,-2.1587428E-2,3.6236342E-2,-7.1214335E-3,1.4612227E-2,3.8253734E-1,-3.982574E-2,8.8133913E-1,0E0,-2.9857859E-2,-1.073382E-2,2.5387377E-2],"split_indices":[11,4,2,0,0,0,7,0,7,12,0,0,0],"split_type":[0,0,0,0,0,0,0,0,0,0,0,0,0],"sum_hessian":[1.31827345E1,2.8907285E0,1.02920065E1,1.884137E0,1.0065913E0,1.4779273E0,8.814079E0,1.9764999E0,6.8375793E0,4.733958E0,2.1036217E0,2.2911532E0,2.4428043E0],"tree_param":{"num_deleted":"0","num_feature":"14","num_nodes":"13","size_leaf_vector":"1"}},{"base_weights":[-1.255309E-1,2.5486156E-1,-2.656927E-1,2.8811714E-2,-2.0276481E-2,1.345785E-1,-4.194947E-1,2.7152238E-2,-2.605477E-2,-7.115919E-1,7.2682477E-3,-4.9974486E-2,1.8631801E-4,3.1082624E-1,-2.1600068E-2,-1.1725766E-2,3.3897225E-2],"categories":[],"categories_nodes":[],"categories_segments":[],"categories_sizes":[],"default_left":[0,0,0,0,0,0,0,0,0,0,0,0,0,0,0,0,0],"id":67,"left_children":[1,3,5,-1,-1,7,9,-1,-1,11,13,-1,-1,15,-1,-1,-1],"loss_changes":[8.854916E-1,1.2184943E0,7.766057E-1,0E0,0E0,1.3554008E0,1.0888865E0,0E0,0E0,1.0686777E0,7.3731154E-1,0E0,0E0,8.108305E-1,0E0,0E0,0E0],"parents":[2147483647,0,0,1,1,2,2,5,5,6,6,9,9,10,10,13,13],"right_children":[2,4,6,-1,-1,8,10,-1,-1,12,14,-1,-1,16,-1,-1,-1],"split_conditions":[-1.3557117E-2,1.8499522E-2,6.605491E-2,2.8811714E-2,-2.0276481E-2,2.0483913E-2,1.1558282E-2,2.7152238E-2,-2.605477E-2,8.656904E-2,8.534778E-2,-4.9974486E-2,1.8631801E-4,7.201029E-2,-2.1600068E-2,-1.1725766E-2,3.3897225E-2],"split_indices":[11,9,8,0,0,11,11,0,0,8,8,0,0,8,0,0,0],"split_type":[0,0,0,0,0,0,0,0,0,0,0,0,0,0,0,0,0],"sum_hessian":[1.4338156E1,3.6402779E0,1.0697878E1,2.5343816E0,1.1058962E0,3.0042572E0,7.693621E0,1.9569247E0,1.0473325E0,4.1712193E0,3.5224016E0,2.6909237E0,1.4802958E0,2.2558763E0,1.2665251E0,1.0529519E0,1.2029245E0],"tree_param":{"num_deleted":"0","num_feature":"14","num_nodes":"17","size_leaf_vector":"1"}},{"base_weights":[-4.533164E-2,-3.834839E-1,1.6810529E-1,3.0329463E-3,-4.7649354E-2,4.096357E-1,-2.3354281E-1,-2.8286526E-1,2.126083E-2,-8.518439E-3,5.77802E-1,1.5609366E-2,-5.029226E-1,1.1804484E-2,-3.104406E-2,4.7445293E-3,4.1244756E-2,-3.795218E-2,1.122773E-3],"categories":[],"categories_nodes":[],"categories_segments":[],"categories_sizes":[],"default_left":[0,0,0,0,0,0,0,0,0,0,0,0,0,0,0,0,0,0,0],"id":68,"left_children":[1,3,5,7,-1,9,11,13,-1,-1,15,-1,17,-1,-1,-1,-1,-1,-1],"loss_changes":[1.1640882E0,1.3676937E0,1.069212E0,6.8640524E-1,0E0,7.4511147E-1,8.0464965E-1,7.42476E-1,0E0,0E0,5.6219625E-1,0E0,4.6547312E-1,0E0,0E0,0E0,0E0,0E0,0E0],"parents":[2147483647,0,0,1,1,2,2,3,3,5,5,6,6,7,7,10,10,12,12],"right_children":[2,4,6,8,-1,10,12,14,-1,-1,16,-1,18,-1,-1,-1,-1,-1,-1],"split_conditions":[1.5108446E-2,7.2251685E-2,1.6785223E-2,4.9045414E-2,-4.7649354E-2,-3.1262415E-3,-1.0837035E-2,1.7653974E-3,2.126083E-2,-8.518439E-3,-2.382715E-2,1.5609366E-2,-7.430255E-3,1.1804484E-2,-3.104406E-2,4.7445293E-3,4.1244756E-2,-3.795218E-2,1.122773E-3],"split_indices":[9,8,9,8,0,6,4,10,0,0,10,0,4,0,0,0,0,0,0],"split_type":[0,0,0,0,0,0,0,0,0,0,0,0,0,0,0,0,0,0,0],"sum_hessian":[1.423568E1,5.2001977E0,9.035482E0,3.6902986E0,1.509899E0,5.6300025E0,3.4054797E0,2.3970423E0,1.2932563E0,1.2625117E0,4.367491E0,1.0729347E0,2.3325448E0,1.0644059E0,1.3326365E0,1.9467828E0,2.420708E0,1.2691023E0,1.0634425E0],"tree_param":{"num_deleted":"0","num_feature":"14","num_nodes":"19","size_leaf_vector":"1"}},{"base_weights":[4.9144708E-2,-5.7276264E-2,3.238667E-2,6.347354E-2,-3.4753915E-2,-8.829045E-2,3.3939432E-2,2.1947521E-1,-3.8187554E-1,3.1997062E-2,-3.3481077E-3,-3.544655E-2,1.6089745E-2],"categories":[],"categories_nodes":[],"categories_segments":[],"categories_sizes":[],"default_left":[0,0,0,0,0,0,0,0,0,0,0,0,0],"id":69,"left_children":[1,3,-1,5,-1,7,-1,9,11,-1,-1,-1,-1],"loss_changes":[9.17209E-1,1.0182904E0,0E0,1.1386838E0,0E0,1.0010413E0,0E0,7.162177E-1,1.5077817E0,0E0,0E0,0E0,0E0],"parents":[2147483647,0,0,1,1,3,3,5,5,7,7,8,8],"right_children":[2,4,-1,6,-1,8,-1,10,12,-1,-1,-1,-1],"split_conditions":[5.9493645E-3,3.6805875E-3,3.238667E-2,-2.0728915E-4,-3.4753915E-2,-1.9073721E-2,3.3939432E-2,6.5467685E-2,4.789536E-3,3.1997062E-2,-3.3481077E-3,-3.544655E-2,1.6089745E-2],"split_indices":[5,5,0,5,0,1,0,8,6,0,0,0,0],"split_type":[0,0,0,0,0,0,0,0,0,0,0,0,0],"sum_hessian":[1.2815954E1,1.1649199E1,1.1667554E0,1.0551963E1,1.0972354E0,9.151347E0,1.4006162E0,4.591013E0,4.560334E0,1.3602053E0,3.2308075E0,3.1082094E0,1.452125E0],"tree_param":{"num_deleted":"0","num_feature":"14","num_nodes":"13","size_leaf_vector":"1"}},{"base_weights":[2.376319E-2,3.2488335E-2,-1.10646255E-1,-3.142144E-1,2.1492566E-1,7.714618E-2,-6.2456983E-1,5.9986717E-1,-3.4085676E-2,-2.966504E-1,2.9742673E-2,-3.7589537E-3,-3.8624596E-2,3.506343E-4,3.9661538E-2,-1.8172447E-3,-2.0525727E-2],"categories":[],"categories_nodes":[],"categories_segments":[],"categories_sizes":[],"default_left":[0,0,0,0,0,0,0,0,0,0,0,0,0,0,0,0,0],"id":70,"left_children":[1,-1,3,5,7,9,11,13,-1,15,-1,-1,-1,-1,-1,-1,-1],"loss_changes":[1.2111144E0,0E0,8.628942E-1,9.943693E-1,2.2074237E0,1.0154474E0,3.0393708E-1,4.7333252E-1,0E0,7.947847E-2,0E0,0E0,0E0,0E0,0E0,0E0,0E0],"parents":[2147483647,0,0,2,2,3,3,4,4,5,5,6,6,7,7,9,9],"right_children":[2,-1,4,6,8,10,12,14,-1,16,-1,-1,-1,-1,-1,-1,-1],"split_conditions":[-2.1314513E-2,3.2488335E-2,0E0,-1.7796185E-2,1.0915337E-2,-2.9661134E-2,-1.4619058E-2,3.9035958E-1,-3.4085676E-2,2.9462887E-2,2.9742673E-2,-3.7589537E-3,-3.8624596E-2,3.506343E-4,3.9661538E-2,-1.8172447E-3,-2.0525727E-2],"split_indices":[2,0,12,12,4,13,2,3,0,10,0,0,0,0,0,0,0],"split_type":[0,0,0,0,0,0,0,0,0,0,0,0,0,0,0,0,0],"sum_hessian":[1.25394535E1,1.5387216E0,1.1000731E1,6.7900486E0,4.2106833E0,3.3354483E0,3.4546003E0,3.17751E0,1.0331732E0,2.1848953E0,1.150553E0,1.0527742E0,2.4018261E0,1.0363424E0,2.1411676E0,1.0663351E0,1.1185603E0],"tree_param":{"num_deleted":"0","num_feature":"14","num_nodes":"17","size_leaf_vector":"1"}},{"base_weights":[-1.2874019E-1,3.3909142E-1,-2.8092387E-1,3.541265E-2,-1.3699538E-2,1.5742727E-1,-5.187519E-1,4.7631067E-1,-2.3944523E-2,-7.9724175E-1,-8.427315E-2,5.22835E-3,3.2411676E-2,-5.171308E-2,-1.6926197E-2,2.0603247E-2,-3.251463E-2],"categories":[],"categories_nodes":[],"categories_segments":[],"categories_sizes":[],"default_left":[0,0,0,0,0,0,0,0,0,0,0,0,0,0,0,0,0],"id":71,"left_children":[1,3,5,-1,-1,7,9,11,-1,13,15,-1,-1,-1,-1,-1,-1],