{"learner":{"attributes":{"best_iteration":"110","best_score":"0.2562322899000719","scikit_learn":"{\"_estimator_type\": \"classifier\"}"},"feature_names":["feat_close_to_ema20","feat_close_to_ema50","feat_ema20_to_ema50","feat_rsi_scaled","feat_macd_line","feat_macd_signal","feat_macd_hist","feat_bb_pct_b","feat_bb_width","feat_atr_scaled","feat_volume_change","feat_momentum_5","feat_momentum_15","feat_momentum_30","feat_stoch_rsi_k","feat_stoch_rsi_d","feat_obv_norm"],"feature_types":["float","float","float","float","float","float","float","float","float","float","float","float","float","float","float","float","float"],"gradient_booster":{"model":{"cats":{"enc":[],"feature_segments":[],"sorted_idx":[]},"gbtree_model_param":{"num_parallel_tree":"1","num_trees":"141"},"iteration_indptr":[0,1,2,3,4,5,6,7,8,9,10,11,12,13,14,15,16,17,18,19,20,21,22,23,24,25,26,27,28,29,30,31,32,33,34,35,36,37,38,39,40,41,42,43,44,45,46,47,48,49,50,51,52,53,54,55,56,57,58,59,60,61,62,63,64,65,66,67,68,69,70,71,72,73,74,75,76,77,78,79,80,81,82,83,84,85,86,87,88,89,90,91,92,93,94,95,96,97,98,99,100,101,102,103,104,105,106,107,108,109,110,111,112,113,114,115,116,117,118,119,120,121,122,123,124,125,126,127,128,129,130,131,132,133,134,135,136,137,138,139,140,141],"tree_info":[0,0,0,0,0,0,0,0,0,0,0,0,0,0,0,0,0,0,0,0,0,0,0,0,0,0,0,0,0,0,0,0,0,0,0,0,0,0,0,0,0,0,0,0,0,0,0,0,0,0,0,0,0,0,0,0,0,0,0,0,0,0,0,0,0,0,0,0,0,0,0,0,0,0,0,0,0,0,0,0,0,0,0,0,0,0,0,0,0,0,0,0,0,0,0,0,0,0,0,0,0,0,0,0,0,0,0,0,0,0,0,0,0,0,0,0,0,0,0,0,0,0,0,0,0,0,0,0,0,0,0,0,0,0,0,0,0,0,0,0,0],"trees":[{"base_weights":[1.06951624E-1,-1.0646697E0,8.181855E-1,1.0066882E-2,-6.0694396E-2,2.7825916E-2,2.02407E-3],"categories":[],"categories_nodes":[],"categories_segments":[],"categories_sizes":[],"default_left":[0,0,0,0,0,0,0],"id":0,"left_children":[1,3,5,-1,-1,-1,-1],"loss_changes":[1.0220685E1,6.9502287E0,5.569477E-1,0E0,0E0,0E0,0E0],"parents":[2147483647,0,0,1,1,2,2],"right_children":[2,4,6,-1,-1,-1,-1],"split_conditions":[4.778273E-1,-2.34214E-3,6.7405015E-2,1.0066882E-2,-6.0694396E-2,2.7825916E-2,2.02407E-3],"split_indices":[14,10,10,0,0,0,0],"split_type":[0,0,0,0,0,0,0],"sum_hessian":[1.0219997E1,3.6728115E0,6.547186E0,1.756562E0,1.9162495E0,5.5092173E0,1.0379685E0],"tree_param":{"num_deleted":"0","num_feature":"17","num_nodes":"7","size_leaf_vector":"1"}},{"base_weights":[-1.0208895E-1,-1.199133E0,6.5817285E-1,1.0211117E-1,-6.739882E-2,1.6997474E-1,2.5908163E-2,-1.2333703E-2,1.6936285E-2,1.8750723E-2,-1.3229206E-2],"categories":[],"categories_nodes":[],"categories_segments":[],"categories_sizes":[],"default_left":[0,0,0,0,0,0,0,0,0,0,0],"id":1,"left_children":[1,3,5,7,-1,9,-1,-1,-1,-1,-1],"loss_changes":[9.90958E0,6.8136134E0,5.657439E-1,9.7041196E-1,0E0,1.206743E0,0E0,0E0,0E0,0E0,0E0],"parents":[2147483647,0,0,1,1,2,2,3,3,5,5],"right_children":[2,4,6,8,-1,10,-1,-1,-1,-1,-1],"split_conditions":[4.778273E-1,-2.0639028E-2,-1.0872326E-2,-1.176156E-2,-6.739882E-2,3.8108972E-1,2.5908163E-2,-1.2333703E-2,1.6936285E-2,1.8750723E-2,-1.3229206E-2],"split_indices":[14,11,12,4,0,3,0,0,0,0,0],"split_type":[0,0,0,0,0,0,0,0,0,0,0],"sum_hessian":[9.935131E0,3.8305104E0,6.1046205E0,2.1108441E0,1.7196662E0,2.349226E0,3.7553947E0,1.0530542E0,1.0577899E0,1.3331921E0,1.0160339E0],"tree_param":{"num_deleted":"0","num_feature":"17","num_nodes":"11","size_leaf_vector":"1"}},{"base_weights":[1.2381197E-1,-7.5810164E-1,7.6996464E-1,1.0925104E-2,-1.5657415E0,2.677448E-2,1.6789652E-3,-1.2809814E-2,-5.8061264E-2],"categories":[],"categories_nodes":[],"categories_segments":[],"categories_sizes":[],"default_left":[0,0,0,0,0,0,0,0,0],"id":2,"left_children":[1,3,5,-1,7,-1,-1,-1,-1],"loss_changes":[6.5025353E0,5.007826E0,5.1784253E-1,0E0,4.5141554E-1,0E0,0E0,0E0,0E0],"parents":[2147483647,0,0,1,1,2,2,4,4],"right_children":[2,4,6,-1,8,-1,-1,-1,-1],"split_conditions":[4.7756442E-1,-2.0639028E-2,5.7346918E-2,1.0925104E-2,-2.204465E-3,2.677448E-2,1.6789652E-3,-1.2809814E-2,-5.8061264E-2],"split_indices":[15,11,10,0,6,0,0,0,0],"split_type":[0,0,0,0,0,0,0,0,0],"sum_hessian":[9.386619E0,3.8959305E0,5.4906883E0,1.8601775E0,2.0357528E0,4.473146E0,1.0175422E0,1.0270023E0,1.0087506E0],"tree_param":{"num_deleted":"0","num_feature":"17","num_nodes":"9","size_leaf_vector":"1"}},{"base_weights":[2.2577967E-2,-1.0366762E0,7.954457E-1,7.592326E-3,-1.6193058E0,2.7303336E-2,1.7276552E-3,-1.2515852E-2,-7.2786145E-2],"categories":[],"categories_nodes":[],"categories_segments":[],"categories_sizes":[],"default_left":[0,0,0,0,0,0,0,0,0],"id":3,"left_children":[1,3,5,-1,7,-1,-1,-1,-1],"loss_changes":[1.0055186E1,4.3102174E0,5.4699755E-1,0E0,2.5869617E0,0E0,0E0,0E0,0E0],"parents":[2147483647,0,0,1,1,2,2,4,4],"right_children":[2,4,6,-1,8,-1,-1,-1,-1],"split_conditions":[4.778273E-1,-4.50041E-3,6.2950104E-2,7.592326E-3,8.473965E-2,2.7303336E-2,1.7276552E-3,-1.2515852E-2,-7.2786145E-2],"split_indices":[14,6,10,0,8,0,0,0,0],"split_type":[0,0,0,0,0,0,0,0,0],"sum_hessian":[1.0275167E1,4.1905165E0,6.0846515E0,1.4799701E0,2.7105463E0,5.0642047E0,1.0204469E0,1.6979665E0,1.0125799E0],"tree_param":{"num_deleted":"0","num_feature":"17","num_nodes":"9","size_leaf_vector":"1"}},{"base_weights":[1.12964705E-1,-6.409842E-1,2.718586E-2,2.055216E-2,-1.2560984E0,1.7285245E-2,-1.9800671E0,-7.37307E-2,-1.9853445E-2],"categories":[],"categories_nodes":[],"categories_segments":[],"categories_sizes":[],"default_left":[0,0,0,0,0,0,0,0,0],"id":4,"left_children":[1,3,-1,-1,5,-1,7,-1,-1],"loss_changes":[7.3371606E0,6.062639E0,0E0,0E0,7.388257E0,0E0,6.4101887E-1,0E0,0E0],"parents":[2147483647,0,0,1,1,4,4,6,6],"right_children":[2,4,-1,-1,6,-1,8,-1,-1],"split_conditions":[-9.781277E-3,3.2780698E-1,2.718586E-2,2.055216E-2,-1.4646011E-2,1.7285245E-2,-1.1468791E-2,-7.37307E-2,-1.9853445E-2],"split_indices":[12,3,0,0,5,0,2,0,0],"split_type":[0,0,0,0,0,0,0,0,0],"sum_hessian":[1.029712E1,5.377681E0,4.919439E0,1.6680298E0,3.709651E0,1.1084496E0,2.6012013E0,1.274966E0,1.3262354E0],"tree_param":{"num_deleted":"0","num_feature":"17","num_nodes":"9","size_leaf_vector":"1"}},{"base_weights":[-8.970226E-3,-8.9394003E-1,6.651925E-1,-1.9209608E-2,-7.2886236E-2,2.3452406E-1,2.563069E-2,-2.828426E-2,5.0958633E-1,2.013042E-2,-1.3404514E-2,2.0035978E-2,1.7002361E-3],"categories":[],"categories_nodes":[],"categories_segments":[],"categories_sizes":[],"default_left":[0,0,0,0,0,0,0,0,0,0,0,0,0],"id":5,"left_children":[1,3,5,7,-1,9,-1,-1,11,-1,-1,-1,-1],"loss_changes":[7.667912E0,7.4123235E0,3.9456153E-1,2.7005596E0,0E0,1.3725507E0,0E0,0E0,2.1590853E-1,0E0,0E0,0E0,0E0],"parents":[2147483647,0,0,1,1,2,2,3,3,5,5,8,8],"right_children":[2,4,6,8,-1,10,-1,-1,12,-1,-1,-1,-1],"split_conditions":[4.7756442E-1,-1.5245914E-1,-1.0872326E-2,-3.5172276E-2,-7.2886236E-2,9.401918E-3,2.563069E-2,-2.828426E-2,-2.204465E-3,2.013042E-2,-1.3404514E-2,2.0035978E-2,1.7002361E-3],"split_indices":[15,16,12,0,0,11,0,0,6,0,0,0,0],"split_type":[0,0,0,0,0,0,0,0,0,0,0,0,0],"sum_hessian":[1.0855697E1,4.5529985E0,6.302698E0,3.5457366E0,1.007262E0,2.6070454E0,3.6956525E0,1.0058961E0,2.5398405E0,1.5982866E0,1.0087588E0,1.5304036E0,1.0094368E0],"tree_param":{"num_deleted":"0","num_feature":"17","num_nodes":"13","size_leaf_vector":"1"}},{"base_weights":[-1.0043349E-1,-1.559124E0,4.954069E-1,3.8045077E-3,-7.437677E-2,2.7474187E-2,-4.58865E-1,-4.2789496E-2,1.8206876E-2],"categories":[],"categories_nodes":[],"categories_segments":[],"categories_sizes":[],"default_left":[0,0,0,0,0,0,0,0,0],"id":6,"left_children":[1,3,5,-1,-1,-1,7,-1,-1],"loss_changes":[1.0287812E1,5.6137238E0,3.8429804E0,0E0,0E0,0E0,4.242779E0,0E0,0E0],"parents":[2147483647,0,0,1,1,2,2,6,6],"right_children":[2,4,6,-1,-1,-1,8,-1,-1],"split_conditions":[1.719035E-1,4.904555E-2,3.4065223E-1,3.8045077E-3,-7.437677E-2,2.7474187E-2,1.5004943E-2,-4.2789496E-2,1.8206876E-2],"split_indices":[15,15,16,0,0,0,9,0,0],"split_type":[0,0,0,0,0,0,0,0,0],"sum_hessian":[9.947991E0,2.416187E0,7.531804E0,1.1574725E0,1.2587147E0,5.2564235E0,2.2753804E0,1.0153663E0,1.2600139E0],"tree_param":{"num_deleted":"0","num_feature":"17","num_nodes":"9","size_leaf_vector":"1"}},{"base_weights":[-2.9830375E-1,-1.2405466E0,5.909019E-1,-2.5939995E-1,-8.22077E-2,6.334259E-4,2.500322E-2,-3.0148894E-2,2.026026E-2],"categories":[],"categories_nodes":[],"categories_segments":[],"categories_sizes":[],"default_left":[0,0,0,0,0,0,0,0,0],"id":7,"left_children":[1,3,5,7,-1,-1,-1,-1,-1],"loss_changes":[9.798768E0,7.4940453E0,8.453181E-1,3.7976303E0,0E0,0E0,0E0,0E0,0E0],"parents":[2147483647,0,0,1,1,2,2,3,3],"right_children":[2,4,6,8,-1,-1,-1,-1,-1],"split_conditions":[4.7756442E-1,3.6950612E-1,-1.0872326E-2,-7.375714E-3,-8.22077E-2,6.334259E-4,2.500322E-2,-3.0148894E-2,2.026026E-2],"split_indices":[15,16,12,5,0,0,0,0,0],"split_type":[0,0,0,0,0,0,0,0,0],"sum_hessian":[9.820256E0,4.5760975E0,5.2441587E0,3.4753842E0,1.1007134E0,1.8903296E0,3.3538291E0,1.8915411E0,1.5838432E0],"tree_param":{"num_deleted":"0","num_feature":"17","num_nodes":"9","size_leaf_vector":"1"}},{"base_weights":[-1.1040239E-1,-1.3503946E0,2.753186E-2,-6.735923E-2,-7.404326E-2,-2.7660437E-2,1.971161E-2],"categories":[],"categories_nodes":[],"categories_segments":[],"categories_sizes":[],"default_left":[0,0,0,0,0,0,0],"id":8,"left_children":[1,3,-1,5,-1,-1,-1],"loss_changes":[1.5076226E1,7.469434E0,0E0,2.7770646E0,0E0,0E0,0E0],"parents":[2147483647,0,0,1,1,3,3],"right_children":[2,4,-1,6,-1,-1,-1],"split_conditions":[4.778273E-1,-1.0059317E0,2.753186E-2,-9.628613E-3,-7.404326E-2,-2.7660437E-2,1.971161E-2],"split_indices":[14,16,0,5,0,0,0],"split_type":[0,0,0,0,0,0,0],"sum_hessian":[9.853561E0,4.324496E0,5.529066E0,2.5069768E0,1.817519E0,1.024962E0,1.4820149E0],"tree_param":{"num_deleted":"0","num_feature":"17","num_nodes":"7","size_leaf_vector":"1"}},{"base_weights":[-1.3097471E-1,-1.186471E0,7.7475864E-1,-2.2389103E-1,-8.147155E-2,2.6780527E-2,1.7896637E-3,4.7772044E-1,-3.511737E-2,1.9208373E-3,1.8964104E-2],"categories":[],"categories_nodes":[],"categories_segments":[],"categories_sizes":[],"default_left":[0,0,0,0,0,0,0,0,0,0,0],"id":9,"left_children":[1,3,5,7,-1,-1,-1,9,-1,-1,-1],"loss_changes":[1.188065E1,7.768121E0,5.1813555E-1,3.6025887E0,0E0,0E0,0E0,1.7300248E-1,0E0,0E0,0E0],"parents":[2147483647,0,0,1,1,2,2,3,3,7,7],"right_children":[2,4,6,8,-1,-1,-1,10,-1,-1,-1],"split_conditions":[4.7756442E-1,3.6950612E-1,6.6861056E-2,1.6785223E-2,-8.147155E-2,2.6780527E-2,1.7896637E-3,1.5698047E-1,-3.511737E-2,1.9208373E-3,1.8964104E-2],"split_indices":[15,16,10,9,0,0,0,7,0,0,0],"split_type":[0,0,0,0,0,0,0,0,0,0,0],"sum_hessian":[1.0465943E1,4.6902294E0,5.7757144E0,3.5819736E0,1.108256E0,4.7449145E0,1.0307997E0,2.3417945E0,1.240179E0,1.0210292E0,1.3207653E0],"tree_param":{"num_deleted":"0","num_feature":"17","num_nodes":"11","size_leaf_vector":"1"}},{"base_weights":[-9.3101054E-2,-8.6103004E-1,6.2124676E-1,7.009878E-2,-7.667703E-2,1.8738069E-1,2.4759153E-2,-5.377332E-1,2.1437865E-2,1.908472E-2,-1.3334337E-2,-4.1798286E-2,1.7006919E-2],"categories":[],"categories_nodes":[],"categories_segments":[],"categories_sizes":[],"default_left":[0,0,0,0,0,0,0,0,0,0,0,0,0],"id":10,"left_children":[1,3,5,7,-1,9,-1,11,-1,-1,-1,-1,-1],"loss_changes":[7.015314E0,9.825178E0,4.3862414E-1,2.3109741E0,0E0,1.2574377E0,0E0,3.721178E0,0E0,0E0,0E0,0E0,0E0],"parents":[2147483647,0,0,1,1,2,2,3,3,5,5,7,7],"right_children":[2,4,6,8,-1,10,-1,12,-1,-1,-1,-1,-1],"split_conditions":[4.778273E-1,3.6950612E-1,-1.0872326E-2,1.5938087E-1,-7.667703E-2,-2.2363238E-2,2.4759153E-2,-7.375714E-3,2.1437865E-2,1.908472E-2,-1.3334337E-2,-4.1798286E-2,1.7006919E-2],"split_indices":[14,16,12,14,0,12,0,5,0,0,0,0,0],"split_type":[0,0,0,0,0,0,0,0,0,0,0,0,0],"sum_hessian":[1.0813299E1,5.1122537E0,5.701046E0,3.9182725E0,1.193981E0,2.4372559E0,3.2637901E0,2.1017463E0,1.816526E0,1.4211106E0,1.0161451E0,1.0371568E0,1.0645895E0],"tree_param":{"num_deleted":"0","num_feature":"17","num_nodes":"13","size_leaf_vector":"1"}},{"base_weights":[2.3163158E-1,-6.3002896E-1,7.782867E-1,-4.25547E-2,-1.6366063E-2,2.6879892E-2,1.3576559E-3,2.0403968E-2,-2.6707346E-2],"categories":[],"categories_nodes":[],"categories_segments":[],"categories_sizes":[],"default_left":[0,0,0,0,0,0,0,0,0],"id":11,"left_children":[1,3,5,-1,7,-1,-1,-1,-1],"loss_changes":[5.441576E0,2.2183595E0,5.5297756E-1,0E0,2.8068974E0,0E0,0E0,0E0,0E0],"parents":[2147483647,0,0,1,1,2,2,4,4],"right_children":[2,4,6,-1,8,-1,-1,-1,-1],"split_conditions":[3.8165742E-1,-3.4703676E-2,5.8671795E-2,-4.25547E-2,2.1664895E-1,2.6879892E-2,1.3576559E-3,2.0403968E-2,-2.6707346E-2],"split_indices":[15,10,10,0,15,0,0,0,0],"split_type":[0,0,0,0,0,0,0,0,0],"sum_hessian":[9.511476E0,3.6327953E0,5.8786798E0,1.0159479E0,2.6168475E0,4.873741E0,1.0049385E0,1.5795914E0,1.0372561E0],"tree_param":{"num_deleted":"0","num_feature":"17","num_nodes":"9","size_leaf_vector":"1"}},{"base_weights":[1.959418E-2,-1.1136913E0,4.1758493E-1,-5.5494536E-2,3.5431103E-3,2.6512813E-2,-1.9545223E-1,-2.924799E-2,2.0692743E-2],"categories":[],"categories_nodes":[],"categories_segments":[],"categories_sizes":[],"default_left":[0,0,0,0,0,0,0,0,0],"id":12,"left_children":[1,3,5,-1,-1,-1,7,-1,-1],"loss_changes":[5.5113845E0,3.1025217E0,2.7469635E0,0E0,0E0,0E0,3.9222682E0,0E0,0E0],"parents":[2147483647,0,0,1,1,2,2,6,6],"right_children":[2,4,6,-1,-1,-1,8,-1,-1],"split_conditions":[1.6275176E-1,1.6287101E-2,1.0191933E-3,-5.5494536E-2,3.5431103E-3,2.6512813E-2,-9.781277E-3,-2.924799E-2,2.0692743E-2],"split_indices":[15,9,11,0,0,0,12,0,0],"split_type":[0,0,0,0,0,0,0,0,0],"sum_hessian":[1.0188265E1,2.1806219E0,8.007643E0,1.0508837E0,1.1297383E0,4.2978177E0,3.7098253E0,1.9188263E0,1.7909989E0],"tree_param":{"num_deleted":"0","num_feature":"17","num_nodes":"9","size_leaf_vector":"1"}},{"base_weights":[-1.2811387E-1,-8.2335114E-1,2.5775412E-2,1.00916345E-2,-1.2991359E0,5.1379907E-3,-1.8330772E0,-1.2512475E-2,-6.6401124E-2],"categories":[],"categories_nodes":[],"categories_segments":[],"categories_sizes":[],"default_left":[0,0,0,0,0,0,0,0,0],"id":13,"left_children":[1,3,-1,-1,5,-1,7,-1,-1],"loss_changes":[8.026819E0,4.171417E0,0E0,0E0,4.243185E0,0E0,1.0999317E0,0E0,0E0],"parents":[2147483647,0,0,1,1,4,4,6,6],"right_children":[2,4,-1,-1,6,-1,8,-1,-1],"split_conditions":[-9.781277E-3,3.296908E-1,2.5775412E-2,1.00916345E-2,-2.34214E-3,5.1379907E-3,-1.34759955E-2,-1.2512475E-2,-6.6401124E-2],"split_indices":[12,3,0,0,10,0,5,0,0],"split_type":[0,0,0,0,0,0,0,0,0],"sum_hessian":[9.663421E0,5.767846E0,3.8955743E0,1.7631357E0,4.00471E0,1.2477677E0,2.7569427E0,1.0275767E0,1.729366E0],"tree_param":{"num_deleted":"0","num_feature":"17","num_nodes":"9","size_leaf_vector":"1"}},{"base_weights":[-1.2959741E-1,-8.285631E-1,2.5734248E-2,1.85552E-2,-1.2940522E0,3.7347763E-3,-1.7048155E0,-2.1953795E0,-8.256012E-3,-1.2187337E-2,-8.747635E-2],"categories":[],"categories_nodes":[],"categories_segments":[],"categories_sizes":[],"default_left":[0,0,0,0,0,0,0,0,0,0,0],"id":14,"left_children":[1,3,-1,-1,5,-1,7,9,-1,-1,-1],"loss_changes":[8.050913E0,5.33767E0,0E0,0E0,3.3703308E0,0E0,2.3911133E0,2.729679E0,0E0,0E0,0E0],"parents":[2147483647,0,0,1,1,4,4,6,6,7,7],"right_children":[2,4,-1,-1,6,-1,8,10,-1,-1,-1],"split_conditions":[-9.781277E-3,-1.5062686E-2,2.5734248E-2,1.85552E-2,3.3099177E-1,3.7347763E-3,-1.1468791E-2,-1.9381646E-2,-8.256012E-3,-1.2187337E-2,-8.747635E-2],"split_indices":[12,5,0,0,3,0,2,2,0,0,0],"split_type":[0,0,0,0,0,0,0,0,0,0,0],"sum_hessian":[9.635413E0,5.7359276E0,3.8994853E0,1.316035E0,4.4198923E0,1.1489589E0,3.2709336E0,2.0364826E0,1.2344508E0,1.0336279E0,1.0028548E0],"tree_param":{"num_deleted":"0","num_feature":"17","num_nodes":"11","size_leaf_vector":"1"}},{"base_weights":[-1.174612E-1,-8.121496E-1,5.6380856E-1,-2.0940077E-1,-5.242674E-2,1.5224335E-3,2.4103342E-2,-8.285018E-1,1.972072E-2,3.6128534E-3,-4.274336E-2],"categories":[],"categories_nodes":[],"categories_segments":[],"categories_sizes":[],"default_left":[0,0,0,0,0,0,0,0,0,0,0],"id":15,"left_children":[1,3,5,7,-1,-1,-1,9,-1,-1,-1],"loss_changes":[5.5445347E0,2.865447E0,6.9895256E-1,3.0245852E0,0E0,0E0,0E0,1.9473264E0,0E0,0E0,0E0],"parents":[2147483647,0,0,1,1,2,2,3,3,7,7],"right_children":[2,4,6,8,-1,-1,-1,10,-1,-1,-1],"split_conditions":[4.7756442E-1,-1.7117281E-1,-1.0872326E-2,-7.375714E-3,-5.242674E-2,1.5224335E-3,2.4103342E-2,-1.9788396E-2,1.972072E-2,3.6128534E-3,-4.274336E-2],"split_indices":[15,16,12,5,0,0,0,2,0,0,0],"split_type":[0,0,0,0,0,0,0,0,0,0,0],"sum_hessian":[9.747852E0,4.7312756E0,5.016577E0,3.621531E0,1.1097444E0,1.9829195E0,3.0336573E0,2.1383235E0,1.4832073E0,1.1331047E0,1.0052189E0],"tree_param":{"num_deleted":"0","num_feature":"17","num_nodes":"11","size_leaf_vector":"1"}},{"base_weights":[-1.7541856E-1,-8.9982474E-1,5.418466E-1,-4.5985438E-2,-6.865483E-2,5.2650917E-2,2.3659172E-2,-2.463305E-2,4.6981865E-1,1.605002E-2,-1.3679465E-2,1.867196E-2,1.822713E-3],"categories":[],"categories_nodes":[],"categories_segments":[],"categories_sizes":[],"default_left":[0,0,0,0,0,0,0,0,0,0,0,0,0],"id":16,"left_children":[1,3,5,7,-1,9,-1,-1,11,-1,-1,-1,-1],"loss_changes":[5.8134446E0,6.387096E0,6.556443E-1,2.1494086E0,0E0,9.819026E-1,0E0,0E0,1.6719908E-1,0E0,0E0,0E0,0E0],"parents":[2147483647,0,0,1,1,2,2,3,3,5,5,8,8],"right_children":[2,4,6,8,-1,10,-1,-1,12,-1,-1,-1,-1],"split_conditions":[4.7756442E-1,3.6950612E-1,6.801537E-2,-4.307028E-2,-6.865483E-2,1.3998846E-2,2.3659172E-2,-2.463305E-2,-3.954403E-2,1.605002E-2,-1.3679465E-2,1.867196E-2,1.822713E-3],"split_indices":[15,16,8,13,0,9,0,0,12,0,0,0,0],"split_type":[0,0,0,0,0,0,0,0,0,0,0,0,0],"sum_hessian":[9.250129E0,4.475525E0,4.7746043E0,3.411215E0,1.0643096E0,2.0078855E0,2.7667189E0,1.1264994E0,2.2847157E0,1.0039624E0,1.0039232E0,1.2841859E0,1.0005298E0],"tree_param":{"num_deleted":"0","num_feature":"17","num_nodes":"13","size_leaf_vector":"1"}},{"base_weights":[-1.8181952E-2,-8.2551587E-1,7.344626E-1,1.7994342E-2,-1.3450338E0,2.588787E-2,1.2825594E-3,-5.9152838E-2,-9.102999E-3],"categories":[],"categories_nodes":[],"categories_segments":[],"categories_sizes":[],"default_left":[0,0,0,0,0,0,0,0,0],"id":17,"left_children":[1,3,5,-1,7,-1,-1,-1,-1],"loss_changes":[7.1427436E0,4.99852E0,5.048375E-1,0E0,2.3112917E0,0E0,0E0,0E0,0E0],"parents":[2147483647,0,0,1,1,2,2,4,4],"right_children":[2,4,6,-1,8,-1,-1,-1,-1],"split_conditions":[4.778273E-1,-4.50041E-3,1.2553282E-2,1.7994342E-2,2.1582499E-1,2.588787E-2,1.2825594E-3,-5.9152838E-2,-9.102999E-3],"split_indices":[14,6,13,0,14,0,0,0,0],"split_type":[0,0,0,0,0,0,0,0,0],"sum_hessian":[9.757162E0,4.6608357E0,5.0963264E0,1.2037432E0,3.4570928E0,4.089318E0,1.0070081E0,1.6008532E0,1.8562394E0],"tree_param":{"num_deleted":"0","num_feature":"17","num_nodes":"9","size_leaf_vector":"1"}},{"base_weights":[7.038774E-2,5.3215015E-1,-7.088986E-1,7.548454E-1,-1.2342141E-2,-4.955671E-2,1.1196583E-2,2.60294E-2,6.5244506E-3],"categories":[],"categories_nodes":[],"categories_segments":[],"categories_sizes":[],"default_left":[0,0,0,0,0,0,0,0,0],"id":18,"left_children":[1,3,5,7,-1,-1,-1,-1,-1],"loss_changes":[4.2423067E0,1.8477607E0,5.132128E0,1.914537E-1,0E0,0E0,0E0,0E0,0E0],"parents":[2147483647,0,0,1,1,2,2,3,3],"right_children":[2,4,6,8,-1,-1,-1,-1,-1],"split_conditions":[8.944312E-2,1.5785304E-3,-3.7760023E-2,1.1015717E-3,-1.2342141E-2,-4.955671E-2,1.1196583E-2,2.60294E-2,6.5244506E-3],"split_indices":[8,13,13,6,0,0,0,0,0],"split_type":[0,0,0,0,0,0,0,0,0],"sum_hessian":[9.740915E0,6.315706E0,3.4252098E0,5.271532E0,1.0441741E0,1.548908E0,1.8763018E0,3.8489408E0,1.422591E0],"tree_param":{"num_deleted":"0","num_feature":"17","num_nodes":"9","size_leaf_vector":"1"}},{"base_weights":[-2.1940567E-1,-9.4602233E-1,5.428387E-1,-3.1616516E-2,-6.82308E-2,1.0596193E-1,2.3230443E-2,-2.6222372E-2,4.8990953E-1,-1.3633386E-2,1.7293515E-2,1.928753E-2,2.0901517E-3],"categories":[],"categories_nodes":[],"categories_segments":[],"categories_sizes":[],"default_left":[0,0,0,0,0,0,0,0,0,0,0,0,0],"id":19,"left_children":[1,3,5,7,-1,9,-1,-1,11,-1,-1,-1,-1],"loss_changes":[6.3815165E0,6.9592986E0,5.051727E-1,2.3801713E0,0E0,1.0976696E0,0E0,0E0,1.7284977E-1,0E0,0E0,0E0,0E0],"parents":[2147483647,0,0,1,1,2,2,3,3,5,5,8,8],"right_children":[2,4,6,8,-1,10,-1,-1,12,-1,-1,-1,-1],"split_conditions":[4.7756442E-1,3.6950612E-1,-1.419108E-2,-6.23957E-2,-6.82308E-2,7.747156E-1,2.3230443E-2,-2.6222372E-2,-3.59282E-2,-1.3633386E-2,1.7293515E-2,1.928753E-2,2.0901517E-3],"split_indices":[15,16,2,13,0,15,0,0,1,0,0,0,0],"split_type":[0,0,0,0,0,0,0,0,0,0,0,0,0],"sum_hessian":[9.594707E0,4.7887163E0,4.80599E0,3.4426527E0,1.3460636E0,2.169559E0,2.6364312E0,1.0578387E0,2.384814E0,1.0057217E0,1.1638373E0,1.3598161E0,1.0249978E0],"tree_param":{"num_deleted":"0","num_feature":"17","num_nodes":"13","size_leaf_vector":"1"}},{"base_weights":[-1.419618E-1,-1.3376851E0,4.3821135E-1,3.535146E-3,-6.1164856E-2,-7.102562E-2,2.4981648E-2,2.2061821E-2,-3.44221E-2],"categories":[],"categories_nodes":[],"categories_segments":[],"categories_sizes":[],"default_left":[0,0,0,0,0,0,0,0,0],"id":20,"left_children":[1,3,5,-1,-1,7,-1,-1,-1],"loss_changes":[7.856172E0,3.9859776E0,1.6280142E0,0E0,0E0,4.6025944E0,0E0,0E0,0E0],"parents":[2147483647,0,0,1,1,2,2,5,5],"right_children":[2,4,6,-1,-1,8,-1,-1,-1],"split_conditions":[1.719035E-1,4.904555E-2,-1.0872326E-2,3.535146E-3,-6.1164856E-2,-5.020288E-1,2.4981648E-2,2.2061821E-2,-3.44221E-2],"split_indices":[15,15,12,0,0,16,0,0,0],"split_type":[0,0,0,0,0,0,0,0,0],"sum_hessian":[9.479609E0,2.670371E0,6.809238E0,1.1386174E0,1.5317535E0,3.3303547E0,3.4788833E0,2.0850377E0,1.245317E0],"tree_param":{"num_deleted":"0","num_feature":"17","num_nodes":"9","size_leaf_vector":"1"}},{"base_weights":[-7.352225E-2,-8.1062406E-1,6.962129E-1,1.17120475E-1,-5.9983972E-2,2.4971936E-2,1.6451897E-3,2.248443E-2,-2.7239308E-2],"categories":[],"categories_nodes":[],"categories_segments":[],"categories_sizes":[],"default_left":[0,0,0,0,0,0,0,0,0],"id":21,"left_children":[1,3,5,7,-1,-1,-1,-1,-1],"loss_changes":[6.336791E0,6.4759192E0,4.3604112E-1,3.353366E0,0E0,0E0,0E0,0E0,0E0],"parents":[2147483647,0,0,1,1,2,2,3,3],"right_children":[2,4,6,8,-1,-1,-1,-1,-1],"split_conditions":[4.778273E-1,3.6950612E-1,1.5946299E-2,1.6596269E-2,-5.9983972E-2,2.4971936E-2,1.6451897E-3,2.248443E-2,-2.7239308E-2],"split_indices":[14,16,9,9,0,0,0,0,0],"split_type":[0,0,0,0,0,0,0,0,0],"sum_hessian":[9.173945E0,4.6591763E0,4.514769E0,3.123305E0,1.5358713E0,3.47836E0,1.036409E0,2.097977E0,1.0253282E0],"tree_param":{"num_deleted":"0","num_feature":"17","num_nodes":"9","size_leaf_vector":"1"}},{"base_weights":[-1.8165354E-1,-1.2751434E0,3.461911E-1,3.728919E-3,-5.8279235E-2,-1.7618932E-1,2.4789277E-2,4.447582E-1,-2.7274325E-2,1.6943066E-3,1.7889155E-2],"categories":[],"categories_nodes":[],"categories_segments":[],"categories_sizes":[],"default_left":[0,0,0,0,0,0,0,0,0,0,0],"id":22,"left_children":[1,3,5,-1,-1,7,-1,9,-1,-1,-1],"loss_changes":[6.7110176E0,3.7442737E0,2.180199E0,0E0,0E0,2.547735E0,0E0,1.5585637E-1,0E0,0E0,0E0],"parents":[2147483647,0,0,1,1,2,2,5,5,7,7],"right_children":[2,4,6,-1,-1,8,-1,10,-1,-1,-1],"split_conditions":[1.719035E-1,-4.50041E-3,-9.781277E-3,3.728919E-3,-5.8279235E-2,-5.020288E-1,2.4789277E-2,-5.3168558E-2,-2.7274325E-2,1.6943066E-3,1.7889155E-2],"split_indices":[15,6,12,0,0,16,0,13,0,0,0],"split_type":[0,0,0,0,0,0,0,0,0,0,0],"sum_hessian":[9.862184E0,2.7498348E0,7.112349E0,1.150837E0,1.598998E0,3.7094283E0,3.4029205E0,2.2210171E0,1.4884112E0,1.0088621E0,1.212155E0],"tree_param":{"num_deleted":"0","num_feature":"17","num_nodes":"11","size_leaf_vector":"1"}},{"base_weights":[-8.129259E-2,-8.0967975E-1,7.098839E-1,-1.7512202E-1,-5.1172625E-2,2.5283393E-2,1.3558699E-3,-2.8748404E-2,2.1128614E-2],"categories":[],"categories_nodes":[],"categories_segments":[],"categories_sizes":[],"default_left":[0,0,0,0,0,0,0,0,0],"id":23,"left_children":[1,3,5,7,-1,-1,-1,-1,-1],"loss_changes":[6.8730707E0,3.2025342E0,4.717419E-1,3.9251015E0,0E0,0E0,0E0,0E0,0E0],"parents":[2147483647,0,0,1,1,2,2,3,3],"right_children":[2,4,6,8,-1,-1,-1,-1,-1],"split_conditions":[4.778273E-1,3.6950612E-1,1.5946299E-2,-7.375714E-3,-5.1172625E-2,2.5283393E-2,1.3558699E-3,-2.8748404E-2,2.1128614E-2],"split_indices":[14,16,9,5,0,0,0,0,0],"split_type":[0,0,0,0,0,0,0,0,0],"sum_hessian":[9.929169E0,5.157548E0,4.771621E0,3.7192104E0,1.4383373E0,3.753271E0,1.0183502E0,1.919824E0,1.7993864E0],"tree_param":{"num_deleted":"0","num_feature":"17","num_nodes":"9","size_leaf_vector":"1"}},{"base_weights":[-1.6398387E-2,-7.84577E-1,4.1442677E-1,1.7527994E-2,-4.4640746E-2,2.4956658E-2,-1.0048461E-1,1.8863428E-2,-2.0919811E-2],"categories":[],"categories_nodes":[],"categories_segments":[],"categories_sizes":[],"default_left":[0,0,0,0,0,0,0,0,0],"id":24,"left_children":[1,3,5,-1,-1,-1,7,-1,-1],"loss_changes":[3.8457866E0,4.8828735E0,1.6892878E0,0E0,0E0,0E0,2.2825625E0,0E0,0E0],"parents":[2147483647,0,0,1,1,2,2,6,6],"right_children":[2,4,6,-1,-1,-1,8,-1,-1],"split_conditions":[2.2665733E-1,-4.50041E-3,-3.3293483E-3,1.7527994E-2,-4.4640746E-2,2.4956658E-2,2.1269223E-4,1.8863428E-2,-2.0919811E-2],"split_indices":[14,6,10,0,0,0,11,0,0],"split_type":[0,0,0,0,0,0,0,0,0],"sum_hessian":[9.63795E0,3.168063E0,6.469887E0,1.1329241E0,2.0351388E0,3.2330842E0,3.2368026E0,1.4327058E0,1.8040968E0],"tree_param":{"num_deleted":"0","num_feature":"17","num_nodes":"9","size_leaf_vector":"1"}},{"base_weights":[2.8815083E-2,-4.8823452E-1,2.4793332E-2,1.8327186E-3,-4.3442383E-2,-2.5180323E-2,5.581091E-1,2.164415E-2,1.3280276E-3],"categories":[],"categories_nodes":[],"categories_segments":[],"categories_sizes":[],"default_left":[0,0,0,0,0,0,0,0,0],"id":25,"left_children":[1,3,-1,5,-1,-1,7,-1,-1],"loss_changes":[4.624218E0,3.2190828E0,0E0,3.0539203E0,0E0,0E0,2.9766667E-1,0E0,0E0],"parents":[2147483647,0,0,1,1,3,3,6,6],"right_children":[2,4,-1,6,-1,-1,8,-1,-1],"split_conditions":[-1.0872326E-2,3.6950612E-1,2.4793332E-2,1.5938087E-1,-4.3442383E-2,-2.5180323E-2,6.8329585E-1,2.164415E-2,1.3280276E-3],"split_indices":[12,16,0,14,0,0,15,0,0],"split_type":[0,0,0,0,0,0,0,0,0],"sum_hessian":[9.234182E0,5.8378124E0,3.3963695E0,4.5253825E0,1.3124301E0,1.5988338E0,2.9265487E0,1.9139751E0,1.0125736E0],"tree_param":{"num_deleted":"0","num_feature":"17","num_nodes":"9","size_leaf_vector":"1"}},{"base_weights":[-9.200328E-2,4.8747376E-1,-1.0158476E0,2.6538998E-2,-1.9168938E-2,-5.536367E-2,1.7313994E-2],"categories":[],"categories_nodes":[],"categories_segments":[],"categories_sizes":[],"default_left":[0,0,0,0,0,0,0],"id":26,"left_children":[1,3,5,-1,-1,-1,-1],"loss_changes":[5.8239236E0,3.6041346E0,6.5641704E0,0E0,0E0,0E0,0E0],"parents":[2147483647,0,0,1,1,2,2],"right_children":[2,4,6,-1,-1,-1,-1],"split_conditions":[3.6950612E-1,1.6794655E-2,5.8581525E-1,2.6538998E-2,-1.9168938E-2,-5.536367E-2,1.7313994E-2],"split_indices":[16,9,15,0,0,0,0],"split_type":[0,0,0,0,0,0,0],"sum_hessian":[8.953786E0,5.79269E0,3.161096E0,4.4414034E0,1.3512864E0,1.9743712E0,1.1867249E0],"tree_param":{"num_deleted":"0","num_feature":"17","num_nodes":"7","size_leaf_vector":"1"}},{"base_weights":[-1.8083803E-2,-9.689305E-1,3.6489952E-1,4.049727E-3,-4.906796E-2,-8.721332E-2,2.449893E-2,4.69273E-1,-2.2492385E-2,1.6034313E-3,1.8741226E-2],"categories":[],"categories_nodes":[],"categories_segments":[],"categories_sizes":[],"default_left":[0,0,0,0,0,0,0,0,0,0,0],"id":27,"left_children":[1,3,5,-1,-1,7,-1,9,-1,-1,-1],"loss_changes":[4.204918E0,2.656987E0,1.7593683E0,0E0,0E0,2.2080622E0,0E0,1.8322092E-1,0E0,0E0,0E0],"parents":[2147483647,0,0,1,1,2,2,5,5,7,7],"right_children":[2,4,6,-1,-1,8,-1,10,-1,-1,-1],"split_conditions":[1.3940342E-1,-1.2500739E0,-9.781277E-3,4.049727E-3,-4.906796E-2,-5.020288E-1,2.449893E-2,-1.4740319E0,-2.2492385E-2,1.6034313E-3,1.8741226E-2],"split_indices":[15,16,12,0,0,16,0,16,0,0,0],"split_type":[0,0,0,0,0,0,0,0,0,0,0],"sum_hessian":[9.576043E0,2.3102777E0,7.2657657E0,1.1701559E0,1.1401218E0,4.0346475E0,3.2311184E0,2.3513546E0,1.683293E0,1.0054337E0,1.3459209E0],"tree_param":{"num_deleted":"0","num_feature":"17","num_nodes":"11","size_leaf_vector":"1"}},{"base_weights":[3.644753E-2,-3.6304697E-1,6.2062025E-1,3.7774843E-1,-1.1927426E0,1.9720064E-3,2.2924103E-2,2.185949E-2,-8.009499E-3,-8.41068E-3,-4.579031E-2],"categories":[],"categories_nodes":[],"categories_segments":[],"categories_sizes":[],"default_left":[0,0,0,0,0,0,0,0,0,0,0],"id":28,"left_children":[1,3,5,7,9,-1,-1,-1,-1,-1,-1],"loss_changes":[2.6000414E0,4.5526004E0,3.0826402E-1,1.1640413E0,6.034827E-1,0E0,0E0,0E0,0E0,0E0,0E0],"parents":[2147483647,0,0,1,1,2,2,3,3,4,4],"right_children":[2,4,6,8,10,-1,-1,-1,-1,-1,-1],"split_conditions":[-9.781277E-3,4.6944813E-4,-4.221577E-2,1.5844189E-2,-2.664676E-2,1.9720064E-3,2.2924103E-2,2.185949E-2,-8.009499E-3,-8.41068E-3,-4.579031E-2],"split_indices":[12,11,10,9,12,0,0,0,0,0,0],"split_type":[0,0,0,0,0,0,0,0,0,0,0],"sum_hessian":[9.175638E0,5.6739545E0,3.5016832E0,3.2853434E0,2.388611E0,1.0191815E0,2.4825017E0,2.0431697E0,1.2421737E0,1.132275E0,1.2563362E0],"tree_param":{"num_deleted":"0","num_feature":"17","num_nodes":"11","size_leaf_vector":"1"}},{"base_weights":[-2.4274524E-1,-8.3624303E-1,5.070249E-1,-9.084305E-2,-6.040991E-2,-1.9255719E-4,2.2981284E-2,-2.9458258E-2,5.2854425E-1,2.0512715E-2,1.9376118E-3],"categories":[],"categories_nodes":[],"categories_segments":[],"categories_sizes":[],"default_left":[0,0,0,0,0,0,0,0,0,0,0],"id":29,"left_children":[1,3,5,7,-1,-1,-1,-1,9,-1,-1],"loss_changes":[5.303718E0,5.5203266E0,7.3206687E-1,3.293266E0,0E0,0E0,0E0,0E0,2.1618986E-1,0E0,0E0],"parents":[2147483647,0,0,1,1,2,2,3,3,8,8],"right_children":[2,4,6,8,-1,-1,-1,-1,10,-1,-1],"split_conditions":[4.778273E-1,3.6950612E-1,-1.0872326E-2,-4.307028E-2,-6.040991E-2,-1.9255719E-4,2.2981284E-2,-2.9458258E-2,3.9972234E-1,2.0512715E-2,1.9376118E-3],"split_indices":[14,16,12,13,0,0,0,0,3,0,0],"split_type":[0,0,0,0,0,0,0,0,0,0,0],"sum_hessian":[9.96599E0,5.4983287E0,4.4676614E0,4.026434E0,1.4718951E0,1.8250802E0,2.6425815E0,1.4110472E0,2.6153865E0,1.604773E0,1.0106136E0],"tree_param":{"num_deleted":"0","num_feature":"17","num_nodes":"11","size_leaf_vector":"1"}},{"base_weights":[-1.0181271E-1,-5.561733E-1,2.3770336E-2,1.103924E-2,-9.154197E-1,-1.4604615E0,9.080639E-3,-5.841676E-2,-1.7410232E-2],"categories":[],"categories_nodes":[],"categories_segments":[],"categories_sizes":[],"default_left":[0,0,0,0,0,0,0,0,0],"id":30,"left_children":[1,3,-1,-1,5,7,-1,-1,-1],"loss_changes":[4.713187E0,2.8469663E0,0E0,0E0,4.2469916E0,6.397362E-1,0E0,0E0,0E0],"parents":[2147483647,0,0,1,1,4,4,5,5],"right_children":[2,4,-1,-1,6,8,-1,-1,-1],"split_conditions":[5.8581525E-1,1.5159307E-1,2.3770336E-2,1.103924E-2,-9.781277E-3,2.2665733E-1,9.080639E-3,-5.841676E-2,-1.7410232E-2],"split_indices":[15,7,0,0,12,14,0,0,0],"split_type":[0,0,0,0,0,0,0,0,0],"sum_hessian":[9.516425E0,6.5606585E0,2.955767E0,1.8296516E0,4.7310066E0,3.1310573E0,1.5999495E0,1.2353659E0,1.8956913E0],"tree_param":{"num_deleted":"0","num_feature":"17","num_nodes":"9","size_leaf_vector":"1"}},{"base_weights":[-1.563436E-2,-8.73286E-1,4.327732E-1,-3.86948E-2,3.5844618E-3,2.5184808E-2,-9.105833E-2,1.8711183E-2,-2.0029886E-2],"categories":[],"categories_nodes":[],"categories_segments":[],"categories_sizes":[],"default_left":[0,0,0,0,0,0,0,0,0],"id":31,"left_children":[1,3,5,-1,-1,-1,7,-1,-1],"loss_changes":[4.4488716E0,1.7940218E0,1.6998689E0,0E0,0E0,0E0,2.1608236E0,0E0,0E0],"parents":[2147483647,0,0,1,1,2,2,6,6],"right_children":[2,4,6,-1,-1,-1,8,-1,-1],"split_conditions":[2.1582499E-1,-1.1468791E-2,-3.3293483E-3,-3.86948E-2,3.5844618E-3,2.5184808E-2,2.1269223E-4,1.8711183E-2,-2.0029886E-2],"split_indices":[14,2,10,0,0,0,11,0,0],"split_type":[0,0,0,0,0,0,0,0,0],"sum_hessian":[9.585479E0,2.9656565E0,6.619823E0,1.8783327E0,1.0873238E0,3.3872476E0,3.2325752E0,1.4068913E0,1.8256837E0],"tree_param":{"num_deleted":"0","num_feature":"17","num_nodes":"9","size_leaf_vector":"1"}},{"base_weights":[4.6996593E-2,-7.9410416E-1,4.351695E-1,5.8222744E-3,-4.2925972E-2,2.4772892E-2,-4.494571E-2,2.0512184E-2,-2.226634E-2],"categories":[],"categories_nodes":[],"categories_segments":[],"categories_sizes":[],"default_left":[0,0,0,0,0,0,0,0,0],"id":32,"left_children":[1,3,5,-1,-1,-1,7,-1,-1],"loss_changes":[3.6717517E0,2.5246904E0,1.46546E0,0E0,0E0,0E0,2.7253523E0,0E0,0E0],"parents":[2147483647,0,0,1,1,2,2,6,6],"right_children":[2,4,6,-1,-1,-1,8,-1,-1],"split_conditions":[1.719035E-1,-1.0419949E0,1.0191933E-3,5.8222744E-3,-4.2925972E-2,2.4772892E-2,-3.3293483E-3,2.0512184E-2,-2.226634E-2],"split_indices":[15,16,11,0,0,0,10,0,0],"split_type":[0,0,0,0,0,0,0,0,0],"sum_hessian":[9.18762E0,2.570993E0,6.616627E0,1.27992E0,1.291073E0,3.2514837E0,3.3651435E0,1.6549835E0,1.7101601E0],"tree_param":{"num_deleted":"0","num_feature":"17","num_nodes":"9","size_leaf_vector":"1"}},{"base_weights":[-1.1130533E-1,-5.6791955E-1,6.188923E-1,2.1090023E-1,-1.4597315E0,1.9964287E-3,2.2834955E-2,2.2609107E-2,-1.9290783E-2,-1.5858537E-2,-5.4376055E-2],"categories":[],"categories_nodes":[],"categories_segments":[],"categories_sizes":[],"default_left":[0,0,0,0,0,0,0,0,0,0,0],"id":33,"left_children":[1,3,5,7,9,-1,-1,-1,-1,-1,-1],"loss_changes":[3.8135157E0,5.107267E0,3.0088687E-1,2.5991004E0,1.4153576E-1,0E0,0E0,0E0,0E0,0E0,0E0],"parents":[2147483647,0,0,1,1,2,2,3,3,4,4],"right_children":[2,4,6,8,10,-1,-1,-1,-1,-1,-1],"split_conditions":[-9.781277E-3,-6.689673E-1,-4.528345E-2,1.678985E-2,-1.7280174E-2,1.9964287E-3,2.2834955E-2,2.2609107E-2,-1.9290783E-2,-1.5858537E-2,-5.4376055E-2],"split_indices":[12,16,10,9,2,0,0,0,0,0,0],"split_type":[0,0,0,0,0,0,0,0,0,0,0],"sum_hessian":[9.383447E0,5.9099927E0,3.4734545E0,3.562433E0,2.3475595E0,1.0120659E0,2.4613886E0,2.2498949E0,1.3125381E0,1.3315884E0,1.0159712E0],"tree_param":{"num_deleted":"0","num_feature":"17","num_nodes":"11","size_leaf_vector":"1"}},{"base_weights":[5.035851E-2,-6.422058E-1,4.9642184E-1,9.09615E-3,-3.867804E-2,-7.117853E-3,2.5519537E-2],"categories":[],"categories_nodes":[],"categories_segments":[],"categories_sizes":[],"default_left":[0,0,0,0,0,0,0],"id":34,"left_children":[1,3,5,-1,-1,-1,-1],"loss_changes":[3.4519541E0,3.0881777E0,1.9516428E0,0E0,0E0,0E0,0E0],"parents":[2147483647,0,0,1,1,2,2],"right_children":[2,4,6,-1,-1,-1,-1],"split_conditions":[2.2665733E-1,-2.0639028E-2,-1.3604447E-2,9.09615E-3,-3.867804E-2,-7.117853E-3,2.5519537E-2],"split_indices":[14,11,0,0,0,0,0],"split_type":[0,0,0,0,0,0,0],"sum_hessian":[9.142019E0,3.409172E0,5.7328477E0,1.6011598E0,1.8080121E0,1.9741569E0,3.7586906E0],"tree_param":{"num_deleted":"0","num_feature":"17","num_nodes":"7","size_leaf_vector":"1"}},{"base_weights":[-5.8063503E-2,-5.6423736E-1,2.4215674E-2,8.3246365E-2,-4.430322E-2,2.3992624E-2,-3.4904134E-2],"categories":[],"categories_nodes":[],"categories_segments":[],"categories_sizes":[],"default_left":[0,0,0,0,0,0,0],"id":35,"left_children":[1,3,-1,5,-1,-1,-1],"loss_changes":[4.8469367E0,4.208522E0,0E0,5.3892407E0,0E0,0E0,0E0],"parents":[2147483647,0,0,1,1,3,3],"right_children":[2,4,-1,6,-1,-1,-1],"split_conditions":[-9.781277E-3,3.6950612E-1,2.4215674E-2,1.6785223E-2,-4.430322E-2,2.3992624E-2,-3.4904134E-2],"split_indices":[12,16,0,9,0,0,0],"split_type":[0,0,0,0,0,0,0],"sum_hessian":[9.02696E0,5.914729E0,3.1122308E0,3.9914205E0,1.9233085E0,2.762361E0,1.2290595E0],"tree_param":{"num_deleted":"0","num_feature":"17","num_nodes":"7","size_leaf_vector":"1"}},{"base_weights":[-7.04301E-2,-4.8169288E-1,2.3122627E-2,1.501142E-1,-9.825514E-1,-2.5382191E-2,2.2675885E-2,-5.4274447E-2,-1.2916164E-1,1.7005669E-2,-2.3672586E-2],"categories":[],"categories_nodes":[],"categories_segments":[],"categories_sizes":[],"default_left":[0,0,0,0,0,0,0,0,0,0,0],"id":36,"left_children":[1,3,-1,5,7,-1,-1,-1,9,-1,-1],"loss_changes":[3.8131866E0,2.456802E0,0E0,3.1102622E0,2.731299E0,0E0,0E0,0E0,1.8918389E0,0E0,0E0],"parents":[2147483647,0,0,1,1,3,3,4,4,8,8],"right_children":[2,4,-1,6,8,-1,-1,-1,10,-1,-1],"split_conditions":[-9.781277E-3,-1.5759014E-2,2.3122627E-2,-2.4937762E-2,-1.0025257E-2,-2.5382191E-2,2.2675885E-2,-5.4274447E-2,-9.2784764E-4,1.7005669E-2,-2.3672586E-2],"split_indices":[12,2,0,2,2,0,0,0,4,0,0],"split_type":[0,0,0,0,0,0,0,0,0,0,0],"sum_hessian":[8.949245E0,6.2976365E0,2.651609E0,3.094443E0,3.2031937E0,1.0200973E0,2.0743458E0,1.058231E0,2.1449625E0,1.1125717E0,1.0323908E0],"tree_param":{"num_deleted":"0","num_feature":"17","num_nodes":"11","size_leaf_vector":"1"}},{"base_weights":[-2.524709E-1,-1.0736083E0,2.4299069E-1,2.8143532E-3,-4.6219274E-2,2.2892416E-2,-2.1561371E-1,-2.540201E-2,1.9212665E-2],"categories":[],"categories_nodes":[],"categories_segments":[],"categories_sizes":[],"default_left":[0,0,0,0,0,0,0,0,0],"id":37,"left_children":[1,3,5,-1,-1,-1,7,-1,-1],"loss_changes":[4.3270187E0,2.295796E0,1.8457679E0,0E0,0E0,0E0,2.987212E0,0E0,0E0],"parents":[2147483647,0,0,1,1,2,2,6,6],"right_children":[2,4,6,-1,-1,-1,8,-1,-1],"split_conditions":[1.719035E-1,4.904555E-2,-5.2343537E-3,2.8143532E-3,-4.6219274E-2,2.2892416E-2,-1.1468791E-2,-2.540201E-2,1.9212665E-2],"split_indices":[15,15,10,0,0,0,2,0,0],"split_type":[0,0,0,0,0,0,0,0,0],"sum_hessian":[8.994401E0,2.9456453E0,6.0487556E0,1.0700452E0,1.8756002E0,2.5232701E0,3.5254858E0,2.0355933E0,1.4898925E0],"tree_param":{"num_deleted":"0","num_feature":"17","num_nodes":"9","size_leaf_vector":"1"}},{"base_weights":[-9.6476205E-2,-5.1444846E-1,2.329583E-2,4.2512633E-2,-4.1513875E-2,-2.3439324E-2,5.7645446E-1,2.1699691E-2,2.2502257E-3],"categories":[],"categories_nodes":[],"categories_segments":[],"categories_sizes":[],"default_left":[0,0,0,0,0,0,0,0,0],"id":38,"left_children":[1,3,-1,5,-1,-1,7,-1,-1],"loss_changes":[4.2093954E0,3.7688243E0,0E0,2.9314497E0,0E0,0E0,2.4016619E-1,0E0,0E0],"parents":[2147483647,0,0,1,1,3,3,6,6],"right_children":[2,4,-1,6,-1,-1,8,-1,-1],"split_conditions":[5.8581525E-1,3.6950612E-1,2.329583E-2,-4.307028E-2,-4.1513875E-2,-2.3439324E-2,2.9682774E-2,2.1699691E-2,2.2502257E-3],"split_indices":[15,16,0,13,0,0,10,0,0],"split_type":[0,0,0,0,0,0,0,0,0],"sum_hessian":[9.441223E0,6.66223E0,2.7789931E0,4.6403894E0,2.0218403E0,1.642647E0,2.9977424E0,1.9764029E0,1.0213395E0],"tree_param":{"num_deleted":"0","num_feature":"17","num_nodes":"9","size_leaf_vector":"1"}},{"base_weights":[-6.979273E-2,-5.440938E-1,2.3749037E-2,4.1401958E-1,-1.0264969E0,1.6750855E-2,1.831264E-3,-4.920364E-2,-3.041898E-1,1.7051654E-2,-2.6805483E-2],"categories":[],"categories_nodes":[],"categories_segments":[],"categories_sizes":[],"default_left":[0,0,0,0,0,0,0,0,0,0,0],"id":39,"left_children":[1,3,-1,5,7,-1,-1,-1,9,-1,-1],"loss_changes":[4.431727E0,3.617847E0,0E0,1.20087504E-1,1.6649389E0,0E0,0E0,0E0,2.292324E0,0E0,0E0],"parents":[2147483647,0,0,1,1,3,3,4,4,8,8],"right_children":[2,4,-1,6,8,-1,-1,-1,10,-1,-1],"split_conditions":[-1.0872326E-2,1.5375584E-1,2.3749037E-2,-1.5561534E0,1.6275176E-1,1.6750855E-2,1.831264E-3,-4.920364E-2,-1.3456582E-2,1.7051654E-2,-2.6805483E-2],"split_indices":[12,7,0,16,15,0,0,0,10,0,0],"split_type":[0,0,0,0,0,0,0,0,0,0,0],"sum_hessian":[8.792561E0,5.9080014E0,2.8845587E0,2.0259552E0,3.8820462E0,1.0249585E0,1.0009968E0,1.4119099E0,2.4701362E0,1.0100893E0,1.460047E0],"tree_param":{"num_deleted":"0","num_feature":"17","num_nodes":"11","size_leaf_vector":"1"}},{"base_weights":[-1.1289716E-1,-4.7875673E-1,5.6867474E-1,3.528334E-1,-1.205733E0,2.3056257E-3,2.1359505E-2,-1.282381E-2,2.2131376E-2,-4.978529E-3,-4.905091E-2],"categories":[],"categories_nodes":[],"categories_segments":[],"categories_sizes":[],"default_left":[0,0,0,0,0,0,0,0,0,0,0],"id":40,"left_children":[1,3,5,7,9,-1,-1,-1,-1,-1,-1],"loss_changes":[2.8290687E0,4.787202E0,2.299267E-1,1.5583497E0,1.5480947E0,0E0,0E0,0E0,0E0,0E0,0E0],"parents":[2147483647,0,0,1,1,2,2,3,3,4,4],"right_children":[2,4,6,8,10,-1,-1,-1,-1,-1,-1],"split_conditions":[-9.781277E-3,-1.0059317E0,-4.3678362E-2,-3.9294604E-2,-2.0884013E-2,2.3056257E-3,2.1359505E-2,-1.282381E-2,2.2131376E-2,-4.978529E-3,-4.905091E-2],"split_indices":[12,16,10,0,2,0,0,0,0,0,0],"split_type":[0,0,0,0,0,0,0,0,0,0,0],"sum_hessian":[9.253511E0,6.214964E0,3.0385478E0,3.1389575E0,3.0760064E0,1.0322517E0,2.006296E0,1.0003136E0,2.138644E0,1.3040615E0,1.7719449E0],"tree_param":{"num_deleted":"0","num_feature":"17","num_nodes":"11","size_leaf_vector":"1"}},{"base_weights":[1.4330095E-1,4.5519346E-1,-6.7059565E-1,-7.444125E-3,7.2828615E-1,-3.61157E-2,4.2023766E-3,2.3611172E-3,2.5426554E-2],"categories":[],"categories_nodes":[],"categories_segments":[],"categories_sizes":[],"default_left":[0,0,0,0,0,0,0,0,0],"id":41,"left_children":[1,3,5,-1,7,-1,-1,-1,-1],"loss_changes":[2.8283043E0,1.675303E0,1.5338119E0,0E0,3.8721514E-1,0E0,0E0,0E0,0E0],"parents":[2147483647,0,0,1,1,2,2,4,4],"right_children":[2,4,6,-1,8,-1,-1,-1,-1],"split_conditions":[1.0010812E0,-5.3557362E-2,5.5208936E-4,-7.444125E-3,7.9971865E-2,-3.61157E-2,4.2023766E-3,2.3611172E-3,2.5426554E-2],"split_indices":[16,12,6,0,14,0,0,0,0],"split_type":[0,0,0,0,0,0,0,0,0],"sum_hessian":[8.939219E0,6.7812905E0,2.1579285E0,1.9221944E0,4.859096E0,1.0091231E0,1.1488054E0,1.011244E0,3.8478522E0],"tree_param":{"num_deleted":"0","num_feature":"17","num_nodes":"9","size_leaf_vector":"1"}},{"base_weights":[-1.2540442E-1,3.6737633E-1,-9.1798234E-1,2.6472958E-2,-2.8642526E-2,-4.755365E-2,6.4698383E-3],"categories":[],"categories_nodes":[],"categories_segments":[],"categories_sizes":[],"default_left":[0,0,0,0,0,0,0],"id":42,"left_children":[1,3,5,-1,-1,-1,-1],"loss_changes":[4.255211E0,5.54105E0,3.466636E0,0E0,0E0,0E0,0E0],"parents":[2147483647,0,0,1,1,2,2],"right_children":[2,4,6,-1,-1,-1,-1],"split_conditions":[3.6950612E-1,1.7202083E-2,-3.7957536E-4,2.6472958E-2,-2.8642526E-2,-4.755365E-2,6.4698383E-3],"split_indices":[16,9,6,0,0,0,0],"split_type":[0,0,0,0,0,0,0],"sum_hessian":[9.03148E0,5.8997955E0,3.1316845E0,4.4851146E0,1.4146808E0,1.7207716E0,1.4109131E0],"tree_param":{"num_deleted":"0","num_feature":"17","num_nodes":"7","size_leaf_vector":"1"}},{"base_weights":[-4.6050575E-2,-5.503969E-1,2.3720048E-2,-4.0602252E-2,-4.134005E-2,5.02677E-1,-2.398927E-2,1.9830374E-2,1.6283937E-3],"categories":[],"categories_nodes":[],"categories_segments":[],"categories_sizes":[],"default_left":[0,0,0,0,0,0,0,0,0],"id":43,"left_children":[1,3,-1,5,-1,7,-1,-1,-1],"loss_changes":[4.342547E0,2.6301818E0,0E0,2.4514976E0,0E0,2.1337658E-1,0E0,0E0,0E0],"parents":[2147483647,0,0,1,1,3,3,5,5],"right_children":[2,4,-1,6,-1,8,-1,-1,-1],"split_conditions":[-1.0872326E-2,1.678985E-2,2.3720048E-2,3.6950612E-1,-4.134005E-2,-1.9381646E-2,-2.398927E-2,1.9830374E-2,1.6283937E-3],"split_indices":[12,9,0,16,0,2,0,0,0],"split_type":[0,0,0,0,0,0,0,0,0],"sum_hessian":[8.259246E0,5.366621E0,2.8926246E0,3.970129E0,1.3964919E0,2.5107899E0,1.4593394E0,1.5051373E0,1.0056524E0],"tree_param":{"num_deleted":"0","num_feature":"17","num_nodes":"9","size_leaf_vector":"1"}},{"base_weights":[-1.4341919E-1,-6.2227046E-1,4.2788717E-1,-9.37594E-1,6.2439754E-3,2.145512E-2,-1.9337783E-3,-3.4123182E-2,-6.8027587E-3],"categories":[],"categories_nodes":[],"categories_segments":[],"categories_sizes":[],"default_left":[0,0,0,0,0,0,0,0,0],"id":44,"left_children":[1,3,5,7,-1,-1,-1,-1,-1],"loss_changes":[2.7952917E0,1.6187062E0,7.2613883E-1,3.2764316E-1,0E0,0E0,0E0,0E0,0E0],"parents":[2147483647,0,0,1,1,2,2,3,3],"right_children":[2,4,6,8,-1,-1,-1,-1,-1],"split_conditions":[3.8165742E-1,9.9319585E-2,9.401918E-3,4.5296565E-1,6.2439754E-3,2.145512E-2,-1.9337783E-3,-3.4123182E-2,-6.8027587E-3],"split_indices":[15,8,11,3,0,0,0,0,0],"split_type":[0,0,0,0,0,0,0,0,0],"sum_hessian":[8.244517E0,4.4366493E0,3.8078682E0,3.1220505E0,1.3145988E0,2.1189106E0,1.6889577E0,1.9684826E0,1.1535678E0],"tree_param":{"num_deleted":"0","num_feature":"17","num_nodes":"9","size_leaf_vector":"1"}},{"base_weights":[-5.2542847E-2,-7.1717536E-1,4.1162193E-1,5.9458027E-3,-3.658774E-2,2.2856357E-2,-5.9058517E-2,-1.965363E-2,1.7300751E-2],"categories":[],"categories_nodes":[],"categories_segments":[],"categories_sizes":[],"default_left":[0,0,0,0,0,0,0,0,0],"id":45,"left_children":[1,3,5,-1,-1,-1,7,-1,-1],"loss_changes":[3.083249E0,2.118495E0,1.0269887E0,0E0,0E0,0E0,1.6925427E0,0E0,0E0],"parents":[2147483647,0,0,1,1,2,2,6,6],"right_children":[2,4,6,-1,-1,-1,8,-1,-1],"split_conditions":[1.719035E-1,4.904555E-2,1.0191933E-3,5.9458027E-3,-3.658774E-2,2.2856357E-2,7.83844E-1,-1.965363E-2,1.7300751E-2],"split_indices":[15,15,11,0,0,0,14,0,0],"split_type":[0,0,0,0,0,0,0,0,0],"sum_hessian":[8.037448E0,3.0808804E0,4.9565673E0,1.3063381E0,1.7745423E0,2.4871106E0,2.469457E0,1.2587845E0,1.2106723E0],"tree_param":{"num_deleted":"0","num_feature":"17","num_nodes":"9","size_leaf_vector":"1"}},{"base_weights":[-6.972072E-2,-7.886438E-1,4.526817E-1,4.6618944E-3,-3.5491403E-2,2.2449078E-2,8.905473E-2,-1.3898682E-2,1.8592361E-2],"categories":[],"categories_nodes":[],"categories_segments":[],"categories_sizes":[],"default_left":[0,0,0,0,0,0,0,0,0],"id":46,"left_children":[1,3,5,-1,-1,-1,7,-1,-1],"loss_changes":[4.008983E0,1.8432922E0,6.0703564E-1,0E0,0E0,0E0,1.4435953E0,0E0,0E0],"parents":[2147483647,0,0,1,1,2,2,6,6],"right_children":[2,4,6,-1,-1,-1,8,-1,-1],"split_conditions":[2.2665733E-1,2.4467159E-2,-2.0426719E-1,4.6618944E-3,-3.5491403E-2,2.2449078E-2,-1.1538443E-2,-1.3898682E-2,1.8592361E-2],"split_indices":[14,14,16,0,0,0,1,0,0],"split_type":[0,0,0,0,0,0,0,0,0],"sum_hessian":[8.723904E0,3.4569073E0,5.2669964E0,1.1972278E0,2.2596796E0,2.321655E0,2.9453413E0,1.5054607E0,1.4398806E0],"tree_param":{"num_deleted":"0","num_feature":"17","num_nodes":"9","size_leaf_vector":"1"}},{"base_weights":[5.1286153E-2,-3.618019E-1,6.073011E-1,2.1210961E-1,-3.4471978E-2,1.4924646E-3,2.2643616E-2,-7.4611283E-3,1.9895237E-2],"categories":[],"categories_nodes":[],"categories_segments":[],"categories_sizes":[],"default_left":[0,0,0,0,0,0,0,0,0],"id":47,"left_children":[1,3,5,7,-1,-1,-1,-1,-1],"loss_changes":[2.4821339E0,3.0802991E0,3.3841455E-1,1.0951446E0,0E0,0E0,0E0,0E0,0E0],"parents":[2147483647,0,0,1,1,2,2,3,3],"right_children":[2,4,6,8,-1,-1,-1,-1,-1],"split_conditions":[4.7756442E-1,3.6950612E-1,-1.313697E-2,1.5698047E-1,-3.4471978E-2,1.4924646E-3,2.2643616E-2,-7.4611283E-3,1.9895237E-2],"split_indices":[15,16,0,7,0,0,0,0,0],"split_type":[0,0,0,0,0,0,0,0,0],"sum_hessian":[8.850141E0,5.2781014E0,3.5720396E0,3.4752414E0,1.8028598E0,1.026981E0,2.5450585E0,1.9409599E0,1.5342816E0],"tree_param":{"num_deleted":"0","num_feature":"17","num_nodes":"9","size_leaf_vector":"1"}},{"base_weights":[1.1501942E-1,4.3089417E-1,-2.4422606E-2,-9.38614E-3,6.0357124E-1,1.22524545E-1,2.4437137E-2,1.6210387E-2,-1.1050703E-2],"categories":[],"categories_nodes":[],"categories_segments":[],"categories_sizes":[],"default_left":[0,0,0,0,0,0,0,0,0],"id":48,"left_children":[1,3,-1,-1,5,7,-1,-1,-1],"loss_changes":[2.935787E0,1.1170372E0,0E0,0E0,5.301938E-1,8.2859E-1,0E0,0E0,0E0],"parents":[2147483647,0,0,1,1,4,4,5,5],"right_children":[2,4,-1,-1,6,8,-1,-1,-1],"split_conditions":[1.6794655E-2,1.0448652E-1,-2.4422606E-2,-9.38614E-3,1.4784357E-2,1.4168482E-2,2.4437137E-2,1.6210387E-2,-1.1050703E-2],"split_indices":[9,15,0,0,9,9,0,0,0],"split_type":[0,0,0,0,0,0,0,0,0],"sum_hessian":[7.808064E0,6.22719E0,1.580874E0,1.0203571E0,5.206833E0,2.069465E0,3.137368E0,1.0634904E0,1.0059747E0],"tree_param":{"num_deleted":"0","num_feature":"17","num_nodes":"9","size_leaf_vector":"1"}},{"base_weights":[-4.760766E-2,-5.3475827E-1,6.09676E-1,-3.803683E-2,-3.621113E-2,2.2670267E-2,1.5258391E-3,2.236032E-2,-2.8375672E-2],"categories":[],"categories_nodes":[],"categories_segments":[],"categories_sizes":[],"default_left":[0,0,0,0,0,0,0,0,0],"id":49,"left_children":[1,3,5,-1,7,-1,-1,-1,-1],"loss_changes":[3.4264417E0,2.1814234E0,3.3596396E-1,0E0,4.015591E0,0E0,0E0,0E0,0E0],"parents":[2147483647,0,0,1,1,2,2,4,4],"right_children":[2,4,6,-1,8,-1,-1,-1,-1],"split_conditions":[3.8165742E-1,-4.307028E-2,6.9177586E-1,-3.803683E-2,3.6950612E-1,2.2670267E-2,1.5258391E-3,2.236032E-2,-2.8375672E-2],"split_indices":[15,13,16,0,16,0,0,0,0],"split_type":[0,0,0,0,0,0,0,0,0],"sum_hessian":[8.682855E0,5.0938916E0,3.588963E0,1.4372183E0,3.6566732E0,2.566214E0,1.022749E0,2.063963E0,1.5927103E0],"tree_param":{"num_deleted":"0","num_feature":"17","num_nodes":"9","size_leaf_vector":"1"}},{"base_weights":[-1.5858337E-1,-7.195446E-1,3.7637737E-1,7.85588E-3,-3.5621546E-2,-5.717755E-3,5.968595E-1,2.2521392E-2,1.487359E-3],"categories":[],"categories_nodes":[],"categories_segments":[],"categories_sizes":[],"default_left":[0,0,0,0,0,0,0,0,0],"id":50,"left_children":[1,3,5,-1,-1,-1,7,-1,-1],"loss_changes":[3.1490197E0,2.618205E0,8.095258E-1,0E0,0E0,0E0,3.205924E-1,0E0,0E0],"parents":[2147483647,0,0,1,1,2,2,6,6],"right_children":[2,4,6,-1,-1,-1,8,-1,-1],"split_conditions":[3.362509E-1,1.5159307E-1,-1.3937978E-2,7.85588E-3,-3.5621546E-2,-5.717755E-3,3.9529562E-2,2.2521392E-2,1.487359E-3],"split_indices":[14,7,0,0,0,0,10,0,0],"split_type":[0,0,0,0,0,0,0,0,0],"sum_hessian":[8.59105E0,4.025187E0,4.5658627E0,1.4415219E0,2.583665E0,1.3163753E0,3.2494876E0,2.2462885E0,1.0031991E0],"tree_param":{"num_deleted":"0","num_feature":"17","num_nodes":"9","size_leaf_vector":"1"}},{"base_weights":[-1.7802514E-1,-5.543816E-1,5.617312E-1,1.763206E-1,-9.201528E-1,2.1403567E-3,2.1161476E-2,-1.122197E-2,1.807047E-2,-1.9961374E-3,-3.7357334E-2],"categories":[],"categories_nodes":[],"categories_segments":[],"categories_sizes":[],"default_left":[0,0,0,0,0,0,0,0,0,0,0],"id":51,"left_children":[1,3,5,7,9,-1,-1,-1,-1,-1,-1],"loss_changes":[3.1623194E0,2.1107063E0,2.2790384E-1,9.923355E-1,1.3099642E0,0E0,0E0,0E0,0E0,0E0,0E0],"parents":[2147483647,0,0,1,1,2,2,3,3,4,4],"right_children":[2,4,6,8,10,-1,-1,-1,-1,-1,-1],"split_conditions":[-9.781277E-3,1.5158696E-1,4.502282E-1,-9.628613E-3,-1.3456582E-2,2.1403567E-3,2.1161476E-2,-1.122197E-2,1.807047E-2,-1.9961374E-3,-3.7357334E-2],"split_indices":[12,7,3,5,10,0,0,0,0,0,0],"split_type":[0,0,0,0,0,0,0,0,0,0,0],"sum_hessian":[9.239877E0,6.290253E0,2.9496236E0,2.2711394E0,4.019114E0,1.0073757E0,1.9422479E0,1.0441594E0,1.2269799E0,1.4407407E0,2.5783734E0],"tree_param":{"num_deleted":"0","num_feature":"17","num_nodes":"11","size_leaf_vector":"1"}},{"base_weights":[-1.6482349E-1,-8.740531E-1,2.5424808E-1,-3.7671305E-2,-3.0460337E-3,2.3278968E-2,-2.1656005E-1,1.8361295E-2,-2.3510145E-2],"categories":[],"categories_nodes":[],"categories_segments":[],"categories_sizes":[],"default_left":[0,0,0,0,0,0,0,0,0],"id":52,"left_children":[1,3,5,-1,-1,-1,7,-1,-1],"loss_changes":[3.0971239E0,9.981761E-1,1.8517654E0,0E0,0E0,0E0,2.5401876E0,0E0,0E0],"parents":[2147483647,0,0,1,1,2,2,6,6],"right_children":[2,4,6,-1,-1,-1,8,-1,-1],"split_conditions":[1.5938087E-1,-7.375714E-3,-3.3293483E-3,-3.7671305E-2,-3.0460337E-3,2.3278968E-2,2.1269223E-4,1.8361295E-2,-2.3510145E-2],"split_indices":[14,5,10,0,0,0,11,0,0],"split_type":[0,0,0,0,0,0,0,0,0],"sum_hessian":[8.67269E0,2.8179498E0,5.85474E0,1.4674779E0,1.350472E0,2.4697614E0,3.3849788E0,1.3432033E0,2.0417755E0],"tree_param":{"num_deleted":"0","num_feature":"17","num_nodes":"9","size_leaf_vector":"1"}},{"base_weights":[-6.746613E-2,-6.304276E-1,4.138124E-1,6.5797423E-3,-1.0334107E0,6.709773E-1,-1.1746591E-2,-3.768583E-2,-8.055798E-3,3.7956762E-3,2.375674E-2],"categories":[],"categories_nodes":[],"categories_segments":[],"categories_sizes":[],"default_left":[0,0,0,0,0,0,0,0,0,0,0],"id":53,"left_children":[1,3,5,-1,7,9,-1,-1,-1,-1,-1],"loss_changes":[2.8285203E0,1.858019E0,1.4458983E0,0E0,2.4317336E-1,2.0912695E-1,0E0,0E0,0E0,0E0,0E0],"parents":[2147483647,0,0,1,1,2,2,4,4,5,5],"right_children":[2,4,6,-1,8,10,-1,-1,-1,-1,-1],"split_conditions":[2.2665733E-1,-4.514222E-3,6.2297564E-2,6.5797423E-3,-8.1500495E-3,3.7945804E-1,-1.1746591E-2,-3.768583E-2,-8.055798E-3,3.7956762E-3,2.375674E-2],"split_indices":[14,6,10,0,4,3,0,0,0,0,0],"split_type":[0,0,0,0,0,0,0,0,0,0,0],"sum_hessian":[8.476746E0,3.7640069E0,4.7127385E0,1.357421E0,2.406586E0,3.698591E0,1.0141478E0,1.3662984E0,1.0402874E0,1.0440054E0,2.6545856E0],"tree_param":{"num_deleted":"0","num_feature":"17","num_nodes":"11","size_leaf_vector":"1"}},{"base_weights":[-7.513312E-3,-3.9165425E-1,2.3008296E-2,2.302754E-2,-3.1339765E-2,-5.9956026E-1,2.1530539E-2,-3.952534E-2,7.5117596E-3],"categories":[],"categories_nodes":[],"categories_segments":[],"categories_sizes":[],"default_left":[0,0,0,0,0,0,0,0,0],"id":54,"left_children":[1,3,-1,5,-1,7,-1,-1,-1],"loss_changes":[3.2289026E0,1.9851E0,0E0,2.7690299E0,0E0,2.4025843E0,0E0,0E0,0E0],"parents":[2147483647,0,0,1,1,3,3,5,5],"right_children":[2,4,-1,6,-1,8,-1,-1,-1],"split_conditions":[-1.2752895E-2,3.6950612E-1,2.3008296E-2,1.5938087E-1,-3.1339765E-2,-4.307028E-2,2.1530539E-2,-3.952534E-2,7.5117596E-3],"split_indices":[12,16,0,14,0,13,0,0,0],"split_type":[0,0,0,0,0,0,0,0,0],"sum_hessian":[8.843771E0,6.2419596E0,2.6018114E0,4.4076667E0,1.8342929E0,2.3966036E0,2.011063E0,1.0009795E0,1.3956239E0],"tree_param":{"num_deleted":"0","num_feature":"17","num_nodes":"9","size_leaf_vector":"1"}},{"base_weights":[-1.0850899E-1,-4.34381E-1,2.1643799E-2,4.761494E-1,-9.0799296E-1,1.8438587E-2,2.5046112E-3,-1.1863282E0,3.488146E-3,-8.469787E-3,-4.1702397E-2],"categories":[],"categories_nodes":[],"categories_segments":[],"categories_sizes":[],"default_left":[0,0,0,0,0,0,0,0,0,0,0],"id":55,"left_children":[1,3,-1,5,7,-1,-1,9,-1,-1,-1],"loss_changes":[2.9511855E0,3.721557E0,0E0,1.2625843E-1,1.6664472E0,0E0,0E0,4.0051794E-1,0E0,0E0,0E0],"parents":[2147483647,0,0,1,1,3,3,4,4,7,7],"right_children":[2,4,-1,6,8,-1,-1,10,-1,-1,-1],"split_conditions":[-9.781277E-3,1.5375584E-1,2.1643799E-2,-1.539733E0,1.5657594E-2,1.8438587E-2,2.5046112E-3,1.4824879E-2,3.488146E-3,-8.469787E-3,-4.1702397E-2],"split_indices":[12,7,0,16,11,0,0,9,0,0,0],"split_type":[0,0,0,0,0,0,0,0,0,0,0],"sum_hessian":[8.75287E0,6.6273804E0,2.1254888E0,2.2658572E0,4.361523E0,1.2572373E0,1.0086199E0,3.3051515E0,1.0563717E0,1.0467204E0,2.2584312E0],"tree_param":{"num_deleted":"0","num_feature":"17","num_nodes":"11","size_leaf_vector":"1"}},{"base_weights":[5.94285E-2,-4.8012635E-1,2.4260981E-2,1.8214209E-2,-9.140556E-1,-3.644742E-2,-3.620385E-3],"categories":[],"categories_nodes":[],"categories_segments":[],"categories_sizes":[],"default_left":[0,0,0,0,0,0,0],"id":56,"left_children":[1,3,-1,-1,5,-1,-1],"loss_changes":[3.9117763E0,3.2415562E0,0E0,0E0,9.201453E-1,0E0,0E0],"parents":[2147483647,0,0,1,1,4,4],"right_children":[2,4,-1,-1,6,-1,-1],"split_conditions":[-1.0848399E-3,-4.50041E-3,2.4260981E-2,1.8214209E-2,2.2665733E-1,-3.644742E-2,-3.620385E-3],"split_indices":[6,6,0,0,14,0,0],"split_type":[0,0,0,0,0,0,0],"sum_hessian":[7.715647E0,4.6943927E0,3.0212545E0,1.2252355E0,3.4691572E0,2.130081E0,1.3390763E0],"tree_param":{"num_deleted":"0","num_feature":"17","num_nodes":"7","size_leaf_vector":"1"}},{"base_weights":[1.8585892E-1,-2.956381E-1,2.407847E-2,-2.4323E-2,1.8286008E-1,2.090409E-2,-1.4913105E-2],"categories":[],"categories_nodes":[],"categories_segments":[],"categories_sizes":[],"default_left":[0,0,0,0,0,0,0],"id":57,"left_children":[1,3,-1,-1,5,-1,-1],"loss_changes":[2.9065337E0,1.572589E0,0E0,0E0,1.6784406E0,0E0,0E0],"parents":[2147483647,0,0,1,1,4,4],"right_children":[2,4,-1,-1,6,-1,-1],"split_conditions":[4.778273E-1,-3.7760023E-2,2.407847E-2,-2.4323E-2,1.4606956E-3,2.090409E-2,-1.4913105E-2],"split_indices":[14,13,0,0,4,0,0],"split_type":[0,0,0,0,0,0,0],"sum_hessian":[7.988385E0,4.778503E0,3.2098823E0,1.9667714E0,2.8117318E0,1.5872564E0,1.2244754E0],"tree_param":{"num_deleted":"0","num_feature":"17","num_nodes":"7","size_leaf_vector":"1"}},{"base_weights":[1.3907397E-1,5.652429E-1,-5.642313E-1,-5.6859064E-3,2.4923284E-2,-3.423906E-2,7.0422026E-3],"categories":[],"categories_nodes":[],"categories_segments":[],"categories_sizes":[],"default_left":[0,0,0,0,0,0,0],"id":58,"left_children":[1,3,5,-1,-1,-1,-1],"loss_changes":[2.8849897E0,1.3260019E0,1.9880335E0,0E0,0E0,0E0,0E0],"parents":[2147483647,0,0,1,1,2,2],"right_children":[2,4,6,-1,-1,-1,-1],"split_conditions":[3.6950612E-1,5.2833755E-2,-6.719477E-4,-5.6859064E-3,2.4923284E-2,-3.423906E-2,7.0422026E-3],"split_indices":[16,14,6,0,0,0,0],"split_type":[0,0,0,0,0,0,0],"sum_hessian":[7.5613346E0,4.8305564E0,2.7307782E0,1.3316358E0,3.4989207E0,1.3367925E0,1.3939856E0],"tree_param":{"num_deleted":"0","num_feature":"17","num_nodes":"7","size_leaf_vector":"1"}},{"base_weights":[-2.1763007E-1,-5.177724E-1,4.824172E-1,2.0640308E-1,-9.0205276E-1,2.5080612E-3,1.8509598E-2,-1.1191957E-2,1.8625878E-2,1.7530642E-3,-1.1653298E0,-8.60509E-3,-4.134833E-2],"categories":[],"categories_nodes":[],"categories_segments":[],"categories_sizes":[],"default_left":[0,0,0,0,0,0,0,0,0,0,0,0,0],"id":59,"left_children":[1,3,5,7,9,-1,-1,-1,-1,-1,11,-1,-1],"loss_changes":[2.2812948E0,2.2036355E0,1.3191539E-1,1.0306718E0,1.3128638E0,0E0,0E0,0E0,0E0,0E0,3.3634424E-1,0E0,0E0],"parents":[2147483647,0,0,1,1,2,2,3,3,4,4,10,10],"right_children":[2,4,6,8,10,-1,-1,-1,-1,-1,12,-1,-1],"split_conditions":[-9.781277E-3,1.5375584E-1,-3.1298578E-2,-3.637171E-2,-1.4646011E-2,2.5080612E-3,1.8509598E-2,-1.1191957E-2,1.8625878E-2,1.7530642E-3,-2.5746603E-2,-8.60509E-3,-4.134833E-2],"split_indices":[12,7,10,11,5,0,0,0,0,0,12,0,0],"split_type":[0,0,0,0,0,0,0,0,0,0,0,0,0],"sum_hessian":[8.66863E0,6.249541E0,2.4190886E0,2.3270693E0,3.9224715E0,1.0193524E0,1.3997363E0,1.0120155E0,1.3150538E0,1.0112547E0,2.911217E0,1.0259109E0,1.8853061E0],"tree_param":{"num_deleted":"0","num_feature":"17","num_nodes":"13","size_leaf_vector":"1"}},{"base_weights":[-1.1134374E-1,-4.576072E-1,2.2156078E-2,9.039236E-3,-7.1634173E-1,1.9653623E-3,-1.0520451E0,-4.712954E-2,-6.42157E-3],"categories":[],"categories_nodes":[],"categories_segments":[],"categories_sizes":[],"default_left":[0,0,0,0,0,0,0,0,0],"id":60,"left_children":[1,3,-1,-1,5,-1,7,-1,-1],"loss_changes":[3.192792E0,1.6905146E0,0E0,0E0,1.6166608E0,0E0,1.4832468E0,0E0,0E0],"parents":[2147483647,0,0,1,1,4,4,6,6],"right_children":[2,4,-1,-1,6,-1,8,-1,-1],"split_conditions":[4.857111E-1,3.3099177E-1,2.2156078E-2,9.039236E-3,-1.1985249E-2,1.9653623E-3,-1.1468791E-2,-4.712954E-2,-6.42157E-3],"split_indices":[7,3,0,0,5,0,2,0,0],"split_type":[0,0,0,0,0,0,0,0,0],"sum_hessian":[8.701E0,6.510154E0,2.1908464E0,1.6133533E0,4.8968005E0,1.7127211E0,3.1840792E0,1.4261903E0,1.757889E0],"tree_param":{"num_deleted":"0","num_feature":"17","num_nodes":"9","size_leaf_vector":"1"}},{"base_weights":[-1.9863328E-1,1.8181995E-1,-7.392273E-1,6.442756E-1,-1.9663028E-2,-3.2059535E-2,3.4694958E-3,2.3242703E-2,3.3598423E-3],"categories":[],"categories_nodes":[],"categories_segments":[],"categories_sizes":[],"default_left":[0,0,0,0,0,0,0,0,0],"id":61,"left_children":[1,3,5,7,-1,-1,-1,-1,-1],"loss_changes":[2.1309445E0,2.9391222E0,1.3084147E0,2.390784E-1,0E0,0E0,0E0,0E0,0E0],"parents":[2147483647,0,0,1,1,2,2,3,3],"right_children":[2,4,6,8,-1,-1,-1,-1,-1],"split_conditions":[3.6950612E-1,1.6794655E-2,-9.781277E-3,3.9972234E-1,-1.9663028E-2,-3.2059535E-2,3.4694958E-3,2.3242703E-2,3.3598423E-3],"split_indices":[16,9,12,3,0,0,0,0,0],"split_type":[0,0,0,0,0,0,0,0,0],"sum_hessian":[8.707449E0,5.500227E0,3.2072222E0,3.6916447E0,1.8085822E0,2.134598E0,1.0726242E0,2.5989957E0,1.092649E0],"tree_param":{"num_deleted":"0","num_feature":"17","num_nodes":"9","size_leaf_vector":"1"}},{"base_weights":[-2.8827453E-1,-5.225876E-1,1.810208E-2,-1.1387794E-1,-3.2139517E-2,-7.9407E-1,5.0804895E-1,2.2296677E-3,-3.8347386E-2,1.9574419E-2,2.2869734E-3],"categories":[],"categories_nodes":[],"categories_segments":[],"categories_sizes":[],"default_left":[0,0,0,0,0,0,0,0,0,0,0],"id":62,"left_children":[1,3,-1,5,-1,7,9,-1,-1,-1,-1],"loss_changes":[2.2188854E0,1.6162932E0,0E0,2.7559476E0,0E0,1.3758397E0,1.6947156E-1,0E0,0E0,0E0,0E0],"parents":[2147483647,0,0,1,1,3,3,5,5,6,6],"right_children":[2,4,-1,6,-1,8,10,-1,-1,-1,-1],"split_conditions":[7.0862603E-1,3.6950612E-1,1.810208E-2,-4.307028E-2,-3.2139517E-2,-1.8500363E-2,-2.3906126E-3,2.2296677E-3,-3.8347386E-2,1.9574419E-2,2.2869734E-3],"split_indices":[15,16,0,13,0,2,6,0,0,0,0],"split_type":[0,0,0,0,0,0,0,0,0,0,0],"sum_hessian":[8.110899E0,6.7508516E0,1.360047E0,4.5611253E0,2.1897266E0,2.0463133E0,2.514812E0,1.0355337E0,1.0107795E0,1.5015633E0,1.0132486E0],"tree_param":{"num_deleted":"0","num_feature":"17","num_nodes":"11","size_leaf_vector":"1"}},{"base_weights":[-1.3876733E-1,-4.4269255E-1,2.0589264E-2,6.0970087E-2,-9.400902E-1,2.1668557E-2,-2.183334E-2,-6.666856E-3,-4.0643323E-2],"categories":[],"categories_nodes":[],"categories_segments":[],"categories_sizes":[],"default_left":[0,0,0,0,0,0,0,0,0],"id":63,"left_children":[1,3,-1,5,7,-1,-1,-1,-1],"loss_changes":[2.6231585E0,1.9029518E0,0E0,2.9248867E0,8.204868E-1,0E0,0E0,0E0,0E0],"parents":[2147483647,0,0,1,1,3,3,4,4],"right_children":[2,4,-1,6,8,-1,-1,-1,-1],"split_conditions":[-9.781277E-3,-6.689673E-1,2.0589264E-2,1.6785223E-2,-1.7280174E-2,2.1668557E-2,-2.183334E-2,-6.666856E-3,-4.0643323E-2],"split_indices":[12,16,0,9,2,0,0,0,0],"split_type":[0,0,0,0,0,0,0,0,0],"sum_hessian":[8.249167E0,6.3671975E0,1.8819697E0,3.59964E0,2.7675579E0,2.0038242E0,1.5958157E0,1.5757262E0,1.1918316E0],"tree_param":{"num_deleted":"0","num_feature":"17","num_nodes":"9","size_leaf_vector":"1"}},{"base_weights":[-5.6450475E-2,-4.4140434E-1,4.614902E-1,1.6910007E-2,-7.7963126E-1,2.3302138E-2,-9.248341E-3,-3.089542E-3,-3.5625387E-2],"categories":[],"categories_nodes":[],"categories_segments":[],"categories_sizes":[],"default_left":[0,0,0,0,0,0,0,0,0],"id":64,"left_children":[1,3,5,-1,7,-1,-1,-1,-1],"loss_changes":[2.0514252E0,2.4203618E0,1.3168935E0,0E0,1.1968305E0,0E0,0E0,0E0,0E0],"parents":[2147483647,0,0,1,1,2,2,4,4],"right_children":[2,4,6,-1,8,-1,-1,-1,-1],"split_conditions":[3.5877505E-1,-4.5011593E-3,9.247253E-3,1.6910007E-2,1.5784588E-2,2.3302138E-2,-9.248341E-3,-3.089542E-3,-3.5625387E-2],"split_indices":[7,6,13,0,9,0,0,0,0],"split_type":[0,0,0,0,0,0,0,0,0],"sum_hessian":[8.267184E0,4.827194E0,3.4399898E0,1.0476059E0,3.7795882E0,2.434089E0,1.005901E0,1.8925196E0,1.8870687E0],"tree_param":{"num_deleted":"0","num_feature":"17","num_nodes":"9","size_leaf_vector":"1"}},{"base_weights":[-7.44357E-2,-5.445074E-1,2.3344284E-2,-6.802255E-2,-3.4337297E-2,-2.3770668E-2,4.90881E-1,1.8798374E-2,2.6060273E-3],"categories":[],"categories_nodes":[],"categories_segments":[],"categories_sizes":[],"default_left":[0,0,0,0,0,0,0,0,0],"id":65,"left_children":[1,3,-1,5,-1,-1,7,-1,-1],"loss_changes":[4.2734632E0,1.8607721E0,0E0,2.3493416E0,0E0,0E0,1.2931865E-1,0E0,0E0],"parents":[2147483647,0,0,1,1,3,3,6,6],"right_children":[2,4,-1,6,-1,-1,8,-1,-1],"split_conditions":[4.778273E-1,3.6950612E-1,2.3344284E-2,-4.307028E-2,-3.4337297E-2,-2.3770668E-2,2.9462887E-2,1.8798374E-2,2.6060273E-3],"split_indices":[14,16,0,13,0,0,10,0,0],"split_type":[0,0,0,0,0,0,0,0,0],"sum_hessian":[8.605834E0,5.7802286E0,2.8256056E0,3.8424718E0,1.9377565E0,1.4916338E0,2.350838E0,1.3472496E0,1.0035884E0],"tree_param":{"num_deleted":"0","num_feature":"17","num_nodes":"9","size_leaf_vector":"1"}},{"base_weights":[8.542065E-2,3.3003297E-1,-2.0192504E-2,-5.022117E-1,2.5894634E-2,-2.5246883E-2,4.336926E-3],"categories":[],"categories_nodes":[],"categories_segments":[],"categories_sizes":[],"default_left":[0,0,0,0,0,0,0],"id":66,"left_children":[1,3,-1,5,-1,-1,-1],"loss_changes":[1.8397821E0,3.6562252E0,0E0,8.8289684E-1,0E0,0E0,0E0],"parents":[2147483647,0,0,1,1,3,3],"right_children":[2,4,-1,6,-1,-1,-1],"split_conditions":[1.2553282E-2,-1.4156797E-2,-2.0192504E-2,2.242715E-1,2.5894634E-2,-2.5246883E-2,4.336926E-3],"split_indices":[13,4,0,7,0,0,0],"split_type":[0,0,0,0,0,0,0],"sum_hessian":[7.718589E0,6.2635326E0,1.4550562E0,2.4683003E0,3.7952323E0,1.4213688E0,1.0469314E0],"tree_param":{"num_deleted":"0","num_feature":"17","num_nodes":"7","size_leaf_vector":"1"}},{"base_weights":[-2.9714167E-1,-6.118988E-1,4.6844244E-1,-1.3644007E-1,-3.6637407E-2,2.731774E-3,1.7867364E-2,-7.6120514E-1,2.0969346E-2,1.8704343E-3,-3.394592E-2],"categories":[],"categories_nodes":[],"categories_segments":[],"categories_sizes":[],"default_left":[0,0,0,0,0,0,0,0,0,0,0],"id":67,"left_children":[1,3,5,7,-1,-1,-1,9,-1,-1,-1],"loss_changes":[2.5575008E0,1.8937817E0,1.04673624E-1,3.2046654E0,0E0,0E0,0E0,1.1100218E0,0E0,0E0,0E0],"parents":[2147483647,0,0,1,1,2,2,3,3,7,7],"right_children":[2,4,6,8,-1,-1,-1,10,-1,-1,-1],"split_conditions":[-9.781277E-3,-2.5746603E-2,4.65022E-1,-1.4156797E-2,-3.6637407E-2,2.731774E-3,1.7867364E-2,-1.6298791E-2,2.0969346E-2,1.8704343E-3,-3.394592E-2],"split_indices":[12,12,3,4,0,0,0,4,0,0,0],"split_type":[0,0,0,0,0,0,0,0,0,0,0],"sum_hessian":[8.4237175E0,6.111726E0,2.3119912E0,4.1205096E0,1.9912162E0,1.0150914E0,1.2968998E0,2.408302E0,1.7122077E0,1.0049881E0,1.4033139E0],"tree_param":{"num_deleted":"0","num_feature":"17","num_nodes":"11","size_leaf_vector":"1"}},{"base_weights":[-1.7469956E-1,-5.6885904E-1,4.2800146E-1,-8.083821E-1,5.653967E-3,2.227953E-2,-8.268908E-3,-1.1953241E-1,-3.886931E-2,-2.236313E-2,1.6662287E-2],"categories":[],"categories_nodes":[],"categories_segments":[],"categories_sizes":[],"default_left":[0,0,0,0,0,0,0,0,0,0,0],"id":68,"left_children":[1,3,5,7,-1,-1,-1,9,-1,-1,-1],"loss_changes":[2.3920856E0,1.2221649E0,1.1227992E0,1.4124851E0,0E0,0E0,0E0,1.6966864E0,0E0,0E0,0E0],"parents":[2147483647,0,0,1,1,2,2,3,3,7,7],"right_children":[2,4,6,8,-1,-1,-1,10,-1,-1,-1],"split_conditions":[3.5877505E-1,-1.1468791E-2,1.5785304E-3,-1.8721664E-2,5.653967E-3,2.227953E-2,-8.268908E-3,-2.4937762E-2,-3.886931E-2,-2.236313E-2,1.6662287E-2],"split_indices":[7,2,13,2,0,0,0,2,0,0,0],"split_type":[0,0,0,0,0,0,0,0,0,0,0],"sum_hessian":[8.044495E0,4.897643E0,3.1468513E0,3.669616E0,1.2280269E0,2.1361535E0,1.0106977E0,2.0362504E0,1.6333658E0,1.0023121E0,1.0339382E0],"tree_param":{"num_deleted":"0","num_feature":"17","num_nodes":"11","size_leaf_vector":"1"}},{"base_weights":[2.410088E-1,6.9717616E-1,-3.246192E-1,2.400741E-2,4.5688516E-3,-2.3891142E-2,8.973189E-3],"categories":[],"categories_nodes":[],"categories_segments":[],"categories_sizes":[],"default_left":[0,0,0,0,0,0,0],"id":69,"left_children":[1,3,5,-1,-1,-1,-1],"loss_changes":[2.3284361E0,1.4925194E-1,1.509176E0,0E0,0E0,0E0,0E0],"parents":[2147483647,0,0,1,1,2,2],"right_children":[2,4,6,-1,-1,-1,-1],"split_conditions":[4.2607072E-1,1.0191933E-3,-9.781277E-3,2.400741E-2,4.5688516E-3,-2.3891142E-2,8.973189E-3],"split_indices":[3,11,12,0,0,0,0],"split_type":[0,0,0,0,0,0,0],"sum_hessian":[7.147084E0,3.8276186E0,3.3194659E0,2.82464E0,1.0029784E0,1.7323855E0,1.5870802E0],"tree_param":{"num_deleted":"0","num_feature":"17","num_nodes":"7","size_leaf_vector":"1"}},{"base_weights":[1.3198129E-2,2.1099893E-2,-2.7128452E-1,-7.7074367E-1,2.656082E-1,4.9180365E-3,-3.670953E-2,2.2170238E-2,-1.6604038E-2],"categories":[],"categories_nodes":[],"categories_segments":[],"categories_sizes":[],"default_left":[0,0,0,0,0,0,0,0,0],"id":70,"left_children":[1,-1,3,5,7,-1,-1,-1,-1],"loss_changes":[1.9259906E0,0E0,2.0764375E0,1.8398466E0,2.0017548E0,0E0,0E0,0E0,0E0],"parents":[2147483647,0,0,2,2,3,3,4,4],"right_children":[2,-1,4,6,8,-1,-1,-1,-1],"split_conditions":[3.441118E-1,2.1099893E-2,-1.177998E-2,-1.0059317E0,9.247253E-3,4.9180365E-3,-3.670953E-2,2.2170238E-2,-1.6604038E-2],"split_indices":[3,0,0,16,13,0,0,0,0],"split_type":[0,0,0,0,0,0,0,0,0],"sum_hessian":[7.8380995E0,1.858126E0,5.979974E0,2.8723385E0,3.1076353E0,1.1457857E0,1.7265527E0,2.03134E0,1.0762953E0],"tree_param":{"num_deleted":"0","num_feature":"17","num_nodes":"9","size_leaf_vector":"1"}},{"base_weights":[-9.889358E-2,3.4195638E-1,-7.0481616E-1,2.4138145E-2,-1.537471E-2,-3.3424284E-2,4.8840367E-3],"categories":[],"categories_nodes":[],"categories_segments":[],"categories_sizes":[],"default_left":[0,0,0,0,0,0,0],"id":71,"left_children":[1,3,5,-1,-1,-1,-1],"loss_changes":[2.5604458E0,2.6654139E0,1.5961035E0,0E0,0E0,0E0,0E0],"parents":[2147483647,0,0,1,1,2,2],"right_children":[2,4,6,-1,-1,-1,-1],"split_conditions":[8.930748E-2,1.4006685E0,-3.7760023E-2,2.4138145E-2,-1.537471E-2,-3.3424284E-2,4.8840367E-3],"split_indices":[8,16,13,0,0,0,0],"split_type":[0,0,0,0,0,0,0],"sum_hessian":[7.683069E0,4.6995034E0,2.9835658E0,3.0865784E0,1.6129253E0,1.8341193E0,1.1494465E0],"tree_param":{"num_deleted":"0","num_feature":"17","num_nodes":"7","size_leaf_vector":"1"}},{"base_weights":[-7.960893E-2,-6.3616544E-1,3.0169135E-1,5.5330866E-3,-3.1157225E-2,2.239647E-2,-1.8341804E-1,-2.176218E-2,8.898287E-3],"categories":[],"categories_nodes":[],"categories_segments":[],"categories_sizes":[],"default_left":[0,0,0,0,0,0,0,0,0],"id":72,"left_children":[1,3,5,-1,-1,-1,7,-1,-1],"loss_changes":[2.0875337E0,1.4970058E0,1.4272611E0,0E0,0E0,0E0,1.1681496E0,0E0,0E0],"parents":[2147483647,0,0,1,1,2,2,6,6],"right_children":[2,4,6,-1,-1,-1,8,-1,-1],"split_conditions":[1.719035E-1,1.5159307E-1,7.6792674E-4,5.5330866E-3,-3.1157225E-2,2.239647E-2,-1.0907021E-2,-2.176218E-2,8.898287E-3],"split_indices":[15,7,11,0,0,0,0,0,0],"split_type":[0,0,0,0,0,0,0,0,0],"sum_hessian":[7.9324822E0,2.9533215E0,4.979161E0,1.1499616E0,1.8033599E0,2.3162088E0,2.6629517E0,1.0106618E0,1.65229E0],"tree_param":{"num_deleted":"0","num_feature":"17","num_nodes":"9","size_leaf_vector":"1"}},{"base_weights":[-1.7049707E-1,-3.9269695E-1,1.8054659E-2,-6.4316463E-1,1.718062E-2,-8.78876E-1,5.6617158E-3,-1.9621509E-4,-3.5713952E-2],"categories":[],"categories_nodes":[],"categories_segments":[],"categories_sizes":[],"default_left":[0,0,0,0,0,0,0,0,0],"id":73,"left_children":[1,3,-1,5,-1,7,-1,-1,-1],"loss_changes":[1.7582117E0,2.1798863E0,0E0,1.42467E0,0E0,1.3999381E0,0E0,0E0,0E0],"parents":[2147483647,0,0,1,1,3,3,5,5],"right_children":[2,4,-1,6,-1,8,-1,-1,-1],"split_conditions":[7.0862603E-1,9.9319585E-2,1.8054659E-2,-9.781277E-3,1.718062E-2,-2.34214E-3,5.6617158E-3,-1.9621509E-4,-3.5713952E-2],"split_indices":[15,8,0,12,0,10,0,0,0],"split_type":[0,0,0,0,0,0,0,0,0],"sum_hessian":[7.8682785E0,6.492027E0,1.3762518E0,5.419673E0,1.0723537E0,4.179072E0,1.2406012E0,1.3685694E0,2.8105025E0],"tree_param":{"num_deleted":"0","num_feature":"17","num_nodes":"9","size_leaf_vector":"1"}},{"base_weights":[-2.3024419E-1,-4.8135522E-1,1.2090262E-2,1.0352572E-1,-9.689332E-1,1.8922541E-2,-1.3516755E-2,-2.0789509E-3,-4.2401757E-2],"categories":[],"categories_nodes":[],"categories_segments":[],"categories_sizes":[],"default_left":[0,0,0,0,0,0,0,0,0],"id":74,"left_children":[1,3,-1,5,7,-1,-1,-1,-1],"loss_changes":[1.5635022E0,1.9889195E0,0E0,1.4276806E0,1.3848121E0,0E0,0E0,0E0,0E0],"parents":[2147483647,0,0,1,1,3,3,4,4],"right_children":[2,4,-1,6,8,-1,-1,-1,-1],"split_conditions":[-9.781277E-3,-1.0059317E0,1.2090262E-2,1.6785223E-2,-1.8721664E-2,1.8922541E-2,-1.3516755E-2,-2.0789509E-3,-4.2401757E-2],"split_indices":[12,16,0,9,2,0,0,0,0],"split_type":[0,0,0,0,0,0,0,0,0],"sum_hessian":[7.6123724E0,5.622634E0,1.9897386E0,2.9143538E0,2.7082798E0,1.4224695E0,1.4918844E0,1.2777946E0,1.4304852E0],"tree_param":{"num_deleted":"0","num_feature":"17","num_nodes":"9","size_leaf_vector":"1"}},{"base_weights":[-9.632006E-2,4.3241945E-1,-4.1714272E-1,-5.860383E-3,2.1575468E-2,-3.4308262E-2,1.542806E-1,-1.1661137E-2,1.9734794E-2],"categories":[],"categories_nodes":[],"categories_segments":[],"categories_sizes":[],"default_left":[0,0,0,0,0,0,0,0,0],"id":75,"left_children":[1,3,5,-1,-1,-1,7,-1,-1],"loss_changes":[1.7653075E0,8.640545E-1,2.801646E0,0E0,0E0,0E0,1.4644386E0,0E0,0E0],"parents":[2147483647,0,0,1,1,2,2,6,6],"right_children":[2,4,6,-1,-1,-1,8,-1,-1],"split_conditions":[-1.863677E-2,-2.5323384E-2,-1.1468791E-2,-5.860383E-3,2.1575468E-2,-3.4308262E-2,2.2978169E-1,-1.1661137E-2,1.9734794E-2],"split_indices":[2,2,2,0,0,0,15,0,0],"split_type":[0,0,0,0,0,0,0,0,0],"sum_hessian":[8.343346E0,3.019364E0,5.3239813E0,1.046723E0,1.9726411E0,1.9031372E0,3.4208443E0,1.7556988E0,1.6651455E0],"tree_param":{"num_deleted":"0","num_feature":"17","num_nodes":"9","size_leaf_vector":"1"}},{"base_weights":[-1.3521853E-1,1.8095205E-2,-3.363382E-1,-5.8456886E-1,1.6821217E-2,-9.3300056E-1,4.400483E-2,-7.4758898E-3,-4.4104483E-2,-1.7053412E-2,1.7883247E-2],"categories":[],"categories_nodes":[],"categories_segments":[],"categories_sizes":[],"default_left":[0,0,0,0,0,0,0,0,0,0,0],"id":76,"left_children":[1,-1,3,5,-1,7,9,-1,-1,-1,-1],"loss_changes":[1.5292379E0,0E0,2.0337956E0,1.4625785E0,0E0,1.1839769E0,1.4444586E0,0E0,0E0,0E0,0E0],"parents":[2147483647,0,0,2,2,3,3,5,5,6,6],"right_children":[2,-1,4,6,-1,8,10,-1,-1,-1,-1],"split_conditions":[3.296908E-1,1.8095205E-2,7.0862603E-1,-1.1468791E-2,1.6821217E-2,-1.6066529E-2,1.5808085E-2,-7.4758898E-3,-4.4104483E-2,-1.7053412E-2,1.7883247E-2],"split_indices":[3,0,15,2,0,2,9,0,0,0,0],"split_type":[0,0,0,0,0,0,0,0,0,0,0],"sum_hessian":[7.9314585E0,1.2699347E0,6.661524E0,5.490524E0,1.1709998E0,3.2208338E0,2.26969E0,2.0610232E0,1.1598107E0,1.0620018E0,1.2076882E0],"tree_param":{"num_deleted":"0","num_feature":"17","num_nodes":"11","size_leaf_vector":"1"}},{"base_weights":[3.118965E-2,2.5878695E-1,-1.6763112E-2,2.4621172E-2,-4.3433562E-1,-3.1106561E-2,8.876162E-3],"categories":[],"categories_nodes":[],"categories_segments":[],"categories_sizes":[],"default_left":[0,0,0,0,0,0,0],"id":77,"left_children":[1,3,-1,-1,5,-1,-1],"loss_changes":[1.352505E0,3.150965E0,0E0,0E0,2.0079396E0,0E0,0E0],"parents":[2147483647,0,0,1,1,4,4],"right_children":[2,4,-1,-1,6,-1,-1],"split_conditions":[1.6794655E-2,3.6950612E-1,-1.6763112E-2,2.4621172E-2,-6.719477E-4,-3.1106561E-2,8.876162E-3],"split_indices":[9,16,0,0,6,0,0],"split_type":[0,0,0,0,0,0,0],"sum_hessian":[7.995848E0,6.174985E0,1.8208635E0,3.3086064E0,2.8663783E0,1.3403592E0,1.526019E0],"tree_param":{"num_deleted":"0","num_feature":"17","num_nodes":"7","size_leaf_vector":"1"}},{"base_weights":[7.0575215E-2,-3.921817E-1,4.8507354E-1,9.337965E-3,-2.5817648E-2,-4.473175E-3,2.2954158E-2],"categories":[],"categories_nodes":[],"categories_segments":[],"categories_sizes":[],"default_left":[0,0,0,0,0,0,0],"id":78,"left_children":[1,3,5,-1,-1,-1,-1],"loss_changes":[1.7464488E0,1.7131855E0,9.5362425E-1,0E0,0E0,0E0,0E0],"parents":[2147483647,0,0,1,1,2,2],"right_children":[2,4,6,-1,-1,-1,-1],"split_conditions":[2.2978169E-1,-1.0419949E0,-5.384806E-2,9.337965E-3,-2.5817648E-2,-4.473175E-3,2.2954158E-2],"split_indices":[15,16,13,0,0,0,0],"split_type":[0,0,0,0,0,0,0],"sum_hessian":[7.113216E0,3.386395E0,3.726821E0,1.4876862E0,1.8987088E0,1.2848989E0,2.4419222E0],"tree_param":{"num_deleted":"0","num_feature":"17","num_nodes":"7","size_leaf_vector":"1"}},{"base_weights":[-2.0865722E-2,-6.6851854E-1,4.2324713E-1,3.4059654E-3,-3.1171635E-2,6.613192E-1,-9.151384E-3,5.4069324E-3,2.251666E-2],"categories":[],"categories_nodes":[],"categories_segments":[],"categories_sizes":[],"default_left":[0,0,0,0,0,0,0,0,0],"id":79,"left_children":[1,3,5,-1,-1,7,-1,-1,-1],"loss_changes":[2.6705337E0,1.2087861E0,1.1616915E0,0E0,0E0,5.7408333E-2,0E0,0E0,0E0],"parents":[2147483647,0,0,1,1,2,2,5,5],"right_children":[2,4,6,-1,-1,8,-1,-1,-1],"split_conditions":[1.719035E-1,4.904555E-2,1.2553282E-2,3.4059654E-3,-3.1171635E-2,-1.5567034E-2,-9.151384E-3,5.4069324E-3,2.251666E-2],"split_indices":[15,15,13,0,0,4,0,0,0],"split_type":[0,0,0,0,0,0,0,0,0],"sum_hessian":[7.300863E0,2.7643306E0,4.5365324E0,1.1116627E0,1.6526679E0,3.4882255E0,1.0483068E0,1.0182682E0,2.469957E0],"tree_param":{"num_deleted":"0","num_feature":"17","num_nodes":"9","size_leaf_vector":"1"}},{"base_weights":[-1.4869578E-1,-6.5087223E-1,1.7519337E-1,-3.2597672E-2,-1.0530029E-3,2.3029553E-2,-4.5933318E-1,-2.6933258E-2,5.8355993E-3],"categories":[],"categories_nodes":[],"categories_segments":[],"categories_sizes":[],"default_left":[0,0,0,0,0,0,0,0,0],"id":80,"left_children":[1,3,5,-1,-1,-1,7,-1,-1],"loss_changes":[1.5183572E0,9.270476E-1,2.6219847E0,0E0,0E0,0E0,1.1896143E0,0E0,0E0],"parents":[2147483647,0,0,1,1,2,2,6,6],"right_children":[2,4,6,-1,-1,-1,8,-1,-1],"split_conditions":[-4.307028E-2,1.5938087E-1,3.6950612E-1,-3.2597672E-2,-1.0530029E-3,2.3029553E-2,-3.7957536E-4,-2.6933258E-2,5.8355993E-3],"split_indices":[13,14,16,0,0,0,6,0,0],"split_type":[0,0,0,0,0,0,0,0,0],"sum_hessian":[7.634078E0,2.5973868E0,5.036691E0,1.0733174E0,1.5240695E0,2.496191E0,2.5405E0,1.2974437E0,1.243056E0],"tree_param":{"num_deleted":"0","num_feature":"17","num_nodes":"9","size_leaf_vector":"1"}},{"base_weights":[-1.1350757E-1,1.773509E-1,-2.2306914E-2,2.401525E-2,-5.198083E-1,-2.9256668E-2,6.3801687E-3],"categories":[],"categories_nodes":[],"categories_segments":[],"categories_sizes":[],"default_left":[0,0,0,0,0,0,0],"id":81,"left_children":[1,3,-1,-1,5,-1,-1],"loss_changes":[1.749453E0,3.3904684E0,0E0,0E0,1.4875711E0,0E0,0E0],"parents":[2147483647,0,0,1,1,4,4],"right_children":[2,4,-1,-1,6,-1,-1],"split_conditions":[1.6794655E-2,3.6950612E-1,-2.2306914E-2,2.401525E-2,-3.7957536E-4,-2.9256668E-2,6.3801687E-3],"split_indices":[9,16,0,0,6,0,0],"split_type":[0,0,0,0,0,0,0],"sum_hessian":[7.8268356E0,5.846418E0,1.980418E0,3.0087743E0,2.8376436E0,1.5454041E0,1.2922395E0],"tree_param":{"num_deleted":"0","num_feature":"17","num_nodes":"7","size_leaf_vector":"1"}},{"base_weights":[-1.8249968E-2,-2.7055952E-1,1.9128708E-2,1.1302133E-2,-5.90884E-1,-3.0796987E-4,-2.7074762E-2],"categories":[],"categories_nodes":[],"categories_segments":[],"categories_sizes":[],"default_left":[0,0,0,0,0,0,0],"id":82,"left_children":[1,3,-1,-1,5,-1,-1],"loss_changes":[1.5244809E0,1.5915376E0,0E0,0E0,8.602474E-1,0E0,0E0],"parents":[2147483647,0,0,1,1,4,4],"right_children":[2,4,-1,-1,6,-1,-1],"split_conditions":[7.0067745E-1,-2.0478074E-2,1.9128708E-2,1.1302133E-2,-3.618143E-1,-3.0796987E-4,-2.7074762E-2],"split_indices":[14,11,0,0,16,0,0],"split_type":[0,0,0,0,0,0,0],"sum_hessian":[7.169809E0,5.6021767E0,1.5676324E0,1.7962605E0,3.805916E0,1.6899613E0,2.1159546E0],"tree_param":{"num_deleted":"0","num_feature":"17","num_nodes":"7","size_leaf_vector":"1"}},{"base_weights":[-1.2770252E-1,1.9538747E-1,-5.8191335E-1,-4.4881985E-1,2.3297686E-2,-3.1345654E-2,6.7075286E-3,-2.8792365E-2,6.275705E-3],"categories":[],"categories_nodes":[],"categories_segments":[],"categories_sizes":[],"default_left":[0,0,0,0,0,0,0,0,0],"id":83,"left_children":[1,3,5,7,-1,-1,-1,-1,-1],"loss_changes":[1.4763578E0,2.6603975E0,1.7665807E0,1.3983902E0,0E0,0E0,0E0,0E0,0E0],"parents":[2147483647,0,0,1,1,2,2,3,3],"right_children":[2,4,6,8,-1,-1,-1,-1,-1],"split_conditions":[3.6950612E-1,-4.307028E-2,-3.7957536E-4,1.5938087E-1,2.3297686E-2,-3.1345654E-2,6.7075286E-3,-2.8792365E-2,6.275705E-3],"split_indices":[16,13,6,14,0,0,0,0,0],"split_type":[0,0,0,0,0,0,0,0,0],"sum_hessian":[8.285521E0,5.1745687E0,3.1109517E0,2.5622885E0,2.6122804E0,1.7868468E0,1.3241048E0,1.1842191E0,1.3780694E0],"tree_param":{"num_deleted":"0","num_feature":"17","num_nodes":"9","size_leaf_vector":"1"}},{"base_weights":[1.42571E-2,-5.4177046E-1,4.8384368E-1,4.474185E-3,-3.3022907E-2,2.0254556E-2,-4.206682E-3],"categories":[],"categories_nodes":[],"categories_segments":[],"categories_sizes":[],"default_left":[0,0,0,0,0,0,0],"id":84,"left_children":[1,3,5,-1,-1,-1,-1],"loss_changes":[2.4263165E0,1.8120565E0,6.9422424E-1,0E0,0E0,0E0,0E0],"parents":[2147483647,0,0,1,1,2,2],"right_children":[2,4,6,-1,-1,-1,-1],"split_conditions":[-3.7760023E-2,1.6794655E-2,2.1433208E-2,4.474185E-3,-3.3022907E-2,2.0254556E-2,-4.206682E-3],"split_indices":[13,9,13,0,0,0,0],"split_type":[0,0,0,0,0,0,0],"sum_hessian":[7.2886205E0,3.2667787E0,4.021842E0,1.788907E0,1.4778717E0,3.01556E0,1.0062817E0],"tree_param":{"num_deleted":"0","num_feature":"17","num_nodes":"7","size_leaf_vector":"1"}},{"base_weights":[-1.299289E-1,-4.5090556E-1,4.6877533E-1,2.1738088E-2,-2.9954078E-2,1.5250574E-3,1.8619137E-2,-3.2343724E-1,1.6428111E-2,4.487036E-3,-2.003962E-2],"categories":[],"categories_nodes":[],"categories_segments":[],"categories_sizes":[],"default_left":[0,0,0,0,0,0,0,0,0,0,0],"id":85,"left_children":[1,3,5,7,-1,-1,-1,9,-1,-1,-1],"loss_changes":[1.8477314E0,1.5882381E0,1.8819052E-1,9.444646E-1,0E0,0E0,0E0,6.1830956E-1,0E0,0E0,0E0],"parents":[2147483647,0,0,1,1,2,2,3,3,7,7],"right_children":[2,4,6,8,-1,-1,-1,10,-1,-1,-1],"split_conditions":[4.778273E-1,3.6950612E-1,-1.0168164E-2,-7.375714E-3,-2.9954078E-2,1.5250574E-3,1.8619137E-2,-1.9381646E-2,1.6428111E-2,4.487036E-3,-2.003962E-2],"split_indices":[14,16,0,5,0,0,0,2,0,0,0],"split_type":[0,0,0,0,0,0,0,0,0,0,0],"sum_hessian":[7.5151544E0,5.053006E0,2.4621482E0,3.2274501E0,1.825556E0,1.0119399E0,1.4502083E0,2.1808772E0,1.0465728E0,1.1576023E0,1.023275E0],"tree_param":{"num_deleted":"0","num_feature":"17","num_nodes":"11","size_leaf_vector":"1"}},{"base_weights":[-7.63425E-2,-3.8133332E-1,4.0466464E-1,1.1392795E-2,-8.21093E-1,2.1019874E-2,-6.090079E-3,-3.5569444E-2,-6.5653794E-3],"categories":[],"categories_nodes":[],"categories_segments":[],"categories_sizes":[],"default_left":[0,0,0,0,0,0,0,0,0],"id":86,"left_children":[1,3,5,-1,7,-1,-1,-1,-1],"loss_changes":[1.3991315E0,2.2221413E0,8.217274E-1,0E0,6.041746E-1,0E0,0E0,0E0,0E0],"parents":[2147483647,0,0,1,1,2,2,4,4],"right_children":[2,4,6,-1,8,-1,-1,-1,-1],"split_conditions":[3.5877505E-1,1.5159307E-1,9.247253E-3,1.1392795E-2,2.1582499E-1,2.1019874E-2,-6.090079E-3,-3.5569444E-2,-6.5653794E-3],"split_indices":[7,7,13,0,14,0,0,0,0],"split_type":[0,0,0,0,0,0,0,0,0],"sum_hessian":[7.4853168E0,4.7076006E0,2.7777162E0,1.7739167E0,2.9336839E0,1.7649589E0,1.0127572E0,1.2240367E0,1.7096473E0],"tree_param":{"num_deleted":"0","num_feature":"17","num_nodes":"9","size_leaf_vector":"1"}},{"base_weights":[-1.2012574E-1,-3.770354E-1,3.0711168E-1,1.13081634E-1,-3.4188543E-2,2.0651514E-2,-1.141923E-2,-3.0180955E-1,1.8825023E-2,-1.9385463E-2,4.8939777E-3],"categories":[],"categories_nodes":[],"categories_segments":[],"categories_sizes":[],"default_left":[0,0,0,0,0,0,0,0,0,0,0],"id":87,"left_children":[1,3,5,7,-1,-1,-1,9,-1,-1,-1],"loss_changes":[1.080467E0,2.3479884E0,1.2719631E0,1.154957E0,0E0,0E0,0E0,6.1450166E-1,0E0,0E0,0E0],"parents":[2147483647,0,0,1,1,2,2,3,3,7,7],"right_children":[2,4,6,8,-1,-1,-1,10,-1,-1,-1],"split_conditions":[-1.1468791E-2,-1.5759014E-2,1.1563345E0,-6.719477E-4,-3.4188543E-2,2.0651514E-2,-1.141923E-2,-2.4856403E-2,1.8825023E-2,-1.9385463E-2,4.8939777E-3],"split_indices":[2,2,16,6,0,0,0,2,0,0,0],"split_type":[0,0,0,0,0,0,0,0,0,0,0],"sum_hessian":[7.7888346E0,4.9373646E0,2.85147E0,3.5241086E0,1.413256E0,1.833891E0,1.0175791E0,2.1795502E0,1.3445585E0,1.0281844E0,1.1513658E0],"tree_param":{"num_deleted":"0","num_feature":"17","num_nodes":"11","size_leaf_vector":"1"}},{"base_weights":[-1.9086668E-1,-3.8591123E-1,1.6019242E-2,-6.6746473E-1,1.04380816E-1,-1.5707576E-3,-2.8697567E-2,1.7905815E-2,-1.5247523E-2],"categories":[],"categories_nodes":[],"categories_segments":[],"categories_sizes":[],"default_left":[0,0,0,0,0,0,0,0,0],"id":88,"left_children":[1,3,-1,5,7,-1,-1,-1,-1],"loss_changes":[1.3094726E0,9.98754E-1,0E0,7.342782E-1,1.3049871E0,0E0,0E0,0E0,0E0],"parents":[2147483647,0,0,1,1,3,3,4,4],"right_children":[2,4,-1,6,8,-1,-1,-1,-1],"split_conditions":[7.0862603E-1,-1.3845072E-2,1.6019242E-2,-1.3456582E-2,1.9661665E-1,-1.5707576E-3,-2.8697567E-2,1.7905815E-2,-1.5247523E-2],"split_indices":[15,2,0,10,16,0,0,0,0],"split_type":[0,0,0,0,0,0,0,0,0],"sum_hessian":[6.8047385E0,5.7303696E0,1.074369E0,3.4105036E0,2.319866E0,1.4681349E0,1.9423686E0,1.3003165E0,1.0195496E0],"tree_param":{"num_deleted":"0","num_feature":"17","num_nodes":"9","size_leaf_vector":"1"}},{"base_weights":[-5.728972E-2,2.7311462E-1,-5.2371323E-1,-3.5245675E-1,2.2607623E-2,-2.8802037E-2,6.0071005E-3,4.270962E-3,-2.0455364E-2],"categories":[],"categories_nodes":[],"categories_segments":[],"categories_sizes":[],"default_left":[0,0,0,0,0,0,0,0,0],"id":89,"left_children":[1,3,5,7,-1,-1,-1,-1,-1],"loss_changes":[1.4360948E0,1.9393872E0,1.3995781E0,6.024034E-1,0E0,0E0,0E0,0E0,0E0],"parents":[2147483647,0,0,1,1,2,2,3,3],"right_children":[2,4,6,8,-1,-1,-1,-1,-1],"split_conditions":[3.6950612E-1,1.5938087E-1,-3.7957536E-4,1.5159307E-1,2.2607623E-2,-2.8802037E-2,6.0071005E-3,4.270962E-3,-2.0455364E-2],"split_indices":[16,14,6,7,0,0,0,0,0],"split_type":[0,0,0,0,0,0,0,0,0],"sum_hessian":[7.390597E0,4.568687E0,2.8219097E0,2.1004097E0,2.4682775E0,1.5571802E0,1.2647296E0,1.0663226E0,1.0340872E0],"tree_param":{"num_deleted":"0","num_feature":"17","num_nodes":"9","size_leaf_vector":"1"}},{"base_weights":[-1.0358147E-1,-4.4125584E-1,1.9905133E-2,8.044481E-3,-7.2960997E-1,-5.4836473E-3,-3.0552289E-2],"categories":[],"categories_nodes":[],"categories_segments":[],"categories_sizes":[],"default_left":[0,0,0,0,0,0,0],"id":90,"left_children":[1,3,-1,-1,5,-1,-1],"loss_changes":[2.2400458E0,1.3862778E0,0E0,0E0,5.0982285E-1,0E0,0E0],"parents":[2147483647,0,0,1,1,4,4],"right_children":[2,4,-1,-1,6,-1,-1],"split_conditions":[-1.0872326E-2,1.5375584E-1,1.9905133E-2,8.044481E-3,-1.8721664E-2,-5.4836473E-3,-3.0552289E-2],"split_indices":[12,7,0,0,2,0,0],"split_type":[0,0,0,0,0,0,0],"sum_hessian":[6.517686E0,4.8204627E0,1.6972235E0,1.4133718E0,3.4070907E0,1.7418828E0,1.6652079E0],"tree_param":{"num_deleted":"0","num_feature":"17","num_nodes":"7","size_leaf_vector":"1"}},{"base_weights":[1.2743574E-1,5.1205164E-1,-3.0252504E-1,-6.324299E-3,2.3203216E-2,-2.8096568E-2,1.9005401E-2],"categories":[],"categories_nodes":[],"categories_segments":[],"categories_sizes":[],"default_left":[0,0,0,0,0,0,0],"id":91,"left_children":[1,3,5,-1,-1,-1,-1],"loss_changes":[1.4723241E0,1.027744E0,3.198739E0,0E0,0E0,0E0,0E0],"parents":[2147483647,0,0,1,1,2,2],"right_children":[2,4,6,-1,-1,-1,-1],"split_conditions":[-2.0426719E-1,-6.839906E-2,4.857111E-1,-6.324299E-3,2.3203216E-2,-2.8096568E-2,1.9005401E-2],"split_indices":[16,13,7,0,0,0,0],"split_type":[0,0,0,0,0,0,0],"sum_hessian":[6.9664845E0,3.576366E0,3.3901188E0,1.0011691E0,2.5751967E0,2.0207865E0,1.3693322E0],"tree_param":{"num_deleted":"0","num_feature":"17","num_nodes":"7","size_leaf_vector":"1"}},{"base_weights":[-5.7803664E-2,2.53482E-1,-4.809398E-1,2.2773588E-2,-1.3627764E-2,-2.441369E-2,4.6791313E-3],"categories":[],"categories_nodes":[],"categories_segments":[],"categories_sizes":[],"default_left":[0,0,0,0,0,0,0],"id":92,"left_children":[1,3,5,-1,-1,-1,-1],"loss_changes":[1.209294E0,2.28131E0,9.4189274E-1,0E0,0E0,0E0,0E0],"parents":[2147483647,0,0,1,1,2,2],"right_children":[2,4,6,-1,-1,-1,-1],"split_conditions":[3.6950612E-1,1.6794655E-2,4.857111E-1,2.2773588E-2,-1.3627764E-2,-2.441369E-2,4.6791313E-3],"split_indices":[16,9,7,0,0,0,0],"split_type":[0,0,0,0,0,0,0],"sum_hessian":[7.255508E0,4.411255E0,2.844253E0,2.5306585E0,1.8805963E0,1.6856291E0,1.1586239E0],"tree_param":{"num_deleted":"0","num_feature":"17","num_nodes":"7","size_leaf_vector":"1"}},{"base_weights":[-1.1480008E-1,-3.6342016E-1,1.8379414E-2,1.1731638E-2,-7.234565E-1,-4.4800917E-4,-2.9577123E-2],"categories":[],"categories_nodes":[],"categories_segments":[],"categories_sizes":[],"default_left":[0,0,0,0,0,0,0],"id":93,"left_children":[1,3,-1,-1,5,-1,-1],"loss_changes":[1.6441355E0,2.0445852E0,0E0,0E0,8.669002E-1,0E0,0E0],"parents":[2147483647,0,0,1,1,4,4],"right_children":[2,4,-1,-1,6,-1,-1],"split_conditions":[-9.781277E-3,1.5375584E-1,1.8379414E-2,1.1731638E-2,-2.34214E-3,-4.4800917E-4,-2.9577123E-2],"split_indices":[12,7,0,0,10,0,0],"split_type":[0,0,0,0,0,0,0],"sum_hessian":[6.859687E0,5.4853673E0,1.3743199E0,1.7441847E0,3.7411826E0,1.2968938E0,2.4442887E0],"tree_param":{"num_deleted":"0","num_feature":"17","num_nodes":"7","size_leaf_vector":"1"}},{"base_weights":[-3.7128173E-2,-3.1595737E-1,1.9791232E-2,2.7326185E-1,-7.0787436E-1,-6.2913364E-3,1.7933672E-2,5.016105E-3,-3.220012E-2],"categories":[],"categories_nodes":[],"categories_segments":[],"categories_sizes":[],"default_left":[0,0,0,0,0,0,0,0,0],"id":94,"left_children":[1,3,-1,5,7,-1,-1,-1,-1],"loss_changes":[1.7992747E0,1.6999613E0,0E0,6.469025E-1,1.5215149E0,0E0,0E0,0E0,0E0],"parents":[2147483647,0,0,1,1,3,3,4,4],"right_children":[2,4,-1,6,8,-1,-1,-1,-1],"split_conditions":[-9.781277E-3,-1.8500363E-2,1.9791232E-2,-5.3557362E-2,-1.0059317E0,-6.2913364E-3,1.7933672E-2,5.016105E-3,-3.220012E-2],"split_indices":[12,2,0,12,16,0,0,0,0],"split_type":[0,0,0,0,0,0,0,0,0],"sum_hessian":[7.187596E0,5.523876E0,1.6637193E0,2.327461E0,3.1964154E0,1.0775731E0,1.2498878E0,1.10148E0,2.0949357E0],"tree_param":{"num_deleted":"0","num_feature":"17","num_nodes":"9","size_leaf_vector":"1"}},{"base_weights":[-1.28293E-1,-3.3284768E-1,1.7399035E-2,7.587287E-2,-2.8899048E-2,2.056184E-2,-4.2791423E-1,3.3304389E-3,-2.1544797E-2],"categories":[],"categories_nodes":[],"categories_segments":[],"categories_sizes":[],"default_left":[0,0,0,0,0,0,0,0,0],"id":95,"left_children":[1,3,-1,5,-1,-1,7,-1,-1],"loss_changes":[1.342475E0,1.8230569E0,0E0,1.8431175E0,0E0,0E0,6.0825825E-1,0E0,0E0],"parents":[2147483647,0,0,1,1,3,3,6,6],"right_children":[2,4,-1,6,-1,-1,8,-1,-1],"split_conditions":[9.9319585E-2,8.944312E-2,1.7399035E-2,-2.34214E-3,-2.8899048E-2,2.056184E-2,4.1404673E-1,3.3304389E-3,-2.1544797E-2],"split_indices":[8,8,0,10,0,0,3,0,0],"split_type":[0,0,0,0,0,0,0,0,0],"sum_hessian":[6.9338017E0,5.791261E0,1.1425402E0,4.047159E0,1.7441022E0,1.6682692E0,2.3788898E0,1.0488666E0,1.3300233E0],"tree_param":{"num_deleted":"0","num_feature":"17","num_nodes":"9","size_leaf_vector":"1"}},{"base_weights":[-1.3346162E-1,-3.2785624E-1,1.6701413E-2,-5.7755196E-1,1.5734357E-1,-4.0015157E-2,-3.3391222E-2,-1.06922295E-2,1.714598E-2,-1.5907388E-2,1.2590671E-2],"categories":[],"categories_nodes":[],"categories_segments":[],"categories_sizes":[],"default_left":[0,0,0,0,0,0,0,0,0,0,0],"id":96,"left_children":[1,3,-1,5,7,9,-1,-1,-1,-1,-1],"loss_changes":[1.2803717E0,9.4061875E-1,0E0,1.3500292E0,8.780298E-1,1.0011836E0,0E0,0E0,0E0,0E0,0E0],"parents":[2147483647,0,0,1,1,3,3,4,4,5,5],"right_children":[2,4,-1,6,8,10,-1,-1,-1,-1,-1],"split_conditions":[7.0862603E-1,-1.1468791E-2,1.6701413E-2,-1.5759014E-2,1.3940342E-1,-1.448141E-2,-3.3391222E-2,-1.06922295E-2,1.714598E-2,-1.5907388E-2,1.2590671E-2],"split_indices":[15,2,0,2,15,5,0,0,0,0,0],"split_type":[0,0,0,0,0,0,0,0,0,0,0],"sum_hessian":[7.182747E0,6.0138535E0,1.1688935E0,3.8448572E0,2.1689963E0,2.455097E0,1.3897603E0,1.030407E0,1.1385894E0,1.1138405E0,1.3412566E0],"tree_param":{"num_deleted":"0","num_feature":"17","num_nodes":"11","size_leaf_vector":"1"}},{"base_weights":[1.0230256E-3,3.808791E-1,-5.3678447E-1,2.3534147E-2,-9.8060025E-3,-2.7917797E-2,5.575416E-3],"categories":[],"categories_nodes":[],"categories_segments":[],"categories_sizes":[],"default_left":[0,0,0,0,0,0,0],"id":97,"left_children":[1,3,5,-1,-1,-1,-1],"loss_changes":[1.9386493E0,1.8445768E0,1.2910432E0,0E0,0E0,0E0,0E0],"parents":[2147483647,0,0,1,1,2,2],"right_children":[2,4,6,-1,-1,-1,-1],"split_conditions":[3.6950612E-1,1.678985E-2,-3.7957536E-4,2.3534147E-2,-9.8060025E-3,-2.7917797E-2,5.575416E-3],"split_indices":[16,9,6,0,0,0,0],"split_type":[0,0,0,0,0,0,0],"sum_hessian":[7.488934E0,4.559986E0,2.928948E0,2.8349473E0,1.7250388E0,1.7095304E0,1.2194176E0],"tree_param":{"num_deleted":"0","num_feature":"17","num_nodes":"7","size_leaf_vector":"1"}},{"base_weights":[-3.9111264E-2,-2.7510425E-1,1.8101767E-2,9.402633E-3,-5.481805E-1,-2.4487404E-2,-9.797676E-5],"categories":[],"categories_nodes":[],"categories_segments":[],"categories_sizes":[],"default_left":[0,0,0,0,0,0,0],"id":98,"left_children":[1,3,-1,-1,5,-1,-1],"loss_changes":[1.26754E0,1.1361057E0,0E0,0E0,6.491438E-1,0E0,0E0],"parents":[2147483647,0,0,1,1,4,4],"right_children":[2,4,-1,-1,6,-1,-1],"split_conditions":[4.857111E-1,1.5375584E-1,1.8101767E-2,9.402633E-3,2.2978169E-1,-2.4487404E-2,-9.797676E-5],"split_indices":[7,7,0,0,15,0,0],"split_type":[0,0,0,0,0,0,0],"sum_hessian":[6.264861E0,5.000128E0,1.2647336E0,1.5379163E0,3.4622114E0,1.9868575E0,1.4753537E0],"tree_param":{"num_deleted":"0","num_feature":"17","num_nodes":"7","size_leaf_vector":"1"}},{"base_weights":[-2.4087459E-1,-4.1826564E-1,1.5515423E-2,9.276246E-3,-6.424628E-1,-1.4507517E-2,1.6702903E-2,2.7395273E-3,-2.9134845E-2],"categories":[],"categories_nodes":[],"categories_segments":[],"categories_sizes":[],"default_left":[0,0,0,0,0,0,0,0,0],"id":99,"left_children":[1,3,-1,5,7,-1,-1,-1,-1],"loss_changes":[1.3239794E0,6.987847E-1,0E0,1.2061532E0,1.2357424E0,0E0,0E0,0E0,0E0],"parents":[2147483647,0,0,1,1,3,3,4,4],"right_children":[2,4,-1,6,8,-1,-1,-1,-1],"split_conditions":[7.0862603E-1,-1.0059317E0,1.5515423E-2,-3.5172276E-2,-3.712847E-3,-1.4507517E-2,1.6702903E-2,2.7395273E-3,-2.9134845E-2],"split_indices":[15,16,0,0,10,0,0,0,0],"split_type":[0,0,0,0,0,0,0,0,0],"sum_hessian":[7.237094E0,6.227944E0,1.0091501E0,2.4721677E0,3.755776E0,1.3624138E0,1.109754E0,1.3853449E0,2.3704312E0],"tree_param":{"num_deleted":"0","num_feature":"17","num_nodes":"9","size_leaf_vector":"1"}},{"base_weights":[-1.1248173E-1,-2.8948614E-1,1.5773306E-2,-5.777283E-1,1.9758616E-1,4.765564E-3,-2.5920091E-2,1.7336337E-2,-9.415336E-3],"categories":[],"categories_nodes":[],"categories_segments":[],"categories_sizes":[],"default_left":[0,0,0,0,0,0,0,0,0],"id":100,"left_children":[1,3,-1,5,7,-1,-1,-1,-1],"loss_changes":[1.0313015E0,1.0599685E0,0E0,1.0834192E0,8.134151E-1,0E0,0E0,0E0,0E0],"parents":[2147483647,0,0,1,1,3,3,4,4],"right_children":[2,4,-1,6,8,-1,-1,-1,-1],"split_conditions":[7.0862603E-1,-1.1468791E-2,1.5773306E-2,1.5159307E-1,3.4065223E-1,4.765564E-3,-2.5920091E-2,1.7336337E-2,-9.415336E-3],"split_indices":[15,2,0,7,16,0,0,0,0],"split_type":[0,0,0,0,0,0,0,0,0],"sum_hessian":[6.781364E0,5.7368436E0,1.0445206E0,3.4871037E0,2.24974E0,1.1005396E0,2.386564E0,1.2157806E0,1.0339594E0],"tree_param":{"num_deleted":"0","num_feature":"17","num_nodes":"9","size_leaf_vector":"1"}},{"base_weights":[-3.7284117E-2,4.8634195E-1,-4.686682E-1,-1.5375802E-3,2.135356E-2,-3.190508E-2,1.1502422E-1,1.7129404E-2,-1.2603011E-2],"categories":[],"categories_nodes":[],"categories_segments":[],"categories_sizes":[],"default_left":[0,0,0,0,0,0,0,0,0],"id":101,"left_children":[1,3,5,-1,-1,-1,7,-1,-1],"loss_changes":[1.9433401E0,5.1170623E-1,1.7448316E0,0E0,0E0,0E0,1.0355412E0,0E0,0E0],"parents":[2147483647,0,0,1,1,2,2,6,6],"right_children":[2,4,6,-1,-1,-1,8,-1,-1],"split_conditions":[-1.5759014E-2,-2.5303213E-2,-1.1468791E-2,-1.5375802E-3,2.135356E-2,-3.190508E-2,3.4065223E-1,1.7129404E-2,-1.2603011E-2],"split_indices":[2,2,2,0,0,0,16,0,0],"split_type":[0,0,0,0,0,0,0,0,0],"sum_hessian":[6.5941954E0,2.9210927E0,3.6731029E0,1.091337E0,1.8297557E0,1.4120612E0,2.2610416E0,1.1846497E0,1.0763919E0],"tree_param":{"num_deleted":"0","num_feature":"17","num_nodes":"9","size_leaf_vector":"1"}},{"base_weights":[-7.2041927E-3,4.507746E-1,-3.215213E-1,-1.5493652E-5,1.9847883E-2,7.796859E-3,-5.805708E-1,-2.663679E-4,-2.4400225E-2],"categories":[],"categories_nodes":[],"categories_segments":[],"categories_sizes":[],"default_left":[0,0,0,0,0,0,0,0,0],"id":102,"left_children":[1,3,5,-1,-1,-1,7,-1,-1],"loss_changes":[1.3307351E0,3.589244E-1,9.745494E-1,0E0,0E0,0E0,5.373535E-1,0E0,0E0],"parents":[2147483647,0,0,1,1,2,2,6,6],"right_children":[2,4,6,-1,-1,-1,8,-1,-1],"split_conditions":[-2.34214E-3,-2.9232088E-3,-1.0274268E0,-1.5493652E-5,1.9847883E-2,7.796859E-3,-1.863677E-2,-2.663679E-4,-2.4400225E-2],"split_indices":[10,6,16,0,0,0,2,0,0],"split_type":[0,0,0,0,0,0,0,0,0],"sum_hessian":[7.2375593E0,2.768927E0,4.4686317E0,1.199274E0,1.5696533E0,1.3763211E0,3.092311E0,1.195142E0,1.8971689E0],"tree_param":{"num_deleted":"0","num_feature":"17","num_nodes":"9","size_leaf_vector":"1"}},{"base_weights":[-2.43559E-1,-4.230001E-1,9.134674E-3,4.229995E-3,-6.900273E-1,-2.5558192E-2,-1.8450278E-3],"categories":[],"categories_nodes":[],"categories_segments":[],"categories_sizes":[],"default_left":[0,0,0,0,0,0,0],"id":103,"left_children":[1,3,-1,-1,5,-1,-1],"loss_changes":[9.211089E-1,1.0744019E0,0E0,0E0,4.129722E-1,0E0,0E0],"parents":[2147483647,0,0,1,1,4,4],"right_children":[2,4,-1,-1,6,-1,-1],"split_conditions":[4.857111E-1,1.5375584E-1,9.134674E-3,4.229995E-3,3.4088954E-2,-2.5558192E-2,-1.8450278E-3],"split_indices":[7,7,0,0,10,0,0],"split_type":[0,0,0,0,0,0,0],"sum_hessian":[7.0566487E0,5.4879594E0,1.5686893E0,1.9150538E0,3.5729055E0,2.5583916E0,1.014514E0],"tree_param":{"num_deleted":"0","num_feature":"17","num_nodes":"7","size_leaf_vector":"1"}},{"base_weights":[2.4915315E-2,3.9128673E-1,-5.645988E-1,2.271437E-2,-1.0116884E-2,-2.3079747E-2,-2.5734054E-3],"categories":[],"categories_nodes":[],"categories_segments":[],"categories_sizes":[],"default_left":[0,0,0,0,0,0,0],"id":104,"left_children":[1,3,5,-1,-1,-1,-1],"loss_changes":[1.7039741E0,1.5414717E0,2.3212272E-1,0E0,0E0,0E0,0E0],"parents":[2147483647,0,0,1,1,2,2],"right_children":[2,4,6,-1,-1,-1,-1],"split_conditions":[3.6950612E-1,1.7349035E-2,-1.4435954E-2,2.271437E-2,-1.0116884E-2,-2.3079747E-2,-2.5734054E-3],"split_indices":[16,9,12,0,0,0,0],"split_type":[0,0,0,0,0,0,0],"sum_hessian":[5.866591E0,3.825422E0,2.041169E0,2.5203903E0,1.3050319E0,1.004826E0,1.036343E0],"tree_param":{"num_deleted":"0","num_feature":"17","num_nodes":"7","size_leaf_vector":"1"}},{"base_weights":[8.7314785E-2,4.0481785E-1,-4.10004E-1,-9.537894E-3,2.0151641E-2,-2.739209E-2,6.9046444E-3],"categories":[],"categories_nodes":[],"categories_segments":[],"categories_sizes":[],"default_left":[0,0,0,0,0,0,0],"id":105,"left_children":[1,3,5,-1,-1,-1,-1],"loss_changes":[1.3634528E0,1.2035146E0,1.3218031E0,0E0,0E0,0E0,0E0],"parents":[2147483647,0,0,1,1,2,2],"right_children":[2,4,6,-1,-1,-1,-1],"split_conditions":[3.6950612E-1,-1.8400964E0,-6.719477E-4,-9.537894E-3,2.0151641E-2,-2.739209E-2,6.9046444E-3],"split_indices":[16,16,6,0,0,0,0],"split_type":[0,0,0,0,0,0,0],"sum_hessian":[6.5837502E0,4.131852E0,2.4518979E0,1.0627784E0,3.069074E0,1.1342419E0,1.3176559E0],"tree_param":{"num_deleted":"0","num_feature":"17","num_nodes":"7","size_leaf_vector":"1"}},{"base_weights":[-6.672818E-2,-3.52773E-1,1.907823E-2,7.6213144E-3,-5.7716733E-1,-2.5745705E-2,-1.8288282E-3],"categories":[],"categories_nodes":[],"categories_segments":[],"categories_sizes":[],"default_left":[0,0,0,0,0,0,0],"id":106,"left_children":[1,3,-1,-1,5,-1,-1],"loss_changes":[1.7145314E0,9.5168126E-1,0E0,0E0,6.1815524E-1,0E0,0E0],"parents":[2147483647,0,0,1,1,4,4],"right_children":[2,4,-1,-1,6,-1,-1],"split_conditions":[-9.781277E-3,1.5158696E-1,1.907823E-2,7.6213144E-3,-1.3604447E-2,-2.5745705E-2,-1.8288282E-3],"split_indices":[12,7,0,0,0,0,0],"split_type":[0,0,0,0,0,0,0],"sum_hessian":[6.4140615E0,4.9122996E0,1.5017617E0,1.2904574E0,3.6218424E0,1.9161795E0,1.705663E0],"tree_param":{"num_deleted":"0","num_feature":"17","num_nodes":"7","size_leaf_vector":"1"}},{"base_weights":[9.188212E-4,-2.4201189E-1,1.850931E-2,2.4464133E-1,-2.3175769E-2,-1.0935942E-2,2.0677323E-2],"categories":[],"categories_nodes":[],"categories_segments":[],"categories_sizes":[],"default_left":[0,0,0,0,0,0,0],"id":107,"left_children":[1,3,-1,5,-1,-1,-1],"loss_changes":[1.2647768E0,1.7544979E0,0E0,1.3135062E0,0E0,0E0,0E0],"parents":[2147483647,0,0,1,1,3,3],"right_children":[2,4,-1,6,-1,-1,-1],"split_conditions":[-9.781277E-3,-2.664676E-2,1.850931E-2,-5.468717E-2,-2.3175769E-2,-1.0935942E-2,2.0677323E-2],"split_indices":[12,12,0,13,0,0,0],"split_type":[0,0,0,0,0,0,0],"sum_hessian":[6.453328E0,5.0637116E0,1.3896165E0,2.9220777E0,2.1416337E0,1.3088511E0,1.6132267E0],"tree_param":{"num_deleted":"0","num_feature":"17","num_nodes":"7","size_leaf_vector":"1"}},{"base_weights":[8.178362E-2,-2.2746654E-1,2.006202E-2,1.0077991E-2,-5.395909E-1,7.4089074E-4,-2.3634091E-2],"categories":[],"categories_nodes":[],"categories_segments":[],"categories_sizes":[],"default_left":[0,0,0,0,0,0,0],"id":108,"left_children":[1,3,-1,-1,5,-1,-1],"loss_changes":[1.4925892E0,1.1630102E0,0E0,0E0,5.7638E-1,0E0,0E0],"parents":[2147483647,0,0,1,1,4,4],"right_children":[2,4,-1,-1,6,-1,-1],"split_conditions":[4.7756442E-1,-1.0059317E0,2.006202E-2,1.0077991E-2,-1.3456582E-2,7.4089074E-4,-2.3634091E-2],"split_indices":[15,16,0,0,10,0,0],"split_type":[0,0,0,0,0,0,0],"sum_hessian":[6.3849444E0,4.582824E0,1.8021202E0,1.6065837E0,2.9762404E0,1.1843145E0,1.791926E0],"tree_param":{"num_deleted":"0","num_feature":"17","num_nodes":"7","size_leaf_vector":"1"}},{"base_weights":[-5.6417912E-2,-2.8444305E-1,1.8061046E-2,8.9269895E-3,-5.0432104E-1,-2.8601648E-2,-1.1290213E-2,1.1229465E-2,-1.2700806E-2],"categories":[],"categories_nodes":[],"categories_segments":[],"categories_sizes":[],"default_left":[0,0,0,0,0,0,0,0,0],"id":109,"left_children":[1,3,-1,-1,5,-1,7,-1,-1],"loss_changes":[1.3900379E0,1.0085762E0,0E0,0E0,1.1494335E0,0E0,7.161667E-1,0E0,0E0],"parents":[2147483647,0,0,1,1,4,4,6,6],"right_children":[2,4,-1,-1,6,-1,8,-1,-1],"split_conditions":[5.8581525E-1,