{"learner":{"attributes":{"best_iteration":"69","best_score":"0.24663992412388325","scikit_learn":"{\"_estimator_type\": \"classifier\"}"},"feature_names":["feat_close_to_ema20","feat_close_to_ema50","feat_ema20_to_ema50","feat_rsi_scaled","feat_macd_line","feat_macd_signal","feat_macd_hist","feat_bb_pct_b","feat_bb_width","feat_atr_scaled","feat_volume_change","feat_momentum_5","feat_momentum_15","feat_momentum_30"],"feature_types":["float","float","float","float","float","float","float","float","float","float","float","float","float","float"],"gradient_booster":{"model":{"cats":{"enc":[],"feature_segments":[],"sorted_idx":[]},"gbtree_model_param":{"num_parallel_tree":"1","num_trees":"100"},"iteration_indptr":[0,1,2,3,4,5,6,7,8,9,10,11,12,13,14,15,16,17,18,19,20,21,22,23,24,25,26,27,28,29,30,31,32,33,34,35,36,37,38,39,40,41,42,43,44,45,46,47,48,49,50,51,52,53,54,55,56,57,58,59,60,61,62,63,64,65,66,67,68,69,70,71,72,73,74,75,76,77,78,79,80,81,82,83,84,85,86,87,88,89,90,91,92,93,94,95,96,97,98,99,100],"tree_info":[0,0,0,0,0,0,0,0,0,0,0,0,0,0,0,0,0,0,0,0,0,0,0,0,0,0,0,0,0,0,0,0,0,0,0,0,0,0,0,0,0,0,0,0,0,0,0,0,0,0,0,0,0,0,0,0,0,0,0,0,0,0,0,0,0,0,0,0,0,0,0,0,0,0,0,0,0,0,0,0,0,0,0,0,0,0,0,0,0,0,0,0,0,0,0,0,0,0,0,0],"trees":[{"base_weights":[1.06951624E-1,-6.970424E-1,7.77804E-1,1.9817464E-2,-1.4065259E0,4.4923577E-2,3.3734501E-3,2.7907688E-2,-1.2033697E-1],"categories":[],"categories_nodes":[],"categories_segments":[],"categories_sizes":[],"default_left":[0,0,0,0,0,0,0,0,0],"id":0,"left_children":[1,3,5,-1,7,-1,-1,-1,-1],"loss_changes":[6.593795E0,4.9256363E0,5.04158E-1,0E0,8.486158E0,0E0,0E0,0E0,0E0],"parents":[2147483647,0,0,1,1,2,2,4,4],"right_children":[2,4,6,-1,8,-1,-1,-1,-1],"split_conditions":[-3.7957536E-4,3.3099177E-1,5.7346918E-2,1.9817464E-2,-2.34214E-3,4.4923577E-2,3.3734501E-3,2.7907688E-2,-1.2033697E-1],"split_indices":[6,3,10,0,10,0,0,0,0],"split_type":[0,0,0,0,0,0,0,0,0],"sum_hessian":[1.0219997E1,4.630936E0,5.5890613E0,1.9960933E0,2.634843E0,4.5510926E0,1.0379685E0,1.0379685E0,1.5968746E0],"tree_param":{"num_deleted":"0","num_feature":"14","num_nodes":"9","size_leaf_vector":"1"}},{"base_weights":[-1.0421704E-1,-8.434992E-1,7.2503203E-1,1.8426264E-2,-1.4541854E0,2.3880727E-3,4.300229E-2,-2.7318543E-3,-1.1614054E-1],"categories":[],"categories_nodes":[],"categories_segments":[],"categories_sizes":[],"default_left":[0,0,0,0,0,0,0,0,0],"id":1,"left_children":[1,3,5,-1,7,-1,-1,-1,-1],"loss_changes":[7.3034573E0,5.1494837E0,4.78544E-1,0E0,5.157629E0,0E0,0E0,0E0,0E0],"parents":[2147483647,0,0,1,1,2,2,4,4],"right_children":[2,4,6,-1,8,-1,-1,-1,-1],"split_conditions":[-9.781277E-3,3.3099177E-1,-6.2496167E-2,1.8426264E-2,-1.8721664E-2,2.3880727E-3,4.300229E-2,-2.7318543E-3,-1.1614054E-1],"split_indices":[12,3,10,0,2,0,0,0,0],"split_type":[0,0,0,0,0,0,0,0,0],"sum_hessian":[9.915755E0,5.233164E0,4.6825914E0,1.8861916E0,3.3469722E0,1.0033303E0,3.6792612E0,1.6888158E0,1.6581564E0],"tree_param":{"num_deleted":"0","num_feature":"14","num_nodes":"9","size_leaf_vector":"1"}},{"base_weights":[1.2850514E-1,-5.189329E-1,4.404488E-2,1.6745672E-1,-7.01427E-2,-3.0696077E-2,3.6646456E-2],"categories":[],"categories_nodes":[],"categories_segments":[],"categories_sizes":[],"default_left":[0,0,0,0,0,0,0],"id":2,"left_children":[1,3,-1,5,-1,-1,-1],"loss_changes":[5.5355334E0,4.0163956E0,0E0,2.394856E0,0E0,0E0,0E0],"parents":[2147483647,0,0,1,1,3,3],"right_children":[2,4,-1,6,-1,-1,-1],"split_conditions":[-1.2752895E-2,3.8449433E-1,4.404488E-2,-5.3557362E-2,-7.01427E-2,-3.0696077E-2,3.6646456E-2],"split_indices":[12,3,0,12,0,0,0],"split_type":[0,0,0,0,0,0,0],"sum_hessian":[9.425211E0,5.232717E0,4.192494E0,3.40173E0,1.8309867E0,1.3922371E0,2.009493E0],"tree_param":{"num_deleted":"0","num_feature":"14","num_nodes":"7","size_leaf_vector":"1"}},{"base_weights":[2.0260477E-2,-6.549698E-1,7.36529E-1,1.22093655E-1,-1.4863138E0,4.3320518E-2,3.16475E-3,3.7572194E-2,-4.6221074E-2,-1.1938689E-1,4.9413075E-3],"categories":[],"categories_nodes":[],"categories_segments":[],"categories_sizes":[],"default_left":[0,0,0,0,0,0,0,0,0,0,0],"id":3,"left_children":[1,3,5,7,9,-1,-1,-1,-1,-1,-1],"loss_changes":[5.920617E0,4.262434E0,4.6341968E-1,3.453822E0,4.705403E0,0E0,0E0,0E0,0E0,0E0,0E0],"parents":[2147483647,0,0,1,1,2,2,3,3,4,4],"right_children":[2,4,6,8,10,-1,-1,-1,-1,-1,-1],"split_conditions":[-3.7957536E-4,8.944312E-2,1.2553282E-2,-1.0534032E-2,9.9319585E-2,4.3320518E-2,3.16475E-3,3.7572194E-2,-4.6221074E-2,-1.1938689E-1,4.9413075E-3],"split_indices":[6,8,13,11,8,0,0,0,0,0,0],"split_type":[0,0,0,0,0,0,0,0,0,0,0],"sum_hessian":[1.0244199E1,5.317213E0,4.9269853E0,3.1892936E0,2.1279194E0,3.8896499E0,1.0373356E0,2.1676655E0,1.0216281E0,1.0337366E0,1.0941828E0],"tree_param":{"num_deleted":"0","num_feature":"14","num_nodes":"11","size_leaf_vector":"1"}},{"base_weights":[1.02782905E-1,-6.020307E-1,4.46787E-2,1.902994E-1,-7.945277E-2,3.2768447E-2,-1.3140604E-2],"categories":[],"categories_nodes":[],"categories_segments":[],"categories_sizes":[],"default_left":[0,0,0,0,0,0,0],"id":4,"left_children":[1,3,-1,5,-1,-1,-1],"loss_changes":[6.7696238E0,5.392893E0,0E0,1.1213069E0,0E0,0E0,0E0],"parents":[2147483647,0,0,1,1,3,3],"right_children":[2,4,-1,6,-1,-1,-1],"split_conditions":[-9.781277E-3,4.6944813E-4,4.46787E-2,3.2780698E-1,-7.945277E-2,3.2768447E-2,-1.3140604E-2],"split_indices":[12,11,0,3,0,0,0],"split_type":[0,0,0,0,0,0,0],"sum_hessian":[1.0180676E1,5.5091753E0,4.6715007E0,3.5037515E0,2.0054238E0,1.5087795E0,1.9949721E0],"tree_param":{"num_deleted":"0","num_feature":"14","num_nodes":"7","size_leaf_vector":"1"}},{"base_weights":[-1.4241629E-2,-5.548562E-1,7.032705E-1,2.9305726E-2,-8.622118E-1,2.1675667E-3,4.2023856E-2,-7.761505E-2,-8.7938115E-2,3.5212956E-2,-4.5716982E-2],"categories":[],"categories_nodes":[],"categories_segments":[],"categories_sizes":[],"default_left":[0,0,0,0,0,0,0,0,0,0,0],"id":5,"left_children":[1,3,5,-1,7,-1,-1,9,-1,-1,-1],"loss_changes":[4.9614787E0,3.058275E0,4.6200633E-1,0E0,4.182299E0,0E0,0E0,3.4704049E0,0E0,0E0,0E0],"parents":[2147483647,0,0,1,1,2,2,4,4,7,7],"right_children":[2,4,6,-1,8,-1,-1,10,-1,-1,-1],"split_conditions":[-9.781277E-3,-1.5062686E-2,-6.16267E-3,2.9305726E-2,-2.688515E-3,2.1675667E-3,4.2023856E-2,1.5844189E-2,-8.7938115E-2,3.5212956E-2,-4.5716982E-2],"split_indices":[12,5,0,0,11,0,0,9,0,0,0],"split_type":[0,0,0,0,0,0,0,0,0,0,0],"sum_hessian":[1.0784725E1,6.2798343E0,4.5048904E0,1.1402013E0,5.1396327E0,1.0019231E0,3.5029676E0,3.3204143E0,1.8192185E0,1.7983072E0,1.5221072E0],"tree_param":{"num_deleted":"0","num_feature":"14","num_nodes":"11","size_leaf_vector":"1"}},{"base_weights":[-1.0031985E-1,-7.520094E-1,7.0121527E-1,4.7374073E-1,-1.5589612E0,4.1882586E-2,3.1299584E-3,2.5939753E-3,3.1671148E-2,-1.0907803E-1,4.6067457E-3],"categories":[],"categories_nodes":[],"categories_segments":[],"categories_sizes":[],"default_left":[0,0,0,0,0,0,0,0,0,0,0],"id":6,"left_children":[1,3,5,7,9,-1,-1,-1,-1,-1,-1],"loss_changes":[6.2333794E0,7.175349E0,4.1947794E-1,1.9283116E-1,4.4745255E0,0E0,0E0,0E0,0E0,0E0,0E0],"parents":[2147483647,0,0,1,1,2,2,3,3,4,4],"right_children":[2,4,6,8,10,-1,-1,-1,-1,-1,-1],"split_conditions":[-3.7957536E-4,1.5159307E-1,4.1432682E-2,-1.3921043E-2,-9.781277E-3,4.1882586E-2,3.1299584E-3,2.5939753E-3,3.1671148E-2,-1.0907803E-1,4.6067457E-3],"split_indices":[6,7,10,4,12,0,0,0,0,0,0],"split_type":[0,0,0,0,0,0,0,0,0,0,0],"sum_hessian":[9.9237795E0,5.507602E0,4.4161773E0,2.3503594E0,3.1572428E0,3.381972E0,1.0342051E0,1.0091634E0,1.3411961E0,2.0593991E0,1.0978435E0],"tree_param":{"num_deleted":"0","num_feature":"14","num_nodes":"11","size_leaf_vector":"1"}},{"base_weights":[-2.7514705E-1,-9.391256E-1,5.31715E-1,1.3929925E-2,-1.397493E0,-4.8809084E-3,4.026354E-2,-1.1707286E-1,-1.7669974E-1,-4.6708323E-2,3.0144742E-2],"categories":[],"categories_nodes":[],"categories_segments":[],"categories_sizes":[],"default_left":[0,0,0,0,0,0,0,0,0,0,0],"id":7,"left_children":[1,3,5,-1,7,-1,-1,-1,9,-1,-1],"loss_changes":[6.3684397E0,3.9455109E0,1.0399288E0,0E0,5.112008E0,0E0,0E0,0E0,2.4366515E0,0E0,0E0],"parents":[2147483647,0,0,1,1,2,2,4,4,8,8],"right_children":[2,4,6,-1,8,-1,-1,-1,10,-1,-1],"split_conditions":[-3.7957536E-4,3.296908E-1,-1.0872326E-2,1.3929925E-2,1.5888074E-2,-4.8809084E-3,4.026354E-2,-1.1707286E-1,-3.6961906E-2,-4.6708323E-2,3.0144742E-2],"split_indices":[6,3,12,0,9,0,0,0,1,0,0],"split_type":[0,0,0,0,0,0,0,0,0,0,0],"sum_hessian":[9.955132E0,5.371183E0,4.5839486E0,1.5761336E0,3.7950494E0,1.583698E0,3.0002506E0,1.6224946E0,2.1725547E0,1.0013524E0,1.1712023E0],"tree_param":{"num_deleted":"0","num_feature":"14","num_nodes":"11","size_leaf_vector":"1"}},{"base_weights":[-9.425255E-2,-8.2036865E-1,4.3547288E-2,7.508134E-2,-7.741887E-2,-4.712765E-2,3.6692347E-2],"categories":[],"categories_nodes":[],"categories_segments":[],"categories_sizes":[],"default_left":[0,0,0,0,0,0,0],"id":8,"left_children":[1,3,-1,5,-1,-1,-1],"loss_changes":[8.376527E0,4.5191097E0,0E0,3.3614354E0,0E0,0E0,0E0],"parents":[2147483647,0,0,1,1,3,3],"right_children":[2,4,-1,6,-1,-1,-1],"split_conditions":[-3.7957536E-4,-2.0478074E-2,4.3547288E-2,-1.3921043E-2,-7.741887E-2,-4.712765E-2,3.6692347E-2],"split_indices":[6,11,0,4,0,0,0],"split_type":[0,0,0,0,0,0,0],"sum_hessian":[9.932544E0,5.7539296E0,4.178614E0,2.9824216E0,2.771508E0,1.002702E0,1.9797198E0],"tree_param":{"num_deleted":"0","num_feature":"14","num_nodes":"7","size_leaf_vector":"1"}},{"base_weights":[-1.1534045E-1,-7.3479307E-1,6.988233E-1,1.8153474E-2,-1.2037342E0,4.1703206E-2,2.889075E-3,-1.5646108E0,5.082649E-3,-1.1033157E-1,-2.904485E-2],"categories":[],"categories_nodes":[],"categories_segments":[],"categories_sizes":[],"default_left":[0,0,0,0,0,0,0,0,0,0,0],"id":9,"left_children":[1,3,5,-1,7,-1,-1,9,-1,-1,-1],"loss_changes":[6.3289356E0,4.0593805E0,4.281907E-1,0E0,2.590705E0,0E0,0E0,1.3106842E0,0E0,0E0,0E0],"parents":[2147483647,0,0,1,1,2,2,4,4,7,7],"right_children":[2,4,6,-1,8,-1,-1,10,-1,-1,-1],"split_conditions":[-3.7957536E-4,3.296908E-1,4.5357063E-2,1.8153474E-2,9.6471615E-2,4.1703206E-2,2.889075E-3,-7.375714E-3,5.082649E-3,-1.1033157E-1,-2.904485E-2],"split_indices":[6,3,10,0,8,0,0,5,0,0,0],"split_type":[0,0,0,0,0,0,0,0,0,0,0],"sum_hessian":[1.0530899E1,6.0359573E0,4.494942E0,1.8741212E0,4.161836E0,3.4632018E0,1.0317403E0,3.1049004E0,1.0569357E0,1.1265162E0,1.9783841E0],"tree_param":{"num_deleted":"0","num_feature":"14","num_nodes":"11","size_leaf_vector":"1"}},{"base_weights":[-8.24867E-2,-4.6500343E-1,6.231685E-1,4.9856892E-1,-9.6289873E-1,3.8612477E-2,2.5287757E-3,3.026382E-3,3.2810804E-2,2.9701112E-2,-1.4893571E0,-6.639207E-1,-1.0428318E-1,8.503209E-3,-6.0129344E-2],"categories":[],"categories_nodes":[],"categories_segments":[],"categories_sizes":[],"default_left":[0,0,0,0,0,0,0,0,0,0,0,0,0,0,0],"id":10,"left_children":[1,3,5,7,9,-1,-1,-1,-1,-1,11,13,-1,-1,-1],"loss_changes":[3.4847178E0,4.437271E0,3.525951E-1,1.998297E-1,5.6218305E0,0E0,0E0,0E0,0E0,0E0,8.8148975E-1,1.7310462E0,0E0,0E0,0E0],"parents":[2147483647,0,0,1,1,2,2,3,3,4,4,10,10,11,11],"right_children":[2,4,6,8,10,-1,-1,-1,-1,-1,12,14,-1,-1,-1],"split_conditions":[4.857111E-1,1.5159307E-1,2.8372595E-2,-8.930964E-3,-1.517521E-2,3.8612477E-2,2.5287757E-3,3.026382E-3,3.2810804E-2,2.9701112E-2,8.161254E-2,3.026583E-1,-1.0428318E-1,8.503209E-3,-6.0129344E-2],"split_indices":[7,7,10,5,5,0,0,0,0,0,8,7,0,0,0],"split_type":[0,0,0,0,0,0,0,0,0,0,0,0,0,0,0],"sum_hessian":[1.08364105E1,7.248323E0,3.588088E0,2.4689102E0,4.7794127E0,2.5702152E0,1.0178727E0,1.0196462E0,1.4492639E0,1.1753012E0,3.6041117E0,2.3980298E0,1.2060817E0,1.2095861E0,1.1884438E0],"tree_param":{"num_deleted":"0","num_feature":"14","num_nodes":"15","size_leaf_vector":"1"}},{"base_weights":[2.3059209E-1,5.577137E-1,-4.7088137E-1,4.6286874E-2,-4.3844435E-2,-5.818028E-2,2.9428273E-2],"categories":[],"categories_nodes":[],"categories_segments":[],"categories_sizes":[],"default_left":[0,0,0,0,0,0,0],"id":11,"left_children":[1,3,5,-1,-1,-1,-1],"loss_changes":[2.6555946E0,4.8083153E0,3.5167985E0,0E0,0E0,0E0,0E0],"parents":[2147483647,0,0,1,1,2,2],"right_children":[2,4,6,-1,-1,-1,-1],"split_conditions":[8.944312E-2,1.2553282E-2,3.5480425E-1,4.6286874E-2,-4.3844435E-2,-5.818028E-2,2.9428273E-2],"split_indices":[8,13,7,0,0,0,0],"split_type":[0,0,0,0,0,0,0],"sum_hessian":[9.428412E0,6.56968E0,2.8587317E0,5.510707E0,1.0589737E0,1.6690811E0,1.1896505E0],"tree_param":{"num_deleted":"0","num_feature":"14","num_nodes":"7","size_leaf_vector":"1"}},{"base_weights":[3.3366013E-2,4.908723E-1,-5.3641057E-1,4.0811047E-2,1.0684095E-2,-7.146194E-2,4.67878E-1,3.2569215E-2,-3.3269096E-2,3.188778E-2,1.8021435E-3],"categories":[],"categories_nodes":[],"categories_segments":[],"categories_sizes":[],"default_left":[0,0,0,0,0,0,0,0,0,0,0],"id":12,"left_children":[1,3,5,-1,7,-1,9,-1,-1,-1,-1],"loss_changes":[3.1898885E0,1.0456793E0,5.5804043E0,0E0,2.0530548E0,0E0,2.2139835E-1,0E0,0E0,0E0,0E0],"parents":[2147483647,0,0,1,1,2,2,4,4,6,6],"right_children":[2,4,6,-1,8,-1,10,-1,-1,-1,-1],"split_conditions":[1.0191933E-3,1.577949E-2,1.5657594E-2,4.0811047E-2,-2.2882411E-2,-7.146194E-2,1.41725E-3,3.2569215E-2,-3.3269096E-2,3.188778E-2,1.8021435E-3],"split_indices":[11,9,11,0,11,0,6,0,0,0,0],"split_type":[0,0,0,0,0,0,0,0,0,0,0],"sum_hessian":[1.022687E1,5.7490835E0,4.4777856E0,3.0099297E0,2.7391539E0,2.1464357E0,2.3313498E0,1.4251053E0,1.3140486E0,1.3309314E0,1.0004184E0],"tree_param":{"num_deleted":"0","num_feature":"14","num_nodes":"11","size_leaf_vector":"1"}},{"base_weights":[-9.76709E-2,-6.4763975E-1,4.1478783E-2,-1.0782267E0,1.9789815E-1,-3.7476742E-3,-1.1375258E-1,3.15218E-2,-2.0145552E-2,-3.826093E-2,3.2752685E-2],"categories":[],"categories_nodes":[],"categories_segments":[],"categories_sizes":[],"default_left":[0,0,0,0,0,0,0,0,0,0,0],"id":13,"left_children":[1,3,-1,5,7,9,-1,-1,-1,-1,-1],"loss_changes":[6.0536823E0,2.8899548E0,0E0,6.4549317E0,1.1182171E0,2.3323612E0,0E0,0E0,0E0,0E0,0E0],"parents":[2147483647,0,0,1,1,3,3,4,4,5,5],"right_children":[2,4,-1,6,8,10,-1,-1,-1,-1,-1],"split_conditions":[-9.781277E-3,-1.1468791E-2,4.1478783E-2,-1.8500363E-2,-1.2652151E-2,-2.4937762E-2,-1.1375258E-1,3.15218E-2,-2.0145552E-2,-3.826093E-2,3.2752685E-2],"split_indices":[12,2,0,2,0,2,0,0,0,0,0],"split_type":[0,0,0,0,0,0,0,0,0,0,0],"sum_hessian":[9.81742E0,6.3516636E0,3.4657562E0,4.0261607E0,2.3255026E0,2.6500998E0,1.376061E0,1.3234243E0,1.0020784E0,1.1543366E0,1.4957633E0],"tree_param":{"num_deleted":"0","num_feature":"14","num_nodes":"11","size_leaf_vector":"1"}},{"base_weights":[-1.2068976E-1,-6.877906E-1,4.129593E-2,3.217299E-2,-1.122256E0,-1.6063411E0,-9.901554E-5,-1.918622E-2,-1.171504E-1],"categories":[],"categories_nodes":[],"categories_segments":[],"categories_sizes":[],"default_left":[0,0,0,0,0,0,0,0,0],"id":14,"left_children":[1,3,-1,-1,5,7,-1,-1,-1],"loss_changes":[6.259614E0,4.872512E0,0E0,0E0,3.1284385E0,2.731492E0,0E0,0E0,0E0],"parents":[2147483647,0,0,1,1,4,4,5,5],"right_children":[2,4,-1,-1,6,8,-1,-1,-1],"split_conditions":[-9.781277E-3,-1.5062686E-2,4.129593E-2,3.217299E-2,-1.1468791E-2,-1.8500363E-2,-9.901554E-5,-1.918622E-2,-1.171504E-1],"split_indices":[12,5,0,0,2,2,0,0,0],"split_type":[0,0,0,0,0,0,0,0,0],"sum_hessian":[9.602306E0,6.1758504E0,3.426456E0,1.4012443E0,4.7746058E0,3.0309951E0,1.7436109E0,1.7114547E0,1.3195404E0],"tree_param":{"num_deleted":"0","num_feature":"14","num_nodes":"9","size_leaf_vector":"1"}},{"base_weights":[-1.06013946E-1,-5.314766E-1,6.044838E-1,-9.702678E-1,2.0853076E-2,1.8647481E-3,3.7856825E-2,2.168648E-2,-1.02563314E-1,-3.7457444E-2,3.3319376E-2],"categories":[],"categories_nodes":[],"categories_segments":[],"categories_sizes":[],"default_left":[0,0,0,0,0,0,0,0,0,0,0],"id":15,"left_children":[1,3,5,7,-1,-1,-1,9,-1,-1,-1],"loss_changes":[3.5597694E0,3.4150345E0,3.596878E-1,5.6695724E0,0E0,0E0,0E0,2.3504486E0,0E0,0E0,0E0],"parents":[2147483647,0,0,1,1,2,2,3,3,7,7],"right_children":[2,4,6,8,-1,-1,-1,10,-1,-1,-1],"split_conditions":[-9.781277E-3,-1.1468791E-2,-5.5383206E-3,-1.8500363E-2,2.0853076E-2,1.8647481E-3,3.7856825E-2,-2.4937762E-2,-1.02563314E-1,-3.7457444E-2,3.3319376E-2],"split_indices":[12,2,11,2,0,0,0,2,0,0,0],"split_type":[0,0,0,0,0,0,0,0,0,0,0],"sum_hessian":[9.713214E0,6.2328205E0,3.4803934E0,4.2458115E0,1.9870092E0,1.0019414E0,2.478452E0,2.7251115E0,1.5207E0,1.1673557E0,1.557756E0],"tree_param":{"num_deleted":"0","num_feature":"14","num_nodes":"11","size_leaf_vector":"1"}},{"base_weights":[-1.5881357E-1,-5.7105726E-1,5.7273585E-1,2.4461803E-1,-1.0915053E0,1.8769922E-3,3.6520973E-2,-2.0774623E-2,3.3375677E-2,-1.5114458E-2,-7.62522E-2],"categories":[],"categories_nodes":[],"categories_segments":[],"categories_sizes":[],"default_left":[0,0,0,0,0,0,0,0,0,0,0],"id":16,"left_children":[1,3,5,7,9,-1,-1,-1,-1,-1,-1],"loss_changes":[3.422461E0,3.266395E0,3.269081E-1,1.2736759E0,1.0774579E0,0E0,0E0,0E0,0E0,0E0,0E0],"parents":[2147483647,0,0,1,1,2,2,3,3,4,4],"right_children":[2,4,6,8,10,-1,-1,-1,-1,-1,-1],"split_conditions":[-9.781277E-3,1.5375584E-1,-4.221577E-2,-3.6614295E-2,-2.7277365E-2,1.8769922E-3,3.6520973E-2,-2.0774623E-2,3.3375677E-2,-1.5114458E-2,-7.62522E-2],"split_indices":[12,7,10,11,12,0,0,0,0,0,0],"split_type":[0,0,0,0,0,0,0,0,0,0,0],"sum_hessian":[9.264045E0,6.0654316E0,3.1986136E0,2.5690534E0,3.4963782E0,1.0096884E0,2.1889253E0,1.0100075E0,1.5590459E0,1.8414508E0,1.6549274E0],"tree_param":{"num_deleted":"0","num_feature":"14","num_nodes":"11","size_leaf_vector":"1"}},{"base_weights":[-1.1463923E-2,-5.2190876E-1,6.626651E-1,3.377988E-2,-1.055619E0,4.0132534E-2,3.4457874E-3,-8.073496E-2,-1.9564062E-1,2.87517E-2,-4.3503065E-2],"categories":[],"categories_nodes":[],"categories_segments":[],"categories_sizes":[],"default_left":[0,0,0,0,0,0,0,0,0,0,0],"id":17,"left_children":[1,3,5,-1,7,-1,-1,-1,9,-1,-1],"loss_changes":[4.0146103E0,4.9485607E0,3.6316156E-1,0E0,2.0756578E0,0E0,0E0,0E0,2.1103108E0,0E0,0E0],"parents":[2147483647,0,0,1,1,2,2,4,4,8,8],"right_children":[2,4,6,-1,8,-1,-1,-1,10,-1,-1],"split_conditions":[-3.7957536E-4,3.3099177E-1,1.2553282E-2,3.377988E-2,-1.1468791E-2,4.0132534E-2,3.4457874E-3,-8.073496E-2,-3.2434523E-2,2.87517E-2,-4.3503065E-2],"split_indices":[6,3,13,0,2,0,0,0,12,0,0],"split_type":[0,0,0,0,0,0,0,0,0,0,0],"sum_hessian":[9.661722E0,5.6268907E0,4.0348315E0,1.652735E0,3.974156E0,2.980337E0,1.0544944E0,1.8765733E0,2.0975826E0,1.0477092E0,1.0498734E0],"tree_param":{"num_deleted":"0","num_feature":"14","num_nodes":"11","size_leaf_vector":"1"}},{"base_weights":[7.5328365E-2,5.0791216E-1,-5.877517E-1,7.297888E-1,-1.8394088E-2,-6.79809E-2,1.8575862E-2,4.285424E-2,3.3884384E-3],"categories":[],"categories_nodes":[],"categories_segments":[],"categories_sizes":[],"default_left":[0,0,0,0,0,0,0,0,0],"id":18,"left_children":[1,3,5,7,-1,-1,-1,-1,-1],"loss_changes":[3.3487504E0,1.6232549E0,3.9570014E0,4.3894243E-1,0E0,0E0,0E0,0E0,0E0],"parents":[2147483647,0,0,1,1,2,2,3,3],"right_children":[2,4,6,8,-1,-1,-1,-1,-1],"split_conditions":[8.944312E-2,3.633324E-3,-3.7760023E-2,1.6596269E-2,-1.8394088E-2,-6.79809E-2,1.8575862E-2,4.285424E-2,3.3884384E-3],"split_indices":[8,13,13,9,0,0,0,0,0],"split_type":[0,0,0,0,0,0,0,0,0],"sum_hessian":[9.633972E0,5.971962E0,3.6620107E0,4.8978386E0,1.0741235E0,1.7979554E0,1.8640553E0,3.8608143E0,1.0370241E0],"tree_param":{"num_deleted":"0","num_feature":"14","num_nodes":"9","size_leaf_vector":"1"}},{"base_weights":[-2.038696E-1,3.64508E-2,-5.214952E-1,-1.1406586E0,3.5399297E-1,-1.614162E0,-1.1944403E-2,3.3831347E-2,-6.636891E-3,-1.7304417E-2,-1.0341036E-1],"categories":[],"categories_nodes":[],"categories_segments":[],"categories_sizes":[],"default_left":[0,0,0,0,0,0,0,0,0,0,0],"id":19,"left_children":[1,-1,3,5,7,9,-1,-1,-1,-1,-1],"loss_changes":[3.4995031E0,0E0,4.9768906E0,1.8255367E0,7.584648E-1,1.1392107E0,0E0,0E0,0E0,0E0,0E0],"parents":[2147483647,0,0,2,2,3,3,4,4,5,5],"right_children":[2,-1,4,6,8,10,-1,-1,-1,-1,-1],"split_conditions":[3.3099177E-1,3.64508E-2,-3.7957536E-4,1.5888074E-2,-1.6066529E-2,2.884049E-1,-1.1944403E-2,3.3831347E-2,-6.636891E-3,-1.7304417E-2,-1.0341036E-1],"split_indices":[3,0,6,9,2,7,0,0,0,0,0],"split_type":[0,0,0,0,0,0,0,0,0,0,0],"sum_hessian":[9.527293E0,2.0909226E0,7.4363704E0,4.1784215E0,3.2579489E0,2.2218018E0,1.9566196E0,1.7246215E0,1.5333275E0,1.0504107E0,1.1713909E0],"tree_param":{"num_deleted":"0","num_feature":"14","num_nodes":"11","size_leaf_vector":"1"}},{"base_weights":[-1.0937043E-1,-5.049687E-1,5.82736E-1,1.920295E-2,-8.9247906E-1,2.2083325E-3,3.6791913E-2,-1.1868429E0,6.2928274E-3,-7.63287E-2,-1.0972231E-2],"categories":[],"categories_nodes":[],"categories_segments":[],"categories_sizes":[],"default_left":[0,0,0,0,0,0,0,0,0,0,0],"id":20,"left_children":[1,3,5,-1,7,-1,-1,9,-1,-1,-1],"loss_changes":[3.1776755E0,2.8358872E0,3.2160544E-1,0E0,1.7503409E0,0E0,0E0,1.0581875E0,0E0,0E0,0E0],"parents":[2147483647,0,0,1,1,2,2,4,4,7,7],"right_children":[2,4,6,-1,8,-1,-1,10,-1,-1,-1],"split_conditions":[-1.0872326E-2,1.4638641E-1,-4.146045E-3,1.920295E-2,1.4414177E-2,2.2083325E-3,3.6791913E-2,1.9334905E-2,6.2928274E-3,-7.63287E-2,-1.0972231E-2],"split_indices":[12,7,0,0,11,0,0,10,0,0,0],"split_type":[0,0,0,0,0,0,0,0,0,0,0],"sum_hessian":[9.531239E0,6.236775E0,3.2944634E0,1.895961E0,4.3408136E0,1.014439E0,2.2800245E0,3.239049E0,1.1017649E0,1.9694109E0,1.269638E0],"tree_param":{"num_deleted":"0","num_feature":"14","num_nodes":"11","size_leaf_vector":"1"}},{"base_weights":[-6.3625194E-2,-4.8826516E-1,3.896631E-2,1.9909699E-2,-6.3499466E-2,-6.6612947E-1,3.713834E-2,-6.2327135E-2,9.941268E-3],"categories":[],"categories_nodes":[],"categories_segments":[],"categories_sizes":[],"default_left":[0,0,0,0,0,0,0,0,0],"id":21,"left_children":[1,3,-1,5,-1,7,-1,-1,-1],"loss_changes":[3.974145E0,2.9216785E0,0E0,3.1742733E0,0E0,1.9042459E0,0E0,0E0,0E0],"parents":[2147483647,0,0,1,1,3,3,5,5],"right_children":[2,4,-1,6,-1,8,-1,-1,-1],"split_conditions":[4.857111E-1,4.2607072E-1,3.896631E-2,-1.4156797E-2,-6.3499466E-2,-2.0712938E-2,3.713834E-2,-6.2327135E-2,9.941268E-3],"split_indices":[7,3,0,4,0,0,0,0,0],"split_type":[0,0,0,0,0,0,0,0,0],"sum_hessian":[9.039443E0,6.2910633E0,2.74838E0,4.4032054E0,1.8878578E0,2.2993999E0,2.1038055E0,1.1120276E0,1.1873721E0],"tree_param":{"num_deleted":"0","num_feature":"14","num_nodes":"9","size_leaf_vector":"1"}},{"base_weights":[-1.4598921E-1,-5.07129E-1,5.649852E-1,5.3825893E-2,-1.3121439E0,2.143484E-3,3.5921644E-2,5.972941E-1,-3.779838E-2,-1.7709943E-2,-8.034156E-2,5.075897E-3,3.7062757E-2],"categories":[],"categories_nodes":[],"categories_segments":[],"categories_sizes":[],"default_left":[0,0,0,0,0,0,0,0,0,0,0,0,0],"id":22,"left_children":[1,3,5,7,9,-1,-1,11,-1,-1,-1,-1,-1],"loss_changes":[3.0906606E0,3.5791085E0,3.0183303E-1,2.8893986E0,3.426776E-1,0E0,0E0,2.0120335E-1,0E0,0E0,0E0,0E0,0E0],"parents":[2147483647,0,0,1,1,2,2,3,3,4,4,7,7],"right_children":[2,4,6,8,10,-1,-1,12,-1,-1,-1,-1,-1],"split_conditions":[-9.781277E-3,-2.5746603E-2,-5.6531075E-3,1.6785223E-2,9.401918E-3,2.143484E-3,3.5921644E-2,1.5004943E-2,-3.779838E-2,-1.7709943E-2,-8.034156E-2,5.075897E-3,3.7062757E-2],"split_indices":[12,12,11,9,11,0,0,9,0,0,0,0,0],"split_type":[0,0,0,0,0,0,0,0,0,0,0,0,0],"sum_hessian":[9.921202E0,6.7693963E0,3.1518052E0,4.5393786E0,2.2300177E0,1.0065002E0,2.145305E0,2.8733974E0,1.6659813E0,1.0426395E0,1.1873783E0,1.0303233E0,1.843074E0],"tree_param":{"num_deleted":"0","num_feature":"14","num_nodes":"13","size_leaf_vector":"1"}},{"base_weights":[-4.492122E-2,-3.844807E-1,3.812143E-2,2.9015703E-2,-6.1137927E-1,-1.169959E0,1.2645696E-1,-1.1127499E-2,-7.527934E-2,3.715178E-2,-4.0171247E-2],"categories":[],"categories_nodes":[],"categories_segments":[],"categories_sizes":[],"default_left":[0,0,0,0,0,0,0,0,0,0,0],"id":23,"left_children":[1,3,-1,-1,5,7,9,-1,-1,-1,-1],"loss_changes":[3.3040564E0,2.1927848E0,0E0,0E0,3.1501613E0,1.0142274E0,2.9138985E0,0E0,0E0,0E0,0E0],"parents":[2147483647,0,0,1,1,4,4,5,5,6,6],"right_children":[2,4,-1,-1,6,8,10,-1,-1,-1,-1],"split_conditions":[4.7689593E-1,-1.5062686E-2,3.812143E-2,2.9015703E-2,-1.1468791E-2,1.5159307E-1,3.4891117E-1,-1.1127499E-2,-7.527934E-2,3.715178E-2,-4.0171247E-2],"split_indices":[7,5,0,0,2,7,7,0,0,0,0],"split_type":[0,0,0,0,0,0,0,0,0,0,0],"sum_hessian":[9.983007E0,7.396093E0,2.5869143E0,1.1116511E0,6.2844415E0,3.2433774E0,3.0410643E0,1.2834749E0,1.9599024E0,1.9494044E0,1.09166E0],"tree_param":{"num_deleted":"0","num_feature":"14","num_nodes":"11","size_leaf_vector":"1"}},{"base_weights":[7.9420395E-3,2.5489998E-1,-4.626475E-2,5.7627875E-1,-3.6503028E-2,3.7582286E-2,-2.1495728E-3],"categories":[],"categories_nodes":[],"categories_segments":[],"categories_sizes":[],"default_left":[0,0,0,0,0,0,0],"id":24,"left_children":[1,3,-1,5,-1,-1,-1],"loss_changes":[2.6800752E0,3.3234963E0,0E0,8.438828E-1,0E0,0E0,0E0],"parents":[2147483647,0,0,1,1,3,3],"right_children":[2,4,-1,6,-1,-1,-1],"split_conditions":[1.7202083E-2,1.2553282E-2,-4.626475E-2,9.5881276E-2,-3.6503028E-2,3.7582286E-2,-2.1495728E-3],"split_indices":[9,13,0,8,0,0,0],"split_type":[0,0,0,0,0,0,0],"sum_hessian":[9.605349E0,8.170179E0,1.4351698E0,6.473039E0,1.6971396E0,4.8779306E0,1.5951087E0],"tree_param":{"num_deleted":"0","num_feature":"14","num_nodes":"7","size_leaf_vector":"1"}},{"base_weights":[7.090305E-2,-2.91953E-1,3.90229E-2,2.9993355E-2,-5.502019E-1,-1.0826991E0,2.3779567E-1,-7.936974E-3,-7.558853E-2,3.2394335E-2,-1.8646063E-2],"categories":[],"categories_nodes":[],"categories_segments":[],"categories_sizes":[],"default_left":[0,0,0,0,0,0,0,0,0,0,0],"id":25,"left_children":[1,3,-1,-1,5,7,9,-1,-1,-1,-1],"loss_changes":[2.8924496E0,2.0747297E0,0E0,0E0,2.941205E0,1.3445225E0,1.0929104E0,0E0,0E0,0E0,0E0],"parents":[2147483647,0,0,1,1,4,4,5,5,6,6],"right_children":[2,4,-1,-1,6,8,10,-1,-1,-1,-1],"split_conditions":[-1.0872326E-2,-1.5062686E-2,3.90229E-2,2.9993355E-2,-1.1468791E-2,1.5159307E-1,4.2835954E-3,-7.936974E-3,-7.558853E-2,3.2394335E-2,-1.8646063E-2],"split_indices":[12,5,0,0,2,7,11,0,0,0,0],"split_type":[0,0,0,0,0,0,0,0,0,0,0],"sum_hessian":[9.349287E0,6.57531E0,2.773977E0,1.1794498E0,5.3958607E0,2.9967737E0,2.399087E0,1.3847735E0,1.6120001E0,1.3988853E0,1.0002017E0],"tree_param":{"num_deleted":"0","num_feature":"14","num_nodes":"11","size_leaf_vector":"1"}},{"base_weights":[-7.362637E-2,3.5163307E-1,-4.9296275E-1,-2.1758024E-2,6.2773794E-1,2.0417212E-2,-1.1036011E0,3.7304002E-3,3.8361754E-2,-7.675925E-2,-9.630812E-3],"categories":[],"categories_nodes":[],"categories_segments":[],"categories_sizes":[],"default_left":[0,0,0,0,0,0,0,0,0,0,0],"id":26,"left_children":[1,3,5,-1,7,-1,9,-1,-1,-1,-1],"loss_changes":[1.9292186E0,1.4619646E0,3.408384E0,0E0,2.869091E-1,0E0,1.070035E0,0E0,0E0,0E0,0E0],"parents":[2147483647,0,0,1,1,2,2,4,4,6,6],"right_children":[2,4,6,-1,8,-1,10,-1,-1,-1,-1],"split_conditions":[1.0191933E-3,-4.528345E-2,-3.3293483E-3,-2.1758024E-2,-5.734175E-2,2.0417212E-2,7.8424975E-2,3.7304002E-3,3.8361754E-2,-7.675925E-2,-9.630812E-3],"split_indices":[11,10,10,0,13,0,8,0,0,0,0],"split_type":[0,0,0,0,0,0,0,0,0,0,0],"sum_hessian":[8.8464E0,4.4723415E0,4.374059E0,1.0121188E0,3.4602225E0,1.9003745E0,2.4736845E0,1.0060195E0,2.454203E0,1.2135609E0,1.2601237E0],"tree_param":{"num_deleted":"0","num_feature":"14","num_nodes":"11","size_leaf_vector":"1"}},{"base_weights":[6.580964E-3,-2.4868856E-1,5.192084E-1,1.03350684E-1,-6.299811E-2,1.8252591E-3,3.39704E-2,5.3960997E-1,-3.8291186E-2,6.3372487E-3,3.8305137E-2],"categories":[],"categories_nodes":[],"categories_segments":[],"categories_sizes":[],"default_left":[0,0,0,0,0,0,0,0,0,0,0],"id":27,"left_children":[1,3,5,7,-1,-1,-1,9,-1,-1,-1],"loss_changes":[1.5057728E0,2.871171E0,2.7067542E-1,2.9292283E0,0E0,0E0,0E0,3.708725E-1,0E0,0E0,0E0],"parents":[2147483647,0,0,1,1,2,2,3,3,7,7],"right_children":[2,4,6,8,-1,-1,-1,10,-1,-1,-1],"split_conditions":[-9.781277E-3,1.6662189E-3,-3.8417358E-2,1.6785223E-2,-6.299811E-2,1.8252591E-3,3.39704E-2,1.5232209E-2,-3.8291186E-2,6.3372487E-3,3.8305137E-2],"split_indices":[12,0,10,9,0,0,0,9,0,0,0],"split_type":[0,0,0,0,0,0,0,0,0,0,0],"sum_hessian":[9.520183E0,6.699135E0,2.8210475E0,5.6352296E0,1.0639052E0,1.0089171E0,1.8121303E0,4.0044637E0,1.630766E0,1.9710711E0,2.0333924E0],"tree_param":{"num_deleted":"0","num_feature":"14","num_nodes":"11","size_leaf_vector":"1"}},{"base_weights":[4.45899E-2,-2.0500697E-1,3.6350254E-2,3.3376765E-2,-5.22168E-1,2.3151296E-1,-1.0559195E0,3.25101E-2,-2.036203E-2,-7.251229E-2,-8.555216E-3],"categories":[],"categories_nodes":[],"categories_segments":[],"categories_sizes":[],"default_left":[0,0,0,0,0,0,0,0,0,0,0],"id":28,"left_children":[1,3,-1,-1,5,7,9,-1,-1,-1,-1],"loss_changes":[1.8532349E0,2.5917614E0,0E0,0E0,2.8617022E0,1.205504E0,1.1434879E0,0E0,0E0,0E0,0E0],"parents":[2147483647,0,0,1,1,4,4,5,5,6,6],"right_children":[2,4,-1,-1,6,8,10,-1,-1,-1,-1],"split_conditions":[9.9319585E-2,1.4423373E-2,3.6350254E-2,3.3376765E-2,-2.34214E-3,-2.8760053E-4,-7.375714E-3,3.25101E-2,-2.036203E-2,-7.251229E-2,-8.555216E-3],"split_indices":[8,9,0,0,10,5,5,0,0,0,0],"split_type":[0,0,0,0,0,0,0,0,0,0,0],"sum_hessian":[9.005324E0,7.1058936E0,1.899431E0,1.5998428E0,5.5060506E0,2.5174923E0,2.9885585E0,1.5098773E0,1.007615E0,1.6252239E0,1.3633347E0],"tree_param":{"num_deleted":"0","num_feature":"14","num_nodes":"11","size_leaf_vector":"1"}},{"base_weights":[-2.0506622E-1,-5.3172326E-1,5.268466E-1,2.856263E-2,-7.869809E-1,3.432649E-2,1.7585565E-3,9.913909E-3,-1.0545164E0,-1.4703335E0,-9.410981E-3,-1.1572874E-2,-9.752533E-2],"categories":[],"categories_nodes":[],"categories_segments":[],"categories_sizes":[],"default_left":[0,0,0,0,0,0,0,0,0,0,0,0,0],"id":29,"left_children":[1,3,5,-1,7,-1,-1,-1,9,11,-1,-1,-1],"loss_changes":[2.8945937E0,2.7183895E0,2.802266E-1,0E0,2.0449123E0,0E0,0E0,0E0,1.7533193E0,1.7264128E0,0E0,0E0,0E0],"parents":[2147483647,0,0,1,1,2,2,4,4,8,8,9,9],"right_children":[2,4,6,-1,8,-1,-1,-1,10,12,-1,-1,-1],"split_conditions":[-9.781277E-3,-1.5062686E-2,8.4678076E-2,2.856263E-2,3.3099177E-1,3.432649E-2,1.7585565E-3,9.913909E-3,-1.1468791E-2,-1.8721664E-2,-9.410981E-3,-1.1572874E-2,-9.752533E-2],"split_indices":[12,5,8,0,3,0,0,0,2,2,0,0,0],"split_type":[0,0,0,0,0,0,0,0,0,0,0,0,0],"sum_hessian":[9.9352865E0,7.0585356E0,2.8767507E0,1.0938843E0,5.964651E0,1.8723533E0,1.0043974E0,1.3290396E0,4.6356115E0,2.661058E0,1.9745536E0,1.1572672E0,1.5037907E0],"tree_param":{"num_deleted":"0","num_feature":"14","num_nodes":"13","size_leaf_vector":"1"}},{"base_weights":[-7.5461015E-2,1.4356992E-1,-4.040606E-2,5.7440263E-1,-4.5527917E-1,2.8858117E-3,4.0384185E-2,-4.840021E-2,1.4246146E-2],"categories":[],"categories_nodes":[],"categories_segments":[],"categories_sizes":[],"default_left":[0,0,0,0,0,0,0,0,0],"id":30,"left_children":[1,3,-1,5,7,-1,-1,-1,-1],"loss_changes":[1.7861333E0,2.5477366E0,0E0,6.2785184E-1,1.8946457E0,0E0,0E0,0E0,0E0],"parents":[2147483647,0,0,1,1,3,3,4,4],"right_children":[2,4,-1,6,8,-1,-1,-1,-1],"split_conditions":[1.2553282E-2,8.944312E-2,-4.040606E-2,-1.810576E-2,9.9319585E-2,2.8858117E-3,4.0384185E-2,-4.840021E-2,1.4246146E-2],"split_indices":[13,8,0,2,8,0,0,0,0],"split_type":[0,0,0,0,0,0,0,0,0],"sum_hessian":[9.407285E0,7.861199E0,1.5460861E0,4.5957093E0,3.2654898E0,1.8175309E0,2.7781782E0,1.7473645E0,1.5181253E0],"tree_param":{"num_deleted":"0","num_feature":"14","num_nodes":"9","size_leaf_vector":"1"}},{"base_weights":[1.3742835E-2,-6.855142E-1,2.885626E-1,8.834648E-3,-6.572736E-2,4.1760307E-2,-2.3132804E-1,-6.486225E-1,1.8351858E-2,6.409734E-3,-5.592798E-2],"categories":[],"categories_nodes":[],"categories_segments":[],"categories_sizes":[],"default_left":[0,0,0,0,0,0,0,0,0,0,0],"id":31,"left_children":[1,3,5,-1,-1,-1,7,9,-1,-1,-1],"loss_changes":[2.2172716E0,2.0009542E0,2.5371375E0,0E0,0E0,0E0,1.4891263E0,1.3528851E0,0E0,0E0,0E0],"parents":[2147483647,0,0,1,1,2,2,6,6,7,7],"right_children":[2,4,6,-1,-1,-1,8,10,-1,-1,-1],"split_conditions":[-3.901575E-3,-4.5011593E-3,-3.3293483E-3,8.834648E-3,-6.572736E-2,4.1760307E-2,7.127003E-2,5.515053E-2,1.8351858E-2,6.409734E-3,-5.592798E-2],"split_indices":[6,6,10,0,0,0,8,8,0,0,0],"split_type":[0,0,0,0,0,0,0,0,0,0,0],"sum_hessian":[9.508724E0,2.261106E0,7.247618E0,1.2571082E0,1.0039978E0,3.2372646E0,4.0103536E0,2.3131752E0,1.6971785E0,1.146007E0,1.1671681E0],"tree_param":{"num_deleted":"0","num_feature":"14","num_nodes":"11","size_leaf_vector":"1"}},{"base_weights":[5.548113E-2,-1.2794188E-1,3.2831173E-2,3.2320306E-2,-3.8326228E-1,-6.22772E-1,2.6226187E-2,1.1735169E-2,-9.2763364E-1,-6.2040415E-2,-5.863258E-3],"categories":[],"categories_nodes":[],"categories_segments":[],"categories_sizes":[],"default_left":[0,0,0,0,0,0,0,0,0,0,0],"id":32,"left_children":[1,3,-1,-1,5,7,-1,-1,9,-1,-1],"loss_changes":[1.1810285E0,1.920347E0,0E0,0E0,1.846454E0,1.783041E0,0E0,0E0,1.0268254E0,0E0,0E0],"parents":[2147483647,0,0,1,1,4,4,5,5,8,8],"right_children":[2,4,-1,-1,6,8,-1,-1,10,-1,-1],"split_conditions":[9.9319585E-2,1.4534783E-2,3.2831173E-2,3.2320306E-2,5.281882E-1,1.2437524E-1,2.6226187E-2,1.1735169E-2,1.5888074E-2,-6.2040415E-2,-5.863258E-3],"split_indices":[8,9,0,0,7,7,0,0,9,0,0],"split_type":[0,0,0,0,0,0,0,0,0,0,0],"sum_hessian":[8.949081E0,7.4600186E0,1.4890625E0,1.4699969E0,5.9900217E0,4.987966E0,1.0020558E0,1.3686203E0,3.619346E0,2.227386E0,1.39196E0],"tree_param":{"num_deleted":"0","num_feature":"14","num_nodes":"11","size_leaf_vector":"1"}},{"base_weights":[-1.1726316E-1,-4.0447304E-1,4.928054E-1,4.3995595E-1,-8.21145E-1,1.8096056E-3,3.259423E-2,2.8057167E-2,4.9983524E-3,-1.0714467E0,5.2308682E-3,-4.4314137E-1,-7.284709E-2,-3.9167084E-2,6.0011856E-3],"categories":[],"categories_nodes":[],"categories_segments":[],"categories_sizes":[],"default_left":[0,0,0,0,0,0,0,0,0,0,0,0,0,0,0],"id":33,"left_children":[1,3,5,7,9,-1,-1,-1,-1,11,-1,13,-1,-1,-1],"loss_changes":[1.9519883E0,2.9474354E0,2.4172068E-1,7.079369E-2,1.3333802E0,0E0,0E0,0E0,0E0,3.8079214E-1,0E0,6.7808014E-1,0E0,0E0,0E0],"parents":[2147483647,0,0,1,1,2,2,3,3,4,4,9,9,11,11],"right_children":[2,4,6,8,10,-1,-1,-1,-1,12,-1,14,-1,-1,-1],"split_conditions":[-9.781277E-3,1.5375584E-1,-1.0815814E-2,-1.5045159E-2,1.5657594E-2,1.8096056E-3,3.259423E-2,2.8057167E-2,4.9983524E-3,4.2607072E-1,5.2308682E-3,-4.3637197E-2,-7.284709E-2,-3.9167084E-2,6.0011856E-3],"split_indices":[12,7,1,2,11,0,0,0,0,3,0,12,0,0,0],"split_type":[0,0,0,0,0,0,0,0,0,0,0,0,0,0,0],"sum_hessian":[9.002766E0,6.3502026E0,2.6525633E0,2.079665E0,4.270538E0,1.0025119E0,1.6500515E0,1.0536284E0,1.0260364E0,3.2377648E0,1.032773E0,2.0485086E0,1.1892561E0,1.0333271E0,1.0151815E0],"tree_param":{"num_deleted":"0","num_feature":"14","num_nodes":"15","size_leaf_vector":"1"}},{"base_weights":[5.1316608E-2,-2.9905525E-1,5.8651316E-1,4.346725E-1,-7.277587E-1,3.0207185E-3,3.6534797E-2,4.57536E-3,2.8012956E-2,-1.0712744E0,8.203342E-3,-1.699245E-2,-6.2416352E-2],"categories":[],"categories_nodes":[],"categories_segments":[],"categories_sizes":[],"default_left":[0,0,0,0,0,0,0,0,0,0,0,0,0],"id":34,"left_children":[1,3,5,7,9,-1,-1,-1,-1,11,-1,-1,-1],"loss_changes":[2.0216665E0,2.39636E0,2.7695918E-1,8.081615E-2,1.5690229E0,0E0,0E0,0E0,0E0,1.8134832E-2,0E0,0E0,0E0],"parents":[2147483647,0,0,1,1,2,2,3,3,4,4,9,9],"right_children":[2,4,6,8,10,-1,-1,-1,-1,12,-1,-1,-1],"split_conditions":[-3.7957536E-4,-2.0478074E-2,-1.1155989E-2,3.369554E-1,1.9334905E-2,3.0207185E-3,3.6534797E-2,4.57536E-3,2.8012956E-2,-1.3835711E-2,8.203342E-3,-1.699245E-2,-6.2416352E-2],"split_indices":[6,11,0,3,10,0,0,0,0,0,0,0,0],"split_type":[0,0,0,0,0,0,0,0,0,0,0,0,0],"sum_hessian":[8.845821E0,5.6126604E0,3.2331612E0,2.0648084E0,3.5478518E0,1.0007185E0,2.2324429E0,1.0163289E0,1.0484796E0,2.4160254E0,1.1318265E0,1.0398325E0,1.3761929E0],"tree_param":{"num_deleted":"0","num_feature":"14","num_nodes":"13","size_leaf_vector":"1"}},{"base_weights":[-3.3181205E-2,-3.911768E-1,3.721862E-2,5.4757494E-2,-5.355333E-2,-5.487187E-1,3.6730673E-2,6.1495476E-3,-4.626706E-2],"categories":[],"categories_nodes":[],"categories_segments":[],"categories_sizes":[],"default_left":[0,0,0,0,0,0,0,0,0],"id":35,"left_children":[1,3,-1,5,-1,7,-1,-1,-1],"loss_changes":[3.032943E0,2.302215E0,0E0,2.6268907E0,0E0,9.8503375E-1,0E0,0E0,0E0],"parents":[2147483647,0,0,1,1,3,3,5,5],"right_children":[2,4,-1,6,-1,8,-1,-1,-1],"split_conditions":[-9.781277E-3,-2.6582276E-2,3.721862E-2,-1.4156797E-2,-5.355333E-2,-1.6298791E-2,3.6730673E-2,6.1495476E-3,-4.626706E-2],"split_indices":[12,12,0,4,0,4,0,0,0],"split_type":[0,0,0,0,0,0,0,0,0],"sum_hessian":[8.849671E0,6.399961E0,2.4497104E0,4.4202294E0,1.9797316E0,2.4438384E0,1.9763908E0,1.1199083E0,1.32393E0],"tree_param":{"num_deleted":"0","num_feature":"14","num_nodes":"9","size_leaf_vector":"1"}},{"base_weights":[-2.1942915E-2,-3.0519488E-1,3.5295155E-2,2.0850727E-3,-5.782169E-2,-6.769338E-1,4.0233582E-2,5.2734446E-3,-6.7126244E-2],"categories":[],"categories_nodes":[],"categories_segments":[],"categories_sizes":[],"default_left":[0,0,0,0,0,0,0,0,0],"id":36,"left_children":[1,3,-1,5,-1,7,-1,-1,-1],"loss_changes":[2.2621462E0,2.0543118E0,0E0,4.2298784E0,0E0,2.331995E0,0E0,0E0,0E0],"parents":[2147483647,0,0,1,1,3,3,5,5],"right_children":[2,4,-1,6,-1,8,-1,-1,-1],"split_conditions":[-9.781277E-3,1.9526317E-3,3.5295155E-2,-3.7760023E-2,-5.782169E-2,1.5784588E-2,4.0233582E-2,5.2734446E-3,-6.7126244E-2],"split_indices":[12,0,0,13,0,9,0,0,0],"split_type":[0,0,0,0,0,0,0,0,0],"sum_hessian":[8.927582E0,6.8445945E0,2.082987E0,5.7621326E0,1.0824621E0,3.2061594E0,2.5559733E0,1.8605834E0,1.3455758E0],"tree_param":{"num_deleted":"0","num_feature":"14","num_nodes":"9","size_leaf_vector":"1"}},{"base_weights":[-2.04846E-1,-4.6721494E-1,4.4611216E-1,1.2012225E-2,-6.7610466E-1,1.6965561E-3,3.0374557E-2,5.500249E-3,-1.0450828E0,-8.3810605E-2,4.1741223E-4],"categories":[],"categories_nodes":[],"categories_segments":[],"categories_sizes":[],"default_left":[0,0,0,0,0,0,0,0,0,0,0],"id":37,"left_children":[1,3,5,-1,7,-1,-1,-1,9,-1,-1],"loss_changes":[1.8967491E0,1.2758139E0,2.0230466E-1,0E0,1.8781474E0,0E0,0E0,0E0,2.827777E0,0E0,0E0],"parents":[2147483647,0,0,1,1,2,2,4,4,8,8],"right_children":[2,4,6,-1,8,-1,-1,-1,10,-1,-1],"split_conditions":[-1.0872326E-2,3.3099177E-1,-3.8417358E-2,1.2012225E-2,-1.8721664E-2,1.6965561E-3,3.0374557E-2,5.500249E-3,-1.1468791E-2,-8.3810605E-2,4.1741223E-4],"split_indices":[12,3,10,0,2,0,0,0,2,0,0],"split_type":[0,0,0,0,0,0,0,0,0,0,0],"sum_hessian":[8.885279E0,6.534009E0,2.3512692E0,1.4552667E0,5.078742E0,1.0020843E0,1.349185E0,1.8465419E0,3.2322004E0,1.6515403E0,1.5806601E0],"tree_param":{"num_deleted":"0","num_feature":"14","num_nodes":"11","size_leaf_vector":"1"}},{"base_weights":[-6.286753E-2,2.3557524E-1,-4.5109564E-1,5.657591E-1,-3.571052E-2,-9.329848E-1,1.5229577E-2,2.2258654E-3,3.9721094E-2,-5.7055082E-2,-1.4434643E-2],"categories":[],"categories_nodes":[],"categories_segments":[],"categories_sizes":[],"default_left":[0,0,0,0,0,0,0,0,0,0,0],"id":38,"left_children":[1,3,5,7,-1,9,-1,-1,-1,-1,-1],"loss_changes":[1.2925557E0,2.4254446E0,2.0295918E0,6.0120726E-1,0E0,9.600973E-2,0E0,0E0,0E0,0E0,0E0],"parents":[2147483647,0,0,1,1,2,2,3,3,5,5],"right_children":[2,4,6,8,-1,10,-1,-1,-1,-1,-1],"split_conditions":[8.944312E-2,1.2553282E-2,9.9319585E-2,-1.810576E-2,-3.571052E-2,-5.468717E-2,1.5229577E-2,2.2258654E-3,3.9721094E-2,-5.7055082E-2,-1.4434643E-2],"split_indices":[8,13,8,2,0,13,0,0,0,0,0],"split_type":[0,0,0,0,0,0,0,0,0,0,0],"sum_hessian":[9.238642E0,5.4456267E0,3.7930152E0,4.340888E0,1.1047385E0,2.1728237E0,1.6201916E0,1.6879206E0,2.6529677E0,1.0594954E0,1.1133283E0],"tree_param":{"num_deleted":"0","num_feature":"14","num_nodes":"11","size_leaf_vector":"1"}},{"base_weights":[-5.395403E-2,1.561495E-1,-3.0901438E-2,3.987562E-1,-3.2314926E-2,3.846358E-2,4.137961E-2,-3.191317E-2,3.3591893E-2],"categories":[],"categories_nodes":[],"categories_segments":[],"categories_sizes":[],"default_left":[0,0,0,0,0,0,0,0,0],"id":39,"left_children":[1,3,-1,5,-1,-1,7,-1,-1],"loss_changes":[1.2160938E0,1.7531263E0,0E0,8.3105695E-1,0E0,0E0,2.3029985E0,0E0,0E0],"parents":[2147483647,0,0,1,1,3,3,6,6],"right_children":[2,4,-1,6,-1,-1,8,-1,-1],"split_conditions":[1.678985E-2,1.2553282E-2,-3.0901438E-2,-1.5898907E-3,-3.2314926E-2,3.846358E-2,-3.7957536E-4,-3.191317E-2,3.3591893E-2],"split_indices":[9,13,0,6,0,0,6,0,0],"split_type":[0,0,0,0,0,0,0,0,0],"sum_hessian":[8.446885E0,6.6814065E0,1.7654787E0,5.516623E0,1.1647832E0,2.142649E0,3.3739743E0,1.6176955E0,1.7562788E0],"tree_param":{"num_deleted":"0","num_feature":"14","num_nodes":"9","size_leaf_vector":"1"}},{"base_weights":[-1.1030314E-1,3.7083852E-1,-4.121914E-1,-2.1881225E-2,3.7466805E-2,1.4558081E-1,-9.052494E-1,3.019598E-2,-1.5154063E-2,-5.913194E-2,-1.0350053E-2],"categories":[],"categories_nodes":[],"categories_segments":[],"categories_sizes":[],"default_left":[0,0,0,0,0,0,0,0,0,0,0],"id":40,"left_children":[1,3,5,-1,-1,7,9,-1,-1,-1,-1],"loss_changes":[1.5750766E0,1.6441596E0,1.9166479E0,0E0,0E0,9.8639816E-1,4.4925237E-1,0E0,0E0,0E0,0E0],"parents":[2147483647,0,0,1,1,2,2,5,5,6,6],"right_children":[2,4,6,-1,-1,8,10,-1,-1,-1,-1],"split_conditions":[-3.3293483E-3,-3.5142966E-3,2.1269223E-4,-2.1881225E-2,3.7466805E-2,1.5809335E-2,1.9334905E-2,3.019598E-2,-1.5154063E-2,-5.913194E-2,-1.0350053E-2],"split_indices":[10,6,11,0,0,9,10,0,0,0,0],"split_type":[0,0,0,0,0,0,0,0,0,0,0],"sum_hessian":[8.791464E0,3.301393E0,5.4900713E0,1.0029331E0,2.2984598E0,2.906655E0,2.5834165E0,1.2666452E0,1.6400098E0,1.3524239E0,1.2309924E0],"tree_param":{"num_deleted":"0","num_feature":"14","num_nodes":"11","size_leaf_vector":"1"}},{"base_weights":[1.7588946E-1,6.199369E-1,-1.4392899E-1,4.867386E-3,3.7664507E-2,4.5694214E-1,-5.200969E-1,5.826318E-3,2.8453786E-2,-5.243907E-2,1.4028825E-2],"categories":[],"categories_nodes":[],"categories_segments":[],"categories_sizes":[],"default_left":[0,0,0,0,0,0,0,0,0,0,0],"id":41,"left_children":[1,3,5,-1,-1,7,9,-1,-1,-1,-1],"loss_changes":[1.4673815E0,2.2294891E-1,1.6961825E0,0E0,0E0,4.8841953E-2,2.1720948E0,0E0,0E0,0E0,0E0],"parents":[2147483647,0,0,1,1,2,2,5,5,6,6],"right_children":[2,4,6,-1,-1,8,10,-1,-1,-1,-1],"split_conditions":[-2.34214E-3,1.5159307E-1,-2.204465E-3,4.867386E-3,3.7664507E-2,1.22073375E-1,-3.7957536E-4,5.826318E-3,2.8453786E-2,-5.243907E-2,1.4028825E-2],"split_indices":[10,7,6,0,0,7,6,0,0,0,0],"split_type":[0,0,0,0,0,0,0,0,0,0,0],"sum_hessian":[8.704319E0,3.2514656E0,5.4528537E0,1.0127327E0,2.2387328E0,2.01672E0,3.4361336E0,1.0049776E0,1.0117426E0,1.8829486E0,1.553185E0],"tree_param":{"num_deleted":"0","num_feature":"14","num_nodes":"11","size_leaf_vector":"1"}},{"base_weights":[-8.851346E-2,1.1617414E-1,-3.5703328E-2,4.0650594E-1,-3.2766014E-2,1.09729394E-1,3.6558237E-2,-2.3691621E-1,2.8981244E-2,1.2044538E-2,-3.2621328E-2],"categories":[],"categories_nodes":[],"categories_segments":[],"categories_sizes":[],"default_left":[0,0,0,0,0,0,0,0,0,0,0],"id":42,"left_children":[1,3,-1,5,-1,7,-1,9,-1,-1,-1],"loss_changes":[1.3318729E0,2.1051733E0,0E0,5.5393124E-1,0E0,8.8906574E-1,0E0,8.25372E-1,0E0,0E0,0E0],"parents":[2147483647,0,0,1,1,3,3,5,5,7,7],"right_children":[2,4,-1,6,-1,8,-1,10,-1,-1,-1],"split_conditions":[9.056402E-3,1.7202083E-2,-3.5703328E-2,1.5808085E-2,-3.2766014E-2,-3.7957536E-4,3.6558237E-2,2.6462162E-1,2.8981244E-2,1.2044538E-2,-3.2621328E-2],"split_indices":[13,9,0,9,0,6,0,7,0,0,0],"split_type":[0,0,0,0,0,0,0,0,0,0,0],"sum_hessian":[8.75389E0,7.209237E0,1.5446529E0,5.5817747E0,1.6274625E0,3.6151152E0,1.9666593E0,2.3657176E0,1.2493976E0,1.2958438E0,1.0698737E0],"tree_param":{"num_deleted":"0","num_feature":"14","num_nodes":"11","size_leaf_vector":"1"}},{"base_weights":[-2.1063952E-2,-4.950361E-1,6.0580176E-1,-6.788006E-1,7.471034E-3,3.8590094E-3,3.726715E-2,-6.830255E-2,-6.0950726E-2,-1.7315041E-2,1.1053251E-2],"categories":[],"categories_nodes":[],"categories_segments":[],"categories_sizes":[],"default_left":[0,0,0,0,0,0,0,0,0,0,0],"id":43,"left_children":[1,3,5,7,-1,-1,-1,9,-1,-1,-1],"loss_changes":[2.9671972E0,7.720119E-1,2.607615E-1,1.4293392E0,0E0,0E0,0E0,3.3498058E-1,0E0,0E0,0E0],"parents":[2147483647,0,0,1,1,2,2,3,3,7,7],"right_children":[2,4,6,8,-1,-1,-1,10,-1,-1,-1],"split_conditions":[-2.0807166E-2,-1.1468791E-2,-7.4198325E-3,-1.949513E-2,7.471034E-3,3.8590094E-3,3.726715E-2,-5.3557362E-2,-6.0950726E-2,-1.7315041E-2,1.1053251E-2],"split_indices":[12,2,5,2,0,0,0,12,0,0,0],"split_type":[0,0,0,0,0,0,0,0,0,0,0],"sum_hessian":[7.9772854E0,4.6623726E0,3.3149128E0,3.5864258E0,1.075947E0,1.0166508E0,2.298262E0,2.212503E0,1.3739226E0,1.0280728E0,1.1844302E0],"tree_param":{"num_deleted":"0","num_feature":"14","num_nodes":"11","size_leaf_vector":"1"}},{"base_weights":[-1.10020556E-1,-4.171245E-1,2.7739057E-1,8.838175E-3,-6.430107E-1,3.1858742E-2,-1.0750729E-1,-5.178236E-2,-4.2784814E-6,1.0192419E-2,-1.867695E-2],"categories":[],"categories_nodes":[],"categories_segments":[],"categories_sizes":[],"default_left":[0,0,0,0,0,0,0,0,0,0,0],"id":44,"left_children":[1,3,5,-1,7,-1,9,-1,-1,-1,-1],"loss_changes":[1.1911933E0,8.4368575E-1,7.0519936E-1,0E0,1.0495297E0,0E0,3.310135E-1,0E0,0E0,0E0,0E0],"parents":[2147483647,0,0,1,1,2,2,4,4,6,6],"right_children":[2,4,6,-1,8,-1,10,-1,-1,-1,-1],"split_conditions":[-1.0848399E-3,3.3099177E-1,-3.3293483E-3,8.838175E-3,1.5888074E-2,3.1858742E-2,9.309645E-3,-5.178236E-2,-4.2784814E-6,1.0192419E-2,-1.867695E-2],"split_indices":[6,3,10,0,9,0,11,0,0,0,0],"split_type":[0,0,0,0,0,0,0,0,0,0,0],"sum_hessian":[8.039568E0,4.441811E0,3.5977573E0,1.2838491E0,3.1579618E0,1.5207723E0,2.0769851E0,1.5813749E0,1.576587E0,1.0646702E0,1.0123148E0],"tree_param":{"num_deleted":"0","num_feature":"14","num_nodes":"11","size_leaf_vector":"1"}},{"base_weights":[-4.6135083E-2,-2.433843E-1,3.0957872E-2,2.9306788E-2,-4.9196798E-1,1.8701924E-2,-9.155291E-1,-1.2461823E0,4.9756407E-3,-1.6938938E-2,-7.3904015E-2],"categories":[],"categories_nodes":[],"categories_segments":[],"categories_sizes":[],"default_left":[0,0,0,0,0,0,0,0,0,0,0],"id":45,"left_children":[1,3,-1,-1,5,-1,7,9,-1,-1,-1],"loss_changes":[1.2955955E0,1.8240061E0,0E0,0E0,2.643684E0,0E0,1.6353898E0,2.2956419E-1,0E0,0E0,0E0],"parents":[2147483647,0,0,1,1,4,4,6,6,7,7],"right_children":[2,4,-1,-1,6,-1,8,10,-1,-1,-1],"split_conditions":[1.0351395E-3,1.4423373E-2,3.0957872E-2,2.9306788E-2,1.5159307E-1,1.8701924E-2,1.4414177E-2,-5.3800263E-2,4.9756407E-3,-1.6938938E-2,-7.3904015E-2],"split_indices":[2,9,0,0,7,0,11,13,0,0,0],"split_type":[0,0,0,0,0,0,0,0,0,0,0],"sum_hessian":[7.7244983E0,6.447177E0,1.2773215E0,1.1734593E0,5.2737174E0,1.770566E0,3.5031517E0,2.470623E0,1.0325286E0,1.0037811E0,1.4668419E0],"tree_param":{"num_deleted":"0","num_feature":"14","num_nodes":"11","size_leaf_vector":"1"}},{"base_weights":[-5.600969E-2,-4.1667202E-1,4.374844E-1,2.3580806E-1,-9.4650364E-1,3.7893977E-2,-1.35501195E-2,-1.699498E-2,3.1181669E-2,-1.521081E-2,-5.5666115E-2],"categories":[],"categories_nodes":[],"categories_segments":[],"categories_sizes":[],"default_left":[0,0,0,0,0,0,0,0,0,0,0],"id":46,"left_children":[1,3,5,7,9,-1,-1,-1,-1,-1,-1],"loss_changes":[1.8378791E0,2.258148E0,1.2076815E0,9.796862E-1,3.0743122E-2,0E0,0E0,0E0,0E0,0E0,0E0],"parents":[2147483647,0,0,1,1,2,2,3,3,4,4],"right_children":[2,4,6,8,10,-1,-1,-1,-1,-1,-1],"split_conditions":[-1.1468791E-2,-1.863677E-2,4.009144E-3,-2.4937762E-2,-2.13548E-3,3.7893977E-2,-1.35501195E-2,-1.699498E-2,3.1181669E-2,-1.521081E-2,-5.5666115E-2],"split_indices":[2,2,5,2,10,0,0,0,0,0,0],"split_type":[0,0,0,0,0,0,0,0,0,0,0],"sum_hessian":[8.301875E0,4.8863983E0,3.4154768E0,2.4384365E0,2.4479618E0,2.3038867E0,1.1115901E0,1.0312186E0,1.4072179E0,1.0868789E0,1.3610829E0],"tree_param":{"num_deleted":"0","num_feature":"14","num_nodes":"11","size_leaf_vector":"1"}},{"base_weights":[7.130198E-2,-2.3181994E-1,5.6057763E-1,1.19079374E-1,-4.9719524E-2,3.9637494E-3,3.4978952E-2,-2.5000095E-1,3.3028368E-2,1.662113E-2,-3.6019564E-2],"categories":[],"categories_nodes":[],"categories_segments":[],"categories_sizes":[],"default_left":[0,0,0,0,0,0,0,0,0,0,0],"id":47,"left_children":[1,3,5,7,-1,-1,-1,9,-1,-1,-1],"loss_changes":[1.5534625E0,1.8935645E0,2.0975423E-1,1.2516191E0,0E0,0E0,0E0,1.3239172E0,0E0,0E0,0E0],"parents":[2147483647,0,0,1,1,2,2,3,3,7,7],"right_children":[2,4,6,8,-1,-1,-1,10,-1,-1,-1],"split_conditions":[-6.719477E-4,1.4606956E-3,-5.3168558E-2,-7.375714E-3,-4.9719524E-2,3.9637494E-3,3.4978952E-2,-1.5567034E-2,3.3028368E-2,1.662113E-2,-3.6019564E-2],"split_indices":[6,4,13,5,0,0,0,4,0,0,0],"split_type":[0,0,0,0,0,0,0,0,0,0,0],"sum_hessian":[8.59819E0,5.633966E0,2.9642243E0,4.4363914E0,1.197575E0,1.0161266E0,1.9480977E0,2.9583058E0,1.4780854E0,1.4527982E0,1.5055076E0],"tree_param":{"num_deleted":"0","num_feature":"14","num_nodes":"11","size_leaf_vector":"1"}},{"base_weights":[1.2850638E-1,4.0911636E-1,-3.171296E-2,6.0591084E-1,-1.824906E-2,4.6639265E-3,4.1087594E-2],"categories":[],"categories_nodes":[],"categories_segments":[],"categories_sizes":[],"default_left":[0,0,0,0,0,0,0],"id":48,"left_children":[1,3,-1,5,-1,-1,-1],"loss_changes":[2.0885546E0,1.2654397E0,0E0,5.6969714E-1,0E0,0E0,0E0],"parents":[2147483647,0,0,1,1,3,3],"right_children":[2,4,-1,6,-1,-1,-1],"split_conditions":[1.6794655E-2,4.577685E-3,-3.171296E-2,1.4784357E-2,-1.824906E-2,4.6639265E-3,4.1087594E-2],"split_indices":[9,5,0,9,0,0,0],"split_type":[0,0,0,0,0,0,0],"sum_hessian":[7.545469E0,5.8551044E0,1.6903642E0,4.841536E0,1.0135684E0,1.8588488E0,2.9826872E0],"tree_param":{"num_deleted":"0","num_feature":"14","num_nodes":"7","size_leaf_vector":"1"}},{"base_weights":[-5.015511E-2,-4.186423E-1,4.5099068E-1,-4.9362693E-2,2.7469765E-2,1.4917509E-3,3.3608392E-2,3.6299E-2,-4.169821E-2],"categories":[],"categories_nodes":[],"categories_segments":[],"categories_sizes":[],"default_left":[0,0,0,0,0,0,0,0,0],"id":49,"left_children":[1,3,5,-1,7,-1,-1,-1,-1],"loss_changes":[1.8846594E0,1.5010949E0,3.8725805E-1,0E0,3.1501377E0,0E0,0E0,0E0,0E0],"parents":[2147483647,0,0,1,1,2,2,4,4],"right_children":[2,4,6,-1,8,-1,-1,-1,-1],"split_conditions":[-1.3222393E-3,-4.307028E-2,-1.2752895E-2,-4.9362693E-2,3.6351176E-3,1.4917509E-3,3.3608392E-2,3.6299E-2,-4.169821E-2],"split_indices":[6,13,12,0,5,0,0,0,0],"split_type":[0,0,0,0,0,0,0,0,0],"sum_hessian":[8.183376E0,4.8107285E0,3.3726478E0,1.581694E0,3.2290344E0,1.5521002E0,1.8205477E0,1.8699731E0,1.3590614E0],"tree_param":{"num_deleted":"0","num_feature":"14","num_nodes":"9","size_leaf_vector":"1"}},{"base_weights":[-1.5164258E-1,5.620546E-2,-3.7079554E-2,-3.1714448E-1,3.5895754E-2,1.9124685E-2,-7.230375E-1,-8.0675995E-3,-5.7891514E-2],"categories":[],"categories_nodes":[],"categories_segments":[],"categories_sizes":[],"default_left":[0,0,0,0,0,0,0,0,0],"id":50,"left_children":[1,3,-1,5,-1,-1,7,-1,-1],"loss_changes":[1.160748E0,2.12458E0,0E0,1.8674743E0,0E0,0E0,7.6352215E-1,0E0,0E0],"parents":[2147483647,0,0,1,1,3,3,6,6],"right_children":[2,4,-1,6,-1,-1,8,-1,-1],"split_conditions":[1.2553282E-2,3.5877505E-1,-3.7079554E-2,1.5375584E-1,3.5895754E-2,1.9124685E-2,-2.1779366E-2,-8.0675995E-3,-5.7891514E-2],"split_indices":[13,7,0,7,0,0,12,0,0],"split_type":[0,0,0,0,0,0,0,0,0],"sum_hessian":[8.126325E0,6.678214E0,1.4481105E0,4.6022506E0,2.0759635E0,1.7108705E0,2.89138E0,1.8598458E0,1.0315344E0],"tree_param":{"num_deleted":"0","num_feature":"14","num_nodes":"9","size_leaf_vector":"1"}},{"base_weights":[-1.635806E-1,-3.904122E-1,4.1928712E-1,1.8060066E-1,-6.3991445E-1,2.852934E-2,2.14895E-3,2.767607E-2,-1.482251E-2,-8.6820906E-1,7.2518797E-3,-1.1005594E-2,-5.05021E-2],"categories":[],"categories_nodes":[],"categories_segments":[],"categories_sizes":[],"default_left":[0,0,0,0,0,0,0,0,0,0,0,0,0],"id":51,"left_children":[1,3,5,7,9,-1,-1,-1,-1,11,-1,-1,-1],"loss_changes":[1.4590682E0,1.1941631E0,1.592018E-1,7.123862E-1,1.1095047E0,0E0,0E0,0E0,0E0,1.8169165E-1,0E0,0E0,0E0],"parents":[2147483647,0,0,1,1,2,2,3,3,4,4,9,9],"right_children":[2,4,6,8,10,-1,-1,-1,-1,12,-1,-1,-1],"split_conditions":[-9.781277E-3,1.5158696E-1,-2.4626595E-3,1.7349035E-2,1.5657594E-2,2.852934E-2,2.14895E-3,2.767607E-2,-1.482251E-2,1.4824879E-2,7.2518797E-3,-1.1005594E-2,-5.05021E-2],"split_indices":[12,7,2,9,11,0,0,0,0,9,0,0,0],"split_type":[0,0,0,0,0,0,0,0,0,0,0,0,0],"sum_hessian":[8.797638E0,6.570729E0,2.2269094E0,2.0820007E0,4.4887276E0,1.2200832E0,1.0068263E0,1.0785651E0,1.0034356E0,3.3952038E0,1.0935239E0,1.0678111E0,2.3273928E0],"tree_param":{"num_deleted":"0","num_feature":"14","num_nodes":"13","size_leaf_vector":"1"}},{"base_weights":[-1.4182588E-1,2.8911073E-2,-3.1476095E-1,-5.9272814E-1,1.4259697E-1,7.217268E-3,-5.34913E-2,3.366988E-2,-2.6674455E-2],"categories":[],"categories_nodes":[],"categories_segments":[],"categories_sizes":[],"default_left":[0,0,0,0,0,0,0,0,0],"id":52,"left_children":[1,-1,3,5,7,-1,-1,-1,-1],"loss_changes":[1.33834E0,0E0,1.118779E0,2.0020204E0,1.7521619E0,0E0,0E0,0E0,0E0],"parents":[2147483647,0,0,2,2,3,3,4,4],"right_children":[2,-1,4,6,8,-1,-1,-1,-1],"split_conditions":[1.4423373E-2,2.8911073E-2,-1.177998E-2,1.5159307E-1,1.2553282E-2,7.217268E-3,-5.34913E-2,3.366988E-2,-2.6674455E-2],"split_indices":[9,0,0,7,13,0,0,0,0],"split_type":[0,0,0,0,0,0,0,0,0],"sum_hessian":[8.286262E0,1.1508614E0,7.1354003E0,4.2539845E0,2.8814158E0,1.9456228E0,2.308362E0,1.6163685E0,1.2650473E0],"tree_param":{"num_deleted":"0","num_feature":"14","num_nodes":"9","size_leaf_vector":"1"}},{"base_weights":[-6.863542E-2,-3.3819166E-1,4.715575E-1,-4.0974196E-2,1.2115121E-2,3.0263511E-2,3.932334E-3,3.6612436E-2,-3.571632E-2],"categories":[],"categories_nodes":[],"categories_segments":[],"categories_sizes":[],"default_left":[0,0,0,0,0,0,0,0,0],"id":53,"left_children":[1,3,5,-1,7,-1,-1,-1,-1],"loss_changes":[1.4511074E0,1.1058028E0,1.2947315E-1,0E0,3.006519E0,0E0,0E0,0E0,0E0],"parents":[2147483647,0,0,1,1,2,2,4,4],"right_children":[2,4,6,-1,8,-1,-1,-1,-1],"split_conditions":[-3.7957536E-4,-4.307028E-2,2.0555366E-2,-4.0974196E-2,-2.4247019E-2,3.0263511E-2,3.932334E-3,3.6612436E-2,-3.571632E-2],"split_indices":[6,13,10,0,12,0,0,0,0],"split_type":[0,0,0,0,0,0,0,0,0],"sum_hessian":[7.8703356E0,5.499852E0,2.370483E0,1.7525977E0,3.7472546E0,1.365357E0,1.005126E0,1.877783E0,1.8694717E0],"tree_param":{"num_deleted":"0","num_feature":"14","num_nodes":"9","size_leaf_vector":"1"}},{"base_weights":[1.66379E-2,-3.132239E-1,2.9889792E-2,-3.1313722E-3,-4.8096035E-2,-5.0547755E-1,3.4700215E-2,-4.420563E-2,1.0484899E-2],"categories":[],"categories_nodes":[],"categories_segments":[],"categories_sizes":[],"default_left":[0,0,0,0,0,0,0,0,0],"id":54,"left_children":[1,3,-1,5,-1,7,-1,-1,-1],"loss_changes":[1.9766039E0,1.3267463E0,0E0,2.2684643E0,0E0,1.2038763E0,0E0,0E0,0E0],"parents":[2147483647,0,0,1,1,3,3,5,5],"right_children":[2,4,-1,6,-1,8,-1,-1,-1],"split_conditions":[-2.0139452E-2,-2.664676E-2,2.9889792E-2,-3.7760023E-2,-4.8096035E-2,-2.0712938E-2,3.4700215E-2,-4.420563E-2,1.0484899E-2],"split_indices":[12,12,0,13,0,0,0,0,0],"split_type":[0,0,0,0,0,0,0,0,0],"sum_hessian":[8.33408E0,5.6105814E0,2.723498E0,4.4758472E0,1.1347345E0,2.7611346E0,1.7147125E0,1.6508883E0,1.1102463E0],"tree_param":{"num_deleted":"0","num_feature":"14","num_nodes":"9","size_leaf_vector":"1"}},{"base_weights":[-6.831941E-2,-2.9880348E-1,3.215943E-2,2.0660013E-2,-6.010415E-1,1.9520285E-3,-8.641916E-1,-5.788293E-2,-1.2171491E-2],"categories":[],"categories_nodes":[],"categories_segments":[],"categories_sizes":[],"default_left":[0,0,0,0,0,0,0,0,0],"id":55,"left_children":[1,3,-1,-1,5,-1,7,-1,-1],"loss_changes":[1.7348021E0,1.9242613E0,0E0,0E0,1.0232322E0,0E0,4.844582E-1,0E0,0E0],"parents":[2147483647,0,0,1,1,4,4,6,6],"right_children":[2,4,-1,-1,6,-1,8,-1,-1],"split_conditions":[-9.781277E-3,1.5375584E-1,3.215943E-2,2.0660013E-2,-2.34214E-3,1.9520285E-3,3.4088954E-2,-5.788293E-2,-1.2171491E-2],"split_indices":[12,7,0,0,10,0,10,0,0],"split_type":[0,0,0,0,0,0,0,0,0],"sum_hessian":[8.4066925E0,6.7878847E0,1.6188078E0,1.9133453E0,4.8745394E0,1.6682811E0,3.2062583E0,1.5897837E0,1.6164746E0],"tree_param":{"num_deleted":"0","num_feature":"14","num_nodes":"9","size_leaf_vector":"1"}},{"base_weights":[6.634551E-2,-3.8342708E-1,3.7949037E-2,2.8172536E-2,-7.2953373E-1,-3.1870446E-1,-5.456359E-2,1.2255072E-2,-3.656053E-2],"categories":[],"categories_nodes":[],"categories_segments":[],"categories_sizes":[],"default_left":[0,0,0,0,0,0,0,0,0],"id":56,"left_children":[1,3,-1,-1,5,7,-1,-1,-1],"loss_changes":[2.8480318E0,2.259669E0,0E0,0E0,3.308699E-1,1.0050343E0,0E0,0E0,0E0],"parents":[2147483647,0,0,1,1,4,4,5,5],"right_children":[2,4,-1,-1,6,8,-1,-1,-1],"split_conditions":[-1.0848399E-3,-4.50041E-3,3.7949037E-2,2.8172536E-2,1.4606956E-3,8.473965E-2,-5.456359E-2,1.2255072E-2,-3.656053E-2],"split_indices":[6,6,0,0,4,8,0,0,0],"split_type":[0,0,0,0,0,0,0,0,0],"sum_hessian":[7.2079787E0,4.640819E0,2.5671597E0,1.0741618E0,3.5666575E0,2.5507655E0,1.0158919E0,1.2492024E0,1.3015633E0],"tree_param":{"num_deleted":"0","num_feature":"14","num_nodes":"9","size_leaf_vector":"1"}},{"base_weights":[1.3365111E-1,-2.2383428E-1,3.6387574E-2,-6.058478E-1,2.0805527E-2,-4.0149312E-2,-9.322782E-3],"categories":[],"categories_nodes":[],"categories_segments":[],"categories_sizes":[],"default_left":[0,0,0,0,0,0,0],"id":57,"left_children":[1,3,-1,5,-1,-1,-1],"loss_changes":[1.8914351E0,1.6812708E0,0E0,1.8660927E-1,0E0,0E0,0E0],"parents":[2147483647,0,0,1,1,3,3],"right_children":[2,4,-1,6,-1,-1,-1],"split_conditions":[-6.719477E-4,1.9334905E-2,3.6387574E-2,-3.4703676E-2,2.0805527E-2,-4.0149312E-2,-9.322782E-3],"split_indices":[6,10,0,10,0,0,0],"split_type":[0,0,0,0,0,0,0],"sum_hessian":[7.1388154E0,4.846057E0,2.2927582E0,3.0679393E0,1.7781178E0,1.4647697E0,1.6031696E0],"tree_param":{"num_deleted":"0","num_feature":"14","num_nodes":"7","size_leaf_vector":"1"}},{"base_weights":[1.15980305E-1,3.0404517E-1,-2.6246859E-2,-9.310151E-3,5.20783E-1,-9.758242E-3,4.0273286E-2],"categories":[],"categories_nodes":[],"categories_segments":[],"categories_sizes":[],"default_left":[0,0,0,0,0,0,0],"id":58,"left_children":[1,3,-1,-1,5,-1,-1],"loss_changes":[1.1260725E0,8.229515E-1,0E0,0E0,1.176534E0,0E0,0E0],"parents":[2147483647,0,0,1,1,4,4],"right_children":[2,4,-1,-1,6,-1,-1],"split_conditions":[4.009144E-3,-1.448141E-2,-2.6246859E-2,-9.310151E-3,5.5246532E-2,-9.758242E-3,4.0273286E-2],"split_indices":[5,5,0,0,8,0,0],"split_type":[0,0,0,0,0,0,0],"sum_hessian":[7.0182133E0,5.8324137E0,1.1857997E0,1.8312093E0,4.0012045E0,1.2278174E0,2.773387E0],"tree_param":{"num_deleted":"0","num_feature":"14","num_nodes":"7","size_leaf_vector":"1"}},{"base_weights":[-2.116622E-1,-3.9727488E-1,2.9124236E-2,2.754259E-2,-6.172521E-1,-7.851552E-1,5.8749854E-3,-1.8901047E-1,-5.88966E-2,-3.1224856E-2,1.41222775E-2],"categories":[],"categories_nodes":[],"categories_segments":[],"categories_sizes":[],"default_left":[0,0,0,0,0,0,0,0,0,0,0],"id":59,"left_children":[1,3,-1,-1,5,7,-1,9,-1,-1,-1],"loss_changes":[1.5831997E0,2.0143514E0,0E0,0E0,9.542973E-1,1.1396592E0,0E0,8.953737E-1,0E0,0E0,0E0],"parents":[2147483647,0,0,1,1,4,4,5,5,7,7],"right_children":[2,4,-1,-1,6,8,-1,10,-1,-1,-1],"split_conditions":[2.218673E-3,-1.5062686E-2,2.9124236E-2,2.754259E-2,-9.781277E-3,-1.8451989E-2,5.8749854E-3,-1.5386479E-2,-5.88966E-2,-3.1224856E-2,1.41222775E-2],"split_indices":[2,5,0,0,12,0,0,4,0,0,0],"split_type":[0,0,0,0,0,0,0,0,0,0,0],"sum_hessian":[8.170685E0,7.027842E0,1.1428422E0,1.0402247E0,5.9876175E0,4.8180203E0,1.1695974E0,2.5019114E0,2.3161087E0,1.1318247E0,1.3700868E0],"tree_param":{"num_deleted":"0","num_feature":"14","num_nodes":"11","size_leaf_vector":"1"}},{"base_weights":[-1.0281672E-1,-3.4503707E-1,3.1893365E-2,2.7172683E-2,-5.662876E-1,5.602995E-3,-8.570288E-1,-5.091734E-2,-8.02044E-3],"categories":[],"categories_nodes":[],"categories_segments":[],"categories_sizes":[],"default_left":[0,0,0,0,0,0,0,0,0],"id":60,"left_children":[1,3,-1,-1,5,-1,7,-1,-1],"loss_changes":[1.8482678E0,1.77969E0,0E0,0E0,1.3749616E0,0E0,3.597405E-1,0E0,0E0],"parents":[2147483647,0,0,1,1,4,4,6,6],"right_children":[2,4,-1,-1,6,-1,8,-1,-1],"split_conditions":[4.857111E-1,-1.5062686E-2,3.1893365E-2,2.7172683E-2,1.5159307E-1,5.602995E-3,3.4088954E-2,-5.091734E-2,-8.02044E-3],"split_indices":[7,5,0,0,7,0,10,0,0],"split_type":[0,0,0,0,0,0,0,0,0],"sum_hessian":[8.075255E0,6.487772E0,1.5874832E0,1.0031346E0,5.4846373E0,1.8298545E0,3.6547828E0,2.5925741E0,1.0622087E0],"tree_param":{"num_deleted":"0","num_feature":"14","num_nodes":"9","size_leaf_vector":"1"}},{"base_weights":[-1.5310289E-1,1.5793996E-2,-3.214528E-2,-2.4928199E-1,3.2695215E-2,9.3937896E-2,-4.9064472E-2,-2.1004325E-2,5.261081E-1,7.131672E-3,3.1783625E-2],"categories":[],"categories_nodes":[],"categories_segments":[],"categories_sizes":[],"default_left":[0,0,0,0,0,0,0,0,0,0,0],"id":61,"left_children":[1,3,-1,5,-1,7,-1,-1,9,-1,-1],"loss_changes":[7.875737E-1,1.510085E0,0E0,1.6876986E0,0E0,1.3841829E0,0E0,0E0,4.7498465E-2,0E0,0E0],"parents":[2147483647,0,0,1,1,3,3,5,5,8,8],"right_children":[2,4,-1,6,-1,8,-1,-1,10,-1,-1],"split_conditions":[9.247253E-3,3.5877505E-1,-3.214528E-2,3.026583E-1,3.2695215E-2,-5.3557362E-2,-4.9064472E-2,-2.1004325E-2,6.978801E-2,7.131672E-3,3.1783625E-2],"split_indices":[13,7,0,7,0,12,0,0,8,0,0],"split_type":[0,0,0,0,0,0,0,0,0,0,0],"sum_hessian":[8.397507E0,6.9639187E0,1.4335883E0,5.3505864E0,1.613332E0,4.2360706E0,1.114516E0,1.9475772E0,2.2884932E0,1.020072E0,1.2684212E0],"tree_param":{"num_deleted":"0","num_feature":"14","num_nodes":"11","size_leaf_vector":"1"}},{"base_weights":[-2.1110709E-1,2.7620545E-2,-3.8358048E-1,-5.8484477E-1,1.3957371E-2,-8.164959E-1,4.311691E-3,-3.013887E-1,-5.5653274E-2,9.301205E-3,-3.3404924E-2],"categories":[],"categories_nodes":[],"categories_segments":[],"categories_sizes":[],"default_left":[0,0,0,0,0,0,0,0,0,0,0],"id":62,"left_children":[1,-1,3,5,-1,7,-1,9,-1,-1,-1],"loss_changes":[1.380598E0,0E0,1.2076131E0,1.0542762E0,0E0,3.9786172E-1,0E0,6.828892E-1,0E0,0E0,0E0],"parents":[2147483647,0,0,2,2,3,3,5,5,7,7],"right_children":[2,-1,4,6,-1,8,-1,10,-1,-1,-1],"split_conditions":[1.4423373E-2,2.7620545E-2,9.9319585E-2,-1.0815814E-2,1.3957371E-2,8.944312E-2,4.311691E-3,0E0,-5.5653274E-2,9.301205E-3,-3.3404924E-2],"split_indices":[9,0,8,1,0,8,0,11,0,0,0],"split_type":[0,0,0,0,0,0,0,0,0,0,0],"sum_hessian":[7.874894E0,1.0451721E0,6.829722E0,5.3289027E0,1.5008191E0,3.800357E0,1.528546E0,2.1252654E0,1.6750916E0,1.1240087E0,1.0012567E0],"tree_param":{"num_deleted":"0","num_feature":"14","num_nodes":"11","size_leaf_vector":"1"}},{"base_weights":[-1.09878406E-1,-3.3292523E-1,3.039127E-2,4.7411535E-2,-7.650639E-1,-5.4866934E-1,3.516695E-2,-4.6237737E-2,-9.496394E-3,-3.6149707E-2,-5.5403686E-3],"categories":[],"categories_nodes":[],"categories_segments":[],"categories_sizes":[],"default_left":[0,0,0,0,0,0,0,0,0,0,0],"id":63,"left_children":[1,3,-1,5,7,9,-1,-1,-1,-1,-1],"loss_changes":[1.595453E0,1.2336571E0,0E0,2.2690823E0,1.4294386E-1,1.553756E-1,0E0,0E0,0E0,0E0,0E0],"parents":[2147483647,0,0,1,1,3,3,4,4,5,5],"right_children":[2,4,-1,6,8,10,-1,-1,-1,-1,-1],"split_conditions":[-9.781277E-3,2.884049E-1,3.039127E-2,-4.307028E-2,7.8424975E-2,-3.5172276E-2,3.516695E-2,-4.6237737E-2,-9.496394E-3,-3.6149707E-2,-5.5403686E-3],"split_indices":[12,7,0,13,8,0,0,0,0,0,0],"split_type":[0,0,0,0,0,0,0,0,0,0,0],"sum_hessian":[7.7023935E0,6.2852106E0,1.4171829E0,3.8164966E0,2.468714E0,2.0851324E0,1.7313644E0,1.4564351E0,1.012279E0,1.0256152E0,1.059517E0],"tree_param":{"num_deleted":"0","num_feature":"14","num_nodes":"11","size_leaf_vector":"1"}},{"base_weights":[-5.5665493E-2,2.8553177E-2,-2.2483775E-1,-4.9906677E-1,2.0996712E-2,1.0402269E-2,-7.2286624E-1,-4.6982806E-2,-1.081022E-2],"categories":[],"categories_nodes":[],"categories_segments":[],"categories_sizes":[],"default_left":[0,0,0,0,0,0,0,0,0],"id":64,"left_children":[1,-1,3,5,-1,-1,7,-1,-1],"loss_changes":[1.0342748E0,0E0,1.5260415E0,1.0493627E0,0E0,0E0,2.953446E-1,0E0,0E0],"parents":[2147483647,0,0,2,2,3,3,6,6],"right_children":[2,-1,4,6,-1,-1,8,-1,-1],"split_conditions":[-1.4646011E-2,2.8553177E-2,-1.0815814E-2,3.3831245E-1,2.0996712E-2,1.0402269E-2,1.5888074E-2,-4.6982806E-2,-1.081022E-2],"split_indices":[5,0,1,3,0,0,9,0,0],"split_type":[0,0,0,0,0,0,0,0,0],"sum_hessian":[7.5439935E0,1.0985574E0,6.4454365E0,4.6806717E0,1.7647647E0,1.1421983E0,3.5384731E0,1.8796208E0,1.6588525E0],"tree_param":{"num_deleted":"0","num_feature":"14","num_nodes":"9","size_leaf_vector":"1"}},{"base_weights":[-6.491224E-2,-3.6768955E-1,3.437414E-2,7.08261E-3,-5.7976013E-1,-8.56038E-1,1.8551784E-3,-5.7168202E-3,-5.6076553E-2],"categories":[],"categories_nodes":[],"categories_segments":[],"categories_sizes":[],"default_left":[0,0,0,0,0,0,0,0,0],"id":65,"left_children":[1,3,-1,-1,5,7,-1,-1,-1],"loss_changes":[2.294179E0,8.4269434E-1,0E0,0E0,9.124737E-1,5.8277774E-1,0E0,0E0,0E0],"parents":[2147483647,0,0,1,1,4,4,5,5],"right_children":[2,4,-1,-1,6,8,-1,-1,-1],"split_conditions":[-3.7957536E-4,1.5159307E-1,3.437414E-2,7.08261E-3,1.5888074E-2,-2.7277365E-2,1.8551784E-3,-5.7168202E-3,-5.6076553E-2],"split_indices":[6,7,0,0,9,12,0,0,0],"split_type":[0,0,0,0,0,0,0,0,0],"sum_hessian":[7.9610443E0,6.041246E0,1.9197983E0,1.8735318E0,4.167714E0,2.6107142E0,1.5569999E0,1.0652916E0,1.5454226E0],"tree_param":{"num_deleted":"0","num_feature":"14","num_nodes":"9","size_leaf_vector":"1"}},{"base_weights":[9.262395E-2,3.1708133E-1,-2.658393E-2,-3.2089916E-1,4.02306E-2,-3.6853444E-2,1.3922368E-2],"categories":[],"categories_nodes":[],"categories_segments":[],"categories_sizes":[],"default_left":[0,0,0,0,0,0,0],"id":66,"left_children":[1,3,-1,5,-1,-1,-1],"loss_changes":[1.3134136E0,2.3221302E0,0E0,1.1004946E0,0E0,0E0,0E0],"parents":[2147483647,0,0,1,1,3,3],"right_children":[2,4,-1,6,-1,-1,-1],"split_conditions":[1.2553282E-2,-1.4156797E-2,-2.658393E-2,2.242715E-1,4.02306E-2,-3.6853444E-2,1.3922368E-2],"split_indices":[13,4,0,7,0,0,0],"split_type":[0,0,0,0,0,0,0],"sum_hessian":[7.169799E0,5.6356864E0,1.5341122E0,2.5892246E0,3.0464618E0,1.392514E0,1.1967106E0],"tree_param":{"num_deleted":"0","num_feature":"14","num_nodes":"7","size_leaf_vector":"1"}},{"base_weights":[-2.3475853E-1,-4.1487682E-1,2.8289659E-2,1.0990693E-2,-5.801761E-1,3.9825863E-3,-7.908131E-1,-5.2040257E-2,-2.7948558E-1,2.7224405E-2,-4.864136E-2],"categories":[],"categories_nodes":[],"categories_segments":[],"categories_sizes":[],"default_left":[0,0,0,0,0,0,0,0,0,0,0],"id":67,"left_children":[1,3,-1,-1,5,-1,7,-1,9,-1,-1],"loss_changes":[1.5436492E0,9.654943E-1,0E0,0E0,9.818928E-1,0E0,3.6143947E-1,0E0,2.2680442E0,0E0,0E0],"parents":[2147483647,0,0,1,1,4,4,6,6,8,8],"right_children":[2,4,-1,-1,6,-1,8,-1,10,-1,-1],"split_conditions":[2.218673E-3,3.296908E-1,2.8289659E-2,1.0990693E-2,-1.1985249E-2,3.9825863E-3,-1.1468791E-2,-5.2040257E-2,-1.6160142E-3,2.7224405E-2,-4.864136E-2],"split_indices":[2,3,0,0,5,0,2,0,2,0,0],"split_type":[0,0,0,0,0,0,0,0,0,0,0],"sum_hessian":[8.077455E0,6.9871564E0,1.090298E0,1.3755888E0,5.611568E0,1.5083768E0,4.103191E0,2.060366E0,2.0428247E0,1.0315781E0,1.0112468E0],"tree_param":{"num_deleted":"0","num_feature":"14","num_nodes":"11","size_leaf_vector":"1"}},{"base_weights":[-1.0861603E-1,-4.3581304E-1,4.049785E-1,6.7907074E-3,-7.684051E-1,3.2867864E-2,-1.8987522E-3,-3.520319E-3,-5.302403E-2],"categories":[],"categories_nodes":[],"categories_segments":[],"categories_sizes":[],"default_left":[0,0,0,0,0,0,0,0,0],"id":68,"left_children":[1,3,5,-1,7,-1,-1,-1,-1],"loss_changes":[1.6342146E0,1.2033314E0,4.6028692E-1,0E0,7.0094657E-1,0E0,0E0,0E0,0E0],"parents":[2147483647,0,0,1,1,2,2,4,4],"right_children":[2,4,6,-1,8,-1,-1,-1,-1],"split_conditions":[-1.1468791E-2,-1.3456582E-2,1.4606956E-3,6.7907074E-3,-1.863677E-2,3.2867864E-2,-1.8987522E-3,-3.520319E-3,-5.302403E-2],"split_indices":[2,10,4,0,2,0,0,0,0],"split_type":[0,0,0,0,0,0,0,0,0],"sum_hessian":[7.6744976E0,4.7804494E0,2.894048E0,1.9759781E0,2.8044715E0,1.5352731E0,1.3587748E0,1.1934452E0,1.6110262E0],"tree_param":{"num_deleted":"0","num_feature":"14","num_nodes":"9","size_leaf_vector":"1"}},{"base_weights":[2.1475174E-1,3.40408E-2,-3.5350686E-1,-3.5185315E-2,1.06639145E-2],"categories":[],"categories_nodes":[],"categories_segments":[],"categories_sizes":[],"default_left":[0,0,0,0,0],"id":69,"left_children":[1,-1,3,-1,-1],"loss_changes":[2.1917095E0,0E0,9.396007E-1,0E0,0E0],"parents":[2147483647,0,0,2,2],"right_children":[2,-1,4,-1,-1],"split_conditions":[4.2607072E-1,3.40408E-2,4.857111E-1,-3.5185315E-2,1.06639145E-2],"split_indices":[3,0,7,0,0],"split_type":[0,0,0,0,0],"sum_hessian":[6.36671E0,3.389058E0,2.977652E0,1.6911602E0,1.2864918E0],"tree_param":{"num_deleted":"0","num_feature":"14","num_nodes":"5","size_leaf_vector":"1"}},{"base_weights":[2.6425933E-2,3.2328203E-2,-2.1292385E-1,-5.3606814E-1,2.011878E-1,-6.271843E-3,-3.8360503E-2,3.2756094E-2,-2.2707565E-2],"categories":[],"categories_nodes":[],"categories_segments":[],"categories_sizes":[],"default_left":[0,0,0,0,0,0,0,0,0],"id":70,"left_children":[1,-1,3,5,7,-1,-1,-1,-1],"loss_changes":[1.3610549E0,0E0,1.0043181E0,2.8681457E-1,1.3873165E0,0E0,0E0,0E0,0E0],"parents":[2147483647,0,0,2,2,3,3,4,4],"right_children":[2,-1,4,6,8,-1,-1,-1,-1],"split_conditions":[3.441118E-1,3.2328203E-2,-1.177998E-2,3.8449433E-1,9.247253E-3,-6.271843E-3,-3.8360503E-2,3.2756094E-2,-2.2707565E-2],"split_indices":[3,0,0,3,13,0,0,0,0],"split_type":[0,0,0,0,0,0,0,0,0],"sum_hessian":[7.2421775E0,1.5430111E0,5.6991663E0,3.0357635E0,2.6634028E0,1.6489798E0,1.3867838E0,1.5736874E0,1.0897154E0],"tree_param":{"num_deleted":"0","num_feature":"14","num_nodes":"9","size_leaf_vector":"1"}},{"base_weights":[-9.588132E-2,2.8988177E-1,-5.5368507E-1,3.2287505E-2,-2.4466297E-2,-4.6928268E-2,1.530806E-3],"categories":[],"categories_nodes":[],"categories_segments":[],"categories_sizes":[],"default_left":[0,0,0,0,0,0,0],"id":71,"left_children":[1,3,5,-1,-1,-1,-1],"loss_changes":[1.5863101E0,1.7129513E0,9.3629396E-1,0E0,0E0,0E0,0E0],"parents":[2147483647,0,0,1,1,2,2],"right_children":[2,4,6,-1,-1,-1,-1],"split_conditions":[8.930748E-2,1.2553282E-2,9.6471615E-2,3.2287505E-2,-2.4466297E-2,-4.6928268E-2,1.530806E-3],"split_indices":[8,13,8,0,0,0,0],"split_type":[0,0,0,0,0,0,0],"sum_hessian":[7.0734787E0,4.037839E0,3.0356398E0,2.8894744E0,1.1483647E0,1.4646007E0,1.5710391E0],"tree_param":{"num_deleted":"0","num_feature":"14","num_nodes":"7","size_leaf_vector":"1"}},{"base_weights":[-4.8738834E-2,-3.1741515E-1,3.772105E-1,1.6302218E-1,-4.128366E-2,3.304278E-2,-8.062864E-3,-1.8942479E-2,3.120828E-2],"categories":[],"categories_nodes":[],"categories_segments":[],"categories_sizes":[],"default_left":[0,0,0,0,0,0,0,0,0],"id":72,"left_children":[1,3,5,7,-1,-1,-1,-1,-1],"loss_changes":[1.0761374E0,1.5185676E0,6.700665E-1,1.1731886E0,0E0,0E0,0E0,0E0,0E0],"parents":[2147483647,0,0,1,1,2,2,3,3],"right_children":[2,4,6,8,-1,-1,-1,-1,-1],"split_conditions":[-1.3845072E-2,-1.8500363E-2,3.9873184E-3,-2.4937762E-2,-4.128366E-2,3.304278E-2,-8.062864E-3,-1.8942479E-2,3.120828E-2],"split_indices":[2,2,5,2,0,0,0,0,0],"split_type":[0,0,0,0,0,0,0,0,0],"sum_hessian":[7.3570805E0,4.6676617E0,2.6894186E0,2.7486854E0,1.9189765E0,1.6126465E0,1.0767721E0,1.3457743E0,1.4029111E0],"tree_param":{"num_deleted":"0","num_feature":"14","num_nodes":"9","size_leaf_vector":"1"}},{"base_weights":[-1.3708217E-1,-3.206806E-1,2.817378E-2,3.0814954E-5,-3.8288992E-2,2.7251402E-2,-2.7873245E-1,-2.8739905E-2,1.2984434E-2],"categories":[],"categories_nodes":[],"categories_segments":[],"categories_sizes":[],"default_left":[0,0,0,0,0,0,0,0,0],"id":73,"left_children":[1,3,-1,5,-1,-1,7,-1,-1],"loss_changes":[1.2438927E0,1.0259447E0,0E0,9.384476E-1,0E0,0E0,8.0073416E-1,0E0,0E0],"parents":[2147483647,0,0,1,1,3,3,6,6],"right_children":[2,4,-1,6,-1,-1,8,-1,-1],"split_conditions":[9.9319585E-2,8.930748E-2,2.817378E-2,3.9972234E-1,-3.8288992E-2,2.7251402E-2,7.127003E-2,-2.8739905E-2,1.2984434E-2],"split_indices":[8,8,0,3,0,0,8,0,0],"split_type":[0,0,0,0,0,0,0,0,0],"sum_hessian":[7.2661033E0,6.1869183E0,1.0791848E0,4.1770916E0,2.009827E0,1.0903108E0,3.0867808E0,1.9480367E0,1.138744E0],"tree_param":{"num_deleted":"0","num_feature":"14","num_nodes":"9","size_leaf_vector":"1"}},{"base_weights":[-2.1314985E-1,-4.317213E-1,1.5263225E-1,5.8416832E-2,-4.2478796E-2,2.9850349E-2,-1.5228129E-2,-2.3171347E-2,2.8486213E-2],"categories":[],"categories_nodes":[],"categories_segments":[],"categories_sizes":[],"default_left":[0,0,0,0,0,0,0,0,0],"id":74,"left_children":[1,3,5,7,-1,-1,-1,-1,-1],"loss_changes":[7.064941E-1,1.1303389E0,9.408155E-1,1.1616156E0,0E0,0E0,0E0,0E0,0E0],"parents":[2147483647,0,0,1,1,2,2,3,3],"right_children":[2,4,6,8,-1,-1,-1,-1,-1],"split_conditions":[-1.1468791E-2,-1.8500363E-2,1.4606956E-3,-2.4937762E-2,-4.2478796E-2,2.9850349E-2,-1.5228129E-2,-2.3171347E-2,2.8486213E-2],"split_indices":[2,2,4,2,0,0,0,0,0],"split_type":[0,0,0,0,0,0,0,0,0],"sum_hessian":[7.012548E0,4.276735E0,2.735813E0,2.3639958E0,1.9127392E0,1.2322814E0,1.5035316E0,1.2162879E0,1.147708E0],"tree_param":{"num_deleted":"0","num_feature":"14","num_nodes":"9","size_leaf_vector":"1"}},{"base_weights":[-4.3435678E-2,-2.4029963E-1,3.0756328E-2,4.057364E-2,-6.346659E-1,3.8896284E-1,-2.7774844E-2,-3.9430764E-2,-9.2113E-3,-2.732513E-4,3.1568687E-2],"categories":[],"categories_nodes":[],"categories_segments":[],"categories_sizes":[],"default_left":[0,0,0,0,0,0,0,0,0,0,0],"id":75,"left_children":[1,3,-1,5,7,9,-1,-1,-1,-1,-1],"loss_changes":[1.2886531E0,8.5578924E-1,0E0,1.3201045E0,7.503343E-2,3.8050222E-1,0E0,0E0,0E0,0E0,0E0],"parents":[2147483647,0,0,1,1,3,3,4,4,5,5],"right_children":[2,4,-1,6,8,10,-1,-1,-1,-1,-1],"split_conditions":[9.9319585E-2,8.944312E-2,3.0756328E-2,1.2553282E-2,-5.468717E-2,6.801537E-2,-2.7774844E-2,-3.9430764E-2,-9.2113E-3,-2.732513E-4,3.1568687E-2],"split_indices":[8,8,0,13,13,8,0,0,0,0,0],"split_type":[0,0,0,0,0,0,0,0,0,0,0],"sum_hessian":[7.799563E0,6.493559E0,1.306004E0,4.3164434E0,2.1771154E0,2.9434948E0,1.3729486E0,1.0630307E0,1.1140848E0,1.4924986E0,1.4509962E0],"tree_param":{"num_deleted":"0","num_feature":"14","num_nodes":"11","size_leaf_vector":"1"}},{"base_weights":[-1.0029188E-1,3.396589E-1,-3.8007778E-1,-1.4580597E-2,3.4294635E-2,-6.0451066E-1,6.2494683E-3,3.65289E-3,-5.0811905E-2],"categories":[],"categories_nodes":[],"categories_segments":[],"categories_sizes":[],"default_left":[0,0,0,0,0,0,0,0,0],"id":76,"left_children":[1,3,5,-1,-1,7,-1,-1,-1],"loss_changes":[1.140776E0,1.0137486E0,6.9853216E-1,0E0,0E0,1.183546E0,0E0,0E0,0E0],"parents":[2147483647,0,0,1,1,2,2,5,5],"right_children":[2,4,6,-1,-1,8,-1,-1,-1],"split_conditions":[-2.34214E-3,-3.901575E-3,-1.1468791E-2,-1.4580597E-2,3.4294635E-2,-1.8500363E-2,6.2494683E-3,3.65289E-3,-5.0811905E-2],"split_indices":[10,6,2,0,0,2,0,0,0],"split_type":[0,0,0,0,0,0,0,0,0],"sum_hessian":[7.2188864E0,2.723037E0,4.495849E0,1.0203832E0,1.7026538E0,2.97637E0,1.519479E0,1.4359024E0,1.5404676E0],"tree_param":{"num_deleted":"0","num_feature":"14","num_nodes":"9","size_leaf_vector":"1"}},{"base_weights":[1.7389068E-2,2.0531853E-1,-2.1509202E-2,4.8832244E-1,-2.11518E-1,-4.7737802E-3,3.5826884E-2,-2.7869133E-2,1.1441707E-2],"categories":[],"categories_nodes":[],"categories_segments":[],"categories_sizes":[],"default_left":[0,0,0,0,0,0,0,0,0],"id":77,"left_children":[1,3,-1,5,7,-1,-1,-1,-1],"loss_changes":[7.7450216E-1,8.6091316E-1,0E0,6.183263E-1,6.293633E-1,0E0,0E0,0E0,0E0],"parents":[2147483647,0,0,1,1,3,3,4,4],"right_children":[2,4,-1,6,8,-1,-1,-1,-1],"split_conditions":[1.6794655E-2,-4.9656862E-3,-2.1509202E-2,-2.5349773E-2,1.0351395E-3,-4.7737802E-3,3.5826884E-2,-2.7869133E-2,1.1441707E-2],"split_indices":[9,4,0,2,2,0,0,0,0],"split_type":[0,0,0,0,0,0,0,0,0],"sum_hessian":[7.157886E0,5.422373E0,1.7355131E0,3.1275089E0,2.2948642E0,1.0424517E0,2.085057E0,1.1364778E0,1.1583865E0],"tree_param":{"num_deleted":"0","num_feature":"14","num_nodes":"9","size_leaf_vector":"1"}},{"base_weights":[2.4380002E-2,-1.9336171E-1,2.8965682E-2,2.0291287E-1,-5.4280776E-1,-1.5213556E-2,3.0112758E-2,-5.2204705E-3,-3.414623E-2],"categories":[],"categories_nodes":[],"categories_segments":[],"categories_sizes":[],"default_left":[0,0,0,0,0,0,0,0,0],"id":78,"left_children":[1,3,-1,5,7,-1,-1,-1,-1],"loss_changes":[9.768019E-1,9.257455E-1,0E0,8.8968396E-1,1.3766742E-1,0E0,0E0,0E0,0E0],"parents":[2147483647,0,0,1,1,3,3,4,4],"right_children":[2,4,-1,6,8,-1,-1,-1,-1],"split_conditions":[4.7689593E-1,-2.6582276E-2,2.8965682E-2,-5.468717E-2,-1.4307354E-2,-1.5213556E-2,3.0112758E-2,-5.2204705E-3,-3.414623E-2],"split_indices":[7,12,0,13,2,0,0,0,0],"split_type":[0,0,0,0,0,0,0,0,0],"sum_hessian":[6.156907E0,4.8898244E0,1.2670826E0,2.4878795E0,2.4019449E0,1.2008331E0,1.2870464E0,1.0044318E0,1.397513E0],"tree_param":{"num_deleted":"0","num_feature":"14","num_nodes":"9","size_leaf_vector":"1"}},{"base_weights":[5.7927514E-3,-2.7769282E-1,3.980946E-1,1.2953495E-2,-5.2152276E-1,-2.1948942E-3,3.1295042E-2,-4.768079E-2,-1.6202177E-4],"categories":[],"categories_nodes":[],"categories_segments":[],"categories_sizes":[],"default_left":[0,0,0,0,0,0,0,0,0],"id":79,"left_children":[1,3,5,-1,7,-1,-1,-1,-1],"loss_changes":[9.717591E-1,8.0056226E-1,3.9593458E-1,0E0,8.542111E-1,0E0,0E0,0E0,0E0],"parents":[2147483647,0,0,1,1,2,2,4,4],"right_children":[2,4,6,-1,8,-1,-1,-1,-1],"split_conditions":[-1.0848399E-3,1.4638641E-1,5.6878686E-2,1.2953495E-2,-1.47293415E-2,-2.1948942E-3,3.1295042E-2,-4.768079E-2,-1.6202177E-4],"split_indices":[6,7,8,0,11,0,0,0,0],"split_type":[0,0,0,0,0,0,0,0,0],"sum_hessian":[6.743874E0,4.0844846E0,2.6593895E0,1.2563272E0,2.8281574E0,1.1790614E0,1.4803281E0,1.0842564E0,1.743901E0],"tree_param":{"num_deleted":"0","num_feature":"14","num_nodes":"9","size_leaf_vector":"1"}},{"base_weights":[-1.4679603E-1,-4.0749243E-1,2.3698772E-1,1.8991146E-2,-4.262309E-2,3.2295756E-2,-1.6318304E-2,-1.46231195E-2,1.7202104E-2],"categories":[],"categories_nodes":[],"categories_segments":[],"categories_sizes":[],"default_left":[0,0,0,0,0,0,0,0,0],"id":80,"left_children":[1,3,5,7,-1,-1,-1,-1,-1],"loss_changes":[8.881693E-1,9.8008597E-1,1.0937504E0,4.622116E-1,0E0,0E0,0E0,0E0,0E0],"parents":[2147483647,0,0,1,1,2,2,3,3],"right_children":[2,4,6,8,-1,-1,-1,-1,-1],"split_conditions":[-1.1468791E-2,1.6441394E-2,4.009144E-3,1.4784357E-2,-4.262309E-2,3.2295756E-2,-1.6318304E-2,-1.46231195E-2,1.7202104E-2],"split_indices":[2,9,5,9,0,0,0,0,0],"split_type":[0,0,0,0,0,0,0,0,0],"sum_hessian":[6.9119473E0,4.079232E0,2.8327146E0,2.5716956E0,1.5075369E0,1.5564009E0,1.2763137E0,1.364516E0,1.2071794E0],"tree_param":{"num_deleted":"0","num_feature":"14","num_nodes":"9","size_leaf_vector":"1"}},{"base_weights":[-9.992837E-2,-4.1152486E-1,1.2508838E-1,-3.603954E-2,8.425644E-3,3.527301E-2,-3.382413E-1,-3.6188945E-2,1.1565068E-2],"categories":[],"categories_nodes":[],"categories_segments":[],"categories_sizes":[],"default_left":[0,0,0,0,0,0,0,0,0],"id":81,"left_children":[1,3,5,-1,-1,-1,7,-1,-1],"loss_changes":[6.251759E-1,7.7876467E-1,1.7224633E0,0E0,0E0,0E0,9.896065E-1,0E0,0E0],"parents":[2147483647,0,0,1,1,2,2,6,6],"right_children":[2,4,6,-1,-1,-1,8,-1,-1],"split_conditions":[-4.307028E-2,-2.0712938E-2,3.4891117E-1,-3.603954E-2,8.425644E-3,3.527301E-2,4.857111E-1,-3.6188945E-2,1.1565068E-2],"split_indices":[13,0,7,0,0,0,7,0,0],"split_type":[0,0,0,0,0,0,0,0,0],"sum_hessian":[7.182323E0,2.664181E0,4.5181417E0,1.5794072E0,1.0847738E0,1.7737436E0,2.7443984E0,1.4750757E0,1.2693226E0],"tree_param":{"num_deleted":"0","num_feature":"14","num_nodes":"9","size_leaf_vector":"1"}},{"base_weights":[-4.905009E-3,-1.762376E-1,2.6785001E-2,1.6097663E-2,-3.701994E-1,-5.946198E-1,1.1349789E-2,-8.650496E-3,-4.2967252E-2],"categories":[],"categories_nodes":[],"categories_segments":[],"categories_sizes":[],"default_left":[0,0,0,0,0,0,0,0,0],"id":82,"left_children":[1,3,-1,-1,5,7,-1,-1,-1],"loss_changes":[7.998276E-1,7.507218E-1,0E0,0E0,8.2777697E-1,3.0151725E-1,0E0,0E0,0E0],"parents":[2147483647,0,0,1,1,4,4,5,5],"right_children":[2,4,-1,-1,6,8,-1,-1,-1],"split_conditions":[4.857111E-1,-2.0478074E-2,2.6785001E-2,1.6097663E-2,1.9334905E-2,-3.712847E-3,1.1349789E-2,-8.650496E-3,-4.2967252E-2],"split_indices":[7,11,0,0,10,10,0,0,0],"split_type":[0,0,0,0,0,0,0,0,0],"sum_hessian":[6.6159825E0,5.5355988E0,1.080384E0,1.3663219E0,4.1692767E0,3.0335932E0,1.1356835E0,1.8078686E0,1.2257246E0],"tree_param":{"num_deleted":"0","num_feature":"14","num_nodes":"9","size_leaf_vector":"1"}},{"base_weights":[-1.2460535E-1,-2.924576E-1,2.7502755E-2,1.3026816E-1,-6.16734E-1,-1.6831463E-2,2.4287215E-2,-4.292094E-2,-2.197045E-1,2.62078E-2,-4.2763937E-2],"categories":[],"categories_nodes":[],"categories_segments":[],"categories_sizes":[],"default_left":[0,0,0,0,0,0,0,0,0,0,0],"id":83,"left_children":[1,3,-1,5,7,-1,-1,-1,9,-1,-1],"loss_changes":[1.125589E0,1.1049676E0,0E0,8.390822E-1,2.3401761E-1,0E0,0E0,0E0,1.87161E0,0E0,0E0],"parents":[2147483647,0,0,1,1,3,3,4,4,8,8],"right_children":[2,4,-1,6,8,-1,-1,-1,10,-1,-1],"split_conditions":[2.218673E-3,-1.5759014E-2,2.7502755E-2,-2.4937762E-2,-1.1468791E-2,-1.6831463E-2,2.4287215E-2,-4.292094E-2,3.6351176E-3,2.62078E-2,-4.2763937E-2],"split_indices":[2,2,0,2,2,0,0,0,5,0,0],"split_type":[0,0,0,0,0,0,0,0,0,0,0],"sum_hessian":[7.519016E0,6.4746623E0,1.0443532E0,3.0703907E0,3.4042716E0,1.3501133E0,1.7202775E0,1.3937486E0,2.010523E0,1.0071189E0,1.003404E0],"tree_param":{"num_deleted":"0","num_feature":"14","num_nodes":"11","size_leaf_vector":"1"}},{"base_weights":[2.304899E-2,-4.1603002E-1,4.1316542E-1,6.2648356E-3,-4.0188637E-2,-3.7758597E-3,3.51752E-2],"categories":[],"categories_nodes":[],"categories_segments":[],"categories_sizes":[],"default_left":[0,0,0,0,0,0,0],"id":84,"left_children":[1,3,5,-1,-1,-1,-1],"loss_changes":[1.4702286E0,9.5379525E-1,6.937808E-1,0E0,0E0,0E0,0E0],"parents":[2147483647,0,0,1,1,2,2],"right_children":[2,4,6,-1,-1,-1,-1],"split_conditions":[-3.7760023E-2,1.6794655E-2,1.5507088E-2,6.2648356E-3,-4.0188637E-2,-3.7758597E-3,3.51752E-2],"split_indices":[13,9,9,0,0,0,0],"split_type":[0,0,0,0,0,0,0],"sum_hessian":[6.5796885E0,3.064333E0,3.5153553E0,1.5613676E0,1.5029655E0,1.5859191E0,1.9294363E0],"tree_param":{"num_deleted":"0","num_feature":"14","num_nodes":"7","size_leaf_vector":"1"}},{"base_weights":[-1.2023237E-1,-3.3616132E-1,1.9453352E-2,1.4516956E-2,-5.5899185E-1,-6.8212277E-1,-2.6628608E-3,-4.268344E-2,-1.1181846E-2],"categories":[],"categories_nodes":[],"categories_segments":[],"categories_sizes":[],"default_left":[0,0,0,0,0,0,0,0,0],"id":85,"left_children":[1,3,-1,-1,5,7,-1,-1,-1],"loss_changes":[9.887115E-1,1.0020094E0,0E0,0E0,2.6125145E-1,1.04690075E-1,0E0,0E0,0E0],"parents":[2147483647,0,0,1,1,4,4,5,5],"right_children":[2,4,-1,-1,6,8,-1,-1,-1],"split_conditions":[-3.7957536E-4,1.5159307E-1,1.9453352E-2,1.4516956E-2,3.4088954E-2,-1.810576E-2,-2.6628608E-3,-4.268344E-2,-1.1181846E-2],"split_indices":[6,7,0,0,10,2,0,0,0],"split_type":[0,0,0,0,0,0,0,0,0],"sum_hessian":[6.801245E0,5.0149837E0,1.7862616E0,1.236247E0,3.7787366E0,2.7583795E0,1.0203573E0,1.3800807E0,1.3782986E0],"tree_param":{"num_deleted":"0","num_feature":"14","num_nodes":"9","size_leaf_vector":"1"}},{"base_weights":[-4.0021352E-2,-2.7130508E-1,3.399525E-1,1.5584669E-2,-5.9438634E-1,2.9441366E-2,-3.5698009E-3,4.126051E-3,-5.1088084E-2],"categories":[],"categories_nodes":[],"categories_segments":[],"categories_sizes":[],"default_left":[0,0,0,0,0,0,0,0,0],"id":86,"left_children":[1,3,5,-1,7,-1,-1,-1,-1],"loss_changes":[7.797093E-1,1.2059648E0,3.9049897E-1,0E0,1.1925251E0,0E0,0E0,0E0,0E0],"parents":[2147483647,0,0,1,1,2,2,4,4],"right_children":[2,4,6,-1,8,-1,-1,-1,-1],"split_conditions":[-1.1468791E-2,-1.3456582E-2,1.4606956E-3,1.5584669E-2,-1.8500363E-2,2.9441366E-2,-3.5698009E-3,4.126051E-3,-5.1088084E-2],"split_indices":[2,10,4,0,2,0,0,0,0],"split_type":[0,0,0,0,0,0,0,0,0],"sum_hessian":[6.822765E0,4.4189897E0,2.403775E0,1.5882493E0,2.8307402E0,1.2288426E0,1.1749325E0,1.4078306E0,1.4229097E0],"tree_param":{"num_deleted":"0","num_feature":"14","num_nodes":"9","size_leaf_vector":"1"}},{"base_weights":[-8.24507E-2,-3.080474E-1,2.984148E-2,-8.979959E-2,-3.8827386E-2,3.0277774E-1,-3.2029912E-2,3.0325836E-2,-2.0043186E-3],"categories":[],"categories_nodes":[],"categories_segments":[],"categories_sizes":[],"default_left":[0,0,0,0,0,0,0,0,0],"id":87,"left_children":[1,3,-1,5,-1,7,-1,-1,-1],"loss_changes":[1.4212908E0,6.1752045E-1,0E0,1.4299539E0,0E0,4.4258958E-1,0E0,0E0,0E0],"parents":[2147483647,0,0,1,1,3,3,5,5],"right_children":[2,4,-1,6,-1,8,-1,-1,-1],"split_conditions":[-9.781277E-3,1.9526317E-3,2.984148E-2,1.6785223E-2,-3.8827386E-2,-2.0020274E-3,-3.2029912E-2,3.0325836E-2,-2.0043186E-3],"split_indices":[12,0,0,9,0,6,0,0,0],"split_type":[0,0,0,0,0,0,0,0,0],"sum_hessian":[7.074989E0,5.721367E0,1.3536218E0,4.716084E0,1.0052826E0,3.0164366E0,1.6996477E0,1.1917282E0,1.8247082E0],"tree_param":{"num_deleted":"0","num_feature":"14","num_nodes":"9","size_leaf_vector":"1"}},{"base_weights":[-1.4934342E-1,-3.646639E-1,1.1909295E-2,7.3663318E-3,-6.085055E-1,-4.511595E-3,-4.132941E-2],"categories":[],"categories_nodes":[],"categories_segments":[],"categories_sizes":[],"default_left":[0,0,0,0,0,0,0],"id":88,"left_children":[1,3,-1,-1,5,-1,-1],"loss_changes":[6.9391596E-1,7.228309E-1,0E0,0E0,3.3575392E-1,0E0,0E0],"parents":[2147483647,0,0,1,1,4,4],"right_children":[2,4,-1,-1,6,-1,-1],"split_conditions":[-6.719477E-4,-2.0478074E-2,1.1909295E-2,7.3663318E-3,-3.954403E-2,-4.511595E-3,-4.132941E-2],"split_indices":[6,11,0,0,12,0,0],"split_type":[0,0,0,0,0,0,0],"sum_hessian":[6.2751236E0,4.07176E0,2.2033637E0,1.441298E0,2.6304622E0,1.1977531E0,1.4327091E0],"tree_param":{"num_deleted":"0","num_feature":"14","num_nodes":"7","size_leaf_vector":"1"}},{"base_weights":[-5.4668676E-2,-2.3420438E-1,1.8099977E-2,1.5056751E-2,-4.406194E-1,-6.1864245E-1,5.783885E-4,-5.7710306E-4,-4.60025E-2],"categories":[],"categories_nodes":[],"categories_segments":[],"categories_sizes":[],"default_left":[0,0,0,0,0,0,0,0,0],"id":89,"left_children":[1,3,-1,-1,5,7,-1,-1,-1],"loss_changes":[6.5601575E-1,7.894904E-1,0E0,0E0,3.851633E-1,6.0926735E-1,0E0,0E0,0E0],"parents":[2147483647,0,0,1,1,4,4,5,5],"right_children":[2,4,-1,-1,6,8,-1,-1,-1],"split_conditions":[-3.7957536E-4,1.5159307E-1,1.8099977E-2,1.5056751E-2,1.5888074E-2,-2.7277365E-2,5.783885E-4,-5.7710306E-4,-4.60025E-2],"split_indices":[6,7,0,0,9,12,0,0,0],"split_type":[0,0,0,0,0,0,0,0,0],"sum_hessian":[6.636121E0,4.9438195E0,1.6923015E0,1.2480662E0,3.695753E0,2.3876426E0,1.3081104E0,1.1365921E0,1.2510506E0],"tree_param":{"num_deleted":"0","num_feature":"14","num_nodes":"9","size_leaf_vector":"1"}},{"base_weights":[-3.177785E-2,-2.7748376E-1,2.9411852E-2,5.1143006E-3,-4.5272806E-1,2.0835048E-3,-3.4918524E-2],"categories":[],"categories_nodes":[],"categories_segments":[],"categories_sizes":[],"default_left":[0,0,0,0,0,0,0],"id":90,"left_children":[1,3,-1,-1,5,-1,-1],"loss_changes":[1.2304131E0,4.2542467E-1,0E0,0E0,5.24858E-1,0E0,0E0],"parents":[2147483647,0,0,1,1,4,4],"right_children":[2,4,-1,-1,6,-1,-1],"split_conditions":[-1.0872326E-2,-2.34214E-3,2.9411852E-2,5.1143006E-3,-1.8721664E-2,2.0835048E-3,-3.4918524E-2],"split_indices":[12,10,0,0,2,0,0],"split_type":[0,0,0,0,0,0,0],"sum_hessian":[6.0052357E0,4.6965103E0,1.3087255E0,1.6143644E0,3.082146E0,1.2986829E0,1.783463E0],"tree_param":{"num_deleted":"0","num_feature":"14","num_nodes":"7","size_leaf_vector":"1"}},{"base_weights":[8.459995E-2,-1.2040535E-1,2.9351672E-2,2.164174E-1,-3.146947E-2,3.186996E-2,-1.3139366E-2],"categories":[],"categories_nodes":[],"categories_segments":[],"categories_sizes":[],"default_left":[0,0,0,0,0,0,0],"id":91,"left_children":[1,3,-1,5,-1,-1,-1],"loss_changes":[7.891649E-1,1.1277833E0,0E0,1.0197787E0,0E0,0E0,0E0],"parents":[2147483647,0,0,1,1,3,3],"right_children":[2,4,-1,6,-1,-1,-1],"split_conditions":[9.9319585E-2,8.944312E-2,2.9351672E-2,9.4222035E-3,-3.146947E-2,3.186996E-2,-1.3139366E-2],"split_indices":[8,8,0,11,0,0,0],"split_type":[0,0,0,0,0,0,0],"sum_hessian":[5.9754586E0,4.783875E0,1.1915836E0,3.2247112E0,1.5591638E0,1.5409055E0,1.6838057E0],"tree_param":{"num_deleted":"0","num_feature":"14","num_nodes":"7","size_leaf_vector":"1"}},{"base_weights":[-9.698477E-2,6.1107587E-2,-2.3145279E-2,5.2635026E-1,-4.0293568E-1,7.4713924E-3,3.105099E-2,-3.721882E-2,2.205365E-3],"categories":[],"categories_nodes":[],"categories_segments":[],"categories_sizes":[],"default_left":[0,0,0,0,0,0,0,0,0],"id":92,"left_children":[1,3,-1,5,7,-1,-1,-1,-1],"loss_changes":[4.533412E-1,1.51052E0,0E0,2.9839516E-2,5.78884E-1,0E0,0E0,0E0,0E0],"parents":[2147483647,0,0,1,1,3,3,4,4],"right_children":[2,4,-1,6,8,-1,-1,-1,-1],"split_conditions":[1.2553282E-2,8.944312E-2,-2.3145279E-2,-8.892171E-3,9.6471615E-2,7.4713924E-3,3.105099E-2,-3.721882E-2,2.205365E-3],"split_indices":[13,8,0,5,8,0,0,0,0],"split_type":[0,0,0,0,0,0,0,0,0],"sum_hessian":[6.3476143E0,5.0142584E0,1.333356E0,2.436845E0,2.5774133E0,1.0067865E0,1.4300586E0,1.084209E0,1.4932044E0],"tree_param":{"num_deleted":"0","num_feature":"14","num_nodes":"9","size_leaf_vector":"1"}},{"base_weights":[-9.793796E-2,-2.9557997E-1,2.6695713E-2,1.4598384E-2,-5.1501507E-1,-6.8697208E-3,-3.36234E-2],"categories":[],"categories_nodes":[],"categories_segments":[],"categories_sizes":[],"default_left":[0,0,0,0,0,0,0],"id":93,"left_children":[1,3,-1,-1,5,-1,-1],"loss_changes":[1.0512851E0,9.3600065E-1,0E0,0E0,1.9290698E-1,0E0,0E0],"parents":[2147483647,0,0,1,1,4,4],"right_children":[2,4,-1,-1,6,-1,-1],"split_conditions":[-9.781277E-3,1.5375584E-1,2.6695713E-2,1.4598384E-2,-1.8721664E-2,-6.8697208E-3,-3.36234E-2],"split_indices":[12,7,0,0,2,0,0],"split_type":[0,0,0,0,0,0,0],"sum_hessian":[6.154603E0,5.0935516E0,1.0610511E0,1.2951596E0,3.798392E0,1.6687711E0,2.129621E0],"tree_param":{"num_deleted":"0","num_feature":"14","num_nodes":"7","size_leaf_vector":"1"}},{"base_weights":[-1.9353012E-2,-2.325971E-1,2.8776526E-2,2.392083E-1,-5.298423E-1,-1.1421334E-2,2.8761E-2,3.3086264E-3,-3.9865386E-2],"categories":[],"categories_nodes":[],"categories_segments":[],"categories_sizes":[],"default_left":[0,0,0,0,0,0,0,0,0],"id":94,"left_children":[1,3,-1,5,7,-1,-1,-1,-1],"loss_changes":[1.0784714E0,9.9534476E-1,0E0,6.1580473E-1,7.080697E-1,0E0,0E0,0E0,0E0],"parents":[2147483647,0,0,1,1,3,3,4,4],"right_children":[2,4,-1,6,8,-1,-1,-1,-1],"split_conditions":[-9.781277E-3,-1.8500363E-2,2.8776526E-2,-4.4869456E-2,-2.664676E-2,-1.1421334E-2,2.8761E-2,3.3086264E-3,-3.9865386E-2],"split_indices":[12,2,0,1,12,0,0,0,0],"split_type":[0,0,0,0,0,0,0,0,0],"sum_hessian":[6.4463105E0,5.1935987E0,1.252712E0,2.08284E0,3.1107585E0,1.0047246E0,1.0781155E0,1.1966841E0,1.9140744E0],"tree_param":{"num_deleted":"0","num_feature":"14","num_nodes":"9","size_leaf_vector":"1"}},{"base_weights":[-9.256789E-2,2.707185E-1,-3.2560548E-1,3.0366091E-2,-1.29841585E-2,1.1049872E-2,-5.2779835E-1,-3.7716493E-2,-4.0301583E-3],"categories":[],"categories_nodes":[],"categories_segments":[],"categories_sizes":[],"default_left":[0,0,0,0,0,0,0,0,0],"id":95,"left_children":[1,3,5,-1,-1,-1,7,-1,-1],"loss_changes":[6.9691604E-1,7.5689495E-1,6.509675E-1,0E0,0E0,0E0,3.2661867E-1,0E0,0E0],"parents":[2147483647,0,0,1,1,2,2,6,6],"right_children":[2,4,6,-1,-1,-1,8,-1,-1],"split_conditions":[-2.34214E-3,8.930748E-2,3.4660488E-1,3.0366091E-2,-1.29841585E-2,1.1049872E-2,7.127003E-2,-3.7716493E-2,-4.0301583E-3],"split_indices":[10,8,3,0,0,0,8,0,0],"split_type":[0,0,0,0,0,0,0,0,0],"sum_hessian":[6.1907983E0,2.3561149E0,3.8346832E0,1.3526647E0,1.0034503E0,1.0103436E0,2.8243396E0,1.4188192E0,1.4055203E0],"tree_param":{"num_deleted":"0","num_feature":"14","num_nodes":"9","size_leaf_vector":"1"}},{"base_weights":[-8.726259E-2,-2.7600914E-2,1.5923867E-1,2.583524E-2,-1.5067458E-1,-2.6758526E-2,1.5392694E-2],"categories":[],"categories_nodes":[],"categories_segments":[],"categories_sizes":[],"default_left":[0,0,0,0,0,0,0],"id":96,"left_children":[1,-1,3,-1,5,-1,-1],"loss_changes":[9.5889246E-1,0E0,7.1418965E-1,0E0,8.4366715E-1,0E0,0E0],"parents":[2147483647,0,0,2,2,4,4],"right_children":[2,-1,4,-1,6,-1,-1],"split_conditions":[-3.901575E-3,-2.7600914E-2,-3.3293483E-3,2.583524E-2,1.9334905E-2,-2.6758526E-2,1.5392694E-2],"split_indices":[6,0,10,0,10,0,0],"split_type":[0,0,0,0,0,0,0],"sum_hessian":[6.602725E0,1.8587699E0,4.743955E0,1.8931104E0,2.8508446E0,1.4596865E0,1.391158E0],"tree_param":{"num_deleted":"0","num_feature":"14","num_nodes":"7","size_leaf_vector":"1"}},{"base_weights":[-5.7112705E-3,2.8547847E-1,-2.556124E-1,-1.1753163E-2,3.352714E-2,-3.3749007E-2,7.5136155E-2,2.9868826E-2,-2.5577275E-2],"categories":[],"categories_nodes":[],"categories_segments":[],"categories_sizes":[],"default_left":[0,0,0,0,0,0,0,0,0],"id":97,"left_children":[1,3,5,-1,-1,-1,7,-1,-1],"loss_changes":[6.346954E-1,9.6691275E-1,7.0010126E-1,0E0,0E0,0E0,1.3832378E0,0E0,0E0],"parents":[2147483647,0,0,1,1,2,2,6,6],"right_children":[2,4,6,-1,-1,-1,8,-1,-1],"split_conditions":[3.026583E-1,-4.307028E-2,3.5877505E-1,-1.1753163E-2,3.352714E-2,-3.3749007E-2,9.247253E-3,2.9868826E-2,-2.5577275E-2],"split_indices":[7,13,7,0,0,0,13,0,0],"split_type":[0,0,0,0,0,0,0,0,0],"sum_hessian":[6.719307E0,3.0375397E0,3.6817672E0,1.4572E0,1.5803398E0,1.1644963E0,2.517271E0,1.3221325E0,1.1951385E0],"tree_param":{"num_deleted":"0","num_feature":"14","num_nodes":"9","size_leaf_vector":"1"}},{"base_weights":[-1.2767012E-2,-2.359534E-1,3.2359985E-1,1.2912983E-2,-4.6885985E-1,-1.194304E-3,2.5790626E-2,-3.66837E-2,-2.3048806E-3],"categories":[],"categories_nodes":[],"categories_segments":[],"categories_sizes":[],"default_left":[0,0,0,0,0,0,0,0,0],"id":98,"left_children":[1,3,5,-1,7,-1,-1,-1,-1],"loss_changes":[5.70316E-1,6.429364E-1,2.1577552E-1,0E0,3.5092396E-1,0E0,0E0,0E0,0E0],"parents":[2147483647,0,0,1,1,2,2,4,4],"right_children":[2,4,6,-1,8,-1,-1,-1,-1],"split_conditions":[-1.0848399E-3,1.5159307E-1,3.5877505E-1,1.2912983E-2,2.525778E-1,-1.194304E-3,2.5790626E-2,-3.66837E-2,-2.3048806E-3],"split_indices":[6,7,7,0,7,0,0,0,0],"split_type":[0,0,0,0,0,0,0,0,0],"sum_hessian":[5.579793E0,3.53366E0,2.0461328E0,1.0970122E0,2.4366477E0,1.0406163E0,1.0055165E0,1.0460086E0,1.3906392E0],"tree_param":{"num_deleted":"0","num_feature":"14","num_nodes":"9","size_leaf_vector":"1"}},{"base_weights":[-1.7012472E-1,-3.4015605E-1,1.0539466E-2,3.0348215E-3,-5.3700095E-1,-3.3627767E-2,-6.51389E-3],"categories":[],"categories_nodes":[],"categories_segments":[],"categories_sizes":[],"default_left":[0,0,0,0,0,0,0],"id":99,"left_children":[1,3,-1,-1,5,-1,-1],"loss_changes":[5.7204413E-1,4.8422617E-1,0E0,0E0,1.2961686E-1,0E0,0E0],"parents":[2147483647,0,0,1,1,4,4],"right_children":[2,4,-1,-1,6,-1,-1],"split_conditions":[-6.719477E-4,-2.0478074E-2,1.0539466E-2,3.0348215E-3,-1.177998E-2,-3.3627767E-2,-6.51389E-3],"split_indices":[6,11,0,0,0,0,0],"split_type":[0,0,0,0,0,0,0],"sum_hessian":[6.725237E0,4.72369E0,2.0015469E0,1.7834823E0,2.9402075E0,1.7150228E0,1.2251848E0],"tree_param":{"num_deleted":"0","num_feature":"14","num_nodes":"7","size_leaf_vector":"1"}}]},"name":"gbtree"},"learner_model_param":{"base_score":"[9.125E-1]","boost_from_average":"1","num_class":"0","num_feature":"14","num_target":"1"},"objective":{"name":"binary:logistic","reg_loss_param":{"scale_pos_weight":"1"}}},"version":[3,2,0]}