{"learner":{"attributes":{"best_iteration":"84","best_score":"0.34194883834570644","scikit_learn":"{\"_estimator_type\": \"classifier\"}"},"feature_names":["feat_close_to_ema20","feat_close_to_ema50","feat_ema20_to_ema50","feat_rsi_scaled","feat_macd_line","feat_macd_signal","feat_macd_hist","feat_bb_pct_b","feat_bb_width","feat_atr_scaled","feat_volume_change","feat_momentum_5","feat_momentum_15","feat_momentum_30","feat_stoch_rsi_k","feat_stoch_rsi_d","feat_obv_norm"],"feature_types":["float","float","float","float","float","float","float","float","float","float","float","float","float","float","float","float","float"],"gradient_booster":{"model":{"cats":{"enc":[],"feature_segments":[],"sorted_idx":[]},"gbtree_model_param":{"num_parallel_tree":"1","num_trees":"115"},"iteration_indptr":[0,1,2,3,4,5,6,7,8,9,10,11,12,13,14,15,16,17,18,19,20,21,22,23,24,25,26,27,28,29,30,31,32,33,34,35,36,37,38,39,40,41,42,43,44,45,46,47,48,49,50,51,52,53,54,55,56,57,58,59,60,61,62,63,64,65,66,67,68,69,70,71,72,73,74,75,76,77,78,79,80,81,82,83,84,85,86,87,88,89,90,91,92,93,94,95,96,97,98,99,100,101,102,103,104,105,106,107,108,109,110,111,112,113,114,115],"tree_info":[0,0,0,0,0,0,0,0,0,0,0,0,0,0,0,0,0,0,0,0,0,0,0,0,0,0,0,0,0,0,0,0,0,0,0,0,0,0,0,0,0,0,0,0,0,0,0,0,0,0,0,0,0,0,0,0,0,0,0,0,0,0,0,0,0,0,0,0,0,0,0,0,0,0,0,0,0,0,0,0,0,0,0,0,0,0,0,0,0,0,0,0,0,0,0,0,0,0,0,0,0,0,0,0,0,0,0,0,0,0,0,0,0,0,0],"trees":[{"base_weights":[8.573483E-2,6.386986E-1,-4.1514844E-1,-1.344509E-1,9.4400644E-1,-1.0002153E0,4.512547E-1,-3.26712E-2,2.2686386E-2,3.1455923E-2,5.105146E-3,1.5033447E-2,-1.6805788E0,2.6079336E-2,-4.763681E-3,-7.965548E-2,1.0977284E-2],"categories":[],"categories_nodes":[],"categories_segments":[],"categories_sizes":[],"default_left":[0,0,0,0,0,0,0,0,0,0,0,0,0,0,0,0,0],"id":0,"left_children":[1,3,5,7,9,11,13,-1,-1,-1,-1,-1,15,-1,-1,-1,-1],"loss_changes":[6.0801463E0,2.5753746E0,6.342762E0,4.0644045E0,4.3312693E-1,8.246084E0,1.5085607E0,0E0,0E0,0E0,0E0,0E0,1.137833E1,0E0,0E0,0E0,0E0],"parents":[2147483647,0,0,1,1,2,2,3,3,4,4,5,5,6,6,12,12],"right_children":[2,4,6,8,10,12,14,-1,-1,-1,-1,-1,16,-1,-1,-1,-1],"split_conditions":[-1.4619058E-2,-1.53098E-2,-1.1093728E-3,1.4976237E-2,-5.1404643E-3,-2.7504845E-3,4.102897E-3,-3.26712E-2,2.2686386E-2,3.1455923E-2,5.105146E-3,1.5033447E-2,3.3940847E-3,2.6079336E-2,-4.763681E-3,-7.965548E-2,1.0977284E-2],"split_indices":[2,5,2,9,4,6,2,0,0,0,0,0,6,0,0,0,0],"split_type":[0,0,0,0,0,0,0,0,0,0,0,0,0,0,0,0,0],"sum_hessian":[1.9995003E1,9.372658E0,1.0622345E1,2.8117971E0,6.56086E0,6.2484384E0,4.373907E0,1.2496877E0,1.5621096E0,5.4673834E0,1.0934768E0,2.0307424E0,4.2176957E0,2.3431644E0,2.0307424E0,2.6555862E0,1.5621096E0],"tree_param":{"num_deleted":"0","num_feature":"17","num_nodes":"17","size_leaf_vector":"1"}},{"base_weights":[-4.195924E-2,6.849921E-1,-4.426239E-1,3.0992262E-2,-1.2167835E-2,-6.3013446E-1,2.1539938E-2,1.6626993E-1,-1.1567427E0,-6.3068473E-1,2.6465498E-2,-1.8362923E0,2.6599112E-1,1.9189853E-2,-4.5555428E-2,-7.48101E-2,-9.327773E-3,2.060416E-2,-9.427576E-3],"categories":[],"categories_nodes":[],"categories_segments":[],"categories_sizes":[],"default_left":[0,0,0,0,0,0,0,0,0,0,0,0,0,0,0,0,0,0,0],"id":1,"left_children":[1,3,5,-1,-1,7,-1,9,11,13,-1,15,17,-1,-1,-1,-1,-1,-1],"loss_changes":[6.266799E0,3.3297799E0,3.4572902E0,0E0,0E0,5.4009414E0,0E0,3.8756754E0,7.837888E0,4.7340183E0,0E0,4.510124E0,1.0290962E0,0E0,0E0,0E0,0E0,0E0,0E0],"parents":[2147483647,0,0,1,1,2,2,5,5,7,7,8,8,9,9,11,11,12,12],"right_children":[2,4,6,-1,-1,8,-1,10,12,14,-1,16,18,-1,-1,-1,-1,-1,-1],"split_conditions":[-1.3190018E-2,-4.9656862E-3,1.0471313E-1,3.0992262E-2,-1.2167835E-2,6.605491E-2,2.1539938E-2,4.6052583E-2,6.8570834E-1,1.1502661E-2,2.6465498E-2,1.0354679E-2,2.4489332E-3,1.9189853E-2,-4.5555428E-2,-7.48101E-2,-9.327773E-3,2.060416E-2,-9.427576E-3],"split_indices":[11,4,8,0,0,8,0,8,7,9,0,11,10,0,0,0,0,0,0],"split_type":[0,0,0,0,0,0,0,0,0,0,0,0,0,0,0,0,0,0,0],"sum_hessian":[1.9474934E1,6.6676874E0,1.2807247E1,5.0944285E0,1.5732588E0,1.1419396E1,1.3878506E0,4.817707E0,6.6016893E0,2.336152E0,2.481555E0,4.2710176E0,2.330672E0,1.0760348E0,1.2601173E0,2.541096E0,1.7299215E0,1.2444797E0,1.0861924E0],"tree_param":{"num_deleted":"0","num_feature":"17","num_nodes":"19","size_leaf_vector":"1"}},{"base_weights":[8.913901E-2,3.0846867E-1,-3.8095944E-2,7.3844725E-1,-9.235042E-2,1.21083945E-1,3.0533962E-2,-8.2669944E-1,6.490295E-1,2.1345234E-2,-1.5197686E-2,1.3632597E-2,-1.6210063E0,-9.0463525E-3,2.8655903E-2,-6.3247934E-2,-8.644621E-3],"categories":[],"categories_nodes":[],"categories_segments":[],"categories_sizes":[],"default_left":[0,0,0,0,0,0,0,0,0,0,0,0,0,0,0,0,0],"id":2,"left_children":[1,3,-1,5,7,9,-1,11,13,-1,-1,-1,15,-1,-1,-1,-1],"loss_changes":[6.1559854E0,3.0766027E0,0E0,1.3483319E0,5.9390063E0,1.7661849E0,0E0,6.2571015E0,1.8881769E0,0E0,0E0,0E0,1.7095089E0,0E0,0E0,0E0,0E0],"parents":[2147483647,0,0,1,1,3,3,4,4,5,5,7,7,8,8,12,12],"right_children":[2,4,-1,6,8,10,-1,12,14,-1,-1,-1,16,-1,-1,-1,-1],"split_conditions":[9.236439E-1,-1.397802E-2,-3.8095944E-2,-1.53098E-2,-1.6160142E-3,-1.6797714E-2,3.0533962E-2,3.501897E-1,2.9259202E-1,2.1345234E-2,-1.5197686E-2,1.3632597E-2,4.767028E-1,-9.0463525E-3,2.8655903E-2,-6.3247934E-2,-8.644621E-3],"split_indices":[14,2,0,5,2,4,0,3,7,0,0,0,3,0,0,0,0],"split_type":[0,0,0,0,0,0,0,0,0,0,0,0,0,0,0,0,0],"sum_hessian":[1.833866E1,1.6455864E1,1.882794E0,7.5327563E0,8.923108E0,2.7932208E0,4.739536E0,4.424995E0,4.4981127E0,1.370495E0,1.4227257E0,1.8573008E0,2.5676944E0,1.0995076E0,3.398605E0,1.4542773E0,1.1134171E0],"tree_param":{"num_deleted":"0","num_feature":"17","num_nodes":"17","size_leaf_vector":"1"}},{"base_weights":[9.025367E-2,2.9925784E-2,-2.0524357E-1,-8.221615E-1,1.6025552E-1,4.160473E-1,-5.9876647E-2,4.7130993E-1,-2.7380787E-2,2.4042295E-2,-9.200043E-3,-1.9451175E-2,7.196148E-1,-5.1643085E-3,3.1060211E-2],"categories":[],"categories_nodes":[],"categories_segments":[],"categories_sizes":[],"default_left":[0,0,0,0,0,0,0,0,0,0,0,0,0,0,0],"id":3,"left_children":[1,-1,3,5,7,9,-1,11,-1,-1,-1,-1,13,-1,-1],"loss_changes":[5.8661237E0,0E0,3.9104671E0,1.0128565E1,4.221645E0,1.3433452E0,0E0,3.098512E0,0E0,0E0,0E0,0E0,2.4932184E0,0E0,0E0],"parents":[2147483647,0,0,2,2,3,3,4,4,5,5,7,7,12,12],"right_children":[2,-1,4,6,8,10,-1,12,-1,-1,-1,-1,14,-1,-1],"split_conditions":[3.1327957E-1,2.9925784E-2,-3.4088593E-2,-6.101032E-2,8.9851284E-1,-1.1261582E-2,-5.9876647E-2,1.3998846E-2,-2.7380787E-2,2.4042295E-2,-9.200043E-3,-1.9451175E-2,-3.1262415E-3,-5.1643085E-3,3.1060211E-2],"split_indices":[3,0,10,10,15,13,0,9,0,0,0,0,6,0,0],"split_type":[0,0,0,0,0,0,0,0,0,0,0,0,0,0,0],"sum_hessian":[2.0116978E1,4.358675E0,1.5758303E1,5.397894E0,1.0360409E1,2.9409292E0,2.4569645E0,8.466618E0,1.8937911E0,1.8471268E0,1.0938025E0,1.2443353E0,7.2222824E0,2.0073485E0,5.214934E0],"tree_param":{"num_deleted":"0","num_feature":"17","num_nodes":"15","size_leaf_vector":"1"}},{"base_weights":[-8.629145E-2,8.429667E-1,-4.0241387E-1,4.9971514E-3,2.8962E-2,3.4548897E-1,-1.1876206E0,2.8680611E-2,-2.0610146E-1,-2.1830175E0,-4.0260486E-2,-7.0661825E-1,1.45275E-2,-8.698697E-3,-8.186231E-2,6.396022E-1,-3.6815193E-2,7.1322895E-3,-3.8275883E-2,4.7259144E-3,2.3215665E-2],"categories":[],"categories_nodes":[],"categories_segments":[],"categories_sizes":[],"default_left":[0,0,0,0,0,0,0,0,0,0,0,0,0,0,0,0,0,0,0,0,0],"id":4,"left_children":[1,3,5,-1,-1,7,9,-1,11,13,15,17,-1,-1,-1,19,-1,-1,-1,-1,-1],"loss_changes":[6.5960064E0,3.136778E-1,1.014085E1,0E0,0E0,3.315786E0,9.401053E0,0E0,2.307561E0,3.7854557E0,4.721478E0,2.2944856E0,0E0,0E0,0E0,1.2138307E-1,0E0,0E0,0E0,0E0,0E0],"parents":[2147483647,0,0,1,1,2,2,5,5,6,6,8,8,9,9,10,10,11,11,15,15],"right_children":[2,4,6,-1,-1,8,10,-1,12,14,16,18,-1,-1,-1,20,-1,-1,-1,-1,-1],"split_conditions":[-2.1523407E-2,-1.6544303E-2,5.57811E-1,4.9971514E-3,2.8962E-2,3.501897E-1,2.456928E-3,2.8680611E-2,4.8068887E-1,-1.0808127E-3,9.2359185E-1,-4.503915E-3,1.45275E-2,-8.698697E-3,-8.186231E-2,8.57054E-1,-3.6815193E-2,7.1322895E-3,-3.8275883E-2,4.7259144E-3,2.3215665E-2],"split_indices":[2,5,15,0,0,3,6,0,3,6,14,5,0,0,0,15,0,0,0,0,0],"split_type":[0,0,0,0,0,0,0,0,0,0,0,0,0,0,0,0,0,0,0,0,0],"sum_hessian":[2.0299019E1,4.7295833E0,1.5569436E1,1.086671E0,3.6429121E0,8.260952E0,7.308484E0,3.5729747E0,4.6879773E0,3.4300697E0,3.8784142E0,2.7039812E0,1.9839963E0,1.1102079E0,2.319862E0,2.7591157E0,1.1192985E0,1.2359413E0,1.4680398E0,1.07444E0,1.6846757E0],"tree_param":{"num_deleted":"0","num_feature":"17","num_nodes":"21","size_leaf_vector":"1"}},{"base_weights":[-6.1149593E-2,8.404101E-1,-3.529081E-1,4.685661E-3,2.8885918E-2,2.708824E-1,-9.7179353E-1,5.328958E-1,-4.5671827E-1,-2.0340347E0,5.278016E-1,-9.6265115E-2,2.8686067E-2,-2.5877528E-2,4.673105E-3,-1.9620713E-2,-7.508714E-2,2.6187936E-2,-8.373712E-3,2.0739287E-2,-2.2739375E-2],"categories":[],"categories_nodes":[],"categories_segments":[],"categories_sizes":[],"default_left":[0,0,0,0,0,0,0,0,0,0,0,0,0,0,0,0,0,0,0,0,0],"id":5,"left_children":[1,3,5,-1,-1,7,9,11,13,15,17,19,-1,-1,-1,-1,-1,-1,-1,-1,-1],"loss_changes":[6.198823E0,3.340478E-1,7.079765E0,0E0,0E0,2.0688882E0,1.5539414E1,2.0900009E0,8.9846486E-1,1.935915E0,1.5134317E0,2.56993E0,0E0,0E0,0E0,0E0,0E0,0E0,0E0,0E0,0E0],"parents":[2147483647,0,0,1,1,2,2,5,5,6,6,7,7,8,8,9,9,10,10,11,11],"right_children":[2,4,6,-1,-1,8,10,12,14,16,18,20,-1,-1,-1,-1,-1,-1,-1,-1,-1],"split_conditions":[-2.1523407E-2,-7.287503E-2,2.1269223E-4,4.685661E-3,2.8885918E-2,6.8329585E-1,3.1879792E-1,-1.312002E0,2.4464359E-3,5.468639E-1,9.1476876E-1,-5.6751482E-2,2.8686067E-2,-2.5877528E-2,4.673105E-3,-1.9620713E-2,-7.508714E-2,2.6187936E-2,-8.373712E-3,2.0739287E-2,-2.2739375E-2],"split_indices":[2,13,11,0,0,15,16,16,6,15,15,12,0,0,0,0,0,0,0,0,0],"split_type":[0,0,0,0,0,0,0,0,0,0,0,0,0,0,0,0,0,0,0,0,0],"sum_hessian":[2.1438742E1,4.781863E0,1.665688E1,1.0713109E0,3.7105522E0,8.575609E0,8.081271E0,6.501851E0,2.0737574E0,4.521832E0,3.5594387E0,2.9258075E0,3.5760438E0,1.0016716E0,1.072086E0,1.7540579E0,2.7677743E0,2.4358172E0,1.1236215E0,1.31544E0,1.6103674E0],"tree_param":{"num_deleted":"0","num_feature":"17","num_nodes":"21","size_leaf_vector":"1"}},{"base_weights":[2.0524617E-1,7.621722E-1,-4.275315E-1,-1.0543593E-2,9.101206E-1,-4.9945395E-2,-4.598568E-2,-9.2781265E-4,3.243718E-2,6.0585934E-1,-7.794287E-1,-7.834096E-3,2.7553538E-2,-3.979104E-2,1.9101E-3],"categories":[],"categories_nodes":[],"categories_segments":[],"categories_sizes":[],"default_left":[0,0,0,0,0,0,0,0,0,0,0,0,0,0,0],"id":6,"left_children":[1,3,5,-1,7,9,-1,-1,-1,11,13,-1,-1,-1,-1],"loss_changes":[7.5629144E0,2.1786685E0,4.2029743E0,0E0,1.6819887E0,4.623149E0,0E0,0E0,0E0,1.6306255E0,2.1802416E0,0E0,0E0,0E0,0E0],"parents":[2147483647,0,0,1,1,2,2,4,4,5,5,9,9,10,10],"right_children":[2,4,6,-1,8,10,-1,-1,-1,12,14,-1,-1,-1,-1],"split_conditions":[2.1269223E-4,-4.0015627E-2,1.6441394E-2,-1.0543593E-2,-1.53098E-2,8.593507E-1,-4.598568E-2,-9.2781265E-4,3.243718E-2,1.4283647E-2,1.5244626E-2,-7.834096E-3,2.7553538E-2,-3.979104E-2,1.9101E-3],"split_indices":[11,0,9,0,5,15,0,0,0,9,9,0,0,0,0],"split_type":[0,0,0,0,0,0,0,0,0,0,0,0,0,0,0],"sum_hessian":[1.9535892E1,1.0281956E1,9.253936E0,1.0444841E0,9.237472E0,7.6767077E0,1.5772278E0,1.5473372E0,7.690135E0,4.131743E0,3.5449648E0,1.1385375E0,2.9932055E0,1.8024585E0,1.7425061E0],"tree_param":{"num_deleted":"0","num_feature":"17","num_nodes":"15","size_leaf_vector":"1"}},{"base_weights":[3.776612E-2,8.0962074E-1,-4.1458923E-1,3.102505E-2,-8.39759E-3,-1.3273199E0,1.9520298E-1,-4.0399083E-3,-6.0278017E-2,2.6847228E-2,-2.8324908E-1,-3.1340145E-2,1.4165543E-1,6.293224E-1,-2.321602E-2,4.9692118E-3,2.2810549E-2],"categories":[],"categories_nodes":[],"categories_segments":[],"categories_sizes":[],"default_left":[0,0,0,0,0,0,0,0,0,0,0,0,0,0,0,0,0],"id":7,"left_children":[1,3,5,-1,-1,7,9,-1,-1,-1,11,-1,13,15,-1,-1,-1],"loss_changes":[7.3796906E0,2.1961575E0,7.706806E0,0E0,0E0,4.1926594E0,3.230867E0,0E0,0E0,0E0,2.1026084E0,0E0,2.6114225E0,9.618211E-2,0E0,0E0,0E0],"parents":[2147483647,0,0,1,1,2,2,5,5,6,6,10,10,12,12,13,13],"right_children":[2,4,6,-1,-1,8,10,-1,-1,-1,12,-1,14,16,-1,-1,-1],"split_conditions":[-1.0642077E-2,8.527093E-1,-1.9443421E-1,3.102505E-2,-8.39759E-3,-1.7259724E-2,7.6542003E-4,-4.0399083E-3,-6.0278017E-2,2.6847228E-2,6.549431E-1,-3.1340145E-2,5.4211188E-2,3.0924885E-3,-2.321602E-2,4.9692118E-3,2.2810549E-2],"split_indices":[4,14,16,0,0,11,6,0,0,0,14,0,12,6,0,0,0],"split_type":[0,0,0,0,0,0,0,0,0,0,0,0,0,0,0,0,0],"sum_hessian":[1.917465E1,6.7933526E0,1.2381297E1,5.674661E0,1.1186914E0,4.4876113E0,7.8936853E0,2.0681314E0,2.4194798E0,2.8521624E0,5.041523E0,1.2832879E0,3.7582352E0,2.656056E0,1.1021794E0,1.0840398E0,1.572016E0],"tree_param":{"num_deleted":"0","num_feature":"17","num_nodes":"17","size_leaf_vector":"1"}},{"base_weights":[-4.390856E-2,5.008701E-1,-8.4133965E-1,-3.3738363E-1,7.1868163E-1,2.0823667E-2,-1.2123871E0,2.030919E-2,-3.9191503E-2,-1.2547807E-1,9.481032E-1,-1.7947961E0,5.630664E-3,-1.0453727E-2,4.676206E-3,3.1284515E-2,4.7508897E-3,-2.2278156E0,-6.289802E-3,-2.0601345E-2,-7.862214E-2],"categories":[],"categories_nodes":[],"categories_segments":[],"categories_sizes":[],"default_left":[0,0,0,0,0,0,0,0,0,0,0,0,0,0,0,0,0,0,0,0,0],"id":8,"left_children":[1,3,5,7,9,-1,11,-1,-1,13,15,17,-1,-1,-1,-1,-1,19,-1,-1,-1],"loss_changes":[9.293306E0,2.5722208E0,5.7766476E0,4.1400514E0,2.142374E0,0E0,6.3223677E0,0E0,0E0,2.4978629E-1,4.58086E-1,3.1561546E0,0E0,0E0,0E0,0E0,0E0,6.479759E-1,0E0,0E0,0E0],"parents":[2147483647,0,0,1,1,2,2,3,3,4,4,6,6,9,9,10,10,11,11,17,17],"right_children":[2,4,6,8,10,-1,12,-1,-1,14,16,18,-1,-1,-1,-1,-1,20,-1,-1,-1],"split_conditions":[6.6268456E-1,-4.221577E-2,-2.1587428E-2,-6.6904515E-2,-1.5841533E0,2.0823667E-2,4.789536E-3,2.030919E-2,-3.9191503E-2,4.1500937E-2,5.039251E-1,6.308154E-1,5.630664E-3,-1.0453727E-2,4.676206E-3,3.1284515E-2,4.7508897E-3,7.315017E-1,-6.289802E-3,-2.0601345E-2,-7.862214E-2],"split_indices":[15,10,2,10,16,0,6,0,0,7,7,16,0,0,0,0,0,14,0,0,0],"split_type":[0,0,0,0,0,0,0,0,0,0,0,0,0,0,0,0,0,0,0,0,0],"sum_hessian":[1.9422253E1,1.1760061E1,7.6621914E0,2.3122673E0,9.447794E0,1.3217673E0,6.340424E0,1.2769331E0,1.0353341E0,2.1157885E0,7.3320055E0,4.278648E0,2.0617762E0,1.0472772E0,1.0685111E0,6.2606997E0,1.0713058E0,3.0421634E0,1.2364843E0,1.1762857E0,1.8658776E0],"tree_param":{"num_deleted":"0","num_feature":"17","num_nodes":"21","size_leaf_vector":"1"}},{"base_weights":[5.8610287E-2,2.8391754E-2,-1.8268804E-1,-5.842795E-1,4.9220023E-1,8.802614E-2,-1.3793625E0,8.385949E-1,-1.8256765E-2,-2.0097394E-2,4.5081335E-1,-1.8348602E0,-2.4870082E-3,3.9300043E-3,2.891985E-2,2.7418494E-2,-1.5257923E-2,-1.7537879E-2,-6.641807E-2],"categories":[],"categories_nodes":[],"categories_segments":[],"categories_sizes":[],"default_left":[0,0,0,0,0,0,0,0,0,0,0,0,0,0,0,0,0,0,0],"id":9,"left_children":[1,-1,3,5,7,9,11,13,-1,-1,15,17,-1,-1,-1,-1,-1,-1,-1],"loss_changes":[4.749411E0,0E0,5.0674934E0,6.2761173E0,3.2259727E0,2.2759438E0,2.998581E0,3.9172363E-1,0E0,0E0,2.8876605E0,5.5452824E-1,0E0,0E0,0E0,0E0,0E0,0E0,0E0],"parents":[2147483647,0,0,2,2,3,3,4,4,5,5,6,6,7,7,10,10,11,11],"right_children":[2,-1,4,6,8,10,12,14,-1,-1,16,18,-1,-1,-1,-1,-1,-1,-1],"split_conditions":[3.2209197E-1,2.8391754E-2,3.1879792E-1,-2.4279661E-2,9.236439E-1,1.4976237E-2,-3.712847E-3,1.4437001E-2,-1.8256765E-2,-2.0097394E-2,-6.9035776E-3,-3.8417358E-2,-2.4870082E-3,3.9300043E-3,2.891985E-2,2.7418494E-2,-1.5257923E-2,-1.7537879E-2,-6.641807E-2],"split_indices":[3,0,16,1,14,9,10,9,0,0,5,10,0,0,0,0,0,0,0],"split_type":[0,0,0,0,0,0,0,0,0,0,0,0,0,0,0,0,0,0,0],"sum_hessian":[2.036361E1,3.7274702E0,1.6636139E1,1.0514034E1,6.122105E0,6.1787224E0,4.335312E0,4.8378596E0,1.2842455E0,1.726055E0,4.4526677E0,2.9008484E0,1.4344634E0,1.0361023E0,3.8017573E0,3.034977E0,1.4176905E0,1.2663484E0,1.6345E0],"tree_param":{"num_deleted":"0","num_feature":"17","num_nodes":"19","size_leaf_vector":"1"}},{"base_weights":[-1.696991E-1,5.8866364E-1,-5.8593076E-1,3.0195987E-2,-4.021297E-1,-1.3334428E0,7.138177E-2,-4.0423434E-2,1.9723633E-2,-1.8518606E0,1.9774992E-2,2.5120508E-2,-3.3285183E-1,-2.1686897E0,-8.335387E-3,-3.993572E-2,9.765299E-2,-7.702498E-2,-1.7988935E-2,6.7749536E-1,-2.686223E-2,4.441199E-3,2.4445508E-2],"categories":[],"categories_nodes":[],"categories_segments":[],"categories_sizes":[],"default_left":[0,0,0,0,0,0,0,0,0,0,0,0,0,0,0,0,0,0,0,0,0,0,0],"id":10,"left_children":[1,3,5,-1,7,9,11,-1,-1,13,-1,-1,15,17,-1,-1,19,-1,-1,21,-1,-1,-1],"loss_changes":[7.3138924E0,3.8504107E0,7.345268E0,0E0,4.074425E0,8.405066E0,3.0036528E0,0E0,0E0,2.2806244E0,0E0,0E0,2.9133575E0,1.3800945E0,0E0,0E0,3.7486093E0,0E0,0E0,1.713016E-1,0E0,0E0,0E0],"parents":[2147483647,0,0,1,1,2,2,4,4,5,5,6,6,9,9,12,12,13,13,16,16,19,19],"right_children":[2,4,6,-1,8,10,12,-1,-1,14,-1,-1,16,18,-1,-1,20,-1,-1,22,-1,-1,-1],"split_conditions":[-1.3190018E-2,-1.6244486E-3,-1.6964269E-1,3.0195987E-2,-3.7311518E-3,5.5075534E-2,7.6542003E-4,-4.0423434E-2,1.9723633E-2,8.656904E-2,1.9774992E-2,2.5120508E-2,3.501337E-2,0E0,-8.335387E-3,-3.993572E-2,3.9873184E-3,-7.702498E-2,-1.7988935E-2,1.7754852E-3,-2.686223E-2,4.441199E-3,2.4445508E-2],"split_indices":[11,5,16,0,12,10,6,0,0,8,0,0,8,12,0,0,5,0,0,6,0,0,0],"split_type":[0,0,0,0,0,0,0,0,0,0,0,0,0,0,0,0,0,0,0,0,0,0,0],"sum_hessian":[2.1077858E1,7.322391E0,1.3755466E1,5.139085E0,2.1833062E0,5.954843E0,7.8006234E0,1.0102901E0,1.1730161E0,4.7814794E0,1.1733636E0,2.3245192E0,5.4761043E0,3.6657934E0,1.1156858E0,1.0195681E0,4.4565363E0,2.4155095E0,1.2502841E0,3.0142837E0,1.4422524E0,1.0489064E0,1.9653772E0],"tree_param":{"num_deleted":"0","num_feature":"17","num_nodes":"23","size_leaf_vector":"1"}},{"base_weights":[1.73063E-1,4.420914E-1,-6.180634E-1,7.765004E-1,-9.8631464E-2,-1.1525117E0,1.1600481E-2,3.1041462E-2,3.4335595E-2,-3.7100766E-2,3.3327663E-1,-6.3191295E-2,9.05244E-3,-2.063834E-2,2.0584274E-2,2.540523E-2,-2.4153788E-1,-2.3643587E-2,9.585973E-3],"categories":[],"categories_nodes":[],"categories_segments":[],"categories_sizes":[],"default_left":[0,0,0,0,0,0,0,0,0,0,0,0,0,0,0,0,0,0,0],"id":11,"left_children":[1,3,5,7,9,11,-1,-1,13,-1,15,-1,-1,-1,-1,-1,17,-1,-1],"loss_changes":[4.5061493E0,2.8656452E0,3.3796854E0,1.812438E0,3.7454174E0,5.931679E0,0E0,0E0,2.1307735E0,0E0,1.8882208E0,0E0,0E0,0E0,0E0,0E0,1.3157644E0,0E0,0E0],"parents":[2147483647,0,0,1,1,2,2,3,3,4,4,5,5,8,8,10,10,16,16],"right_children":[2,4,6,8,10,12,-1,-1,14,-1,16,-1,-1,-1,-1,-1,18,-1,-1],"split_conditions":[1.7693032E-3,7.4116063E-1,1.1558282E-2,-1.0196542E-2,3.7427792E-1,5.9493645E-3,1.1600481E-2,3.1041462E-2,-3.7534557E-2,-3.7100766E-2,-1.0201644E-2,-6.3191295E-2,9.05244E-3,-2.063834E-2,2.0584274E-2,2.540523E-2,-5.8350493E-3,-2.3643587E-2,9.585973E-3],"split_indices":[5,14,11,12,3,5,0,0,10,0,5,0,0,0,0,0,1,0,0],"split_type":[0,0,0,0,0,0,0,0,0,0,0,0,0,0,0,0,0,0,0],"sum_hessian":[1.8888174E1,1.4424279E1,4.463896E0,8.642995E0,5.781285E0,2.8179133E0,1.6459825E0,6.1196513E0,2.5233436E0,1.0778553E0,4.703429E0,1.4309313E0,1.386982E0,1.1706644E0,1.352679E0,2.2341235E0,2.4693058E0,1.0458202E0,1.4234855E0],"tree_param":{"num_deleted":"0","num_feature":"17","num_nodes":"19","size_leaf_vector":"1"}},{"base_weights":[-7.981662E-3,7.859844E-1,-2.595499E-1,3.372059E-3,2.7533375E-2,2.507934E-2,-5.004206E-1,-1.0419191E0,2.9493746E-1,-1.5293437E-1,-6.415646E-2,7.230993E-1,-3.9929548E-1,4.778181E-1,-3.4834594E-2,5.0568385E-3,2.5572186E-2,-2.4305882E-2,5.5920947E-3,2.5111323E-2,-9.3873115E-3],"categories":[],"categories_nodes":[],"categories_segments":[],"categories_sizes":[],"default_left":[0,0,0,0,0,0,0,0,0,0,0,0,0,0,0,0,0,0,0,0,0],"id":12,"left_children":[1,3,5,-1,-1,-1,7,9,11,13,-1,15,17,19,-1,-1,-1,-1,-1,-1,-1],"loss_changes":[4.3854375E0,3.6604953E-1,4.811779E0,0E0,0E0,0E0,6.454918E0,8.167041E0,2.238987E0,4.2998805E0,0E0,1.7282581E-1,9.0842444E-1,1.4921792E0,0E0,0E0,0E0,0E0,0E0,0E0,0E0],"parents":[2147483647,0,0,1,1,2,2,6,6,7,7,8,8,9,9,11,11,12,12,13,13],"right_children":[2,4,6,-1,-1,-1,8,10,12,14,-1,16,18,20,-1,-1,-1,-1,-1,-1,-1],"split_conditions":[-2.1523407E-2,-1.6364988E-2,3.05772E-1,3.372059E-3,2.7533375E-2,2.507934E-2,4.8068887E-1,6.21521E-1,1.6039725E-2,-2.0616646E-3,-6.415646E-2,5.6666095E-2,4.809557E-1,1.7232632E-2,-3.4834594E-2,5.0568385E-3,2.5572186E-2,-2.4305882E-2,5.5920947E-3,2.5111323E-2,-9.3873115E-3],"split_indices":[2,5,3,0,0,0,3,15,9,4,0,8,14,9,0,0,0,0,0,0,0],"split_type":[0,0,0,0,0,0,0,0,0,0,0,0,0,0,0,0,0,0,0,0,0],"sum_hessian":[1.9934746E1,4.2853994E0,1.5649345E1,1.0044861E0,3.2809134E0,2.3753102E0,1.3274035E1,7.712906E0,5.5611296E0,4.889048E0,2.8238578E0,3.4139974E0,2.1471324E0,3.331133E0,1.5579153E0,1.0811245E0,2.3328729E0,1.0366001E0,1.1105322E0,2.2502682E0,1.0808645E0],"tree_param":{"num_deleted":"0","num_feature":"17","num_nodes":"21","size_leaf_vector":"1"}},{"base_weights":[7.8334674E-2,7.8583986E-1,-3.3343732E-1,3.0509736E-2,-1.02675585E-2,1.5665582E-1,-1.2234205E0,-2.6680296E-2,4.5406094E-1,-4.9049556E-2,4.190792E-3,7.313014E-1,-1.4225242E-2,2.0695454E-1,2.8000984E-2,-1.0420019E-2,1.903607E-2],"categories":[],"categories_nodes":[],"categories_segments":[],"categories_sizes":[],"default_left":[0,0,0,0,0,0,0,0,0,0,0,0,0,0,0,0,0],"id":13,"left_children":[1,3,5,-1,-1,7,9,-1,11,-1,-1,13,-1,15,-1,-1,-1],"loss_changes":[6.074106E0,2.3395863E0,5.998332E0,0E0,0E0,3.3502927E0,2.9443173E0,0E0,2.4149823E0,0E0,0E0,5.041897E-1,0E0,9.588376E-1,0E0,0E0,0E0],"parents":[2147483647,0,0,1,1,2,2,5,5,6,6,8,8,11,11,13,13],"right_children":[2,4,6,-1,-1,8,10,-1,12,-1,-1,14,-1,16,-1,-1,-1],"split_conditions":[-1.3190018E-2,1.7701136E-2,1.5791042E-2,3.0509736E-2,-1.02675585E-2,-1.7868404E-3,8.656904E-2,-2.6680296E-2,9.372241E-1,-4.9049556E-2,4.190792E-3,4.4069305E-1,-1.4225242E-2,-3.712847E-3,2.8000984E-2,-1.0420019E-2,1.903607E-2],"split_indices":[11,9,9,0,0,11,8,0,14,0,0,7,0,10,0,0,0],"split_type":[0,0,0,0,0,0,0,0,0,0,0,0,0,0,0,0,0],"sum_hessian":[1.8950098E1,6.6373653E0,1.2312732E1,5.5903597E0,1.0470058E0,8.471598E0,3.841134E0,1.4348314E0,7.036766E0,2.7971437E0,1.0439904E0,5.5817876E0,1.4549788E0,2.1157448E0,3.4660428E0,1.003086E0,1.1126587E0],"tree_param":{"num_deleted":"0","num_feature":"17","num_nodes":"17","size_leaf_vector":"1"}},{"base_weights":[-1.20281726E-1,4.5752993E-1,-7.217764E-1,6.5199983E-1,-1.318862E-2,-1.3142722E0,-1.8255933E-1,-5.659058E-2,3.0096916E-2,-5.444718E-3,-5.032373E-2,5.876409E-1,-8.320027E-1,-2.6463686E-2,2.1949248E-2,2.1616796E-2,4.124275E-3,4.885127E-3,-3.798113E-2],"categories":[],"categories_nodes":[],"categories_segments":[],"categories_sizes":[],"default_left":[0,0,0,0,0,0,0,0,0,0,0,0,0,0,0,0,0,0,0],"id":14,"left_children":[1,3,5,7,-1,9,11,13,-1,-1,-1,15,17,-1,-1,-1,-1,-1,-1],"loss_changes":[7.246489E0,2.1642392E0,2.999041E0,2.358247E0,0E0,1.616478E0,3.7247348E0,3.2555528E0,0E0,0E0,0E0,1.1308396E-1,1.9003425E0,0E0,0E0,0E0,0E0,0E0,0E0],"parents":[2147483647,0,0,1,1,2,2,3,3,5,5,6,6,7,7,11,11,12,12],"right_children":[2,4,6,8,-1,10,12,14,-1,-1,-1,16,18,-1,-1,-1,-1,-1,-1],"split_conditions":[-2.0329019E-2,1.6926972E-2,-3.2013995E-4,-1.53098E-2,-1.318862E-2,5.468639E-1,3.9646686E-3,1.4976237E-2,3.0096916E-2,-5.444718E-3,-5.032373E-2,8.9851284E-1,-2.369032E-3,-2.6463686E-2,2.1949248E-2,2.1616796E-2,4.124275E-3,4.885127E-3,-3.798113E-2],"split_indices":[1,9,4,5,0,15,5,9,0,0,0,15,11,0,0,0,0,0,0],"split_type":[0,0,0,0,0,0,0,0,0,0,0,0,0,0,0,0,0,0,0],"sum_hessian":[1.8899992E1,9.7618475E0,9.138144E0,8.247371E0,1.5144775E0,3.6691182E0,5.4690256E0,3.0112345E0,5.236136E0,1.2548716E0,2.4142466E0,2.5454452E0,2.9235802E0,1.4126358E0,1.5985988E0,1.5014569E0,1.0439885E0,1.0778643E0,1.845716E0],"tree_param":{"num_deleted":"0","num_feature":"17","num_nodes":"19","size_leaf_vector":"1"}},{"base_weights":[-9.192732E-2,4.6200192E-1,-5.299359E-1,-1.7411426E-2,6.990455E-1,2.3047987E-2,-8.552422E-1,2.6434576E-3,2.9647306E-2,-1.2125988E0,2.4310358E-1,8.937016E-3,-1.0586206E-2,-5.7794977E-2,2.6703018E-1,2.0064022E-2,-9.786036E-3,2.0639757E-2,-9.96786E-3],"categories":[],"categories_nodes":[],"categories_segments":[],"categories_sizes":[],"default_left":[0,0,0,0,0,0,0,0,0,0,0,0,0,0,0,0,0,0,0],"id":15,"left_children":[1,3,5,-1,7,-1,9,11,-1,13,15,-1,-1,-1,17,-1,-1,-1,-1],"loss_changes":[5.168515E0,2.7518673E0,5.6395864E0,0E0,1.6467519E0,0E0,4.1834407E0,4.626131E-1,0E0,8.586989E0,1.0094736E0,0E0,0E0,0E0,1.0776355E0,0E0,0E0,0E0,0E0],"parents":[2147483647,0,0,1,1,2,2,4,4,6,6,7,7,9,9,10,10,14,14],"right_children":[2,4,6,-1,8,-1,10,12,-1,14,16,-1,-1,-1,18,-1,-1,-1,-1],"split_conditions":[-1.4619058E-2,4.6052583E-2,2.9666185E-1,-1.7411426E-2,-1.53098E-2,2.3047987E-2,8.857766E-3,-2.1779366E-2,2.9647306E-2,8.930748E-2,8.534778E-2,8.937016E-3,-1.0586206E-2,-5.7794977E-2,9.804592E-2,2.0064022E-2,-9.786036E-3,2.0639757E-2,-9.96786E-3],"split_indices":[2,8,3,0,5,0,0,12,0,8,8,0,0,0,8,0,0,0,0],"split_type":[0,0,0,0,0,0,0,0,0,0,0,0,0,0,0,0,0,0,0],"sum_hessian":[1.9293327E1,8.495139E0,1.0798189E1,1.3055698E0,7.189569E0,1.890818E0,8.907371E0,2.4056928E0,4.7838764E0,6.642237E0,2.2651336E0,1.4027619E0,1.002931E0,4.2767496E0,2.3654873E0,1.1960332E0,1.0691005E0,1.302537E0,1.0629505E0],"tree_param":{"num_deleted":"0","num_feature":"17","num_nodes":"19","size_leaf_vector":"1"}},{"base_weights":[1.4229909E-2,6.821565E-1,-2.7382258E-1,2.8397534E-2,-8.358634E-3,4.1964404E-2,-4.782557E-2,3.0242178E-1,-3.0107062E-2,-1.7059462E-1,2.8820379E-2,4.5186532E-1,-4.1165646E-2,-7.846979E-3,2.6279975E-2],"categories":[],"categories_nodes":[],"categories_segments":[],"categories_sizes":[],"default_left":[0,0,0,0,0,0,0,0,0,0,0,0,0,0,0],"id":16,"left_children":[1,3,5,-1,-1,7,-1,9,-1,11,-1,13,-1,-1,-1],"loss_changes":[3.9417102E0,1.8305199E0,6.0499196E0,0E0,0E0,3.7222226E0,0E0,3.5325372E0,0E0,5.9636817E0,0E0,1.8808709E0,0E0,0E0,0E0],"parents":[2147483647,0,0,1,1,2,2,5,5,7,7,9,9,11,11],"right_children":[2,4,6,-1,-1,8,-1,10,-1,12,-1,14,-1,-1,-1],"split_conditions":[3.501897E-1,6.8329585E-1,1.7095836E-2,2.8397534E-2,-8.358634E-3,9.5362437E-1,-4.782557E-2,7.045126E-1,-3.0107062E-2,5.8581525E-1,2.8820379E-2,7.663095E-2,-4.1165646E-2,-7.846979E-3,2.6279975E-2],"split_indices":[3,15,9,0,0,14,0,15,0,15,0,8,0,0,0],"split_type":[0,0,0,0,0,0,0,0,0,0,0,0,0,0,0],"sum_hessian":[1.8516428E1,5.167058E0,1.334937E1,4.0634704E0,1.1035875E0,1.1554206E1,1.7951647E0,9.81892E0,1.7352858E0,6.1444364E0,3.6744833E0,4.458665E0,1.6857715E0,1.8052931E0,2.653372E0],"tree_param":{"num_deleted":"0","num_feature":"17","num_nodes":"15","size_leaf_vector":"1"}},{"base_weights":[-7.803367E-2,4.9641424E-1,-5.7666343E-1,6.2694126E-1,-8.944684E-3,2.5022162E-2,-1.0269986E0,8.091205E-2,2.9311944E-2,-1.486097E0,7.240922E-2,5.764692E-1,-2.5235647E-2,4.997828E-3,-1.845506E0,2.2499645E-2,-2.5025394E-2,2.0878358E-2,4.846438E-3,-6.609108E-2,-7.974039E-3],"categories":[],"categories_nodes":[],"categories_segments":[],"categories_sizes":[],"default_left":[0,0,0,0,0,0,0,0,0,0,0,0,0,0,0,0,0,0,0,0,0],"id":17,"left_children":[1,3,5,7,-1,-1,9,11,-1,13,15,17,-1,-1,19,-1,-1,-1,-1,-1,-1],"loss_changes":[6.1224837E0,1.2245955E0,8.080018E0,1.625449E0,0E0,0E0,4.6840115E0,2.5748706E0,0E0,4.1342363E0,2.8520644E0,6.446123E-2,0E0,0E0,2.4499054E0,0E0,0E0,0E0,0E0,0E0,0E0],"parents":[2147483647,0,0,1,1,2,2,3,3,6,6,7,7,9,9,10,10,11,11,14,14],"right_children":[2,4,6,8,-1,-1,10,12,-1,14,16,18,-1,-1,20,-1,-1,-1,-1,-1,-1],"split_conditions":[5.57811E-1,1.786111E-2,-2.207657E-2,7.663095E-2,-8.944684E-3,2.5022162E-2,4.789536E-3,6.6961795E-2,2.9311944E-2,-7.13968E-4,9.5362437E-1,-6.75429E-5,-2.5235647E-2,4.997828E-3,8.120155E-3,2.2499645E-2,-2.5025394E-2,2.0878358E-2,4.846438E-3,-6.609108E-2,-7.974039E-3],"split_indices":[15,9,2,8,0,0,6,8,0,6,14,6,0,0,13,0,0,0,0,0,0],"split_type":[0,0,0,0,0,0,0,0,0,0,0,0,0,0,0,0,0,0,0,0,0],"sum_hessian":[1.9375244E1,9.005209E0,1.0370034E1,7.915817E0,1.089392E0,2.303112E0,8.066922E0,3.5736647E0,4.342152E0,5.4424863E0,2.6244361E0,2.5682569E0,1.0054079E0,1.0679849E0,4.374501E0,1.6007682E0,1.023668E0,1.4681967E0,1.10006E0,3.245393E0,1.1291081E0],"tree_param":{"num_deleted":"0","num_feature":"17","num_nodes":"21","size_leaf_vector":"1"}},{"base_weights":[1.0370323E-1,6.303883E-1,-2.873754E-1,8.741384E-1,-4.5250896E-3,2.2331242E-2,-5.274114E-1,3.7358236E-3,2.9443318E-2,-9.4954515E-1,4.136238E-1,1.10640675E-1,-1.545609E0,2.3843141E-2,-9.438312E-3,-9.517276E-3,1.8496891E-2,-6.0903933E-2,-1.5216718E-2],"categories":[],"categories_nodes":[],"categories_segments":[],"categories_sizes":[],"default_left":[0,0,0,0,0,0,0,0,0,0,0,0,0,0,0,0,0,0,0],"id":18,"left_children":[1,3,5,7,-1,-1,9,-1,-1,11,13,15,17,-1,-1,-1,-1,-1,-1],"loss_changes":[4.342329E0,1.8307626E0,3.4339545E0,4.366002E-1,0E0,0E0,4.582877E0,0E0,0E0,4.964279E0,1.3500283E0,9.885412E-1,1.4466639E0,0E0,0E0,0E0,0E0,0E0,0E0],"parents":[2147483647,0,0,1,1,2,2,3,3,6,6,9,9,10,10,11,11,12,12],"right_children":[2,4,6,8,-1,-1,10,-1,-1,12,14,16,18,-1,-1,-1,-1,-1,-1],"split_conditions":[-1.4619058E-2,8.593507E-1,3.05772E-1,-7.500871E-2,-4.5250896E-3,2.2331242E-2,4.170698E-3,3.7358236E-3,2.9443318E-2,-2.0139452E-2,6.753014E-3,-6.034781E-3,0E0,2.3843141E-2,-9.438312E-3,-9.517276E-3,1.8496891E-2,-6.0903933E-2,-1.5216718E-2],"split_indices":[2,15,3,13,0,0,4,0,0,12,2,2,12,0,0,0,0,0,0],"split_type":[0,0,0,0,0,0,0,0,0,0,0,0,0,0,0,0,0,0,0],"sum_hessian":[1.9202284E1,7.921748E0,1.1280536E1,5.947221E0,1.9745276E0,1.7325207E0,9.548015E0,1.0152712E0,4.9319496E0,6.5850296E0,2.9629853E0,2.6629567E0,3.922073E0,1.8850229E0,1.0779623E0,1.6448063E0,1.0181504E0,2.023023E0,1.89905E0],"tree_param":{"num_deleted":"0","num_feature":"17","num_nodes":"19","size_leaf_vector":"1"}},{"base_weights":[1.4035892E-2,2.8463164E-2,-2.9530326E-1,2.4562968E-2,-5.616559E-1,-1.0234298E0,5.134016E-1,-2.143152E-1,-5.234384E-2,-9.949266E-3,2.5869854E-2,5.262122E-1,-8.523194E-1,3.6627345E-3,1.9664017E-2,-4.0943045E-2,4.3542227E-3],"categories":[],"categories_nodes":[],"categories_segments":[],"categories_sizes":[],"default_left":[0,0,0,0,0,0,0,0,0,0,0,0,0,0,0,0,0],"id":19,"left_children":[1,-1,3,-1,5,7,9,11,-1,-1,-1,13,15,-1,-1,-1,-1],"loss_changes":[5.9049845E0,0E0,5.0232215E0,0E0,6.981242E0,5.1306295E0,1.634485E0,3.0872688E0,0E0,0E0,0E0,8.729029E-2,1.9267805E0,0E0,0E0,0E0,0E0],"parents":[2147483647,0,0,2,2,4,4,5,5,6,6,7,7,11,11,12,12],"right_children":[2,-1,4,-1,6,8,10,12,-1,-1,-1,14,16,-1,-1,-1,-1],"split_conditions":[-2.1523407E-2,2.8463164E-2,3.0732778E-1,2.4562968E-2,3.1879792E-1,5.57811E-1,1.5108446E-2,-2.6138055E-3,-5.234384E-2,-9.949266E-3,2.5869854E-2,-6.839906E-2,8.473965E-2,3.6627345E-3,1.9664017E-2,-4.0943045E-2,4.3542227E-3],"split_indices":[2,0,3,0,16,15,9,5,0,0,0,13,8,0,0,0,0],"split_type":[0,0,0,0,0,0,0,0,0,0,0,0,0,0,0,0,0],"sum_hessian":[1.8452875E1,4.0743217E0,1.4378553E1,2.3741677E0,1.2004386E1,8.431005E0,3.5733807E0,4.585172E0,3.8458328E0,1.058764E0,2.5146167E0,2.2031784E0,2.3819935E0,1.005141E0,1.1980374E0,1.3303026E0,1.051691E0],"tree_param":{"num_deleted":"0","num_feature":"17","num_nodes":"17","size_leaf_vector":"1"}},{"base_weights":[-1.2748493E-1,4.5081452E-1,-5.7716084E-1,6.58931E-1,-9.352339E-3,1.8100185E-2,-7.5172424E-1,8.8078985E-3,2.8718928E-2,1.8337736E-2,-9.558461E-1,-1.8880619E-2,1.9222882E-2,-1.645075E0,-2.4960841E-1,-5.8456484E-2,-9.554269E-3,-3.0114226E-2,2.6452E-1,2.2080353E-2,-7.2224657E-3],"categories":[],"categories_nodes":[],"categories_segments":[],"categories_sizes":[],"default_left":[0,0,0,0,0,0,0,0,0,0,0,0,0,0,0,0,0,0,0,0,0],"id":20,"left_children":[1,3,5,7,-1,-1,9,11,-1,-1,13,-1,-1,15,17,-1,-1,-1,19,-1,-1],"loss_changes":[5.5007644E0,1.6935391E0,2.8801477E0,1.4827714E0,0E0,0E0,3.5622172E0,1.7855725E0,0E0,0E0,4.3107624E0,0E0,0E0,1.2837048E0,2.5802612E0,0E0,0E0,0E0,1.2113972E0,0E0,0E0],"parents":[2147483647,0,0,1,1,2,2,3,3,6,6,7,7,10,10,13,13,14,14,18,18],"right_children":[2,4,6,8,-1,-1,10,12,-1,-1,14,-1,-1,16,18,-1,-1,-1,20,-1,-1],"split_conditions":[-2.0329019E-2,1.6926972E-2,3.05772E-1,-1.5375325E-2,-9.352339E-3,1.8100185E-2,1.3170056E-1,1.4976237E-2,2.8718928E-2,1.8337736E-2,1.1558282E-2,-1.8880619E-2,1.9222882E-2,3.571523E-2,-5.2282107E-3,-5.8456484E-2,-9.554269E-3,-3.0114226E-2,1.725582E-2,2.2080353E-2,-7.2224657E-3],"split_indices":[1,9,3,5,0,0,14,9,0,0,11,0,0,12,4,0,0,0,1,0,0],"split_type":[0,0,0,0,0,0,0,0,0,0,0,0,0,0,0,0,0,0,0,0,0],"sum_hessian":[1.9152376E1,8.376878E0,1.0775499E1,6.6876025E0,1.6892749E0,1.0717075E0,9.703792E0,2.4275773E0,4.2600255E0,1.0041578E0,8.699635E0,1.2099046E0,1.2176727E0,3.7300584E0,4.969576E0,2.6540778E0,1.0759808E0,1.6283814E0,3.3411944E0,1.4921348E0,1.8490595E0],"tree_param":{"num_deleted":"0","num_feature":"17","num_nodes":"21","size_leaf_vector":"1"}},{"base_weights":[-5.2726245E-3,5.971534E-1,-3.2080963E-1,8.146336E-1,-8.524081E-3,-1.1037384E0,3.2568538E-1,3.8633295E-3,2.7952528E-2,6.295393E-3,-1.4416621E0,6.6251504E-1,-3.883804E-1,-5.4908562E-2,-3.974854E-3,2.8074311E-2,-9.093716E-3,5.2738246E-3,-2.3520028E-2],"categories":[],"categories_nodes":[],"categories_segments":[],"categories_sizes":[],"default_left":[0,0,0,0,0,0,0,0,0,0,0,0,0,0,0,0,0,0,0],"id":21,"left_children":[1,3,5,7,-1,9,11,-1,-1,-1,13,15,17,-1,-1,-1,-1,-1,-1],"loss_changes":[3.7900298E0,1.5456188E0,6.976966E0,3.4253025E-1,0E0,3.0284104E0,2.1653543E0,0E0,0E0,0E0,2.3071728E0,1.8037434E0,8.4605694E-1,0E0,0E0,0E0,0E0,0E0,0E0],"parents":[2147483647,0,0,1,1,2,2,3,3,5,5,6,6,10,10,11,11,12,12],"right_children":[2,4,6,8,-1,10,12,-1,-1,-1,14,16,18,-1,-1,-1,-1,-1,-1],"split_conditions":[-1.3190018E-2,1.6968168E-2,-1.6964269E-1,1.3754763E-2,-8.524081E-3,5.534184E-2,1.9334905E-2,3.8633295E-3,2.7952528E-2,6.295393E-3,1.527122E-2,1.5791042E-2,8.034616E-1,-5.4908562E-2,-3.974854E-3,2.8074311E-2,-9.093716E-3,5.2738246E-3,-2.3520028E-2],"split_indices":[11,9,16,9,0,8,10,0,0,0,11,9,14,0,0,0,0,0,0],"split_type":[0,0,0,0,0,0,0,0,0,0,0,0,0,0,0,0,0,0,0],"sum_hessian":[1.7930508E1,5.8565784E0,1.207393E1,4.758046E0,1.0985322E0,5.1408772E0,6.933053E0,1.0002135E0,3.7578325E0,1.1294531E0,4.011424E0,4.759947E0,2.1731062E0,2.786272E0,1.2251519E0,3.7340305E0,1.0259162E0,1.1247731E0,1.0483329E0],"tree_param":{"num_deleted":"0","num_feature":"17","num_nodes":"19","size_leaf_vector":"1"}},{"base_weights":[2.8001165E-2,5.116584E-1,-4.2116585E-1,7.4502176E-1,-2.3400942E-2,-1.1410077E0,2.5048316E-4,2.5808603E-1,2.956536E-2,-9.268648E-3,-4.701954E-2,5.366298E-1,-1.0059612E0,2.444196E-2,-2.3447152E-2,-2.0148395E-2,2.8586088E-2,-9.00448E-3,-3.6228646E-2],"categories":[],"categories_nodes":[],"categories_segments":[],"categories_sizes":[],"default_left":[0,0,0,0,0,0,0,0,0,0,0,0,0,0,0,0,0,0,0],"id":22,"left_children":[1,3,5,7,-1,9,11,13,-1,-1,-1,15,17,-1,-1,-1,-1,-1,-1],"loss_changes":[4.6239142E0,3.6625836E0,3.3583899E0,8.1947327E-1,0E0,9.6578693E-1,4.8478494E0,3.1752684E0,0E0,0E0,0E0,3.5864272E0,8.209348E-2,0E0,0E0,0E0,0E0,0E0,0E0],"parents":[2147483647,0,0,1,1,2,2,3,3,5,5,6,6,7,7,11,11,12,12],"right_children":[2,4,6,8,-1,10,12,14,-1,-1,-1,16,18,-1,-1,-1,-1,-1,-1],"split_conditions":[5.57811E-1,1.8499522E-2,7.0862603E-1,7.663095E-2,-2.3400942E-2,6.978801E-2,9.236439E-1,5.6878686E-2,2.956536E-2,-9.268648E-3,-4.701954E-2,7.90186E-4,-1.3936473E-2,2.444196E-2,-2.3447152E-2,-2.0148395E-2,2.8586088E-2,-9.00448E-3,-3.6228646E-2],"split_indices":[15,9,15,8,0,8,14,8,0,0,0,6,1,0,0,0,0,0,0],"split_type":[0,0,0,0,0,0,0,0,0,0,0,0,0,0,0,0,0,0,0],"sum_hessian":[1.9292595E1,9.222645E0,1.0069951E1,8.169855E0,1.0527892E0,3.0878644E0,6.9820867E0,3.3863888E0,4.783467E0,1.6304148E0,1.4574496E0,4.8587337E0,2.1233528E0,2.3464274E0,1.0399612E0,1.0877463E0,3.7709875E0,1.0248313E0,1.0985215E0],"tree_param":{"num_deleted":"0","num_feature":"17","num_nodes":"19","size_leaf_vector":"1"}},{"base_weights":[-6.8023525E-2,4.295645E-1,-4.1177905E-1,7.197984E-1,-3.1335068E-1,2.186107E-2,-6.518973E-1,2.7252646E-2,2.205317E-1,-2.2916261E-2,7.5968443E-3,-1.062272E0,2.4400425E-1,-1.0456503E-2,1.9636426E-2,5.2035578E-2,-1.594863E0,2.4790216E-2,-2.4199897E-2,1.8225262E-2,-1.30279055E-2,-5.392217E-2,-1.5969846E-2],"categories":[],"categories_nodes":[],"categories_segments":[],"categories_sizes":[],"default_left":[0,0,0,0,0,0,0,0,0,0,0,0,0,0,0,0,0,0,0,0,0,0,0],"id":23,"left_children":[1,3,5,7,9,-1,11,-1,13,-1,-1,15,17,-1,-1,19,21,-1,-1,-1,-1,-1,-1],"loss_changes":[3.745748E0,2.1691995E0,3.9941072E0,4.386549E-1,1.017664E0,0E0,4.3560467E0,0E0,1.0138563E0,0E0,0E0,4.72943E0,3.3060048E0,0E0,0E0,1.2093453E0,1.9002914E-1,0E0,0E0,0E0,0E0,0E0,0E0],"parents":[2147483647,0,0,1,1,2,2,3,3,4,4,6,6,8,8,11,11,12,12,15,15,16,16],"right_children":[2,4,6,8,10,-1,12,-1,14,-1,-1,16,18,-1,-1,20,22,-1,-1,-1,-1,-1,-1],"split_conditions":[-1.4307354E-2,8.593507E-1,3.05772E-1,3.64022E-1,-2.0859335E-2,2.186107E-2,3.1879792E-1,2.7252646E-2,5.8611536E-1,-2.2916261E-2,7.5968443E-3,-3.3355267E-3,3.7934627E-2,-1.0456503E-2,1.9636426E-2,-2.2685791E-4,4.8068887E-1,2.4790216E-2,-2.4199897E-2,1.8225262E-2,-1.30279055E-2,-5.392217E-2,-1.5969846E-2],"split_indices":[2,15,3,7,2,0,16,0,14,0,0,6,0,0,0,5,3,0,0,0,0,0,0],"split_type":[0,0,0,0,0,0,0,0,0,0,0,0,0,0,0,0,0,0,0,0,0,0,0],"sum_hessian":[1.9864605E1,8.014275E0,1.185033E1,5.7852674E0,2.2290077E0,1.7071543E0,1.0143176E1,3.604118E0,2.181149E0,1.047693E0,1.1813148E0,6.829273E0,3.3139029E0,1.0289317E0,1.1522174E0,2.5003157E0,4.3289576E0,2.2695212E0,1.0443815E0,1.0507975E0,1.4495182E0,3.054989E0,1.2739687E0],"tree_param":{"num_deleted":"0","num_feature":"17","num_nodes":"23","size_leaf_vector":"1"}},{"base_weights":[-2.1013839E-3,5.6150246E-1,-3.5900068E-1,2.897746E-2,-3.4832457E-1,-9.2814463E-1,2.3162773E-1,-2.3572735E-2,6.5581994E-3,-1.4706143E0,1.733676E-2,6.3883793E-1,-2.0975182E-2,-1.2750411E-2,-5.6077175E-2,-1.5025986E-2,1.8270178E-2,3.145633E-3,2.6201999E-2],"categories":[],"categories_nodes":[],"categories_segments":[],"categories_sizes":[],"default_left":[0,0,0,0,0,0,0,0,0,0,0,0,0,0,0,0,0,0,0],"id":24,"left_children":[1,3,5,-1,7,9,11,-1,-1,13,15,17,-1,-1,-1,-1,-1,-1,-1],"loss_changes":[4.1700745E0,3.2945125E0,4.480646E0,0E0,9.675399E-1,3.4424448E0,3.11033E0,0E0,0E0,9.7483635E-1,1.3527532E0,5.8620405E-1,0E0,0E0,0E0,0E0,0E0,0E0,0E0],"parents":[2147483647,0,0,1,1,2,2,4,4,5,5,6,6,9,9,10,10,11,11],"right_children":[2,4,6,-1,8,10,12,-1,-1,14,16,18,-1,-1,-1,-1,-1,-1,-1],"split_conditions":[-5.8505894E-3,-1.6489202E-3,1.1558282E-2,2.897746E-2,-6.200923E-4,-2.13548E-3,9.5362437E-1,-2.3572735E-2,6.5581994E-3,-8.546838E-3,1.4660073E-2,-7.740414E-3,-2.0975182E-2,-1.2750411E-2,-5.6077175E-2,-1.5025986E-2,1.8270178E-2,3.145633E-3,2.6201999E-2],"split_indices":[11,5,11,0,2,10,14,0,0,2,9,4,0,0,0,0,0,0,0],"split_type":[0,0,0,0,0,0,0,0,0,0,0,0,0,0,0,0,0,0,0],"sum_hessian":[1.8729052E1,7.0393915E0,1.168966E1,4.8305793E0,2.208812E0,5.662084E0,6.0275755E0,1.0289271E0,1.1798849E0,3.2449067E0,2.4171777E0,4.4113493E0,1.6162261E0,1.465934E0,1.7789727E0,1.3704033E0,1.0467743E0,1.78799E0,2.6233594E0],"tree_param":{"num_deleted":"0","num_feature":"17","num_nodes":"19","size_leaf_vector":"1"}},{"base_weights":[-4.005498E-2,5.349535E-1,-3.800157E-1,2.879892E-2,-4.2567927E-1,-5.9615195E-1,2.218291E-2,-2.4187433E-2,4.698433E-3,1.27610285E-2,-8.354729E-1,1.3479675E-1,-1.2346678E0,1.928287E-2,-9.864166E-3,-6.416059E-2,1.1152904E-1,2.2967955E-2,-2.4539992E-2],"categories":[],"categories_nodes":[],"categories_segments":[],"categories_sizes":[],"default_left":[0,0,0,0,0,0,0,0,0,0,0,0,0,0,0,0,0,0,0],"id":25,"left_children":[1,3,5,-1,7,9,-1,-1,-1,-1,11,13,15,-1,-1,-1,17,-1,-1],"loss_changes":[4.064928E0,3.5749395E0,3.5860474E0,0E0,8.0692565E-1,3.1544132E0,0E0,0E0,0E0,0E0,3.8899922E0,1.0835843E0,8.647441E0,0E0,0E0,0E0,2.8917983E0,0E0,0E0],"parents":[2147483647,0,0,1,1,2,2,4,4,5,5,10,10,11,11,12,12,16,16],"right_children":[2,4,6,-1,8,10,-1,-1,-1,-1,12,14,16,-1,-1,-1,18,-1,-1],"split_conditions":[-5.8505894E-3,-1.6244486E-3,1.6875784E0,2.879892E-2,3.427544E-3,-2.3253184E-2,2.218291E-2,-2.4187433E-2,4.698433E-3,1.27610285E-2,5.468639E-1,-5.304972E-4,6.8570834E-1,1.928287E-2,-9.864166E-3,-6.416059E-2,9.142472E-1,2.2967955E-2,-2.4539992E-2],"split_indices":[11,5,16,0,2,2,0,0,0,0,15,1,7,0,0,0,7,0,0],"split_type":[0,0,0,0,0,0,0,0,0,0,0,0,0,0,0,0,0,0,0],"sum_hessian":[1.8754612E1,6.755243E0,1.199937E1,4.683728E0,2.0715146E0,1.044933E1,1.5500388E0,1.0201625E0,1.0513523E0,1.8358362E0,8.613494E0,2.7038755E0,5.909619E0,1.1058031E0,1.5980723E0,3.1832597E0,2.7263591E0,1.7038157E0,1.0225434E0],"tree_param":{"num_deleted":"0","num_feature":"17","num_nodes":"19","size_leaf_vector":"1"}},{"base_weights":[-5.9204668E-2,1.201523E-1,-4.1184384E-2,8.079476E-1,-2.000955E-1,2.7835852E-2,4.55159E-3,-1.0501193E0,3.017263E-1,-4.2203974E-2,4.7989334E-3,7.559596E-1,-2.7309588E-1,3.5377129E-3,2.6606463E-2,-8.0037385E-1,1.9601988E-2,-6.0235397E-3,-3.1026185E-2],"categories":[],"categories_nodes":[],"categories_segments":[],"categories_sizes":[],"default_left":[0,0,0,0,0,0,0,0,0,0,0,0,0,0,0,0,0,0,0],"id":26,"left_children":[1,3,-1,5,7,-1,-1,9,11,-1,-1,13,15,-1,-1,17,-1,-1,-1],"loss_changes":[4.550617E0,3.9717638E0,0E0,3.0728245E-1,5.6931796E0,0E0,0E0,2.3407698E0,2.4785678E0,0E0,0E0,3.2362795E-1,2.7583084E0,0E0,0E0,2.6421428E-1,0E0,0E0,0E0],"parents":[2147483647,0,0,1,1,3,3,4,4,7,7,8,8,11,11,12,12,15,15],"right_children":[2,4,-1,6,8,-1,-1,10,12,-1,-1,14,16,-1,-1,18,-1,-1,-1],"split_conditions":[9.5362437E-1,6.605491E-2,-4.1184384E-2,-5.3249034E-3,7.692565E-2,2.7835852E-2,4.55159E-3,-1.9443421E-1,-9.3084876E-4,-4.2203974E-2,4.7989334E-3,-6.0935444E-3,3.3940847E-3,3.5377129E-3,2.6606463E-2,1.5949456E-2,1.9601988E-2,-6.0235397E-3,-3.1026185E-2],"split_indices":[14,8,0,1,8,0,0,16,6,0,0,6,6,0,0,9,0,0,0],"split_type":[0,0,0,0,0,0,0,0,0,0,0,0,0,0,0,0,0,0,0],"sum_hessian":[1.7614521E1,1.6297792E1,1.3167293E0,4.6938787E0,1.1603912E1,3.618694E0,1.075185E0,3.9019241E0,7.7019887E0,2.8880806E0,1.0138434E0,4.1262465E0,3.5757422E0,1.026148E0,3.1000986E0,2.3655891E0,1.2101531E0,1.1851965E0,1.1803926E0],"tree_param":{"num_deleted":"0","num_feature":"17","num_nodes":"19","size_leaf_vector":"1"}},{"base_weights":[-1.7212987E-2,4.3617746E-1,-3.6329827E-1,7.795783E-1,-2.2846382E-2,-9.67459E-1,2.1769108E-2,2.9607153E-2,-7.063696E-3,-4.7937974E-2,2.9976112E-3,3.3038467E-1,-4.96521E-1,2.296952E-2,-7.080139E-2,-2.8464261E-2,6.291823E-3,-1.4931501E-2,1.0405129E-2],"categories":[],"categories_nodes":[],"categories_segments":[],"categories_sizes":[],"default_left":[0,0,0,0,0,0,0,0,0,0,0,0,0,0,0,0,0,0,0],"id":27,"left_children":[1,3,5,7,-1,9,11,-1,-1,-1,-1,13,15,-1,17,-1,-1,-1,-1],"loss_changes":[3.3016822E0,4.347193E0,2.7908545E0,1.8289342E0,0E0,3.2932491E0,1.483543E0,0E0,0E0,0E0,0E0,1.0619555E0,1.3100677E0,0E0,8.712669E-1,0E0,0E0,0E0,0E0],"parents":[2147483647,0,0,1,1,2,2,3,3,5,5,6,6,11,11,12,12,14,14],"right_children":[2,4,6,8,-1,10,12,-1,-1,-1,-1,14,16,-1,18,-1,-1,-1,-1],"split_conditions":[-4.3721608E-4,1.786111E-2,-1.6964269E-1,3.427544E-3,-2.2846382E-2,-9.116483E-3,2.3459671E-2,2.9607153E-2,-7.063696E-3,-4.7937974E-2,2.9976112E-3,-5.1404643E-3,3.551284E-3,2.296952E-2,-1.1093728E-3,-2.8464261E-2,6.291823E-3,-1.4931501E-2,1.0405129E-2],"split_indices":[6,9,16,2,0,12,11,0,0,0,0,4,4,0,2,0,0,0,0],"split_type":[0,0,0,0,0,0,0,0,0,0,0,0,0,0,0,0,0,0,0],"sum_hessian":[1.9031767E1,8.1259775E0,1.0905789E1,6.5866327E0,1.5393451E0,3.6564586E0,7.2493305E0,5.4924755E0,1.0941571E0,1.9862003E0,1.6702584E0,4.7709937E0,2.4783366E0,1.8525766E0,2.9184172E0,1.3014364E0,1.1769003E0,1.3483647E0,1.5700525E0],"tree_param":{"num_deleted":"0","num_feature":"17","num_nodes":"19","size_leaf_vector":"1"}},{"base_weights":[-1.6228545E-2,4.928131E-1,-3.8313589E-1,7.1729136E-1,-8.564723E-3,2.961119E-1,-7.0946366E-1,2.739121E-2,4.2171776E-3,2.322485E-2,-1.0236306E-2,-1.1342752E0,2.6123556E-1,-1.7760691E-1,-5.4444592E-2,2.0600412E-2,-1.0295313E-2,-2.128924E-2,1.0135162E-2],"categories":[],"categories_nodes":[],"categories_segments":[],"categories_sizes":[],"default_left":[0,0,0,0,0,0,0,0,0,0,0,0,0,0,0,0,0,0,0],"id":28,"left_children":[1,3,5,7,-1,9,11,-1,-1,-1,-1,13,15,17,-1,-1,-1,-1,-1],"loss_changes":[3.7914646E0,1.6928034E0,2.8194585E0,6.500561E-1,0E0,1.6430346E0,3.6968012E0,0E0,0E0,0E0,0E0,3.5340261E0,1.0901664E0,1.2189289E0,0E0,0E0,0E0,0E0,0E0],"parents":[2147483647,0,0,1,1,2,2,3,3,5,5,6,6,11,11,12,12,13,13],"right_children":[2,4,6,8,-1,10,12,-1,-1,-1,-1,14,16,18,-1,-1,-1,-1,-1],"split_conditions":[-1.4619058E-2,8.727931E-1,-1.4054533E-2,-1.1093925E-2,-8.564723E-3,4.3037478E-2,6.8570834E-1,2.739121E-2,4.2171776E-3,2.322485E-2,-1.0236306E-2,5.468639E-1,9.099424E-2,-3.0797091E-3,-5.4444592E-2,2.0600412E-2,-1.0295313E-2,-2.128924E-2,1.0135162E-2],"split_indices":[2,15,11,12,0,10,7,0,0,0,0,15,8,12,0,0,0,0,0],"split_type":[0,0,0,0,0,0,0,0,0,0,0,0,0,0,0,0,0,0,0],"sum_hessian":[1.8289116E1,7.516996E0,1.07721195E1,5.8951187E0,1.6218773E0,3.5257993E0,7.2463207E0,3.9658663E0,1.9292524E0,1.8919524E0,1.633847E0,4.9232306E0,2.3230898E0,2.5706058E0,2.3526247E0,1.2835146E0,1.0395753E0,1.0795546E0,1.4910513E0],"tree_param":{"num_deleted":"0","num_feature":"17","num_nodes":"19","size_leaf_vector":"1"}},{"base_weights":[-1.3478824E-1,5.1620805E-1,-3.8608944E-1,2.7645385E-2,-2.261597E-2,2.1155875E-2,-5.4701114E-1,-1.0557375E0,2.5560195E-2,-1.3456601E0,-3.9593162E-4,-2.3024732E-2,2.7537116E-1,-6.3629216E-3,-4.739252E-2,6.24205E-1,-2.2676893E-2,-2.0880585E-3,2.6602544E-2],"categories":[],"categories_nodes":[],"categories_segments":[],"categories_sizes":[],"default_left":[0,0,0,0,0,0,0,0,0,0,0,0,0,0,0,0,0,0,0],"id":29,"left_children":[1,3,5,-1,-1,-1,7,9,11,13,-1,-1,15,-1,-1,17,-1,-1,-1],"loss_changes":[3.5249238E0,3.8294048E0,3.0618362E0,0E0,0E0,0E0,4.0593514E0,2.2050562E0,1.6950959E0,1.1891584E0,0E0,0E0,2.7854452E0,0E0,0E0,1.0368874E0,0E0,0E0,0E0],"parents":[2147483647,0,0,1,1,2,2,6,6,7,7,8,8,9,9,12,12,15,15],"right_children":[2,4,6,-1,-1,-1,8,10,12,14,-1,-1,16,-1,-1,18,-1,-1,-1],"split_conditions":[3.501897E-1,6.504564E-1,-7.331666E-2,2.7645385E-2,-2.261597E-2,2.1155875E-2,-3.712847E-3,3.1879792E-1,-1.312002E0,3.038343E-1,-3.9593162E-4,-2.3024732E-2,8.8133913E-1,-6.3629216E-3,-4.739252E-2,2.0555366E-2,-2.2676893E-2,-2.0880585E-3,2.6602544E-2],"split_indices":[3,14,10,0,0,0,10,16,16,14,0,0,7,0,0,10,0,0,0],"split_type":[0,0,0,0,0,0,0,0,0,0,0,0,0,0,0,0,0,0,0],"sum_hessian":[1.932824E1,5.0895667E0,1.4238673E1,4.0663557E0,1.0232106E0,1.3951669E0,1.2843507E1,6.3540854E0,6.489421E0,4.7440486E0,1.6100368E0,1.0580959E0,5.431325E0,1.1382458E0,3.605803E0,4.353457E0,1.077868E0,1.3968993E0,2.9565575E0],"tree_param":{"num_deleted":"0","num_feature":"17","num_nodes":"19","size_leaf_vector":"1"}},{"base_weights":[-3.661164E-2,2.8917968E-1,-5.101536E-1,5.268948E-1,-2.5831815E-2,-4.4817172E-2,2.7095243E-1,8.684858E-1,-1.7603828E-1,2.6566962E-2,-2.170698E-2,3.3052103E-3,2.9295405E-2,-1.9132122E-2,1.1056429E-2],"categories":[],"categories_nodes":[],"categories_segments":[],"categories_sizes":[],"default_left":[0,0,0,0,0,0,0,0,0,0,0,0,0,0,0],"id":30,"left_children":[1,3,5,7,-1,-1,9,11,13,-1,-1,-1,-1,-1,-1],"loss_changes":[3.0642858E0,3.6907153E0,6.6039743E0,2.657628E0,0E0,0E0,3.9068847E0,4.812913E-1,1.3018365E0,0E0,0E0,0E0,0E0,0E0,0E0],"parents":[2147483647,0,0,1,1,2,2,3,3,6,6,7,7,8,8],"right_children":[2,4,6,8,-1,-1,10,12,14,-1,-1,-1,-1,-1,-1],"split_conditions":[7.4116063E-1,1.786111E-2,1.2154607E-3,4.6480128E-1,-2.5831815E-2,-4.4817172E-2,9.3769443E-1,-6.50378E-2,7.663095E-2,2.6566962E-2,-2.170698E-2,3.3052103E-3,2.9295405E-2,-1.9132122E-2,1.1056429E-2],"split_indices":[14,9,6,3,0,0,7,13,8,0,0,0,0,0,0],"split_type":[0,0,0,0,0,0,0,0,0,0,0,0,0,0,0],"sum_hessian":[1.7906132E1,1.0838616E1,7.0675144E0,9.431397E0,1.4072195E0,2.724116E0,4.3433986E0,6.1885486E0,3.2428482E0,2.7521327E0,1.591266E0,1.0235434E0,5.165005E0,1.6624095E0,1.5804387E0],"tree_param":{"num_deleted":"0","num_feature":"17","num_nodes":"15","size_leaf_vector":"1"}},{"base_weights":[-1.1320138E-1,4.698779E-1,-3.9072114E-1,8.090152E-1,-2.1469867E-2,5.5507886E-1,-6.3218105E-1,4.293082E-3,2.755336E-2,3.6353206E-3,2.0777829E-2,1.3884889E-1,-9.8176134E-1,5.7546294E-1,-2.016881E-2,-1.5930339E0,5.6813927E-3,2.0974185E-2,4.596522E-3,-8.529965E-3,-5.5652596E-2,2.38585E-2,-3.249941E-2],"categories":[],"categories_nodes":[],"categories_segments":[],"categories_sizes":[],"default_left":[0,0,0,0,0,0,0,0,0,0,0,0,0,0,0,0,0,0,0,0,0,0,0],"id":31,"left_children":[1,3,5,7,-1,9,11,-1,-1,-1,-1,13,15,17,-1,19,21,-1,-1,-1,-1,-1,-1],"loss_changes":[3.4784358E0,3.4014874E0,3.6261365E0,3.0054545E-1,0E0,1.2188053E-1,3.341751E0,0E0,0E0,0E0,0E0,2.011035E0,5.0227585E0,7.6704025E-2,0E0,1.2332296E0,4.449287E0,0E0,0E0,0E0,0E0,0E0,0E0],"parents":[2147483647,0,0,1,1,2,2,3,3,5,5,6,6,11,11,12,12,13,13,15,15,16,16],"right_children":[2,4,6,8,-1,10,12,-1,-1,-1,-1,14,16,18,-1,20,22,-1,-1,-1,-1,-1,-1],"split_conditions":[-1.4054533E-2,1.8355992E-2,-2.1587428E-2,1.3898576E-2,-2.1469867E-2,7.492087E-1,5.468639E-1,4.293082E-3,2.755336E-2,3.6353206E-3,2.0777829E-2,3.4569018E-3,6.8570834E-1,-5.304972E-4,-2.016881E-2,6.605491E-2,9.5362437E-1,2.0974185E-2,4.596522E-3,-8.529965E-3,-5.5652596E-2,2.38585E-2,-3.249941E-2],"split_indices":[11,9,2,9,0,14,15,0,0,0,0,2,7,1,0,8,14,0,0,0,0,0,0],"split_type":[0,0,0,0,0,0,0,0,0,0,0,0,0,0,0,0,0,0,0,0,0,0,0],"sum_hessian":[1.9361671E1,6.0200953E0,1.3341577E1,4.927986E0,1.0921091E0,2.4492002E0,1.0892376E1,1.0212302E0,3.9067562E0,1.0421387E0,1.4070616E0,3.5859847E0,7.3063912E0,2.5200622E0,1.0659225E0,4.133977E0,3.1724145E0,1.4419475E0,1.0781149E0,1.0375298E0,3.096447E0,1.9953483E0,1.1770661E0],"tree_param":{"num_deleted":"0","num_feature":"17","num_nodes":"23","size_leaf_vector":"1"}},{"base_weights":[-1.352923E-1,2.5867619E-2,-3.6980158E-1,4.3075904E-1,-6.9898957E-1,6.8305624E-1,-9.5791025E-3,-1.2300436E0,-1.67055E-1,4.4026524E-3,2.413242E-2,-4.3281015E-2,-5.4953764E-3,1.72116E-1,-2.797445E-2,-3.2757044E-1,5.9546673E-1,-2.3509175E-2,6.70399E-3,2.134055E-2,4.6616443E-3],"categories":[],"categories_nodes":[],"categories_segments":[],"categories_sizes":[],"default_left":[0,0,0,0,0,0,0,0,0,0,0,0,0,0,0,0,0,0,0,0,0],"id":32,"left_children":[1,-1,3,5,7,9,-1,11,13,-1,-1,-1,-1,15,-1,17,19,-1,-1,-1,-1],"loss_changes":[4.8203955E0,0E0,4.5914307E0,1.2328734E0,3.161058E0,1.6384172E-1,0E0,1.0283995E0,2.0065846E0,0E0,0E0,0E0,0E0,1.4160218E0,0E0,1.0025107E0,6.6908956E-2,0E0,0E0,0E0,0E0],"parents":[2147483647,0,0,2,2,3,3,4,4,5,5,7,7,8,8,13,13,15,15,16,16],"right_children":[2,-1,4,6,8,10,-1,12,14,-1,-1,-1,-1,16,-1,18,20,-1,-1,-1,-1],"split_conditions":[-2.1523407E-2,2.5867619E-2,-1.3190018E-2,6.9196686E-2,-1.6964269E-1,-3.2109715E-2,-9.5791025E-3,1.8207802E-2,9.236439E-1,4.4026524E-3,2.413242E-2,-4.3281015E-2,-5.4953764E-3,6.549431E-1,-2.797445E-2,-5.2343537E-3,-4.87836E-3,-2.3509175E-2,6.70399E-3,2.134055E-2,4.6616443E-3],"split_indices":[2,0,11,10,16,13,0,11,14,0,0,0,0,14,0,10,2,0,0,0,0],"split_type":[0,0,0,0,0,0,0,0,0,0,0,0,0,0,0,0,0,0,0,0,0],"sum_hessian":[1.8242756E1,2.9628136E0,1.52799425E1,4.3623886E0,1.0917554E1,3.33121E0,1.031179E0,4.8065567E0,6.110997E0,1.0223856E0,2.3088243E0,3.6807456E0,1.1258111E0,4.77172E0,1.339277E0,2.2923145E0,2.4794056E0,1.0232762E0,1.2690382E0,1.4746652E0,1.0047404E0],"tree_param":{"num_deleted":"0","num_feature":"17","num_nodes":"21","size_leaf_vector":"1"}},{"base_weights":[-9.355287E-2,2.4020238E-2,-2.7422473E-1,2.4173968E-1,-5.980568E-1,-1.5852535E-2,5.0739074E-1,-9.742041E-1,1.0703358E-1,-5.0199875E-3,2.6225192E-2,-4.375805E-2,1.1251515E-2,5.775399E-1,-2.065908E-2,4.994715E-3,2.0755349E-2],"categories":[],"categories_nodes":[],"categories_segments":[],"categories_sizes":[],"default_left":[0,0,0,0,0,0,0,0,0,0,0,0,0,0,0,0,0],"id":33,"left_children":[1,-1,3,5,7,-1,9,11,13,-1,-1,-1,-1,15,-1,-1,-1],"loss_changes":[3.3146265E0,0E0,2.9319067E0,1.7299058E0,2.8989193E0,0E0,1.5872349E0,5.102753E0,2.1073554E0,0E0,0E0,0E0,0E0,4.5203686E-2,0E0,0E0,0E0],"parents":[2147483647,0,0,2,2,3,3,4,4,6,6,7,7,8,8,13,13],"right_children":[2,-1,4,6,8,-1,10,12,14,-1,-1,-1,-1,16,-1,-1,-1],"split_conditions":[3.0732778E-1,2.4020238E-2,-1.4619058E-2,4.6052583E-2,-1.1093728E-3,-1.5852535E-2,-1.5375325E-2,8.656904E-2,4.8015445E-2,-5.0199875E-3,2.6225192E-2,-4.375805E-2,1.1251515E-2,2.2665733E-1,-2.065908E-2,4.994715E-3,2.0755349E-2],"split_indices":[3,0,2,8,2,0,5,8,12,0,0,0,0,14,0,0,0],"split_type":[0,0,0,0,0,0,0,0,0,0,0,0,0,0,0,0,0],"sum_hessian":[1.8157143E1,2.4750986E0,1.5682044E1,6.1448703E0,9.537173E0,1.3222756E0,4.8225946E0,5.970431E0,3.5667424E0,1.8898522E0,2.9327426E0,4.3335834E0,1.6368475E0,2.4136283E0,1.153114E0,1.0596379E0,1.3539904E0],"tree_param":{"num_deleted":"0","num_feature":"17","num_nodes":"17","size_leaf_vector":"1"}},{"base_weights":[5.3505725E-3,6.4325494E-1,-2.5973663E-1,2.7233666E-2,-9.1664065E-3,-7.304151E-1,2.0892914E-1,-1.035016E0,1.738367E-2,2.4718314E-2,-2.4292234E-1,8.369714E-3,-1.4231557E0,-3.1908516E-2,3.7887293E-1,-5.084701E-2,-1.5831877E-2,2.325389E-2,-9.988672E-3],"categories":[],"categories_nodes":[],"categories_segments":[],"categories_sizes":[],"default_left":[0,0,0,0,0,0,0,0,0,0,0,0,0,0,0,0,0,0,0],"id":34,"left_children":[1,3,5,-1,-1,7,9,11,-1,-1,13,-1,15,-1,17,-1,-1,-1,-1],"loss_changes":[3.3772175E0,1.7483222E0,3.2680244E0,0E0,0E0,3.4999177E0,2.3828115E0,3.5878897E0,0E0,0E0,3.1076012E0,0E0,3.206339E-1,0E0,1.316614E0,0E0,0E0,0E0,0E0],"parents":[2147483647,0,0,1,1,2,2,5,5,6,6,7,7,10,10,12,12,14,14],"right_children":[2,4,6,-1,-1,8,10,12,-1,-1,14,-1,16,-1,18,-1,-1,-1,-1],"split_conditions":[-1.3190018E-2,1.8355992E-2,-1.6964269E-1,2.7233666E-2,-9.1664065E-3,9.5881276E-2,5.0401527E-1,5.5434145E-2,1.738367E-2,2.4718314E-2,8.857766E-3,8.369714E-3,3.8253734E-1,-3.1908516E-2,8.440437E-3,-5.084701E-2,-1.5831877E-2,2.325389E-2,-9.988672E-3],"split_indices":[11,9,16,0,0,8,7,8,0,0,0,0,7,0,10,0,0,0,0],"split_type":[0,0,0,0,0,0,0,0,0,0,0,0,0,0,0,0,0,0,0],"sum_hessian":[1.7983652E1,4.860586E0,1.3123066E1,3.834673E0,1.025913E0,6.2688227E0,6.8542433E0,5.256334E0,1.0124886E0,2.5542169E0,4.3000264E0,1.262724E0,3.99361E0,1.5472648E0,2.7527618E0,2.3788369E0,1.6147732E0,1.7112342E0,1.0415275E0],"tree_param":{"num_deleted":"0","num_feature":"17","num_nodes":"19","size_leaf_vector":"1"}},{"base_weights":[2.3794122E-2,3.7445784E-1,-3.1326878E-1,-4.5030645E-1,7.307859E-1,2.2390507E-2,-6.2890553E-1,5.7080863E-3,-2.5173604E-2,2.0214653E-1,2.7663311E-2,-3.8455557E-2,-1.3099846E-1,1.8023154E-2,-9.62595E-3,2.6391596E-1,-2.2298494E-2,-1.2292751E-2,2.288634E-2],"categories":[],"categories_nodes":[],"categories_segments":[],"categories_sizes":[],"default_left":[0,0,0,0,0,0,0,0,0,0,0,0,0,0,0,0,0,0,0],"id":35,"left_children":[1,3,5,7,9,-1,11,-1,-1,13,-1,-1,15,-1,-1,17,-1,-1,-1],"loss_changes":[2.3218207E0,3.1494431E0,3.832196E0,1.0348785E0,5.299597E-1,0E0,2.5271034E0,0E0,0E0,8.521975E-1,0E0,0E0,1.6027243E0,0E0,0E0,1.749315E0,0E0,0E0,0E0],"parents":[2147483647,0,0,1,1,2,2,3,3,4,4,6,6,9,9,12,12,15,15],"right_children":[2,4,6,8,10,-1,12,-1,-1,14,-1,-1,16,-1,-1,18,-1,-1,-1],"split_conditions":[6.5325606E-1,-3.58454E-2,-2.1587428E-2,-4.997385E-2,-4.9809676E-2,2.2390507E-2,-7.430255E-3,5.7080863E-3,-2.5173604E-2,-1.4156797E-2,2.7663311E-2,-3.8455557E-2,9.5362437E-1,1.8023154E-2,-9.62595E-3,6.747927E-1,-2.2298494E-2,-1.2292751E-2,2.288634E-2],"split_indices":[15,10,2,10,12,0,4,0,0,4,0,0,14,0,0,7,0,0,0],"split_type":[0,0,0,0,0,0,0,0,0,0,0,0,0,0,0,0,0,0,0],"sum_hessian":[1.765139E1,8.596779E0,9.054611E0,2.5140245E0,6.082754E0,1.7649478E0,7.2896633E0,1.142455E0,1.3715696E0,2.1629565E0,3.9197977E0,2.472626E0,4.8170376E0,1.1430652E0,1.0198913E0,3.2741957E0,1.5428417E0,1.469256E0,1.8049396E0],"tree_param":{"num_deleted":"0","num_feature":"17","num_nodes":"19","size_leaf_vector":"1"}},{"base_weights":[-6.0006835E-2,4.8728123E-1,-3.7467748E-1,2.7651299E-2,-3.95911E-1,1.980496E-2,-5.457204E-1,-2.320413E-2,4.951536E-3,7.687853E-2,-9.1721886E-1,1.9943062E-2,-3.0582222E-1,-1.1560358E0,5.5747707E-3,-2.4419472E-2,9.604688E-3,4.57834E-3,-4.3649957E-2],"categories":[],"categories_nodes":[],"categories_segments":[],"categories_sizes":[],"default_left":[0,0,0,0,0,0,0,0,0,0,0,0,0,0,0,0,0,0,0],"id":36,"left_children":[1,3,5,-1,7,-1,9,-1,-1,11,13,-1,15,17,-1,-1,-1,-1,-1],"loss_changes":[3.4028325E0,3.150856E0,2.5618196E0,0E0,7.8286386E-1,0E0,2.665923E0,0E0,0E0,1.354349E0,2.0864987E0,0E0,1.4641998E0,2.5612912E0,0E0,0E0,0E0,0E0,0E0],"parents":[2147483647,0,0,1,1,2,2,4,4,6,6,9,9,10,10,12,12,13,13],"right_children":[2,4,6,-1,8,-1,10,-1,-1,12,14,-1,16,18,-1,-1,-1,-1,-1],"split_conditions":[-5.8505894E-3,-1.6244486E-3,-6.933133E-2,2.7651299E-2,-6.200923E-4,1.980496E-2,6.6268456E-1,-2.320413E-2,4.951536E-3,-2.0139452E-2,5.5216546E-3,1.9943062E-2,-3.0797091E-3,-2.1483954E-2,5.5747707E-3,-2.4419472E-2,9.604688E-3,4.57834E-3,-4.3649957E-2],"split_indices":[11,5,10,0,2,0,15,0,0,12,6,0,12,2,0,0,0,0,0],"split_type":[0,0,0,0,0,0,0,0,0,0,0,0,0,0,0,0,0,0,0],"sum_hessian":[1.7699009E1,6.2610283E0,1.1437981E1,4.1674914E0,2.093537E0,1.2167513E0,1.022123E1,1.0248946E0,1.0686424E0,4.1160865E0,6.105143E0,1.3323443E0,2.783742E0,4.9790936E0,1.1260495E0,1.3706955E0,1.4130465E0,1.0169852E0,3.9621081E0],"tree_param":{"num_deleted":"0","num_feature":"17","num_nodes":"19","size_leaf_vector":"1"}},{"base_weights":[1.3233556E-1,4.8501E-1,-3.4072322E-1,2.8062293E-2,5.342546E-2,-9.208542E-1,2.0548709E-1,-2.2816243E-2,5.4521596E-1,-7.388496E-3,-3.501394E-2,5.696299E-1,-1.1183721E-2,-1.286939E-3,2.468909E-2,3.7120085E-3,2.1095233E-2],"categories":[],"categories_nodes":[],"categories_segments":[],"categories_sizes":[],"default_left":[0,0,0,0,0,0,0,0,0,0,0,0,0,0,0,0,0],"id":37,"left_children":[1,3,5,-1,7,9,11,-1,13,-1,-1,15,-1,-1,-1,-1,-1],"loss_changes":[3.1315277E0,2.0102181E0,2.781604E0,0E0,3.0057547E0,4.0196872E-1,1.2718251E0,0E0,7.8956425E-1,0E0,0E0,1.2038553E-1,0E0,0E0,0E0,0E0,0E0],"parents":[2147483647,0,0,1,1,2,2,4,4,5,5,6,6,8,8,11,11],"right_children":[2,4,6,-1,8,10,12,-1,14,-1,-1,16,-1,-1,-1,-1,-1],"split_conditions":[-6.8173166E-3,-7.787006E-1,-1.6160142E-3,2.8062293E-2,-1.6964269E-1,-2.7063966E-3,9.458043E-3,-2.2816243E-2,6.8624985E-1,-7.388496E-3,-3.501394E-2,7.663095E-2,-1.1183721E-2,-1.286939E-3,2.468909E-2,3.7120085E-3,2.1095233E-2],"split_indices":[2,16,2,0,16,4,1,0,15,0,0,8,0,0,0,0,0],"split_type":[0,0,0,0,0,0,0,0,0,0,0,0,0,0,0,0,0],"sum_hessian":[1.6779604E1,9.598485E0,7.1811194E0,4.1256204E0,5.4728646E0,3.149807E0,4.0313125E0,1.855438E0,3.6174266E0,1.3773017E0,1.7725053E0,2.482826E0,1.5484866E0,1.4316386E0,2.185788E0,1.0162313E0,1.4665947E0],"tree_param":{"num_deleted":"0","num_feature":"17","num_nodes":"17","size_leaf_vector":"1"}},{"base_weights":[-1.4734833E-1,6.4851123E-1,-3.4656867E-1,2.3076214E-2,4.020212E-3,1.6814177E-1,-8.0166394E-1,4.577131E-1,-1.8385587E-2,-1.3019644E0,1.6868281E-1,7.456426E-1,-8.937813E-3,-4.4456893E-3,-4.6199147E-2,2.1688003E-2,-1.4557525E-2,3.8321184E-3,2.628968E-2],"categories":[],"categories_nodes":[],"categories_segments":[],"categories_sizes":[],"default_left":[0,0,0,0,0,0,0,0,0,0,0,0,0,0,0,0,0,0,0],"id":38,"left_children":[1,3,5,-1,-1,7,9,11,-1,13,15,17,-1,-1,-1,-1,-1,-1,-1],"loss_changes":[3.2859955E0,1.5858912E-1,3.9046426E0,0E0,0E0,2.1754231E0,4.4504128E0,1.6766047E0,0E0,1.3823309E0,1.7462242E0,3.019762E-1,0E0,0E0,0E0,0E0,0E0,0E0,0E0],"parents":[2147483647,0,0,1,1,2,2,5,5,6,6,7,7,9,9,10,10,11,11],"right_children":[2,4,6,-1,-1,8,10,12,-1,14,16,18,-1,-1,-1,-1,-1,-1,-1],"split_conditions":[-2.1523407E-2,-1.37640415E-2,5.8868796E-1,2.3076214E-2,4.020212E-3,1.786111E-2,8.857766E-3,3.427544E-3,-1.8385587E-2,-7.13968E-4,9.1592693E-1,1.2745194E-2,-8.937813E-3,-4.4456893E-3,-4.6199147E-2,2.1688003E-2,-1.4557525E-2,3.8321184E-3,2.628968E-2],"split_indices":[2,12,15,0,0,9,0,2,0,6,15,9,0,0,0,0,0,0,0],"split_type":[0,0,0,0,0,0,0,0,0,0,0,0,0,0,0,0,0,0,0],"sum_hessian":[1.8307564E1,3.2137606E0,1.5093803E1,2.2021255E0,1.011635E0,7.378872E0,7.714932E0,5.684975E0,1.6938965E0,4.864893E0,2.8500388E0,4.126024E0,1.5589514E0,1.109424E0,3.755469E0,1.4854823E0,1.3645566E0,1.0654849E0,3.060539E0],"tree_param":{"num_deleted":"0","num_feature":"17","num_nodes":"19","size_leaf_vector":"1"}},{"base_weights":[-5.9264723E-2,2.4890617E-2,-2.733069E-1,2.564076E-1,-6.6910714E-1,5.3980553E-1,-2.1334028E-2,-9.900108E-1,-2.7813997E-2,7.696016E-1,-9.161619E-3,-1.5341339E-4,-1.2467078E0,2.0853221E-2,-2.0575648E-2,5.589851E-3,2.6264306E-2,-4.3640006E-2,-1.2304335E-2],"categories":[],"categories_nodes":[],"categories_segments":[],"categories_sizes":[],"default_left":[0,0,0,0,0,0,0,0,0,0,0,0,0,0,0,0,0,0,0],"id":39,"left_children":[1,-1,3,5,7,9,-1,11,13,15,-1,-1,17,-1,-1,-1,-1,-1,-1],"loss_changes":[3.6411576E0,0E0,3.3614855E0,2.366217E0,1.8215351E0,1.4314733E0,0E0,1.500319E0,2.3917384E0,1.5351558E-1,0E0,0E0,2.2509432E-1,0E0,0E0,0E0,0E0,0E0,0E0],"parents":[2147483647,0,0,2,2,3,3,4,4,5,5,7,7,8,8,9,9,12,12],"right_children":[2,-1,4,6,8,10,-1,12,14,16,-1,-1,18,-1,-1,-1,-1,-1,-1],"split_conditions":[-2.1523407E-2,2.4890617E-2,5.57811E-1,1.7701136E-2,8.857766E-3,5.5043628E-3,-2.1334028E-2,-1.2764493E0,9.3769443E-1,-1.4733733E0,-9.161619E-3,-1.5341339E-4,7.807587E-1,2.0853221E-2,-2.0575648E-2,5.589851E-3,2.6264306E-2,-4.3640006E-2,-1.2304335E-2],"split_indices":[2,0,15,9,0,1,0,16,7,16,0,0,15,0,0,0,0,0,0],"split_type":[0,0,0,0,0,0,0,0,0,0,0,0,0,0,0,0,0,0,0],"sum_hessian":[1.6944712E1,2.7300584E0,1.4214654E1,6.229567E0,7.985087E0,5.160203E0,1.0693644E0,4.959551E0,3.025536E0,4.127445E0,1.0327574E0,1.2362436E0,3.7233071E0,1.414854E0,1.610682E0,1.0581151E0,3.0693302E0,2.3902588E0,1.3330483E0],"tree_param":{"num_deleted":"0","num_feature":"17","num_nodes":"19","size_leaf_vector":"1"}},{"base_weights":[-1.4423072E-1,4.2021525E-1,-4.1163453E-1,2.6455108E-2,-3.8739774E-1,4.702438E-1,-6.183358E-1,-3.6044825E-2,1.7929433E-2,3.1351813E-3,1.788049E-2,4.0913247E-2,-9.86357E-1,-1.5381086E-2,5.122321E-1,-4.487203E-2,-1.16435856E-1,1.9225832E-2,3.6161148E-3,2.009916E-2,-2.5053373E-2],"categories":[],"categories_nodes":[],"categories_segments":[],"categories_sizes":[],"default_left":[0,0,0,0,0,0,0,0,0,0,0,0,0,0,0,0,0,0,0,0,0],"id":40,"left_children":[1,3,5,-1,7,9,11,-1,-1,-1,-1,13,15,-1,17,-1,19,-1,-1,-1,-1],"loss_changes":[3.0098696E0,2.778608E0,2.7076354E0,0E0,3.1817424E0,7.964975E-2,2.7511435E0,0E0,0E0,0E0,0E0,1.5576044E0,3.0207877E0,0E0,8.3019495E-2,0E0,2.6772811E0,0E0,0E0,0E0,0E0],"parents":[2147483647,0,0,1,1,2,2,4,4,5,5,6,6,11,11,12,12,14,14,16,16],"right_children":[2,4,6,-1,8,10,12,-1,-1,-1,-1,14,16,-1,18,-1,20,-1,-1,-1,-1],"split_conditions":[-1.3557117E-2,-1.6244486E-3,-2.3253184E-2,2.6455108E-2,-2.5665401E-3,7.2459406E-1,5.8581525E-1,-3.6044825E-2,1.7929433E-2,3.1351813E-3,1.788049E-2,2.897873E-1,8.857766E-3,-1.5381086E-2,-5.304972E-4,-4.487203E-2,9.236439E-1,1.9225832E-2,3.6161148E-3,2.009916E-2,-2.5053373E-2],"split_indices":[11,5,2,0,2,15,15,0,0,0,0,15,0,0,1,0,14,0,0,0,0],"split_type":[0,0,0,0,0,0,0,0,0,0,0,0,0,0,0,0,0,0,0,0,0],"sum_hessian":[1.7795471E1,5.5367756E0,1.2258697E1,3.4645665E0,2.0722091E0,2.0856032E0,1.0173093E1,1.0142455E0,1.0579636E0,1.002197E0,1.0834063E0,3.9629512E0,6.210142E0,1.7819955E0,2.1809554E0,3.463007E0,2.7471352E0,1.1629353E0,1.0180203E0,1.3441148E0,1.4030203E0],"tree_param":{"num_deleted":"0","num_feature":"17","num_nodes":"21","size_leaf_vector":"1"}},{"base_weights":[4.5769513E-2,5.675709E-1,-2.9806542E-1,-1.931639E-1,2.8456988E-2,1.7865611E-2,-4.481695E-1,-2.413125E-2,1.7525846E-2,-8.6642903E-1,5.9483342E-2,2.0769443E-3,-3.7956953E-2,2.3882624E-2,-5.0522953E-1,2.592511E-3,-2.7886717E-2],"categories":[],"categories_nodes":[],"categories_segments":[],"categories_sizes":[],"default_left":[0,0,0,0,0,0,0,0,0,0,0,0,0,0,0,0,0],"id":41,"left_children":[1,3,5,7,-1,-1,9,-1,-1,11,13,-1,-1,-1,15,-1,-1],"loss_changes":[3.4868333E0,2.4118738E0,1.8499568E0,2.0838065E0,0E0,0E0,2.3182821E0,0E0,0E0,2.2956195E0,2.7974386E0,0E0,0E0,0E0,1.0521891E0,0E0,0E0],"parents":[2147483647,0,0,1,1,2,2,3,3,6,6,9,9,10,10,14,14],"right_children":[2,4,6,8,-1,-1,10,-1,-1,12,14,-1,-1,-1,16,-1,-1],"split_conditions":[-7.669993E-3,-1.53098E-2,3.05772E-1,1.4976237E-2,2.8456988E-2,1.7865611E-2,4.8068887E-1,-2.413125E-2,1.7525846E-2,-3.3355267E-3,8.534778E-2,2.0769443E-3,-3.7956953E-2,2.3882624E-2,2.2478763E-2,2.592511E-3,-2.7886717E-2],"split_indices":[5,5,3,9,0,0,3,0,0,6,8,0,0,0,1,0,0],"split_type":[0,0,0,0,0,0,0,0,0,0,0,0,0,0,0,0,0],"sum_hessian":[1.7491693E1,6.689321E0,1.0802373E1,2.3967412E0,4.2925797E0,1.1268328E0,9.67554E0,1.322304E0,1.074437E0,4.917354E0,4.758186E0,1.7165148E0,3.2008393E0,1.8870376E0,2.871148E0,1.5317497E0,1.3393984E0],"tree_param":{"num_deleted":"0","num_feature":"17","num_nodes":"17","size_leaf_vector":"1"}},{"base_weights":[8.740559E-2,7.8314555E-1,-2.135539E-1,4.4865445E-3,2.6703566E-2,-7.445009E-1,4.5030794E-1,7.831036E-3,-9.708317E-1,7.182853E-1,-5.003501E-3,-1.2227148E0,5.7135415E-3,2.5233753E-2,3.905949E-3,-4.1962955E-2,-6.7984895E-3],"categories":[],"categories_nodes":[],"categories_segments":[],"categories_sizes":[],"default_left":[0,0,0,0,0,0,0,0,0,0,0,0,0,0,0,0,0],"id":42,"left_children":[1,3,5,-1,-1,7,9,-1,11,13,-1,15,-1,-1,-1,-1,-1],"loss_changes":[3.9172502E0,2.479322E-1,5.018656E0,0E0,0E0,2.0193624E0,1.1992513E0,0E0,2.1475563E0,2.3288274E-1,0E0,6.4993954E-1,0E0,0E0,0E0,0E0,0E0],"parents":[2147483647,0,0,1,1,2,2,5,5,6,6,8,8,9,9,11,11],"right_children":[2,4,6,-1,-1,8,10,-1,12,14,-1,16,-1,-1,-1,-1,-1],"split_conditions":[-1.3190018E-2,-1.8400964E0,-1.6964269E-1,4.4865445E-3,2.6703566E-2,5.5434145E-2,2.3459671E-2,7.831036E-3,1.8207802E-2,8.243072E-2,-5.003501E-3,8.656904E-2,5.7135415E-3,2.5233753E-2,3.905949E-3,-4.1962955E-2,-6.7984895E-3],"split_indices":[11,16,16,0,0,8,11,0,11,8,0,8,0,0,0,0,0],"split_type":[0,0,0,0,0,0,0,0,0,0,0,0,0,0,0,0,0],"sum_hessian":[1.6909235E1,4.622064E0,1.228717E1,1.0140368E0,3.6080272E0,6.7595286E0,5.5276413E0,1.2137569E0,5.545772E0,3.7396708E0,1.7879708E0,4.513821E0,1.0319508E0,2.7375727E0,1.0020982E0,3.4923413E0,1.0214798E0],"tree_param":{"num_deleted":"0","num_feature":"17","num_nodes":"17","size_leaf_vector":"1"}},{"base_weights":[-7.282421E-2,2.4604004E-2,-2.8426784E-1,2.1143349E-2,-4.6568742E-1,1.335481E-2,-6.541986E-1,-9.27231E-1,2.5747953E-2,-1.1925257E0,8.589667E-3,2.3545152E-2,-3.003641E-2,-4.0716916E-2,-6.3499915E-3],"categories":[],"categories_nodes":[],"categories_segments":[],"categories_sizes":[],"default_left":[0,0,0,0,0,0,0,0,0,0,0,0,0,0,0],"id":43,"left_children":[1,-1,3,-1,5,-1,7,9,11,13,-1,-1,-1,-1,-1],"loss_changes":[3.5412307E0,0E0,3.0033445E0,0E0,2.5577612E0,0E0,2.1294188E0,2.9554257E0,4.077395E0,8.203707E-1,0E0,0E0,0E0,0E0,0E0],"parents":[2147483647,0,0,2,2,4,4,6,6,7,7,8,8,9,9],"right_children":[2,-1,4,-1,6,-1,8,10,12,14,-1,-1,-1,-1,-1],"split_conditions":[-2.1314513E-2,2.4604004E-2,3.13978E-1,2.1143349E-2,1.3461013E-1,1.335481E-2,6.8570834E-1,5.5075534E-2,9.5362437E-1,3.1879792E-1,8.589667E-3,2.3545152E-2,-3.003641E-2,-4.0716916E-2,-6.3499915E-3],"split_indices":[2,0,3,0,14,0,7,10,14,16,0,0,0,0,0],"split_type":[0,0,0,0,0,0,0,0,0,0,0,0,0,0,0],"sum_hessian":[1.6520731E1,2.6118345E0,1.39088955E1,1.7087104E0,1.2200185E1,1.858558E0,1.0341627E1,7.1192226E0,3.2224047E0,5.8563037E0,1.2629187E0,1.9884131E0,1.2339916E0,4.6857605E0,1.1705432E0],"tree_param":{"num_deleted":"0","num_feature":"17","num_nodes":"15","size_leaf_vector":"1"}},{"base_weights":[-2.0965642E-1,-3.5832202E-1,2.192754E-2,1.9622315E-2,-4.9832654E-1,-6.6376424E-1,1.35666225E-2,-4.7261562E-2,-8.3216566E-1,1.904469E-2,-1.8010331E-2,-1.0390989E0,9.778182E-3,-1.0387812E-2,-3.6277678E-2],"categories":[],"categories_nodes":[],"categories_segments":[],"categories_sizes":[],"default_left":[0,0,0,0,0,0,0,0,0,0,0,0,0,0,0],"id":44,"left_children":[1,3,-1,-1,5,7,-1,9,11,-1,-1,13,-1,-1,-1],"loss_changes":[2.8264775E0,2.6658428E0,0E0,0E0,2.6700718E0,1.3353996E0,0E0,1.8528277E0,2.816739E0,0E0,0E0,6.436634E-1,0E0,0E0,0E0],"parents":[2147483647,0,0,1,1,4,4,5,5,7,7,8,8,11,11],"right_children":[2,4,-1,-1,6,8,-1,10,12,-1,-1,14,-1,-1,-1],"split_conditions":[1.0471313E-1,3.05772E-1,2.192754E-2,1.9622315E-2,5.60384E-1,-1.3190018E-2,1.35666225E-2,-4.503915E-3,5.5075534E-2,1.904469E-2,-1.8010331E-2,5.6878686E-2,9.778182E-3,-1.0387812E-2,-3.6277678E-2],"split_indices":[8,3,0,0,3,11,0,5,10,0,0,8,0,0,0],"split_type":[0,0,0,0,0,0,0,0,0,0,0,0,0,0,0],"sum_hessian":[1.7340515E1,1.5508333E1,1.8321819E0,1.4380064E0,1.4070327E1,1.2241467E1,1.8288591E0,2.901174E0,9.340293E0,1.2329092E0,1.6682649E0,8.011531E0,1.3287622E0,2.1780362E0,5.833495E0],"tree_param":{"num_deleted":"0","num_feature":"17","num_nodes":"15","size_leaf_vector":"1"}},{"base_weights":[-5.8817547E-2,-2.932593E-1,4.6608466E-1,-5.3916687E-1,5.5536616E-1,6.943234E-1,-8.554451E-3,1.7836718E-2,-7.5661147E-1,4.689716E-3,2.0217653E-2,3.258064E-3,2.5018705E-2,-7.7243015E-2,-1.0532501E0,9.671959E-3,-1.2614196E-2,-7.826328E-3,-3.792755E-2],"categories":[],"categories_nodes":[],"categories_segments":[],"categories_sizes":[],"default_left":[0,0,0,0,0,0,0,0,0,0,0,0,0,0,0,0,0,0,0],"id":45,"left_children":[1,3,5,7,9,11,-1,-1,13,-1,-1,-1,-1,15,17,-1,-1,-1,-1],"loss_changes":[2.2266226E0,2.877423E0,1.1632469E0,2.9361527E0,4.9257874E-2,2.8637815E-1,0E0,0E0,1.7127328E0,0E0,0E0,0E0,0E0,6.547284E-1,6.929984E-1,0E0,0E0,0E0,0E0],"parents":[2147483647,0,0,1,1,2,2,3,3,4,4,5,5,8,8,13,13,14,14],"right_children":[2,4,6,8,10,12,-1,-1,14,-1,-1,-1,-1,16,18,-1,-1,-1,-1],"split_conditions":[8.566683E-2,1.4006685E0,8.4389013E-1,3.0242822E-1,-1.1172097E-2,2.769532E-2,-8.554451E-3,1.7836718E-2,-1.683602E-2,4.689716E-3,2.0217653E-2,3.258064E-3,2.5018705E-2,-5.041417E-1,-1.3438604E0,9.671959E-3,-1.2614196E-2,-7.826328E-3,-3.792755E-2],"split_indices":[8,16,14,3,1,15,0,0,2,0,0,0,0,16,16,0,0,0,0],"split_type":[0,0,0,0,0,0,0,0,0,0,0,0,0,0,0,0,0,0,0],"sum_hessian":[1.5983227E1,1.1353582E1,4.629645E0,9.085516E0,2.268066E0,3.608937E0,1.020708E0,1.1830381E0,7.902478E0,1.0505672E0,1.2174987E0,1.0369601E0,2.5719767E0,2.7848792E0,5.117599E0,1.3147439E0,1.4701352E0,1.546483E0,3.571116E0],"tree_param":{"num_deleted":"0","num_feature":"17","num_nodes":"19","size_leaf_vector":"1"}},{"base_weights":[-1.7057414E-1,5.8338666E-1,-3.3594915E-1,3.3439514E-3,2.1561777E-2,8.769764E-2,-6.388562E-1,6.4113915E-1,-3.8632768E-1,-1.037521E0,1.9243678E-1,5.1231002E-3,2.2731261E-2,-2.8064366E-2,1.1151098E-2,-2.6488903E-3,-3.7152607E-2,2.1113047E-2,-1.2922601E-2],"categories":[],"categories_nodes":[],"categories_segments":[],"categories_sizes":[],"default_left":[0,0,0,0,0,0,0,0,0,0,0,0,0,0,0,0,0,0,0],"id":46,"left_children":[1,3,5,-1,-1,7,9,11,13,15,17,-1,-1,-1,-1,-1,-1,-1,-1],"loss_changes":[2.5489607E0,1.6004086E-1,2.1234896E0,0E0,0E0,2.2405047E0,3.3529718E0,8.33776E-2,2.3107178E0,1.1468444E0,1.5547079E0,0E0,0E0,0E0,0E0,0E0,0E0,0E0,0E0],"parents":[2147483647,0,0,1,1,2,2,5,5,6,6,7,7,8,8,9,9,10,10],"right_children":[2,4,6,-1,-1,8,10,12,14,16,18,-1,-1,-1,-1,-1,-1,-1,-1],"split_conditions":[-2.1523407E-2,-2.5106976E-2,5.57811E-1,3.3439514E-3,2.1561777E-2,-2.4028167E-3,8.857766E-3,-6.5244645E-2,-8.971973E-1,-1.699875E-2,9.236439E-1,5.1231002E-3,2.2731261E-2,-2.8064366E-2,1.1151098E-2,-2.6488903E-3,-3.7152607E-2,2.1113047E-2,-1.2922601E-2],"split_indices":[2,2,15,0,0,5,0,13,16,0,14,0,0,0,0,0,0,0,0],"split_type":[0,0,0,0,0,0,0,0,0,0,0,0,0,0,0,0,0,0,0],"sum_hessian":[1.7871143E1,2.7600675E0,1.5111076E1,1.021554E0,1.7385135E0,6.5961537E0,8.514922E0,2.8805115E0,3.715642E0,5.5873194E0,2.9276032E0,1.0616436E0,1.818868E0,2.018941E0,1.6967009E0,1.2274184E0,4.359901E0,1.5371021E0,1.3905011E0],"tree_param":{"num_deleted":"0","num_feature":"17","num_nodes":"19","size_leaf_vector":"1"}},{"base_weights":[-1.518629E-1,2.1417117E-2,-2.8143525E-1,-6.218801E-1,1.5977676E-1,4.6196487E-3,-8.205939E-1,4.0409982E-1,-2.4221132E-2,-9.838944E-1,-2.918812E-3,-7.818202E-3,6.538225E-1,-5.84033E-3,-3.7518863E-2,2.7402882E-2,-6.93136E-3],"categories":[],"categories_nodes":[],"categories_segments":[],"categories_sizes":[],"default_left":[0,0,0,0,0,0,0,0,0,0,0,0,0,0,0,0,0],"id":47,"left_children":[1,-1,3,5,7,-1,9,11,-1,13,-1,-1,15,-1,-1,-1,-1],"loss_changes":[2.3324718E0,0E0,2.6897006E0,1.6586306E0,2.2890582E0,0E0,8.5746956E-1,1.3817588E0,0E0,1.1193614E0,0E0,0E0,1.4951158E0,0E0,0E0,0E0,0E0],"parents":[2147483647,0,0,2,2,3,3,4,4,6,6,7,7,9,9,12,12],"right_children":[2,-1,4,6,8,-1,10,12,-1,14,-1,-1,16,-1,-1,-1,-1],"split_conditions":[-5.6751482E-2,2.1417117E-2,-1.6964269E-1,6.5467685E-2,6.326653E-2,4.6196487E-3,1.527122E-2,3.4240443E-2,-2.4221132E-2,-1.3557117E-2,-2.918812E-3,-7.818202E-3,1.6135247E-2,-5.84033E-3,-3.7518863E-2,2.7402882E-2,-6.93136E-3],"split_indices":[12,0,16,8,12,0,11,8,0,11,0,0,9,0,0,0,0],"split_type":[0,0,0,0,0,0,0,0,0,0,0,0,0,0,0,0,0],"sum_hessian":[1.8001293E1,1.7563242E0,1.624497E1,8.938458E0,7.3065114E0,1.8684111E0,7.070047E0,6.2977366E0,1.0087746E0,5.47391E0,1.5961372E0,1.7079546E0,4.589782E0,1.8196791E0,3.6542306E0,3.523703E0,1.066079E0],"tree_param":{"num_deleted":"0","num_feature":"17","num_nodes":"17","size_leaf_vector":"1"}},{"base_weights":[-2.0674695E-1,-2.611535E-2,-3.5156254E-2,-1.9046271E-1,2.3182208E-2,2.406867E-1,-6.2401867E-1,5.7381445E-1,-2.2617828E-2,-6.2053822E-2,-3.247684E-2,-3.1972653E-3,2.6462851E-2,-5.1582E-1,1.9249778E-2,3.7817385E-3,-2.6160652E-2],"categories":[],"categories_nodes":[],"categories_segments":[],"categories_sizes":[],"default_left":[0,0,0,0,0,0,0,0,0,0,0,0,0,0,0,0,0],"id":48,"left_children":[1,3,-1,5,-1,7,9,11,-1,13,-1,-1,-1,15,-1,-1,-1],"loss_changes":[3.065548E0,2.2455716E0,0E0,2.7780323E0,0E0,3.0071616E0,1.8107839E0,1.4340124E0,0E0,1.7153751E0,0E0,0E0,0E0,8.3931965E-1,0E0,0E0,0E0],"parents":[2147483647,0,0,1,1,3,3,5,5,6,6,7,7,9,9,13,13],"right_children":[2,4,-1,6,-1,8,10,12,-1,14,-1,-1,-1,16,-1,-1,-1],"split_conditions":[9.5362437E-1,6.8570834E-1,-3.5156254E-2,-9.736746E-3,2.3182208E-2,1.6968168E-2,5.8581525E-1,-1.53098E-2,-2.2617828E-2,7.663095E-2,-3.247684E-2,-3.1972653E-3,2.6462851E-2,6.684484E-2,1.9249778E-2,3.7817385E-3,-2.6160652E-2],"split_indices":[14,7,0,0,0,9,15,5,0,8,0,0,0,8,0,0,0],"split_type":[0,0,0,0,0,0,0,0,0,0,0,0,0,0,0,0,0],"sum_hessian":[1.6760027E1,1.4982911E1,1.777115E0,1.3058074E1,1.924837E0,6.7702546E0,6.28782E0,5.3885403E0,1.381714E0,3.3354285E0,2.9523911E0,1.8842345E0,3.5043058E0,2.1901712E0,1.1452572E0,1.0122303E0,1.177941E0],"tree_param":{"num_deleted":"0","num_feature":"17","num_nodes":"17","size_leaf_vector":"1"}},{"base_weights":[-2.281124E-2,4.0272102E-1,-3.6098447E-1,2.5108263E-2,3.87981E-2,9.013719E-3,-4.8035225E-1,-2.8056037E-2,5.455347E-1,1.0233095E-2,-6.6532826E-1,-1.8068756E-3,2.385261E-2,-3.2752503E-2,-2.1163987E-1,1.3858043E-2,-6.958573E-1,-1.8468735E-4,-3.306761E-2],"categories":[],"categories_nodes":[],"categories_segments":[],"categories_sizes":[],"default_left":[0,0,0,0,0,0,0,0,0,0,0,0,0,0,0,0,0,0,0],"id":49,"left_children":[1,3,5,-1,7,-1,9,-1,11,-1,13,-1,-1,-1,15,-1,17,-1,-1],"loss_changes":[2.7784204E0,1.3225465E0,9.909159E-1,0E0,3.3302155E0,0E0,1.665611E0,0E0,7.115079E-1,0E0,1.3295667E0,0E0,0E0,0E0,2.0007925E0,0E0,9.446622E-1,0E0,0E0],"parents":[2147483647,0,0,1,1,2,2,4,4,6,6,8,8,10,10,14,14,16,16],"right_children":[2,4,6,-1,8,-1,10,-1,12,-1,14,-1,-1,-1,16,-1,18,-1,-1],"split_conditions":[5.57811E-1,3.501897E-1,-6.933133E-2,2.5108263E-2,3.847936E-1,9.013719E-3,-1.4123648E-2,-2.8056037E-2,-3.1262415E-3,1.0233095E-2,7.3762303E-3,-1.8068756E-3,2.385261E-2,-3.2752503E-2,8.534778E-2,1.3858043E-2,6.043689E-1,-1.8468735E-4,-3.306761E-2],"split_indices":[15,3,10,0,3,0,0,0,6,0,12,0,0,0,8,0,16,0,0],"split_type":[0,0,0,0,0,0,0,0,0,0,0,0,0,0,0,0,0,0,0],"sum_hessian":[1.729728E1,7.5748167E0,9.722463E0,2.8611755E0,4.713641E0,1.2544153E0,8.468047E0,1.3237402E0,3.389901E0,1.4012465E0,7.066801E0,1.2104073E0,2.1794937E0,2.9178889E0,4.148912E0,1.754424E0,2.3944879E0,1.2641795E0,1.1303084E0],"tree_param":{"num_deleted":"0","num_feature":"17","num_nodes":"19","size_leaf_vector":"1"}},{"base_weights":[-1.5565552E-1,2.6857758E-2,-9.6402943E-1,-1.4243622E-1,2.330441E-2,-4.209248E-3,-3.786258E-2,2.239631E-1,-6.4636856E-1,-4.0302548E-1,6.18871E-1,-9.118463E-3,-3.3973057E-2,9.847662E-3,-2.5513593E-2,-9.436134E-3,2.6722757E-2,9.755153E-3,-1.0678215E-2],"categories":[],"categories_nodes":[],"categories_segments":[],"categories_sizes":[],"default_left":[0,0,0,0,0,0,0,0,0,0,0,0,0,0,0,0,0,0,0],"id":50,"left_children":[1,3,5,7,-1,-1,-1,9,11,13,15,17,-1,-1,-1,-1,-1,-1,-1],"loss_changes":[2.6889873E0,2.1037536E0,6.4583445E-1,2.6655283E0,0E0,0E0,0E0,2.3905673E0,1.849632E0,1.5707383E0,1.7267618E0,5.3386813E-1,0E0,0E0,0E0,0E0,0E0,0E0,0E0],"parents":[2147483647,0,0,1,1,2,2,3,3,7,7,8,8,9,9,10,10,11,11],"right_children":[2,4,6,8,-1,-1,-1,10,12,14,16,18,-1,-1,-1,-1,-1,-1,-1],"split_conditions":[9.236439E-1,6.8570834E-1,8.707611E-1,6.5325606E-1,2.330441E-2,-4.209248E-3,-3.786258E-2,-3.58454E-2,-2.1288438E-2,-5.3643215E-2,1.8688573E-2,-2.4030525E-3,-3.3973057E-2,9.847662E-3,-2.5513593E-2,-9.436134E-3,2.6722757E-2,9.755153E-3,-1.0678215E-2],"split_indices":[14,7,7,15,0,0,0,10,1,10,14,11,0,0,0,0,0,0,0],"split_type":[0,0,0,0,0,0,0,0,0,0,0,0,0,0,0,0,0,0,0],"sum_hessian":[1.7050116E1,1.4698327E1,2.3517878E0,1.2652291E1,2.0460362E0,1.0156475E0,1.3361403E0,7.6475077E0,5.0047836E0,2.9474056E0,4.700102E0,2.6064272E0,2.3983562E0,1.219914E0,1.7274917E0,1.0248511E0,3.675251E0,1.3589783E0,1.247449E0],"tree_param":{"num_deleted":"0","num_feature":"17","num_nodes":"19","size_leaf_vector":"1"}},{"base_weights":[-9.664189E-2,3.4524825E-1,-3.6601657E-1,-1.5716663E-2,5.9372395E-1,1.742063E-2,-5.1272583E-1,4.4201043E-2,2.6138084E-2,-7.0108414E-1,9.048654E-2,-1.3305032E-2,1.6866874E-2,-9.831273E-1,1.0443512E-2,2.1507422E-2,-2.1231657E-2,-5.1786047E-3,-1.1031994E0,-1.0381679E-2,-3.672081E-2],"categories":[],"categories_nodes":[],"categories_segments":[],"categories_sizes":[],"default_left":[0,0,0,0,0,0,0,0,0,0,0,0,0,0,0,0,0,0,0,0,0],"id":51,"left_children":[1,3,5,-1,7,-1,9,11,-1,13,15,-1,-1,17,-1,-1,-1,-1,19,-1,-1],"loss_changes":[2.3938582E0,1.9801953E0,2.0088768E0,0E0,9.497094E-1,0E0,1.3357711E0,1.0648265E0,0E0,2.901298E0,2.2826161E0,0E0,0E0,4.9830675E-1,0E0,0E0,0E0,0E0,1.23351574E-1,0E0,0E0],"parents":[2147483647,0,0,1,1,2,2,4,4,6,6,7,7,9,9,10,10,13,13,18,18],"right_children":[2,4,6,-1,8,-1,10,12,-1,14,16,-1,-1,18,-1,-1,-1,-1,20,-1,-1],"split_conditions":[-1.4619058E-2,4.6052583E-2,2.9666185E-1,-1.5716663E-2,-1.5375325E-2,1.742063E-2,2.5150238E-2,1.4976237E-2,2.6138084E-2,8.930748E-2,1.0915337E-2,-1.3305032E-2,1.6866874E-2,-3.3355267E-3,1.0443512E-2,2.1507422E-2,-2.1231657E-2,-5.1786047E-3,-7.7154823E-3,-1.0381679E-2,-3.672081E-2],"split_indices":[2,8,3,0,5,0,13,9,0,8,4,0,0,6,0,0,0,0,5,0,0],"split_type":[0,0,0,0,0,0,0,0,0,0,0,0,0,0,0,0,0,0,0,0,0],"sum_hessian":[1.8049105E1,6.7289968E0,1.1320108E1,1.2496094E0,5.4793873E0,1.1219784E0,1.0198131E1,2.227779E0,3.2516084E0,7.6477904E0,2.5503402E0,1.2215793E0,1.0061997E0,6.07713E0,1.5706605E0,1.4859918E0,1.0643483E0,1.0986555E0,4.9784746E0,1.2169207E0,3.7615538E0],"tree_param":{"num_deleted":"0","num_feature":"17","num_nodes":"21","size_leaf_vector":"1"}},{"base_weights":[5.6867175E-2,6.958367E-1,-1.7515038E-1,2.4865648E-2,3.2708216E-3,-4.1163424E-1,4.6877557E-1,2.3929478E-1,-8.3402014E-1,2.4270572E-2,-7.5235083E-3,-1.0403524E-2,5.8575416E-1,-1.0563481E0,-4.394088E-3,5.383867E-3,2.0567961E-2,-6.1686942E-3,-4.0317085E-2],"categories":[],"categories_nodes":[],"categories_segments":[],"categories_sizes":[],"default_left":[0,0,0,0,0,0,0,0,0,0,0,0,0,0,0,0,0,0,0],"id":52,"left_children":[1,3,5,-1,-1,7,9,11,13,-1,-1,-1,15,17,-1,-1,-1,-1,-1],"loss_changes":[2.687166E0,2.8512192E-1,2.2476616E0,0E0,0E0,3.0593133E0,1.2046833E0,1.1920514E0,8.4360456E-1,0E0,0E0,0E0,1.621306E-2,8.9155436E-1,0E0,0E0,0E0,0E0,0E0],"parents":[2147483647,0,0,1,1,2,2,5,5,6,6,7,7,8,8,12,12,13,13],"right_children":[2,4,6,-1,-1,8,10,12,14,-1,-1,-1,16,18,-1,-1,-1,-1,-1],"split_conditions":[-3.5108995E-2,6.2297564E-2,1.0713634E0,2.4865648E-2,3.2708216E-3,2.1269223E-4,9.619998E-3,-4.528345E-2,-2.13548E-3,2.4270572E-2,-7.5235083E-3,-1.0403524E-2,4.9045414E-2,-3.8417358E-2,-4.394088E-3,5.383867E-3,2.0567961E-2,-6.1686942E-3,-4.0317085E-2],"split_indices":[1,10,16,0,0,11,10,10,10,0,0,0,8,10,0,0,0,0,0],"split_type":[0,0,0,0,0,0,0,0,0,0,0,0,0,0,0,0,0,0,0],"sum_hessian":[1.6303558E1,3.8104956E0,1.2493062E1,2.7700922E0,1.0404032E0,9.401189E0,3.0918736E0,3.870272E0,5.5309167E0,2.0148337E0,1.07704E0,1.4375466E0,2.4327254E0,3.774116E0,1.7568008E0,1.0317397E0,1.4009857E0,1.3866912E0,2.3874247E0],"tree_param":{"num_deleted":"0","num_feature":"17","num_nodes":"19","size_leaf_vector":"1"}},{"base_weights":[-3.5031162E-2,2.060629E-2,-1.5968399E-1,-3.8526133E-1,2.411218E-1,1.6585834E-1,-6.8877655E-1,5.229826E-1,-1.1413565E-2,-1.0030983E-2,2.0828588E-2,-8.940444E-1,6.5817116E-3,-2.8584194E-3,2.4273213E-2,-3.3698005E-3,-1.0590435E0,-6.524337E-3,-3.821822E-2],"categories":[],"categories_nodes":[],"categories_segments":[],"categories_sizes":[],"default_left":[0,0,0,0,0,0,0,0,0,0,0,0,0,0,0,0,0,0,0],"id":53,"left_children":[1,-1,3,5,7,9,11,13,-1,-1,-1,15,-1,-1,-1,-1,17,-1,-1],"loss_changes":[1.632802E0,0E0,1.4712313E0,1.8103518E0,1.2685792E0,1.397052E0,1.4512563E0,8.9464533E-1,0E0,0E0,0E0,6.147728E-1,0E0,0E0,0E0,0E0,5.50972E-1,0E0,0E0],"parents":[2147483647,0,0,2,2,3,3,4,4,5,5,6,6,7,7,11,11,16,16],"right_children":[2,-1,4,6,8,10,12,14,-1,-1,-1,16,-1,-1,-1,-1,18,-1,-1],"split_conditions":[3.1327957E-1,2.060629E-2,3.1879792E-1,-1.0642077E-2,8.8133913E-1,-1.53098E-2,4.577685E-3,5.589729E-1,-1.1413565E-2,-1.0030983E-2,2.0828588E-2,-7.375714E-3,6.5817116E-3,-2.8584194E-3,2.4273213E-2,-3.3698005E-3,-3.3355267E-3,-6.524337E-3,-3.821822E-2],"split_indices":[3,0,16,4,7,5,5,14,0,0,0,5,0,0,0,0,6,0,0],"split_type":[0,0,0,0,0,0,0,0,0,0,0,0,0,0,0,0,0,0,0],"sum_hessian":[1.5925834E1,1.680892E0,1.4244942E1,9.139772E0,5.105169E0,3.406972E0,5.7328005E0,3.621547E0,1.483622E0,1.9388483E0,1.4681236E0,4.688611E0,1.0441895E0,1.3567822E0,2.2647648E0,1.1100916E0,3.5785196E0,1.1371806E0,2.441339E0],"tree_param":{"num_deleted":"0","num_feature":"17","num_nodes":"19","size_leaf_vector":"1"}},{"base_weights":[9.128293E-2,2.246003E-2,-5.0263014E-2,-3.319842E-1,4.0788767E-1,8.364469E-2,-7.269064E-1,7.0639247E-1,-7.854927E-3,2.0592418E-2,-2.9801652E-1,6.8727313E-3,-3.2120615E-2,3.8573942E-3,2.5064263E-2,-1.956529E-2,8.79131E-3],"categories":[],"categories_nodes":[],"categories_segments":[],"categories_sizes":[],"default_left":[0,0,0,0,0,0,0,0,0,0,0,0,0,0,0,0,0],"id":54,"left_children":[1,-1,3,5,7,9,11,13,-1,-1,15,-1,-1,-1,-1,-1,-1],"loss_changes":[1.6500314E0,0E0,2.096687E0,1.6957631E0,1.4313487E0,1.5273548E0,1.9578252E0,2.3439503E-1,0E0,0E0,1.0740619E0,0E0,0E0,0E0,0E0,0E0,0E0],"parents":[2147483647,0,0,2,2,3,3,4,4,5,5,6,6,7,7,10,10],"right_children":[2,-1,4,6,8,10,12,14,-1,-1,16,-1,-1,-1,-1,-1,-1],"split_conditions":[3.2209197E-1,2.246003E-2,1.9661665E-1,-6.7663044E-3,5.0056685E-2,-2.6857036E-3,-4.514222E-3,-1.5817909E-2,-7.854927E-3,2.0592418E-2,1.6768536E-2,6.8727313E-3,-3.2120615E-2,3.8573942E-3,2.5064263E-2,-1.956529E-2,8.79131E-3],"split_indices":[3,0,16,5,12,11,6,13,0,0,11,0,0,0,0,0,0],"split_type":[0,0,0,0,0,0,0,0,0,0,0,0,0,0,0,0,0],"sum_hessian":[1.6328302E1,2.1329546E0,1.4195348E1,8.960707E0,5.234641E0,4.7499285E0,4.210778E0,3.5829153E0,1.6517256E0,1.5319626E0,3.2179658E0,1.2019541E0,3.0088239E0,1.0187587E0,2.5641568E0,1.9475842E0,1.2703817E0],"tree_param":{"num_deleted":"0","num_feature":"17","num_nodes":"17","size_leaf_vector":"1"}},{"base_weights":[-2.8466532E-2,5.4560435E-1,-2.5082073E-1,-9.568376E-3,2.5332723E-2,-4.4709155E-1,5.227304E-1,1.0387138E-2,-5.978935E-1,1.900435E-2,4.456601E-3,-7.3288906E-1,6.3591707E-3,-9.05567E-1,7.1569555E-3,5.4790736E-3,-3.3949707E-2],"categories":[],"categories_nodes":[],"categories_segments":[],"categories_sizes":[],"default_left":[0,0,0,0,0,0,0,0,0,0,0,0,0,0,0,0,0],"id":55,"left_children":[1,3,5,-1,-1,7,9,-1,11,-1,-1,13,-1,15,-1,-1,-1],"loss_changes":[2.329082E0,1.5894147E0,2.2172143E0,0E0,0E0,1.5181515E0,3.4561634E-2,0E0,1.2022419E0,0E0,0E0,1.6304755E0,0E0,2.0193977E0,0E0,0E0,0E0],"parents":[2147483647,0,0,1,1,2,2,5,5,6,6,8,8,11,11,13,13],"right_children":[2,4,6,-1,-1,8,10,-1,12,-1,-1,14,-1,16,-1,-1,-1],"split_conditions":[-1.0670698E-2,2.8369285E-2,1.4006685E0,-9.568376E-3,2.5332723E-2,-1.4919184E-2,3.4652115E-3,1.0387138E-2,4.789536E-3,1.900435E-2,4.456601E-3,5.5075534E-2,6.3591707E-3,3.050101E-2,7.1569555E-3,5.4790736E-3,-3.3949707E-2],"split_indices":[11,7,16,0,0,4,5,0,6,0,0,10,0,8,0,0,0],"split_type":[0,0,0,0,0,0,0,0,0,0,0,0,0,0,0,0,0],"sum_hessian":[1.6174175E1,4.1097975E0,1.2064378E1,1.0383307E0,3.071467E0,9.959429E0,2.104949E0,1.3837748E0,8.575654E0,1.0894929E0,1.015456E0,7.4318905E0,1.143764E0,6.3678207E0,1.0640696E0,1.1284806E0,5.2393403E0],"tree_param":{"num_deleted":"0","num_feature":"17","num_nodes":"17","size_leaf_vector":"1"}},{"base_weights":[9.34228E-2,5.70288E-1,-1.8251662E-1,7.236559E-1,-2.396421E-3,-8.229958E-1,2.0849948E-1,4.5094425E-3,2.5156526E-2,-3.1996235E-2,-2.5805088E-3,5.252398E-1,-1.5005319E-2,-3.901397E-3,2.5810158E-2],"categories":[],"categories_nodes":[],"categories_segments":[],"categories_sizes":[],"default_left":[0,0,0,0,0,0,0,0,0,0,0,0,0,0,0],"id":56,"left_children":[1,3,5,7,-1,9,11,-1,-1,-1,-1,13,-1,-1,-1],"loss_changes":[2.1349232E0,6.4608395E-1,2.8096921E0,1.9495535E-1,0E0,6.612661E-1,1.9099917E0,0E0,0E0,0E0,0E0,1.3326908E0,0E0,0E0,0E0],"parents":[2147483647,0,0,1,1,2,2,3,3,5,5,6,6,11,11],"right_children":[2,4,6,8,-1,10,12,-1,-1,-1,-1,14,-1,-1,-1],"split_conditions":[-1.7796185E-2,7.492087E-1,-3.0797091E-3,2.8673252E-2,-2.396421E-3,9.401918E-3,9.5362437E-1,4.5094425E-3,2.5156526E-2,-3.1996235E-2,-2.5805088E-3,-4.997385E-2,-1.5005319E-2,-3.901397E-3,2.5810158E-2],"split_indices":[12,14,12,14,0,11,14,0,0,0,0,10,0,0,0],"split_type":[0,0,0,0,0,0,0,0,0,0,0,0,0,0,0],"sum_hessian":[1.4433539E1,4.89959E0,9.533949E0,3.8729696E0,1.0266204E0,3.1953108E0,6.338639E0,1.0319054E0,2.8410642E0,2.0655422E0,1.1297686E0,4.5595913E0,1.7790473E0,1.7497898E0,2.8098013E0],"tree_param":{"num_deleted":"0","num_feature":"17","num_nodes":"15","size_leaf_vector":"1"}},{"base_weights":[-1.752255E-2,3.9239025E-1,-3.0087596E-1,5.9743E-1,-8.978532E-3,-7.759717E-1,1.9987455E-1,7.688041E-1,-3.1442607E-3,-9.118049E-1,-2.0607125E-3,5.4848653E-1,-2.8258398E-1,2.5741257E-2,6.143094E-3,-4.2255223E-3,-3.724583E-2,2.1922292E-2,2.000313E-3,-2.1542259E-2,7.665604E-3],"categories":[],"categories_nodes":[],"categories_segments":[],"categories_sizes":[],"default_left":[0,0,0,0,0,0,0,0,0,0,0,0,0,0,0,0,0,0,0,0,0],"id":57,"left_children":[1,3,5,7,-1,9,11,13,-1,15,-1,17,19,-1,-1,-1,-1,-1,-1,-1,-1],"loss_changes":[2.1440587E0,1.2514354E0,2.7434034E0,8.2282805E-1,0E0,4.9339938E-1,1.1796072E0,7.987809E-2,0E0,1.0386162E0,0E0,2.9168963E-1,9.3697745E-1,0E0,0E0,0E0,0E0,0E0,0E0,0E0,0E0],"parents":[2147483647,0,0,1,1,2,2,3,3,5,5,6,6,7,7,9,9,11,11,12,12],"right_children":[2,4,6,8,-1,10,12,14,-1,16,-1,18,20,-1,-1,-1,-1,-1,-1,-1,-1],"split_conditions":[-7.669993E-3,-1.7216275E-2,0E0,8.593507E-1,-8.978532E-3,1.1146667E-2,1.725582E-2,7.935388E-1,-3.1442607E-3,-1.6244486E-3,-2.0607125E-3,5.8440703E-1,2.8965734E-2,2.5741257E-2,6.143094E-3,-4.2255223E-3,-3.724583E-2,2.1922292E-2,2.000313E-3,-2.1542259E-2,7.665604E-3],"split_indices":[5,1,12,15,0,11,1,14,0,5,0,15,1,0,0,0,0,0,0,0,0],"split_type":[0,0,0,0,0,0,0,0,0,0,0,0,0,0,0,0,0,0,0,0,0],"sum_hessian":[1.6442913E1,6.5633063E0,9.879606E0,5.1676626E0,1.395644E0,4.7876363E0,5.09197E0,4.0777416E0,1.0899206E0,3.7737243E0,1.0139118E0,2.8765745E0,2.2153957E0,3.0706627E0,1.007079E0,1.5580015E0,2.2157228E0,1.7122201E0,1.1643546E0,1.0395923E0,1.1758033E0],"tree_param":{"num_deleted":"0","num_feature":"17","num_nodes":"21","size_leaf_vector":"1"}},{"base_weights":[4.8928495E-2,1.9240923E-1,-2.2965621E-2,6.6700274E-1,-1.2268769E-1,2.5697432E-2,4.2309966E-3,1.843075E-2,-2.975239E-1,-7.836633E-1,2.3938057E-1,-5.5774716E-3,-2.690674E-2,1.744286E-2,-8.868136E-3],"categories":[],"categories_nodes":[],"categories_segments":[],"categories_sizes":[],"default_left":[0,0,0,0,0,0,0,0,0,0,0,0,0,0,0],"id":58,"left_children":[1,3,-1,5,7,-1,-1,-1,9,11,13,-1,-1,-1,-1],"loss_changes":[2.0618124E0,2.2843819E0,0E0,4.8068357E-1,1.4322731E0,0E0,0E0,0E0,2.4090374E0,1.5140033E-1,1.0521162E0,0E0,0E0,0E0,0E0],"parents":[2147483647,0,0,1,1,3,3,4,4,8,8,9,9,10,10],"right_children":[2,4,-1,6,8,-1,-1,-1,10,12,14,-1,-1,-1,-1],"split_conditions":[1.7349035E-2,5.468639E-1,-2.2965621E-2,-3.6155798E-3,-3.5166606E-2,2.5697432E-2,4.2309966E-3,1.843075E-2,2.456928E-3,-1.0534032E-2,9.5362437E-1,-5.5774716E-3,-2.690674E-2,1.744286E-2,-8.868136E-3],"split_indices":[9,15,0,1,1,0,0,0,6,11,14,0,0,0,0],"split_type":[0,0,0,0,0,0,0,0,0,0,0,0,0,0,0],"sum_hessian":[1.5383325E1,1.3728538E1,1.6547877E0,5.032243E0,8.696295E0,3.2369528E0,1.7952898E0,1.1853557E0,7.5109386E0,3.7006211E0,3.8103175E0,1.0101025E0,2.6905186E0,2.271316E0,1.5390015E0],"tree_param":{"num_deleted":"0","num_feature":"17","num_nodes":"15","size_leaf_vector":"1"}},{"base_weights":[-4.032723E-3,2.3106113E-2,-1.8218586E-1,-5.3469364E-2,-2.6529118E-2,2.1544378E-2,-2.2374427E-1,-2.8142486E-2,-7.1952146E-1,-2.9660484E-1,2.2173854E-2,-5.6314743E-3,-2.6153503E-2,-1.6504647E-2,1.8743625E-2],"categories":[],"categories_nodes":[],"categories_segments":[],"categories_sizes":[],"default_left":[0,0,0,0,0,0,0,0,0,0,0,0,0,0,0],"id":59,"left_children":[1,-1,3,5,-1,-1,7,9,11,13,-1,-1,-1,-1,-1],"loss_changes":[2.5152059E0,0E0,1.2907693E0,1.9444252E0,0E0,0E0,1.1322412E0,2.1890142E0,1.053133E-1,2.1654394E0,0E0,0E0,0E0,0E0,0E0],"parents":[2147483647,0,0,2,2,3,3,6,6,7,7,8,8,9,9],"right_children":[2,-1,4,6,-1,-1,8,10,12,14,-1,-1,-1,-1,-1],"split_conditions":[3.3922997E-1,2.3106113E-2,1.786111E-2,-1.3190018E-2,-2.6529118E-2,2.1544378E-2,9.5362437E-1,6.747927E-1,-1.0201644E-2,5.5075534E-2,2.2173854E-2,-5.6314743E-3,-2.6153503E-2,-1.6504647E-2,1.8743625E-2],"split_indices":[3,0,9,11,0,0,14,7,5,10,0,0,0,0,0],"split_type":[0,0,0,0,0,0,0,0,0,0,0,0,0,0,0],"sum_hessian":[1.6217716E1,2.4120238E0,1.3805693E1,1.2576287E1,1.2294058E0,1.6918693E0,1.0884418E1,8.562838E0,2.3215806E0,6.7977753E0,1.7650619E0,1.0137393E0,1.3078413E0,5.646792E0,1.1509836E0],"tree_param":{"num_deleted":"0","num_feature":"17","num_nodes":"15","size_leaf_vector":"1"}},{"base_weights":[1.5068708E-1,5.7826626E-1,-2.1173635E-1,8.245089E-1,-8.954065E-3,2.2042168E-2,-5.1639324E-1,2.789365E-2,3.7820193E-3,-2.8103331E-2,-6.8894746E-3,1.7412774E-2,-2.4991421E-2],"categories":[],"categories_nodes":[],"categories_segments":[],"categories_sizes":[],"default_left":[0,0,0,0,0,0,0,0,0,0,0,0,0],"id":60,"left_children":[1,3,5,7,-1,-1,9,-1,-1,-1,11,-1,-1],"loss_changes":[2.7045043E0,1.9542177E0,3.1908948E0,3.565402E-1,0E0,0E0,1.6991763E0,0E0,0E0,0E0,2.719124E0,0E0,0E0],"parents":[2147483647,0,0,1,1,2,2,3,3,6,6,10,10],"right_children":[2,4,6,8,-1,-1,10,-1,-1,-1,12,-1,-1],"split_conditions":[5.57811E-1,1.786111E-2,-2.1587428E-2,1.6662189E-3,-8.954065E-3,2.2042168E-2,2.456928E-3,2.789365E-2,3.7820193E-3,-2.8103331E-2,9.5362437E-1,1.7412774E-2,-2.4991421E-2],"split_indices":[15,9,2,0,0,0,6,0,0,0,14,0,0],"split_type":[0,0,0,0,0,0,0,0,0,0,0,0,0],"sum_hessian":[1.56622715E1,6.9120417E0,8.75023E0,5.4429E0,1.4691415E0,1.7869699E0,6.9632597E0,4.44209E0,1.0008104E0,3.355815E0,3.6074445E0,2.2823572E0,1.3250872E0],"tree_param":{"num_deleted":"0","num_feature":"17","num_nodes":"13","size_leaf_vector":"1"}},{"base_weights":[2.0203543E-1,1.46381175E-2,2.598945E-2,4.1146225E-1,-3.640799E-1,6.854857E-1,-1.6848892E-2,2.0732367E-2,-7.390033E-1,2.885234E-3,7.8249973E-1,9.273414E-3,-1.0784359E0,2.581855E-2,7.045664E-3,-1.08128255E-2,-3.7306152E-2],"categories":[],"categories_nodes":[],"categories_segments":[],"categories_sizes":[],"default_left":[0,0,0,0,0,0,0,0,0,0,0,0,0,0,0,0,0],"id":61,"left_children":[1,3,-1,5,7,9,-1,-1,11,-1,13,-1,15,-1,-1,-1,-1],"loss_changes":[2.0484335E0,2.2434604E0,0E0,2.324194E0,3.5405643E0,2.749107E-1,0E0,0E0,2.5156765E0,0E0,1.687479E-2,0E0,1.2749052E-1,0E0,0E0,0E0,0E0],"parents":[2147483647,0,0,1,1,3,3,4,4,5,5,8,8,10,10,12,12],"right_children":[2,4,-1,6,8,10,-1,-1,12,-1,14,-1,16,-1,-1,-1,-1],"split_conditions":[8.857766E-3,5.57811E-1,2.598945E-2,1.8499522E-2,-2.1587428E-2,-2.4856403E-2,-1.6848892E-2,2.0732367E-2,-1.3557117E-2,2.885234E-3,4.2954425E-4,9.273414E-3,-1.5747465E-2,2.581855E-2,7.045664E-3,-1.08128255E-2,-3.7306152E-2],"split_indices":[0,15,0,9,2,2,0,0,11,0,4,0,2,0,0,0,0],"split_type":[0,0,0,0,0,0,0,0,0,0,0,0,0,0,0,0,0],"sum_hessian":[1.5557241E1,1.2931284E1,2.6259577E0,6.2724714E0,6.6588125E0,5.1248646E0,1.1476067E0,1.5246601E0,5.1341524E0,1.0058964E0,4.118968E0,1.2778044E0,3.856348E0,3.1046183E0,1.0143497E0,1.3160559E0,2.540292E0],"tree_param":{"num_deleted":"0","num_feature":"17","num_nodes":"17","size_leaf_vector":"1"}},{"base_weights":[-5.944027E-2,5.8121204E-1,-3.3965105E-1,2.4319088E-2,-3.7945877E-4,4.6320015E-1,-5.632091E-1,3.2215002E-3,1.7634401E-2,-1.0005105E0,2.8065388E-4,-2.8114475E-3,-3.7723318E-2,3.2315397E-1,-1.969868E-2,-4.9207173E-3,2.1562202E-2],"categories":[],"categories_nodes":[],"categories_segments":[],"categories_sizes":[],"default_left":[0,0,0,0,0,0,0,0,0,0,0,0,0,0,0,0,0],"id":62,"left_children":[1,3,5,-1,-1,7,9,-1,-1,11,13,-1,-1,15,-1,-1,-1],"loss_changes":[3.0132694E0,7.108121E-1,2.3328104E0,0E0,0E0,7.269198E-2,2.3364904E0,0E0,0E0,1.1259298E0,1.3028774E0,0E0,0E0,9.1150856E-1,0E0,0E0,0E0],"parents":[2147483647,0,0,1,1,2,2,5,5,6,6,9,9,10,10,13,13],"right_children":[2,4,6,-1,-1,8,10,-1,-1,12,14,-1,-1,16,-1,-1,-1],"split_conditions":[-1.3190018E-2,-2.2685791E-4,-2.0933822E-2,2.4319088E-2,-3.7945877E-4,1.1015717E-3,1.1558282E-2,3.2215002E-3,1.7634401E-2,5.6878686E-2,8.534778E-2,-2.8114475E-3,-3.7723318E-2,1.3904318E-3,-1.969868E-2,-4.9207173E-3,2.1562202E-2],"split_indices":[11,5,2,0,0,6,11,0,0,8,8,0,0,13,0,0,0],"split_type":[0,0,0,0,0,0,0,0,0,0,0,0,0,0,0,0,0],"sum_hessian":[1.46856985E1,4.1418643E0,1.0543835E1,2.724348E0,1.417516E0,2.0630336E0,8.480801E0,1.0180002E0,1.0450335E0,4.338392E0,4.1424093E0,1.2591647E0,3.0792267E0,3.1179674E0,1.0244417E0,1.6595452E0,1.4584222E0],"tree_param":{"num_deleted":"0","num_feature":"17","num_nodes":"17","size_leaf_vector":"1"}},{"base_weights":[3.1114684E-2,2.2316475E-1,-7.895064E-1,3.7495786E-1,-1.5754946E-2,-6.9108102E-3,-2.8644793E-2,1.3812378E-1,6.5167755E-1,5.5211383E-1,-4.0263164E-1,2.3256324E-2,8.470394E-3,1.3340088E-4,2.37619E-2,-1.63022E-3,-2.0030942E-2],"categories":[],"categories_nodes":[],"categories_segments":[],"categories_sizes":[],"default_left":[0,0,0,0,0,0,0,0,0,0,0,0,0,0,0,0,0],"id":63,"left_children":[1,3,5,7,-1,-1,-1,9,11,13,15,-1,-1,-1,-1,-1,-1],"loss_changes":[2.6354897E0,1.7218674E0,7.397616E-2,6.796783E-1,0E0,0E0,0E0,1.9230726E0,1.5960455E-2,6.1736166E-1,3.2123125E-1,0E0,0E0,0E0,0E0,0E0,0E0],"parents":[2147483647,0,0,1,1,2,2,3,3,7,7,8,8,9,9,10,10],"right_children":[2,4,6,8,-1,-1,-1,10,12,14,16,-1,-1,-1,-1,-1,-1],"split_conditions":[9.5362437E-1,1.786111E-2,8.1641346E-2,7.692565E-2,-1.5754946E-2,-6.9108102E-3,-2.8644793E-2,6.605491E-2,0E0,3.4240443E-2,7.175741E-1,2.3256324E-2,8.470394E-3,1.3340088E-4,2.37619E-2,-1.63022E-3,-2.0030942E-2],"split_indices":[14,9,8,8,0,0,0,8,6,8,14,0,0,0,0,0,0],"split_type":[0,0,0,0,0,0,0,0,0,0,0,0,0,0,0,0,0],"sum_hessian":[1.4604662E1,1.24249115E1,2.1797502E0,1.0744425E1,1.6804867E0,1.0435781E0,1.1361719E0,6.59724E0,4.147185E0,3.7246943E0,2.872546E0,2.2842078E0,1.862977E0,1.4450365E0,2.2796578E0,1.7621418E0,1.1104041E0],"tree_param":{"num_deleted":"0","num_feature":"17","num_nodes":"17","size_leaf_vector":"1"}},{"base_weights":[3.5548765E-2,2.350874E-2,-1.2498507E-1,3.943178E-1,-3.6571524E-1,2.3075942E-2,-5.934618E-3,-8.260657E-1,1.9284777E-1,-3.1955883E-2,1.334444E-4,2.1494368E-2,-2.3713696E-1,9.991812E-3,-2.082676E-2],"categories":[],"categories_nodes":[],"categories_segments":[],"categories_sizes":[],"default_left":[0,0,0,0,0,0,0,0,0,0,0,0,0,0,0],"id":64,"left_children":[1,-1,3,5,7,-1,-1,9,11,-1,-1,-1,13,-1,-1],"loss_changes":[2.0669968E0,0E0,1.9396071E0,1.2687496E0,2.8159523E0,0E0,0E0,1.1671643E0,1.403443E0,0E0,0E0,0E0,1.211103E0,0E0,0E0],"parents":[2147483647,0,0,2,2,3,3,4,4,7,7,8,8,12,12],"right_children":[2,-1,4,6,8,-1,-1,10,12,-1,-1,-1,14,-1,-1],"split_conditions":[-6.0666896E-2,2.350874E-2,-5.8505894E-3,-1.6244486E-3,-2.13548E-3,2.3075942E-2,-5.934618E-3,7.796202E-1,6.6268456E-1,-3.1955883E-2,1.334444E-4,2.1494368E-2,5.2614313E-2,9.991812E-3,-2.082676E-2],"split_indices":[10,0,11,5,10,0,0,15,15,0,0,0,10,0,0],"split_type":[0,0,0,0,0,0,0,0,0,0,0,0,0,0,0],"sum_hessian":[1.5396295E1,2.0344656E0,1.3361829E1,4.030098E0,9.331731E0,2.2846675E0,1.7454305E0,4.8530684E0,4.478662E0,3.5487106E0,1.3043578E0,1.7189962E0,2.759666E0,1.3486407E0,1.4110253E0],"tree_param":{"num_deleted":"0","num_feature":"17","num_nodes":"15","size_leaf_vector":"1"}},{"base_weights":[1.5878057E-1,2.400643E-2,-2.4156405E-2,4.991038E-1,-2.5098804E-1,2.3742322E-2,-7.216741E-3,-7.6022124E-1,4.241327E-1,2.4939578E-3,-3.251988E-2,-6.6214874E-3,2.4669498E-2],"categories":[],"categories_nodes":[],"categories_segments":[],"categories_sizes":[],"default_left":[0,0,0,0,0,0,0,0,0,0,0,0,0],"id":65,"left_children":[1,-1,3,5,7,-1,-1,9,11,-1,-1,-1,-1],"loss_changes":[1.8963006E0,0E0,1.7177353E0,1.1399493E0,3.7689266E0,0E0,0E0,1.7482843E0,1.4530818E0,0E0,0E0,0E0,0E0],"parents":[2147483647,0,0,2,2,3,3,4,4,7,7,8,8],"right_children":[2,-1,4,6,8,-1,-1,10,12,-1,-1,-1,-1],"split_conditions":[-2.1314513E-2,2.400643E-2,-1.3190018E-2,1.8355992E-2,1.1558282E-2,2.3742322E-2,-7.216741E-3,5.6878686E-2,-1.2374194E-2,2.4939578E-3,-3.251988E-2,-6.6214874E-3,2.4669498E-2],"split_indices":[2,0,11,9,11,0,0,8,13,0,0,0,0],"split_type":[0,0,0,0,0,0,0,0,0,0,0,0,0],"sum_hessian":[1.4995729E1,2.5789318E0,1.2416798E1,3.3919184E0,9.024879E0,2.381006E0,1.0109124E0,5.0726247E0,3.9522548E0,1.6133888E0,3.4592357E0,1.6789424E0,2.2733123E0],"tree_param":{"num_deleted":"0","num_feature":"17","num_nodes":"13","size_leaf_vector":"1"}},{"base_weights":[-1.891817E-2,5.490972E-1,-2.3708823E-1,2.449518E-2,-5.094463E-3,-7.214851E-1,1.3942157E-1,-9.7217995E-1,-2.2590356E-3,4.4571757E-1,-1.9335382E-2,-3.5918698E-2,-9.17917E-3,-7.62691E-3,7.502307E-1,6.7705037E-3,2.5334366E-2],"categories":[],"categories_nodes":[],"categories_segments":[],"categories_sizes":[],"default_left":[0,0,0,0,0,0,0,0,0,0,0,0,0,0,0,0,0],"id":66,"left_children":[1,3,5,-1,-1,7,9,11,-1,13,-1,-1,-1,-1,15,-1,-1],"loss_changes":[2.1208045E0,1.0535796E0,2.3446052E0,0E0,0E0,8.24734E-1,2.150819E0,2.1999621E-1,0E0,1.5062044E0,0E0,0E0,0E0,0E0,3.45459E-2,0E0,0E0],"parents":[2147483647,0,0,1,1,2,2,5,5,6,6,7,7,9,9,14,14],"right_children":[2,4,6,-1,-1,8,10,12,-1,14,-1,-1,-1,-1,16,-1,-1],"split_conditions":[-1.3557117E-2,-2.7063966E-3,-3.3082327E-1,2.449518E-2,-5.094463E-3,7.692565E-2,9.1227067E-1,-7.430255E-3,-2.2590356E-3,3.4240443E-2,-1.9335382E-2,-3.5918698E-2,-9.17917E-3,-7.62691E-3,-2.413967E-2,6.7705037E-3,2.5334366E-2],"split_indices":[11,4,16,0,0,8,15,4,0,8,0,0,0,0,1,0,0],"split_type":[0,0,0,0,0,0,0,0,0,0,0,0,0,0,0,0,0],"sum_hessian":[1.5063241E1,3.759191E0,1.13040495E1,2.6410623E0,1.1181288E0,4.543013E0,6.7610364E0,2.9096751E0,1.6333381E0,5.1717744E0,1.5892622E0,1.5789721E0,1.3307031E0,1.6179384E0,3.5538359E0,1.0583048E0,2.495531E0],"tree_param":{"num_deleted":"0","num_feature":"17","num_nodes":"17","size_leaf_vector":"1"}},{"base_weights":[-1.3167655E-1,3.301615E-1,-3.2583493E-1,2.3261018E-2,-2.3911145E-1,1.0887508E-1,-4.9396366E-1,8.866065E-3,-2.125498E-2,1.672912E-2,-1.890194E-2,-8.433704E-1,1.939697E-2,-3.6024522E-2,1.0404921E-3,1.917998E-2,-3.5944948E-1,-2.089237E-2,1.3309948E-3],"categories":[],"categories_nodes":[],"categories_segments":[],"categories_sizes":[],"default_left":[0,0,0,0,0,0,0,0,0,0,0,0,0,0,0,0,0,0,0],"id":67,"left_children":[1,3,5,-1,7,9,11,-1,-1,-1,-1,13,15,-1,-1,-1,17,-1,-1],"loss_changes":[1.6458716E0,1.5981393E0,9.7328556E-1,0E0,1.0150936E0,1.7865993E0,1.6760433E0,0E0,0E0,0E0,0E0,1.7766635E0,1.339462E0,0E0,0E0,0E0,5.1704067E-1,0E0,0E0],"parents":[2147483647,0,0,1,1,2,2,4,4,5,5,6,6,11,11,12,12,16,16],"right_children":[2,4,6,-1,8,10,12,-1,-1,-1,-1,14,16,-1,-1,-1,18,-1,-1],"split_conditions":[-1.3557117E-2,-1.6244486E-3,6.605491E-2,2.3261018E-2,1.0863917E-2,2.0483913E-2,1.1558282E-2,8.866065E-3,-2.125498E-2,1.672912E-2,-1.890194E-2,8.656904E-2,5.468639E-1,-3.6024522E-2,1.0404921E-3,1.917998E-2,1.41725E-3,-2.089237E-2,1.3309948E-3],"split_indices":[11,5,8,0,10,11,11,0,0,0,0,8,15,0,0,0,6,0,0],"split_type":[0,0,0,0,0,0,0,0,0,0,0,0,0,0,0,0,0,0,0],"sum_hessian":[1.6155104E1,4.574179E0,1.1580924E1,2.3636398E0,2.2105393E0,3.3281536E0,8.25277E0,1.2065845E0,1.003955E0,2.2232912E0,1.1048625E0,4.528032E0,3.7247393E0,2.9567692E0,1.5712625E0,1.152021E0,2.5727181E0,1.0074644E0,1.5652539E0],"tree_param":{"num_deleted":"0","num_feature":"17","num_nodes":"19","size_leaf_vector":"1"}},{"base_weights":[-7.646964E-2,1.9012276E-2,